{"layers":[{"out_depth":3,"out_sx":64,"out_sy":64,"layer_type":"input"},{"sx":5,"sy":5,"stride":1,"in_depth":3,"out_depth":32,"out_sx":64,"out_sy":64,"layer_type":"conv","l1_decay_mul":0,"l2_decay_mul":1,"pad":2,"filters":[{"sx":5,"sy":5,"depth":3,"w":{"0":0.2127529846915447,"1":0.057543352640023124,"2":-0.1577279612880382,"3":-0.03740027372973097,"4":-0.1753354279298952,"5":0.22760745307692953,"6":0.05705370019231118,"7":-0.008035237769743932,"8":0.03328598311371863,"9":0.08466968172784811,"10":0.18042378308531745,"11":0.12721463457906007,"12":-0.16886209180382042,"13":0.10580582465267008,"14":0.11268608238802467,"15":0.08776304586946088,"16":0.16586569828849837,"17":0.053765972219327704,"18":-0.1236873203443264,"19":0.05304154574451421,"20":0.05024476606631896,"21":0.1836614505455913,"22":0.011015176933425987,"23":0.05492993906091973,"24":0.016785701872107914,"25":0.07424446397121148,"26":0.0804177300443808,"27":-0.04585339428243908,"28":0.19469729653844803,"29":-0.014070000882991762,"30":-0.16559612669208998,"31":-0.05960715261886809,"32":-0.06715707690045074,"33":0.17073767288558575,"34":0.17433373040789218,"35":0.06090711470659402,"36":-0.023621360333468584,"37":-0.03197197613914265,"38":0.20048707953444564,"39":0.10271391178294575,"40":-0.08231203610350489,"41":0.07107773214856081,"42":-0.06077436385416821,"43":0.0807991666860433,"44":-0.017238821095214324,"45":0.16291292505070798,"46":0.0951486131366202,"47":0.003963328052899062,"48":0.06664161129136367,"49":-0.01727120930573592,"50":-0.013469542058844639,"51":0.047710282931087936,"52":0.11111631204843572,"53":0.12076526641139859,"54":0.12359735843890741,"55":-0.029079945172073362,"56":-0.05829742850940214,"57":-0.062311021485569794,"58":0.059392227881081915,"59":-0.25163213593729034,"60":-0.0022671297065678915,"61":-0.1873591517655532,"62":0.1160383310036652,"63":0.00842998470353335,"64":0.0021191396029801505,"65":0.19211913422466861,"66":0.026993325135251784,"67":0.09932897831060043,"68":-0.03644771509732703,"69":0.11146939870723578,"70":-0.12473822884045802,"71":0.0334238356349923,"72":-0.14059900011055207,"73":-0.1762869186564659,"74":0.1535521406961557}},{"sx":5,"sy":5,"depth":3,"w":{"0":-0.12749873758965358,"1":-0.22034526595352041,"2":-0.06444084541415522,"3":-0.07206484262629975,"4":-0.18564639189498114,"5":0.01610608273045283,"6":-0.09655748748805597,"7":0.020572014172528477,"8":0.011702058405469217,"9":-0.11870233149787492,"10":-0.25799049794203016,"11":0.11976785495249025,"12":-0.0821267697898816,"13":-0.1506968741643508,"14":-0.04545664775821899,"15":0.053516261609873286,"16":-0.04342082696358093,"17":-0.09156685944068148,"18":-0.24620400296237901,"19":0.04121777735713374,"20":0.07095976558800998,"21":0.08478775410182271,"22":0.09035377804132459,"23":0.02766820746491773,"24":-0.19499297165565505,"25":-0.012560349662810175,"26":-0.05634235053351856,"27":-0.20179934220211143,"28":-0.046503228486661725,"29":-0.038981696442458164,"30":-0.11366215636745171,"31":-0.06287593220765963,"32":0.006309255600211959,"33":0.024445287418181263,"34":-0.1510925004293473,"35":0.06123846665388189,"36":0.09497299755464995,"37":-0.14400461185596403,"38":-0.033343422955024765,"39":0.11170986171147082,"40":0.15665070759203217,"41":-0.03710791090152054,"42":-0.14940551731836807,"43":-0.304936345720254,"44":-0.2546540779671284,"45":0.20621092041393285,"46":-0.041529386553498644,"47":-0.012591931145672678,"48":0.011927418792354807,"49":-0.008386993225090766,"50":0.009770646246917241,"51":-0.2465057778273595,"52":0.048557820743982676,"53":-0.06106668177260578,"54":-0.08686637497154835,"55":-0.015356570170762947,"56":0.018193343758618856,"57":0.12334619892536414,"58":-0.22529694608208317,"59":0.026800549770624685,"60":0.05687915942942874,"61":-0.12821181017808292,"62":0.17280952138236824,"63":0.03326791260485106,"64":-0.10446334983768876,"65":-0.05021544560284234,"66":-0.15500375214908835,"67":-0.05631341892664831,"68":-0.015020630064970154,"69":-0.11537159926284137,"70":-0.07528245312321043,"71":0.022302408768993552,"72":0.020808501230154774,"73":0.025119843242418494,"74":-0.11385321491676365}},{"sx":5,"sy":5,"depth":3,"w":{"0":0.0377337686751665,"1":-0.05523707461552158,"2":-0.1149526898927394,"3":-0.03697213293014619,"4":-0.11352632542344679,"5":-0.06615407416336169,"6":0.09567077529282261,"7":-0.017333799561314502,"8":0.03455474176196785,"9":0.15481218035011757,"10":-0.10836060791336345,"11":-0.0910225814905717,"12":0.067702433873907,"13":0.13455296522266463,"14":-0.10472824569845493,"15":0.08619635443015657,"16":-0.013710236173975142,"17":-0.003043285640578265,"18":-0.16078297098032088,"19":-0.20249099243347315,"20":-0.1609297439765119,"21":-0.09457331558949571,"22":0.20502691732617517,"23":0.14966039217384325,"24":0.018757141006062274,"25":-0.2669877641168307,"26":-0.0798789463702658,"27":-0.09904473610414327,"28":-0.14700543385894632,"29":0.22935556329204335,"30":0.005189295296119666,"31":-0.06862532381136006,"32":0.0975128165651644,"33":-0.1455357372634323,"34":0.08423339084798595,"35":-0.07698018929000215,"36":0.053681496669728726,"37":-0.15885062683362,"38":-0.0700041452122087,"39":0.0023892373151708445,"40":-0.13639226028579007,"41":0.01829805064270744,"42":-0.13495442176200365,"43":-0.2535226343490763,"44":0.04298924675272101,"45":-0.13065464316433967,"46":0.15859459760738487,"47":-0.05519326673798988,"48":-0.08628532880903325,"49":0.016401234679794763,"50":-0.08489832464103608,"51":0.05136505323130175,"52":0.08171234681090049,"53":0.11041187691484564,"54":-0.08502712241738669,"55":0.041781828382223614,"56":-0.011352245848522097,"57":-0.13961880285176503,"58":-0.047641827283899034,"59":0.1423429207220074,"60":-0.07124947104121741,"61":-0.030933061451617477,"62":-0.11167624404440264,"63":0.01153481907545491,"64":0.055884927473050725,"65":-0.09572693097371492,"66":-0.05349909139422678,"67":-0.0033562715682906533,"68":0.009486503547258787,"69":-0.03619238512492248,"70":-0.08812763539071757,"71":-0.03708665932413057,"72":-0.04611468642920233,"73":0.022676261890615775,"74":-0.08554109816019681}},{"sx":5,"sy":5,"depth":3,"w":{"0":-0.024093196847448966,"1":0.09136361022809882,"2":-0.11608319403280933,"3":0.14104119554362052,"4":0.007893495104860525,"5":0.0008914957929884689,"6":0.05881716222752851,"7":-0.09238551087915528,"8":-0.302711893091119,"9":0.09124809746248107,"10":0.08261465468734058,"11":-0.05822174616944211,"12":0.06700018635061974,"13":0.06968198531717894,"14":-0.08796270543251619,"15":-0.07297348725989944,"16":0.056736622791480805,"17":-0.04825699487503062,"18":0.018554107485970604,"19":-0.11139258309975324,"20":-0.1363686827562851,"21":0.024976241881856518,"22":0.006745425980355684,"23":-0.028630689002171757,"24":-0.04726958629512512,"25":-0.016258892852244883,"26":0.09574942142546594,"27":-0.03715344892794496,"28":-0.14992485040986744,"29":-0.07340644144514225,"30":-0.08553683511334222,"31":-0.10899356141230554,"32":-0.06064691556410517,"33":-0.012275694600620998,"34":0.1005647797404878,"35":-0.17412932444634488,"36":-0.1462372482172972,"37":-0.08754562843770625,"38":0.07656866678006008,"39":-0.13830809909118516,"40":0.08712659052831342,"41":-0.13760755918742254,"42":0.06554942034290401,"43":-0.06213936416182277,"44":-0.011625500025178625,"45":-0.052187827702771625,"46":-0.02895273331892009,"47":-0.027119802615632526,"48":-0.05876109483867613,"49":-0.008274870398994556,"50":0.009663212583959958,"51":0.021571433160839478,"52":-0.11337658675001491,"53":0.055645017375494016,"54":0.17147478620255768,"55":0.009962178857012083,"56":0.0030220647162825134,"57":-0.04425238125512852,"58":-0.16646792516902834,"59":-0.046155484166713084,"60":0.013719579301911235,"61":0.10725208510666714,"62":0.04208681887512146,"63":0.03399106612915226,"64":-0.033105743525539306,"65":-0.048839496111803514,"66":-0.039667128441529136,"67":-0.17129556234825508,"68":-0.022680767455416927,"69":0.13956288018918,"70":0.016925459147451846,"71":-0.06314978907716794,"72":-0.04615923036978,"73":-0.051064938023894044,"74":-0.1338482271753239}},{"sx":5,"sy":5,"depth":3,"w":{"0":0.07649804222754907,"1":0.08942076290221052,"2":-0.1267484280866744,"3":-0.07265716344894697,"4":-0.09915180484183998,"5":-0.19161407848239198,"6":-0.056336263056946875,"7":-0.05140794256075469,"8":-0.008363227601648645,"9":-0.07151733711896872,"10":-0.056499564529901486,"11":-0.0784832441803348,"12":0.2328327681799763,"13":0.15174898307835388,"14":-0.00232539281461267,"15":-0.15871458656471177,"16":-0.043372035686626495,"17":0.0029387748016551874,"18":0.03696312095233547,"19":0.16429014163216843,"20":0.02939020326123716,"21":-0.1592408630842648,"22":0.1422700926490316,"23":0.028128476196453745,"24":-0.10463862845162579,"25":-0.02611178212380884,"26":-0.23537751026143236,"27":-0.2283373208379948,"28":0.1599624031171328,"29":0.07977481531437805,"30":0.03034776957152067,"31":0.04613268248097214,"32":-0.08280888706022738,"33":-0.06866430273190845,"34":0.10130392127357264,"35":0.018421691380332443,"36":-0.1255944979317055,"37":-0.10399225880512566,"38":0.10267911283048463,"39":0.06629286312523155,"40":0.36833734638772925,"41":0.09135403064005558,"42":0.11189080096480901,"43":0.004960991229295169,"44":0.24221690217854558,"45":-0.04177477576649895,"46":0.047924884977403805,"47":-0.005366220140474578,"48":0.013245645702897619,"49":0.07271827021666716,"50":-0.04614540209586931,"51":-0.055464478535411456,"52":0.11394224178042262,"53":-0.04116501412309654,"54":-0.16094446198072473,"55":-0.07274876667844019,"56":0.16260480731494512,"57":0.17632127523353738,"58":0.19161377597966098,"59":-0.17779509902137858,"60":-0.04430535063096329,"61":-0.028822095359152814,"62":-0.13137310358042528,"63":-0.18339359660735616,"64":0.04980960570998851,"65":-0.10774418196263437,"66":-0.22928089442337515,"67":-0.23557641320789724,"68":-0.18496216733226908,"69":-0.054999981634140015,"70":-0.11293862669191869,"71":0.09453978492233797,"72":0.05840208363851647,"73":0.01594171303332125,"74":0.22882960520759354}},{"sx":5,"sy":5,"depth":3,"w":{"0":0.02683768943892735,"1":0.06634287214401408,"2":0.06117217245576514,"3":0.06591053337769942,"4":0.0556297106833721,"5":0.15573030473542132,"6":-0.06068578866562875,"7":0.20445726419423912,"8":0.02053615748493842,"9":0.17645885855942617,"10":-0.13175632433851042,"11":0.037480765351668006,"12":-0.019525175189330588,"13":-0.010756246072752825,"14":-0.029936789625098475,"15":-0.0199431146805333,"16":0.1939937130994338,"17":0.05425419891990028,"18":0.007415548226628703,"19":0.19225684044306876,"20":-0.07789875430569673,"21":0.0018396401608960532,"22":0.11649290360010615,"23":-0.14184894690705693,"24":0.12251371869285149,"25":-0.11296463638455063,"26":-0.03952916474102999,"27":0.07136376908855853,"28":0.24733128955431866,"29":0.07301981318926261,"30":-0.22876685913981662,"31":0.05704382022329414,"32":0.022063683519517718,"33":0.3192143894051596,"34":0.054050397623737576,"35":0.005794111084271375,"36":-0.04447543858409548,"37":0.2574488356963222,"38":0.02800548145473461,"39":0.05727204740027051,"40":-0.025998955883097075,"41":0.1799395406420326,"42":0.08171742580909512,"43":0.0006615586821420283,"44":-0.08288693458922829,"45":0.2723136543176391,"46":-0.14481275216573433,"47":0.11291519114942901,"48":0.010905857936872387,"49":-0.16112116369751717,"50":0.08226873926960698,"51":0.08992820309703346,"52":0.06351003139024868,"53":0.11183260492438328,"54":-0.0007489747592866535,"55":-0.035999989078237433,"56":0.22424179243185577,"57":0.021694650386198232,"58":-0.0873062200917748,"59":-0.09129511349813021,"60":-0.1455404027093803,"61":0.1010068528433402,"62":0.058270999556623584,"63":0.1123256678317177,"64":0.22425348104731882,"65":-0.04188654143963504,"66":-0.15366417113811234,"67":0.03626601446802529,"68":0.09273542396681353,"69":-0.2371674980546502,"70":-0.05353012807328731,"71":-0.08248625521487717,"72":0.07069104569831851,"73":-0.03614238570039085,"74":0.04858875998357446}},{"sx":5,"sy":5,"depth":3,"w":{"0":0.024694767904721335,"1":-0.06662195730349636,"2":0.07910013792531591,"3":-0.24137513756952467,"4":-0.10979076676450565,"5":-0.2835041564866635,"6":0.09315678257385845,"7":-0.06491629323660317,"8":-0.1116968787408783,"9":-0.17318150620662703,"10":-0.1731273930151989,"11":-0.03517055361769323,"12":-0.13610334749868805,"13":-0.1412284564874633,"14":0.012945314001304128,"15":0.008652487716872222,"16":-0.006382586282590858,"17":-0.059257195128896385,"18":0.14212007734229956,"19":-0.16846496200409083,"20":-0.19194006456387078,"21":-0.19581173727153428,"22":-0.04642458034737726,"23":-0.3412196134294088,"24":0.002447697185767526,"25":-0.16201834248272717,"26":-0.12875408228345464,"27":-0.20011440289730012,"28":0.06541937576513018,"29":0.03762443835300093,"30":0.07234118247295576,"31":0.10128415641782236,"32":0.05218465448470173,"33":-0.10980064736395943,"34":-0.14285089888991584,"35":-0.09305637835007924,"36":-0.1582617257044597,"37":-0.017472958826150003,"38":-0.21847302035944569,"39":-0.05099246354125436,"40":-0.12452445738400007,"41":0.07430140156809621,"42":0.1736849451335457,"43":0.09906573613034331,"44":0.08220441312419731,"45":-0.057946161466160585,"46":0.026209304079402314,"47":0.06592045462060322,"48":-0.012400825360127573,"49":0.16237002212925386,"50":0.15029422027831682,"51":0.12618527950967764,"52":0.1273650752070918,"53":-0.06117467598357521,"54":0.04809766193376557,"55":-0.06590024089052361,"56":-0.03210634360106851,"57":0.16587783847390367,"58":0.2674128817347138,"59":-0.09550756240427187,"60":0.08615844320644905,"61":0.013862449945378911,"62":-0.03236773765346762,"63":0.017795297055330728,"64":-0.0036564514087294993,"65":0.06901899579783076,"66":0.1215197424291039,"67":0.11579762140369833,"68":-0.021345032880831,"69":0.04786840633167397,"70":-0.07997528463575448,"71":-0.09437071338074055,"72":0.06660165537446974,"73":-0.04129855697727171,"74":-0.012076722025937065}},{"sx":5,"sy":5,"depth":3,"w":{"0":-0.05553635979584234,"1":-0.008647575674267752,"2":-0.11678504967399991,"3":0.29425430653727724,"4":-0.14174567316736073,"5":-0.05849412149126525,"6":0.17983396470632773,"7":0.14207014708206872,"8":0.11144461373109063,"9":-0.005998560226270437,"10":-0.1397851241801827,"11":0.03246370455305662,"12":-0.0988433445865387,"13":0.1641062495378732,"14":-0.11063666450185458,"15":-0.1906657043123371,"16":-0.03249733804816152,"17":-0.09724991996017826,"18":0.034219589651024555,"19":-0.29676374764237246,"20":-0.20399873926268564,"21":0.06000243615269513,"22":0.2797130941487803,"23":0.1361090303264318,"24":-0.2352126988379917,"25":-0.00616592789482189,"26":0.026270251864095446,"27":-0.24337763102341023,"28":-0.22344559397667507,"29":0.034562313639883706,"30":0.011031687259719576,"31":-0.07560676113555997,"32":0.024207207419211833,"33":0.2529613915373746,"34":-0.147710057336632,"35":0.09009003364713304,"36":0.20444975970359502,"37":0.16749784482018074,"38":0.17580910887396656,"39":-0.03866882086774763,"40":-0.14683841777905504,"41":0.09596041083182293,"42":0.09761902409418546,"43":0.17594410097047639,"44":-0.15795690708279392,"45":0.10451926943912414,"46":-0.0020870421798010437,"47":-0.19457572323595196,"48":0.14610579752252717,"49":0.05292021024652183,"50":0.13365933355125145,"51":0.06042840671423716,"52":-0.21057548823832628,"53":0.025210159378124,"54":0.1678294677331232,"55":-0.10966697272558355,"56":-0.00037564220699522194,"57":-0.08699101286765734,"58":0.02215778683730635,"59":-0.02652479506091091,"60":-0.0735200050144395,"61":-0.08051302968951318,"62":0.05053242801799555,"63":-0.11362497979641313,"64":0.020080047647024552,"65":-0.04319300035303897,"66":-0.1474314046229353,"67":0.06698084150911175,"68":-0.13043581253715922,"69":-0.2489422647134924,"70":0.0023998788560243484,"71":-0.01658915320194673,"72":0.17845429714791183,"73":-0.0012169576548818396,"74":0.06643993750272625}},{"sx":5,"sy":5,"depth":3,"w":{"0":-0.1796229415506382,"1":-0.0620326522334783,"2":-0.049547097272495,"3":0.1564828543062424,"4":-0.03535514086309486,"5":0.1481844300152595,"6":-0.24873746693384088,"7":0.08873602095468973,"8":-0.19016544004314606,"9":-0.24991396203545002,"10":-0.09229097930791898,"11":-0.08889561207671522,"12":0.05019589664005923,"13":0.08630366448489613,"14":0.12041467378161631,"15":0.0211298079553171,"16":-0.04440946646583382,"17":0.026765164448937534,"18":-0.1420085584365436,"19":0.04752158900533798,"20":0.15798768452584577,"21":0.14377240605490457,"22":-0.09015525478115677,"23":-0.10925717429651696,"24":0.16333710107384106,"25":0.02885952990720238,"26":0.0529665830833671,"27":-0.06241795644000917,"28":0.22788640104174332,"29":0.18054352684295366,"30":0.039627578883291145,"31":0.04916788574789185,"32":0.15230728121579595,"33":0.25353022026473854,"34":0.006856327531216755,"35":0.08615314031673568,"36":-0.009832602956631051,"37":0.0010768923283676578,"38":0.013105081166765483,"39":0.09537183540666604,"40":0.09054315738380396,"41":0.06832983843258693,"42":-0.029847298491246486,"43":-0.034077435366503095,"44":-0.052666607285291926,"45":0.13597828723753508,"46":0.0027796378697904907,"47":-0.009788016202592984,"48":0.008620541417317273,"49":-0.18971772678305443,"50":-0.27039415320210436,"51":0.29672284682465017,"52":-0.015480134391626417,"53":-0.20478352084644288,"54":0.1635725414876964,"55":0.14835359856142558,"56":0.15295496979673953,"57":-0.004642762295406913,"58":0.12739223935396526,"59":-0.1829874300320345,"60":0.3000685848652694,"61":0.03847717185005614,"62":0.09890330223389546,"63":0.03361159011685802,"64":0.15116604957689225,"65":0.04225951073041272,"66":-0.02996096712126283,"67":0.08975797635966282,"68":0.0712395949992692,"69":-0.14771049829116775,"70":0.11987647167886407,"71":-0.047985119626921265,"72":0.14911807929406448,"73":-0.035413517083394526,"74":0.11171908340007293}},{"sx":5,"sy":5,"depth":3,"w":{"0":-0.04323420226834334,"1":0.008873430850927969,"2":-0.047906447029953766,"3":0.09811077466845022,"4":-0.010363992342225433,"5":-0.13735413116961578,"6":-0.06575943660406643,"7":-0.07502227899073748,"8":-0.09231967268370889,"9":0.02295108003795627,"10":0.06134906492660721,"11":-0.0799675628755759,"12":0.023362637222925666,"13":0.24064727358170707,"14":-0.032662898491195,"15":0.16498236384953507,"16":0.009330814163645824,"17":0.10355058101492043,"18":-0.08846924599049838,"19":-0.17380087474641628,"20":-0.02222731457925539,"21":0.0038126857389484924,"22":-0.26529421087510774,"23":-0.31509113468180044,"24":0.3074120040877469,"25":-0.18036986992811266,"26":-0.05127175808838145,"27":0.03629244647213491,"28":0.22696682729227916,"29":0.15098939588517313,"30":-0.0007582390828826211,"31":-0.15049537715451144,"32":0.05493869183178468,"33":-0.21516973788152524,"34":0.16834898993545666,"35":0.018484597150538948,"36":0.018340389975595697,"37":-0.010998506855556794,"38":-0.14465230828962258,"39":-0.10884326389072373,"40":-0.06954016108530056,"41":0.023353771279625304,"42":0.09165615535244157,"43":-0.056289045300899156,"44":0.061051799509669706,"45":-0.020296600068233518,"46":0.039000840400360365,"47":-0.25107024985986653,"48":-0.07512893546617988,"49":-0.12009899918159075,"50":-0.05947750518557229,"51":0.025147817631628103,"52":0.22966723660012728,"53":-0.03488769963346615,"54":0.12260770119054193,"55":0.04221372521018085,"56":0.13798583992419355,"57":0.23950347117045662,"58":0.22857980377360243,"59":0.06322753113038332,"60":-0.11788183822726553,"61":-0.12280194587715103,"62":0.10672997142358703,"63":0.18326836204036961,"64":-0.02621380127171784,"65":-0.0253880725043676,"66":0.015630569877297537,"67":-0.07419795793523885,"68":-0.08556625692774769,"69":-0.05761478040778456,"70":0.12196970982716081,"71":0.07719256404310604,"72":-0.05684225943521709,"73":0.2253189114596706,"74":0.0769989287543096}},{"sx":5,"sy":5,"depth":3,"w":{"0":0.20551989215818597,"1":0.1276716026099301,"2":0.11724715619806199,"3":-0.04480159017760887,"4":-0.03931316458925617,"5":0.1999137017443496,"6":0.08312556227440587,"7":-0.02938248719728939,"8":-0.22332248819549694,"9":-0.09954452787791622,"10":-0.09562239856907533,"11":0.14756770042441078,"12":0.1571097031317124,"13":-0.09556834633404739,"14":-0.19941267181433425,"15":-0.053732918007959714,"16":-0.07631713619489827,"17":-0.07811966954114202,"18":0.02441247939978403,"19":0.21771567447812218,"20":-0.08258377381095947,"21":0.04407489537162677,"22":-0.027677575551968182,"23":0.014702540521700478,"24":-0.06022174681991022,"25":0.032858587504306404,"26":0.049971459681931917,"27":0.07375416299321653,"28":0.06962060656197848,"29":-0.13732175520281364,"30":-0.23641658406475907,"31":0.034871750627124165,"32":0.03481972926894033,"33":0.16710234049756617,"34":-0.1602558148744637,"35":0.08330957296866144,"36":0.045314997458573356,"37":-0.025461610079627644,"38":0.022239874608148396,"39":-0.18677739132682916,"40":0.15608361254791167,"41":0.2411772250591164,"42":0.09551098822926819,"43":0.010044563047660231,"44":0.017574313063090825,"45":0.014852992661679073,"46":0.16184691042822918,"47":-0.14943698692507737,"48":0.01597381332022591,"49":0.20289914468260378,"50":0.08763989133200012,"51":0.015006884628351948,"52":0.03981105579508696,"53":0.027555526343385043,"54":0.19787289878014291,"55":-0.21865720342504955,"56":0.0680146537508587,"57":-0.06475898939492077,"58":0.06059993066970052,"59":0.25015310675271846,"60":0.11431206808747675,"61":-0.031943867507853344,"62":-0.01097351164278701,"63":-0.2035393938610288,"64":-0.1815351729003572,"65":0.025302154874520578,"66":-0.03841631043295736,"67":-0.175067083706173,"68":0.08222276712593539,"69":-0.1173722066729258,"70":-0.030715240963615692,"71":-0.22014140929550993,"72":0.14436747310993658,"73":-0.03512002399910703,"74":-0.2562681322801314}},{"sx":5,"sy":5,"depth":3,"w":{"0":-0.08592062197623147,"1":-0.07628196177586379,"2":0.047106007068238094,"3":0.06474500891364748,"4":-0.006290569456012077,"5":0.02512501756696507,"6":-0.09418305134808709,"7":-0.08291932389258648,"8":-0.07366148907958094,"9":0.013471077232338242,"10":-0.0404173728423529,"11":0.040559087781891955,"12":0.025077343595853167,"13":0.03522623070217308,"14":-0.14709086091996845,"15":-0.13282081813359384,"16":-0.015707967323545655,"17":0.10200719991595962,"18":0.14921635026359195,"19":-0.142004490089596,"20":0.027034603098632367,"21":0.048680614304658455,"22":-0.01118879041976122,"23":-0.01814024487701525,"24":0.061072606901084014,"25":0.11643723075572104,"26":0.11267920249111243,"27":0.1458065532514531,"28":0.15795804799982585,"29":-0.15442216585096352,"30":-0.15905741944815838,"31":0.04917978784633515,"32":0.0032988160080298723,"33":0.07329124554183723,"34":-0.02325469973779261,"35":-0.09857072535654993,"36":-0.010564991132257997,"37":0.004963451987405229,"38":0.010764903046734109,"39":-0.09998230923413029,"40":-0.06738367241886316,"41":0.06320862799575896,"42":-0.060181663450478325,"43":-0.031292140749305475,"44":0.07544897139323312,"45":0.1283841593767352,"46":0.17709332301587488,"47":-0.05328040408937287,"48":-0.007680798233431848,"49":-0.008610240354841626,"50":0.003045392664601552,"51":-0.05712476952636042,"52":-0.1744624785774874,"53":-0.07419222910305884,"54":-0.043418256046096816,"55":0.1195884325596963,"56":0.06453544106338346,"57":0.2803715883346144,"58":-0.1643414817572365,"59":-0.0018858150207580922,"60":0.03432736194619122,"61":-0.06770812775714541,"62":0.0053762790609843125,"63":0.025001973851030798,"64":-0.008817960917735589,"65":-0.22884411685964487,"66":0.1566800056765953,"67":-0.24974874288867965,"68":-0.1000871624519168,"69":0.0829535025126085,"70":0.16516032949540674,"71":0.028369109204345745,"72":0.12266163954257536,"73":0.06294655005530692,"74":0.09963230933598156}},{"sx":5,"sy":5,"depth":3,"w":{"0":-0.0638163404970974,"1":-0.09201724726068965,"2":0.1989027687207644,"3":0.21935459278740702,"4":-0.11604434301894977,"5":0.04444564979153083,"6":0.027356883243280717,"7":0.11522991222246406,"8":-0.15227224751898802,"9":-0.09575497657978735,"10":-0.1479223930247915,"11":0.08629423675321611,"12":0.09469199479330291,"13":0.18710771814033236,"14":0.03399215126998304,"15":-0.014915738928726704,"16":0.22156823245655458,"17":0.047584843461845286,"18":0.01017276240847311,"19":0.09675217117469447,"20":0.13497843484110275,"21":-0.07447622414717117,"22":0.1525010780794165,"23":-0.0862844785399673,"24":-0.0074028644470163964,"25":0.10417146839261242,"26":-0.1388450541521898,"27":0.049956495240026405,"28":-0.11128613617530718,"29":0.011269003751362097,"30":-0.006906781089464636,"31":-0.04153396583641157,"32":-0.02343334786599163,"33":-0.14780304115476178,"34":0.08241550302558877,"35":-0.0409123385027904,"36":-0.1647060432628357,"37":-0.08624408960302964,"38":-0.023430818395145936,"39":0.2718062003527595,"40":0.06220177727280634,"41":-0.02450710931889335,"42":0.03729030236597961,"43":-0.026507435093344883,"44":0.06246785578426712,"45":0.05770997436656818,"46":-0.05817932688205758,"47":0.011463798077802947,"48":0.045193361135870184,"49":0.005492979005084371,"50":-0.10343460402846262,"51":-0.05161546280377138,"52":-0.08449261242345289,"53":0.11863305349456749,"54":-0.010392172256318468,"55":0.2641845211117929,"56":-0.04594493915313602,"57":0.014103541169467836,"58":-0.005261081560318316,"59":-0.20708765548441807,"60":-0.06643190573927209,"61":-0.1959756749399065,"62":0.09243340640510773,"63":-0.06874295240665232,"64":0.04150033618142529,"65":-0.027363328376503387,"66":-0.09369490529106046,"67":-0.04196522954270111,"68":0.02716764259308363,"69":-0.2183190362290972,"70":0.15847187202443214,"71":-0.2842222586297318,"72":0.03753681247353621,"73":-0.12033148139267506,"74":-0.12225266369224787}},{"sx":5,"sy":5,"depth":3,"w":{"0":0.0036105888488348345,"1":-0.0406256564835812,"2":-0.19137868799658375,"3":-0.1269471222811609,"4":0.05764909249638801,"5":-0.06955316729789175,"6":0.21069001950786292,"7":0.04820684232244725,"8":-0.032652736470358226,"9":0.02314592460278605,"10":-0.22586465020775462,"11":0.01587166918756335,"12":0.02855424201319108,"13":-0.0992616190314041,"14":-0.0914093707608644,"15":0.12255307005700646,"16":0.007351891292868375,"17":0.012628518365120472,"18":-0.035637429346810336,"19":-0.07157976902503103,"20":0.14749041168888846,"21":0.10017822454233898,"22":-0.016618959209001062,"23":-0.04435000739510784,"24":0.08705157606188474,"25":0.10476524038365465,"26":-0.1447766684944103,"27":-0.035831385561347254,"28":0.06423311645063207,"29":0.05082654467793071,"30":-0.16569926259996862,"31":0.10166494612341148,"32":0.10780844945595226,"33":-0.3104173132288225,"34":0.0007819138378067259,"35":-0.12925252713245652,"36":0.04106321250305544,"37":-0.03685790280517161,"38":0.27087929500985847,"39":0.1822662382823464,"40":-0.14205124755700957,"41":0.011891504270664526,"42":0.019651043882572727,"43":0.11924239121614919,"44":-0.037217047503369224,"45":-0.18957270821663894,"46":-0.05665511281704782,"47":0.11021901460820001,"48":0.04082478277626894,"49":0.04459174185972575,"50":-0.12307622776834819,"51":0.02220020915276605,"52":0.09091304804980513,"53":-0.09155132581549563,"54":-0.03209251802560119,"55":-0.009961554780968919,"56":0.2219099120621133,"57":-0.020640904475880444,"58":-0.03831324032487047,"59":0.03705866488170435,"60":0.10300665359713032,"61":0.022614677904890596,"62":0.04302533148325488,"63":-0.09719875392616968,"64":0.10360891967711583,"65":0.06587730655377239,"66":-0.25505302430357407,"67":0.06782248404350369,"68":0.13700017114083243,"69":0.07637794824617074,"70":0.09504678189725817,"71":-0.012594472332057571,"72":-0.03158490110713534,"73":0.006803684651891898,"74":-0.02792667615744877}},{"sx":5,"sy":5,"depth":3,"w":{"0":-0.04348712594829822,"1":-0.1737225356380384,"2":-0.07547878152355394,"3":0.09493320210474016,"4":0.11397293850437822,"5":0.055295696757028466,"6":0.12014796164539665,"7":0.06294953221616158,"8":-0.0017356342435570784,"9":0.021211721131073728,"10":0.2548420557530308,"11":0.07076041690876225,"12":0.023084349849950787,"13":-0.059683644477691665,"14":0.0058109694917486835,"15":-0.018080883476941683,"16":0.09548056012939303,"17":-0.04361370198752222,"18":0.02045269664885661,"19":0.08566062730434316,"20":0.0033422623923435634,"21":0.14216241354288633,"22":-0.03762707232942771,"23":0.1568644272367557,"24":-0.05796328671907642,"25":0.11985943916244292,"26":0.05920310879364594,"27":0.05686067274496399,"28":-0.11038484543195533,"29":0.24411645591354425,"30":0.32244763020155276,"31":0.020554534165117017,"32":-0.06957390159554676,"33":-0.0387093694191224,"34":0.08239698791052302,"35":0.0007902476629134507,"36":0.2523071890304471,"37":-0.01025167806882838,"38":-0.021124741551776533,"39":0.05898372617525324,"40":-0.008792936903783617,"41":-0.06342506621668416,"42":-0.32416160565426017,"43":-0.11822677235959217,"44":-0.11967080306254012,"45":0.032121490752524406,"46":0.048637436066600585,"47":-0.016150812195835373,"48":-0.039086111299834095,"49":-0.020298730795844103,"50":0.2677054065955751,"51":-0.010440566801084877,"52":0.15251985081937391,"53":0.16374484572464004,"54":0.06739820885070183,"55":0.0025087066716981137,"56":-0.0009930706412362349,"57":-0.20215876858984994,"58":-0.15071344576192275,"59":0.018933850543334116,"60":0.09881117091247237,"61":-0.006174046009375098,"62":-0.2828065314939458,"63":0.03909412353546554,"64":-0.1880077494787209,"65":-0.21370025140964696,"66":-0.05726897929037755,"67":-0.07614460760930256,"68":0.05341636891404334,"69":-0.09997696731374772,"70":-0.09577785360261742,"71":0.00578067196750162,"72":0.03720669266332176,"73":-0.33341041240278646,"74":-0.0722292330041003}},{"sx":5,"sy":5,"depth":3,"w":{"0":0.02044583608320472,"1":-0.10718881420168068,"2":0.029515392479156313,"3":-0.13437273556487433,"4":0.1826116869859009,"5":-0.11318517553768007,"6":0.19672503505760822,"7":0.19161857842563945,"8":-0.27068838437865933,"9":0.08598726846085496,"10":-0.06179574151293998,"11":0.028872485731673364,"12":0.08112511917867618,"13":-0.25414140098631116,"14":-0.06441536109140485,"15":0.0871359932523323,"16":0.022336311793924344,"17":-0.07982558826762143,"18":0.1015394941850745,"19":0.21208809352258742,"20":0.05884957921220358,"21":0.28575147147489666,"22":-0.014270904019906893,"23":-0.008116722741686844,"24":0.11517901216566351,"25":0.08939926244410552,"26":-0.004313994356041862,"27":-0.11826858884200471,"28":-0.15257139020041233,"29":-0.0327550838141915,"30":-0.01772252510352555,"31":0.25591977949415956,"32":-0.06095276389683932,"33":0.08435031712831811,"34":-0.11811879834946869,"35":0.13248214384636883,"36":-0.10795501011514237,"37":0.03616002411123157,"38":-0.0033970725526558418,"39":0.07412089153442414,"40":-0.008120649530805251,"41":-0.04502455485099581,"42":-0.08584235409810209,"43":0.1080299122218819,"44":-0.1301009989835545,"45":-0.014982198906940188,"46":-0.11695386615475292,"47":-0.07256602449945014,"48":0.05113652064779803,"49":-0.2417596674877972,"50":0.1872420243146741,"51":0.036185105784166526,"52":0.07625477223420613,"53":0.00011973346207480644,"54":-0.03768089594736379,"55":-0.16293866987241293,"56":0.03821432137754577,"57":0.015903704090603512,"58":-0.08316636761600292,"59":0.06941700097119223,"60":-0.0783125710444315,"61":-0.20024822141721024,"62":-0.050277242216190995,"63":0.049844276466556196,"64":0.06099737758109735,"65":0.0041117300422084425,"66":0.15143623163065975,"67":0.2333972796059717,"68":-0.13320442123651619,"69":0.10480624513915814,"70":-0.11025738451376625,"71":-0.07874059318309955,"72":0.008950800298436102,"73":-0.01049587122464094,"74":0.0362327133014736}},{"sx":5,"sy":5,"depth":3,"w":{"0":0.18918422384253913,"1":-0.005589063457353098,"2":-0.04643533519393455,"3":-0.10654203562858601,"4":0.07155443128498418,"5":0.01075289322815252,"6":-0.08187837506429095,"7":0.2255061396415988,"8":-0.2617303231931134,"9":-0.0959652017117528,"10":-0.07889918075776638,"11":-0.21419767545410204,"12":-0.14163365383979531,"13":0.08145753123635904,"14":0.03186237999145866,"15":0.17585103938919888,"16":-0.09454824664186075,"17":0.017531559800212454,"18":0.2000124996673538,"19":-0.003998649503413941,"20":-0.08477419570800017,"21":-0.05031506049374858,"22":0.03351091287850162,"23":0.026517027623024554,"24":-0.10438947268294102,"25":-0.13820445423935251,"26":-0.12079622810126324,"27":-0.02841337143250275,"28":-0.13443269037797942,"29":-0.12681430701248927,"30":0.002762902296171333,"31":0.10229319470371087,"32":-0.10760976543205902,"33":-0.025054648681356956,"34":0.10299824858127912,"35":-0.06572697263630385,"36":0.17520820112603794,"37":-0.05863304932265706,"38":-0.05933200234203537,"39":-0.194344140425803,"40":-0.0375977697011681,"41":-0.028703548386201684,"42":0.10209905822805562,"43":-0.04957328812505268,"44":0.0031284296737365555,"45":0.19822873511997166,"46":0.16889210905462226,"47":-0.03280069952153839,"48":0.06623879907138913,"49":0.07116345359727486,"50":0.0996292032580318,"51":0.1779509320187022,"52":0.13239236417414338,"53":0.196961494284313,"54":-0.09244260203565247,"55":-0.11163495151413752,"56":0.12455935815092485,"57":0.07566889531283874,"58":0.18401219661995263,"59":-0.16867528592310574,"60":0.03166252482535517,"61":-0.0011613227694424536,"62":0.2768622200720057,"63":0.07830757243927662,"64":0.006924824442637554,"65":0.015416698576653511,"66":-0.013708312760309772,"67":0.006872717705694154,"68":-0.13807496799367247,"69":0.09296250224577243,"70":0.18683432092390712,"71":0.10787503222907754,"72":0.06573215689116148,"73":-0.12492369054598103,"74":-0.05701447268199502}},{"sx":5,"sy":5,"depth":3,"w":{"0":0.2013875089341499,"1":-0.039320752014749334,"2":-0.03200004522986203,"3":0.15730253680443848,"4":-0.01749477658944283,"5":-0.027709513710409115,"6":-0.028460515877562362,"7":0.08346996463701989,"8":0.13858604585517018,"9":0.15766265064210044,"10":-0.10933842556445589,"11":-0.0020688334484841343,"12":-0.028034166065328006,"13":-0.16719960104967563,"14":0.06701940850636588,"15":0.003160600863307313,"16":0.1468122778150443,"17":-0.04934704445730713,"18":0.09409231730269436,"19":0.040319811807475764,"20":-0.052255297010245165,"21":-0.0759829397905554,"22":0.06468175677476755,"23":0.03418775767993267,"24":-0.15208760231468785,"25":-0.11949496097047337,"26":-0.06765881253916642,"27":0.13104651712136858,"28":0.0480659816343761,"29":-0.08580543921681119,"30":0.06834561859688318,"31":-0.01907775855933609,"32":-0.07505744291523463,"33":0.25536590087439986,"34":-0.01268461781406104,"35":-0.03461537420851108,"36":0.3526691177235799,"37":0.22557373330213157,"38":-0.11447083005566633,"39":-0.10456706453073432,"40":-0.045471893969953436,"41":-0.1108757396185003,"42":0.051543444183245364,"43":-0.09626682025630151,"44":0.13309985955997838,"45":-0.03447294323837287,"46":-0.02695736492974801,"47":0.11736904528480548,"48":0.1565736771555682,"49":0.11541298692863826,"50":0.021109297463400466,"51":-0.0827522419822363,"52":-0.02972935772085356,"53":0.14899039873202807,"54":-0.04263646277100892,"55":0.04469314241962969,"56":-0.04449077449900742,"57":0.0028162800903359176,"58":-0.010634866973989514,"59":0.01818073583530943,"60":0.06356122383515532,"61":-0.0344674128763003,"62":0.0900508110403195,"63":-0.03557699888377197,"64":-0.05308848193168752,"65":0.17213606249311642,"66":0.08325226841642232,"67":0.18327814001380238,"68":-0.03630550816695658,"69":0.27682461144525977,"70":-0.0734078581161947,"71":0.05764309948789097,"72":-0.10817050984604147,"73":0.1980868396771928,"74":0.2072222774321885}},{"sx":5,"sy":5,"depth":3,"w":{"0":-0.17404822170644152,"1":-0.17783214374378994,"2":-0.1906648627606581,"3":-0.2120076263097579,"4":0.012751387539018133,"5":0.07326310146449655,"6":0.02674132677316454,"7":-0.0878782113393636,"8":-0.10207232930399718,"9":0.08447245502162759,"10":-0.19597111343656082,"11":0.011580455990824391,"12":-0.051074348026843124,"13":-0.019939910718122945,"14":-0.14328461544948146,"15":0.011279489686908032,"16":-0.28032175107463675,"17":-0.05246652817744847,"18":-0.07520007176760635,"19":-0.08485046669532455,"20":-0.1501965980177535,"21":0.2494306329627035,"22":0.08282870207635477,"23":-0.18205502365155188,"24":-0.1829696701315182,"25":-0.05226552899219266,"26":-0.09044250794779776,"27":-0.06440443717447308,"28":0.09430678461966195,"29":0.029156080696470462,"30":-0.09307683776538492,"31":-0.19431430524975193,"32":-0.1293448293968026,"33":-0.06928909225446454,"34":-0.02412969057777747,"35":-0.014604977326046608,"36":0.02306098119663982,"37":-0.2752888661916969,"38":-0.29440885680783874,"39":-0.051891128239106105,"40":-0.04182476945043193,"41":-0.007031207608085862,"42":-0.11763605652672977,"43":-0.02485765333886948,"44":-0.1398196857029524,"45":-0.1595478590741136,"46":0.06126060365883643,"47":-0.330441469775917,"48":-0.03466124889926483,"49":-0.090824547646055,"50":-0.2160836258169013,"51":-0.034738084473891616,"52":-0.18010205989644446,"53":-0.11650203914931734,"54":0.057566106456005184,"55":-0.023805729288546816,"56":0.04136018044610636,"57":0.0515375428995813,"58":0.10931936864043121,"59":0.02362704366221557,"60":0.19319194177125276,"61":-0.2849048985631553,"62":0.013427663113928956,"63":-0.00961526105472141,"64":-0.08113291755178234,"65":0.059261858799504366,"66":-0.07183058767997191,"67":-0.08226745927748393,"68":0.005123245794800844,"69":-0.23454272787049374,"70":0.07501302926968229,"71":-0.16358176254855725,"72":-0.23195089409168695,"73":0.04643807270505817,"74":-0.007465223707764079}},{"sx":5,"sy":5,"depth":3,"w":{"0":0.008809992290388449,"1":0.05008423188493435,"2":-0.10175144233115906,"3":-0.15444496816299833,"4":0.07001452078869391,"5":-0.07312177748489679,"6":-0.036427538439664835,"7":-0.0777357585375441,"8":-0.1869441031925159,"9":0.018975416102391663,"10":-0.010220168014136397,"11":-0.1964968323954192,"12":0.0420436836258543,"13":-0.181544086256444,"14":0.20561856511743165,"15":0.1790044790590539,"16":-0.13508652267345966,"17":0.06291521763508366,"18":-0.05507564540618524,"19":-0.10707566191252348,"20":-0.13300499026086463,"21":0.055314122166812946,"22":-0.009407366116687587,"23":-0.13174519493858386,"24":-0.04133447763111775,"25":-0.12488696257011882,"26":0.0599523366403195,"27":-0.08625486578528739,"28":-0.08945066502243924,"29":-0.13886858743786978,"30":0.0683593495911972,"31":-0.053625149071475565,"32":-0.0648620275720554,"33":-0.05927567771724018,"34":0.048012645102713324,"35":-0.200763129887205,"36":0.008693870376018282,"37":-0.05717713954444067,"38":-0.0750405836146967,"39":-0.13399629938653104,"40":-0.23230708521715687,"41":-0.07895657702801535,"42":0.20544641230909166,"43":0.07012149431464766,"44":0.051984908063435545,"45":-0.03263461039875577,"46":0.06466328193195704,"47":0.046163224839403334,"48":-0.08324373510284953,"49":-0.09877194101766686,"50":-0.2666019031632703,"51":-0.06959005428898271,"52":0.07328551267517217,"53":-0.09321250007939567,"54":0.10313874207698277,"55":-0.02262513607468312,"56":0.1645437338545916,"57":-0.05832043724784706,"58":-0.31908222326776614,"59":0.09181781287945678,"60":0.04921804392137725,"61":-0.012394966044627333,"62":0.19716822059267022,"63":0.007350325064214802,"64":0.10633248558259739,"65":-0.1142695722928682,"66":-0.016659633315881252,"67":0.07584274847657446,"68":-0.062178068489506674,"69":-0.06041122893273233,"70":0.03045590100904359,"71":-0.31249902681647335,"72":0.06630475395609915,"73":-0.20671642940085344,"74":-0.061021165173700063}},{"sx":5,"sy":5,"depth":3,"w":{"0":0.167278784072737,"1":-0.24366517778556174,"2":0.07560515941711952,"3":-0.006275621477708245,"4":0.08024816177749833,"5":-0.1043802944719749,"6":-0.04283339421189131,"7":0.1629493179607265,"8":0.14068089513802182,"9":-0.012290628232895671,"10":-0.1494721858318818,"11":0.004018713027779307,"12":0.085071995110485,"13":-0.3301383822543113,"14":-0.002818868589524917,"15":-0.06923957746982648,"16":-0.031048959842935334,"17":0.03329045452017304,"18":-0.06050443921076861,"19":0.06274579128884374,"20":0.004078394684653323,"21":-0.20900509217504196,"22":-0.16618716973459988,"23":-0.274527780842513,"24":0.01791539597871037,"25":-0.08327816271340818,"26":-0.18008062386868606,"27":-0.0242145034729863,"28":-0.030097863417411573,"29":-0.15282105432219648,"30":-0.15695649468862016,"31":0.09203251861665301,"32":-0.13486588436456337,"33":0.043232694166484,"34":0.11557561597991957,"35":-0.02211936232429814,"36":0.0843152222903559,"37":0.019920470446695353,"38":-0.06449234232643737,"39":0.011965523247793495,"40":0.01892941264962904,"41":-0.07745316228348072,"42":0.0211390337277517,"43":0.019880123008552644,"44":0.18779955282900213,"45":0.0277804676857132,"46":0.10727661571151126,"47":-0.03543496813894332,"48":0.0437727285340476,"49":-0.07228848424380363,"50":0.15501178574320065,"51":0.214124497164899,"52":-0.058384448814428835,"53":-0.10978499951278842,"54":0.1841033687097249,"55":0.016415019337082042,"56":-0.035483207536528914,"57":0.11010789878777189,"58":-0.022111010528433776,"59":-0.22523979041682538,"60":-0.070676786845857,"61":0.24253219013668134,"62":0.007374722183873867,"63":-0.04871322306199602,"64":-0.11427766172378584,"65":-0.0865253991146585,"66":0.2616980640549621,"67":0.04768887031285221,"68":0.029203349424566254,"69":0.05021566044218859,"70":0.01727504724853033,"71":0.22511712507691906,"72":0.20769352035358352,"73":0.18408619997609116,"74":0.09142341101600053}},{"sx":5,"sy":5,"depth":3,"w":{"0":-0.010802865329143482,"1":0.16585599653080518,"2":-0.007738150777696648,"3":0.03426616812872067,"4":0.13518668175469542,"5":-0.23291457030413037,"6":0.10245405937559117,"7":-0.06935819690327516,"8":-0.052584684025557465,"9":-0.1988198509827388,"10":0.0028134514889709143,"11":0.022347637177785012,"12":-0.19703448119357597,"13":-0.21403669978089104,"14":0.01635909246572923,"15":-0.1808412697326097,"16":0.09419201931951465,"17":-0.16255202037346525,"18":0.04157273675908695,"19":0.12878661301079844,"20":-0.143904235598553,"21":-0.15402430945979056,"22":0.10601584581463512,"23":-0.11847740030757718,"24":0.241761545243813,"25":0.13889377340633152,"26":0.19502865186508736,"27":-0.1222232600034626,"28":0.10898569342564962,"29":0.04841491461740404,"30":-0.3026157397504075,"31":-0.10575584341779115,"32":0.039962576028212814,"33":0.05976015539608669,"34":-0.16544616080876037,"35":0.12341110749706545,"36":0.12307847880345532,"37":-0.09082171389668503,"38":0.05598113210234518,"39":-0.005023452289234518,"40":0.23937760942494538,"41":0.041516563768594354,"42":-0.09687614788354057,"43":-0.07972239950870773,"44":0.03887830755492751,"45":-0.03377066664476788,"46":-0.04444979231347423,"47":0.010711239529571145,"48":-0.22581453388852188,"49":0.06739389057327741,"50":0.1903180578865921,"51":0.12038195714115567,"52":0.21831881340228157,"53":-0.07841212559577003,"54":0.01959117830312974,"55":0.0009295156692567167,"56":0.12310325413271232,"57":0.11341794765852921,"58":0.06635683172236262,"59":-0.1329223257072151,"60":0.02288052904627365,"61":0.13965621272734094,"62":0.06264824319676428,"63":0.05955361026590301,"64":0.04520644402767492,"65":-0.028865700973851573,"66":-0.11091153528067589,"67":-0.0319319573324056,"68":-0.02143088318405802,"69":0.045762872977797936,"70":-0.11329558582200219,"71":0.12688542293591049,"72":0.01472200799109341,"73":0.03639306687415836,"74":-0.031042413550330442}},{"sx":5,"sy":5,"depth":3,"w":{"0":-0.06986099674572716,"1":0.09475679628676843,"2":-0.022177751375653473,"3":0.18072989649709037,"4":-0.11693883162487609,"5":-0.007613078257987818,"6":0.041106294894760406,"7":0.05540560040066516,"8":-0.016834175903869437,"9":0.14329708853747955,"10":-0.04881744724882766,"11":0.06017177074082637,"12":0.036305383876417,"13":-0.05115059019706848,"14":-0.04528205083303502,"15":0.18843110696441392,"16":-0.008283785655653594,"17":-0.09983401095162829,"18":-0.07891834563514541,"19":-0.15963496006383443,"20":0.12234833637883874,"21":-0.0034229002138739125,"22":-0.2159322661116203,"23":-0.16262489852626347,"24":0.107243871492538,"25":-0.13472354920706017,"26":0.15256959581926752,"27":0.12062820667606879,"28":-0.22432909060658332,"29":-0.039177122473660946,"30":-0.03799259585616688,"31":0.002131768873857261,"32":0.1442810255718458,"33":0.016627506493925612,"34":0.01723228732352377,"35":-0.18453342692130276,"36":-0.07543361689018065,"37":-0.014532810689665597,"38":0.13207544298457663,"39":0.11003266198665584,"40":0.03823173107979741,"41":0.007410383380839668,"42":0.11169960100150259,"43":0.06720698225014736,"44":-0.21391638627513135,"45":-0.13399094564784983,"46":-0.09709858059925236,"47":0.11884614769539373,"48":0.09245261838315277,"49":-0.11965000491284186,"50":0.1488598365377525,"51":0.0053518502939593725,"52":0.0375782169379492,"53":0.0458613137409804,"54":0.06991087284079063,"55":0.17354760367546637,"56":0.13026631599837166,"57":-0.1057184234365243,"58":-0.11477099699322624,"59":-0.06695362989090434,"60":0.022809601921021605,"61":0.03200046085067086,"62":0.07236128822333858,"63":-0.13433090682584198,"64":0.021833196083215312,"65":-0.16365283804481578,"66":-0.03368268903769919,"67":0.12703579463768808,"68":-0.03955922197395132,"69":-0.018914405715796036,"70":0.13262754562965262,"71":0.13280900862674475,"72":0.1292051992855922,"73":-0.25181348047835245,"74":0.12393902010267731}},{"sx":5,"sy":5,"depth":3,"w":{"0":-0.008413712270548268,"1":0.05632020490532078,"2":-0.24399712327102246,"3":-0.12926853104323707,"4":-0.2086499353955448,"5":-0.18159328225112373,"6":-0.06399451669326593,"7":-0.049517087449095935,"8":-0.030022538118245116,"9":-0.1193199727013757,"10":-0.11649620028552167,"11":-0.14549353870381593,"12":-0.24191509123352226,"13":-0.07311423876229337,"14":-0.17590783552099065,"15":-0.041653319015106,"16":0.15445868854884648,"17":0.062400028645084024,"18":0.010452128288275683,"19":-0.03648217847252253,"20":0.044213822459179195,"21":0.11890559350963316,"22":-0.015308608268675913,"23":-0.030794335676306447,"24":-0.23326229985385485,"25":0.04099871386362557,"26":-0.15712630520863669,"27":0.12575973101789523,"28":-0.14052405542925162,"29":-0.09745730218798582,"30":-0.001214111407501755,"31":-0.030226413655063525,"32":-0.06873958280517345,"33":0.0205983593608836,"34":0.050517442325020936,"35":0.11347470489945112,"36":0.04651076201223983,"37":-0.0013597960043639174,"38":0.18053192856372122,"39":0.11915575854402986,"40":-0.017372618751142023,"41":-0.0625522734905078,"42":0.04380959114168828,"43":-0.03593293391956356,"44":-0.13405076858916687,"45":-0.008010896421874936,"46":0.03174512437327247,"47":0.04461434263256883,"48":0.06967761640578812,"49":0.03126850944775712,"50":-0.08513804787133007,"51":0.03701888991071955,"52":0.0019943975782186563,"53":0.09881757868247988,"54":0.08081424665747297,"55":0.09601993141069194,"56":0.08792938680536405,"57":-0.03351795344515414,"58":0.09597199132360086,"59":-0.08409568367323465,"60":0.16063204615778892,"61":0.24928352559717745,"62":0.1199362726956627,"63":0.13239819343295542,"64":0.1457803279492163,"65":-0.00688702427219457,"66":0.09508140998984169,"67":0.16121260475607196,"68":0.22244578628764897,"69":-0.0074849485848471125,"70":0.1592133588154023,"71":0.04432312407732392,"72":-0.10527891300987609,"73":0.14896776676831588,"74":-0.05410154750723986}},{"sx":5,"sy":5,"depth":3,"w":{"0":0.08117985422007817,"1":0.19507694543543325,"2":-0.05389966963538308,"3":0.03986746113067256,"4":0.006184350026973688,"5":0.055099309943226565,"6":0.0006938986306599843,"7":0.006020931592127467,"8":0.08042137192715478,"9":-0.11150936308556976,"10":-0.06229349138780879,"11":-0.013337352299030079,"12":0.0471902643182615,"13":-0.13610001300348776,"14":0.015490150098220655,"15":0.011949805622630448,"16":0.13283564383552296,"17":-0.027037511085267016,"18":0.09760063463914859,"19":-0.11142981953529212,"20":0.05347441726005507,"21":-0.03008027210616159,"22":-0.06183921288614331,"23":0.3856520480676804,"24":0.14977998671107914,"25":0.14035291012148202,"26":0.01101235972149666,"27":0.09162220199765495,"28":-0.23963720327741733,"29":0.09917542629702829,"30":0.15912302795865865,"31":0.08144154538519255,"32":-0.09362204372484358,"33":0.08736699054686792,"34":0.18743887472668117,"35":-0.12970290019049568,"36":-0.03965464907419609,"37":0.02154765892141766,"38":-0.04959880636159825,"39":0.15252567022639854,"40":-0.18543734362229428,"41":0.04302586373683458,"42":0.011168019549718775,"43":-0.1677184444238486,"44":0.09361658574199432,"45":-0.016159806299203074,"46":0.024290913569469764,"47":-0.050641157708721574,"48":0.08351539371932563,"49":-0.13739411496452883,"50":0.15094806092187843,"51":0.1947228026386188,"52":0.11994297496037619,"53":0.1183680805866547,"54":0.03916006338837046,"55":-0.021219409761839652,"56":-0.03992374354857577,"57":0.07003250389248176,"58":0.04555326507661414,"59":-0.04264274775871208,"60":0.07047234294982055,"61":0.09744808287984878,"62":0.00036926225990477167,"63":0.06623967374190401,"64":0.15156699166790344,"65":0.0870160816638394,"66":-0.10414216876605396,"67":0.21558527710040254,"68":0.20336173712201705,"69":0.29947281175404433,"70":-0.05814509241212867,"71":-0.04517996592976461,"72":0.026387170521526244,"73":-0.11544457428131506,"74":0.08794599291860199}},{"sx":5,"sy":5,"depth":3,"w":{"0":0.09882966562539146,"1":-0.12045688328185464,"2":-0.24864815011355945,"3":0.008949885507197382,"4":0.22324146402967443,"5":-0.07156711135352793,"6":-0.026664337814516333,"7":0.16079365811326757,"8":-0.08526344620260098,"9":-0.013809470608300385,"10":0.26096005393660604,"11":0.11687704804688624,"12":0.07856118614531568,"13":-0.08295194891191428,"14":0.01721684196858705,"15":0.1399174918279829,"16":0.10795311110196121,"17":0.05986217497691474,"18":0.25461570516578375,"19":0.059948807200921474,"20":-0.01849438718750531,"21":0.018660416569522987,"22":0.17316047679681054,"23":-0.0027759387908110494,"24":-0.14239314303823372,"25":0.21387323786273396,"26":0.0509124470705167,"27":-0.03432338214454036,"28":0.0363746792332991,"29":0.04663891551072809,"30":-0.1297753896508312,"31":-0.15004850024465205,"32":0.018869309781070168,"33":-0.19320453638143126,"34":-0.1305870601260789,"35":0.027395810422734233,"36":0.02023590831209686,"37":0.026864606830173218,"38":-0.06692499084557121,"39":-0.06821672916691228,"40":-0.204882138984703,"41":0.11368810834818743,"42":0.07432103332222798,"43":0.07679628118683661,"44":0.14518613888070983,"45":0.049225601904585276,"46":0.03549654996479061,"47":-0.130708583273366,"48":-0.02571613242856565,"49":-0.10975722943160965,"50":-0.1610472775609368,"51":-0.1618438191447926,"52":-0.07647216086038507,"53":-0.275486783952104,"54":0.03688228511095727,"55":-0.23533626483962866,"56":0.07745130741229582,"57":-0.006451060497939089,"58":-0.0002552525363997537,"59":-0.009910015201150226,"60":-0.029514868419099952,"61":0.10609687629096642,"62":0.05048500379111038,"63":-0.09973074102805407,"64":-0.015714008779038016,"65":-0.1905972427035584,"66":-0.026783252250760392,"67":-0.18915145022573113,"68":0.09895642116905362,"69":-0.2803743034117552,"70":0.33852731941536607,"71":0.12390934959630874,"72":0.009318408043936865,"73":0.021705991085011762,"74":-0.05524524817434616}},{"sx":5,"sy":5,"depth":3,"w":{"0":0.02524615145527319,"1":-0.053849439407641836,"2":-0.0004540615706825352,"3":-0.0471393370753275,"4":0.06445418873352407,"5":0.053850264758119444,"6":0.13454554244032815,"7":-0.08558377886045508,"8":0.05455985089669955,"9":-0.04825717911798498,"10":0.06195553811126658,"11":-0.1840582002715272,"12":0.0626514710450444,"13":-0.08028395336804814,"14":-0.04850332786720183,"15":0.252882693287021,"16":0.009867612039884562,"17":-0.12604406089267392,"18":-0.08195829979090966,"19":-0.0599106223824049,"20":-0.047406232401019904,"21":0.05326694957398285,"22":-0.017081348368085066,"23":0.17952555733853548,"24":-0.11407260205801316,"25":-0.16854526857398094,"26":0.08538147414803468,"27":-0.11074717136752417,"28":-0.09486501263548132,"29":-0.29246966070303987,"30":-0.13126801467235605,"31":-0.02031562907455936,"32":0.14405647405743274,"33":0.1904857497448704,"34":0.2614116813095695,"35":-0.22703171635396735,"36":0.07083632626587084,"37":-0.020153326120857226,"38":-0.05377360163247849,"39":-0.022303352958086286,"40":-0.014456061806973411,"41":0.09241617015771168,"42":0.04489117073877358,"43":0.006804314399856519,"44":0.16369593739819022,"45":0.05224444246141166,"46":0.16534768827310448,"47":-0.1247903671867296,"48":0.09330537998131759,"49":0.1861834239259133,"50":-0.03700391785372487,"51":0.1325647570027086,"52":-0.09728239614037859,"53":-0.01072265195452496,"54":0.007528516331353799,"55":0.01198316741183279,"56":0.13597741681681355,"57":0.10210265593472835,"58":0.11244031097786357,"59":0.04403316134060049,"60":-0.07370126286552955,"61":0.024106441521506598,"62":-0.0948616654385208,"63":-0.021661529601139325,"64":-0.03619428454077794,"65":-0.12564490164131098,"66":0.06373212400074395,"67":0.17736064684488262,"68":0.02203326400421106,"69":0.255376300587217,"70":-0.20936801298581068,"71":-0.14077858814459598,"72":-0.05291923471142139,"73":-0.2966092461295218,"74":0.15464689969185513}},{"sx":5,"sy":5,"depth":3,"w":{"0":0.10265157862954953,"1":-0.08332817052369054,"2":-0.02241520175827417,"3":0.0010244056175007963,"4":-0.17779631964796966,"5":-0.19519393377568037,"6":-0.04936557030531793,"7":-0.03278380734608824,"8":-0.02401788403430227,"9":-0.015907663721430636,"10":0.10571394449564588,"11":-0.10508018120569507,"12":-0.0799886988230034,"13":0.040626098668218764,"14":-0.27851534127965966,"15":0.13529888597425235,"16":-0.10285977294372484,"17":-0.25095106873767326,"18":0.02325731034625761,"19":0.09858887531566368,"20":-0.03169849493857937,"21":-0.14797072394600747,"22":-0.001778974668394936,"23":-0.3129907067868854,"24":-0.00805674593257647,"25":-0.13150215779858362,"26":0.055729009962951874,"27":-0.10755602470752677,"28":0.03921080572595464,"29":0.046089852899943204,"30":-0.02758145817043562,"31":-0.17461688207990864,"32":-0.13407493695993086,"33":0.057273048931582034,"34":-0.3006267071704513,"35":-0.23190419154783068,"36":-0.21114573278239862,"37":0.00037078031386426284,"38":-0.21162435529022022,"39":0.05825145615888163,"40":-0.02308328825491407,"41":0.08389097204140702,"42":-0.08041956539570434,"43":-0.08517890175856406,"44":0.08192365854606336,"45":-0.16082440167085185,"46":-0.0917044049345175,"47":-0.12844693303460655,"48":-0.061611825736686554,"49":-0.13207704290452907,"50":0.11981638841791646,"51":-0.16149280857295076,"52":-0.12446694284645457,"53":-0.0806201095129834,"54":-0.2648013960822707,"55":-0.10655389685376572,"56":0.10994940887502,"57":0.014319264583226854,"58":-0.008089707861891293,"59":-0.10555473109148664,"60":0.10668617823933926,"61":0.102902082222902,"62":-0.10941854640041258,"63":-0.2268968765196715,"64":0.06240300739954958,"65":-0.17100049541944518,"66":-0.12273831114518094,"67":-0.02234968980113426,"68":0.029128308086513118,"69":0.0230573658485528,"70":0.060065818646398456,"71":0.040057778010336165,"72":0.061318889738683484,"73":-0.1468421839783597,"74":-0.02031700647070826}},{"sx":5,"sy":5,"depth":3,"w":{"0":0.03129872925164062,"1":0.33791470400179147,"2":-0.06136667229204464,"3":-0.11403372051097772,"4":0.11611675466729383,"5":0.22517109908187438,"6":-0.09721031009471276,"7":0.2899449627987672,"8":0.08744208453779524,"9":0.11583471098016564,"10":0.14598783076178506,"11":-0.09153212648150812,"12":0.07808953555496934,"13":0.07398026910300634,"14":0.0018505370946006485,"15":-0.016333099033179182,"16":-0.03141119235827038,"17":0.042740906120605084,"18":-0.0962018932919272,"19":-0.0904584873493864,"20":0.02936091211356518,"21":-0.10421739180671323,"22":-0.1323364578445014,"23":-0.10529847105228157,"24":0.02611958327936783,"25":-0.06445767141904989,"26":0.23372519666106906,"27":0.18600559842521114,"28":0.13310026329433394,"29":0.10263897063225437,"30":0.04608098711305459,"31":0.2546737901723669,"32":0.08667617069450474,"33":0.22456703515791104,"34":-0.03359737160201486,"35":-0.1510508233770978,"36":0.03405179379198995,"37":-0.18699509282921845,"38":-0.07820652653303434,"39":0.17296948242373045,"40":-0.09862971680305611,"41":0.008438267262743247,"42":-0.006939160480098784,"43":-0.06961045137657271,"44":0.33210402305746306,"45":0.09828268494168571,"46":-0.02479392943725095,"47":0.0007885604478555339,"48":-0.295579638409025,"49":0.009952407596498996,"50":-0.3574617008161946,"51":-0.17519321433487547,"52":-0.1204275479751387,"53":0.033475744073381934,"54":-0.008849137193302948,"55":0.1587030987467668,"56":-0.11860699086866554,"57":-0.05229317626624279,"58":-0.04452424383081376,"59":-0.09463244402035384,"60":0.12668771967029593,"61":-0.007374213783372583,"62":0.17884028364533233,"63":-0.16794295021961153,"64":-0.16312952547918924,"65":-0.1967789997405394,"66":0.26541482000127525,"67":-0.03492801990364984,"68":0.024271884289485412,"69":-0.09373912509799338,"70":-0.19993154525838985,"71":-0.23174585980316958,"72":0.19693873102868079,"73":0.008102794139010543,"74":-0.21666420001052866}},{"sx":5,"sy":5,"depth":3,"w":{"0":-0.093321288916275,"1":0.186528721271504,"2":0.14186382413129459,"3":0.1658025236471944,"4":0.17744009124874624,"5":0.12848122601404935,"6":0.1126166828553333,"7":0.059232859569714975,"8":0.08935585201010117,"9":-0.09254224782505573,"10":-0.07913479217720784,"11":-0.20857157446186442,"12":-0.025039543588864992,"13":0.03810280968332289,"14":-0.23278835064539696,"15":0.04403859863791123,"16":-0.05513675410294557,"17":-0.07842281047098569,"18":-0.0360117720784637,"19":0.15287367847603733,"20":-0.03386541185566488,"21":-0.11155644581436314,"22":-0.04181026394559703,"23":-0.26020601574519686,"24":0.301941869956048,"25":-0.01636724139386333,"26":0.07050389954370972,"27":-0.07100597624273428,"28":0.012513600196941947,"29":0.09889406979050827,"30":0.15142702533246966,"31":-0.30934140900687235,"32":-0.27786990727892663,"33":-0.15277135836374542,"34":-0.1021299676585574,"35":0.018470931781613516,"36":-0.11177654731707952,"37":0.059109552783583666,"38":-0.17703065498572623,"39":-0.0020544616922196085,"40":-0.055771160416202954,"41":-0.09616649382248911,"42":0.15636427922357085,"43":0.1213938994497847,"44":0.08230958241493201,"45":0.09443642796217341,"46":-0.05017994615226699,"47":0.10294812484642969,"48":-0.10935392950518104,"49":0.03489874694109289,"50":-0.06394181561881425,"51":0.02289836335115415,"52":-0.0239107306042878,"53":-0.11875983396801079,"54":0.025937342098896046,"55":-0.036759185317407586,"56":0.049205514798833574,"57":0.20554675686098534,"58":0.28512002539081444,"59":0.2981626178596254,"60":-0.07060426186391985,"61":-0.27581115117369165,"62":-0.07229421530842443,"63":-0.151757331553426,"64":0.1999209465151086,"65":-0.026205193123716674,"66":-0.016519827409198353,"67":0.055412342535859804,"68":-0.1863235687290409,"69":0.08168738333099235,"70":0.08345328557216397,"71":0.054217463542114534,"72":-0.026524174802228316,"73":0.05223427288317048,"74":0.051149428605077166}},{"sx":5,"sy":5,"depth":3,"w":{"0":0.05994993271622699,"1":-0.03598933868199253,"2":-0.0872120935698787,"3":0.14506710215655977,"4":-0.10718128373871619,"5":0.033919774638428206,"6":0.040145281511167426,"7":-0.13219038794346916,"8":0.09233572613803957,"9":-0.08957782485050089,"10":-0.01633948960722735,"11":0.06257944332142736,"12":0.16848317199020654,"13":-0.1854843278296607,"14":0.02532811817326208,"15":-0.14433533973545093,"16":0.019582095380654113,"17":0.1412149755172969,"18":-0.0695114259042857,"19":-0.10338233609565974,"20":0.10875579383683862,"21":-0.12635286029728793,"22":0.02321551821248718,"23":-0.08018310580221881,"24":-0.18658074519628234,"25":-0.1487241625736208,"26":-0.1479285911737021,"27":0.027942866131999575,"28":-0.18509497252768925,"29":-0.06866648401476175,"30":-0.007571679049197224,"31":-0.0637134622952183,"32":-0.12814638573591336,"33":-0.04279911306769308,"34":-0.0038270335453719035,"35":0.038969373484856115,"36":-0.22836990959291173,"37":-0.12973143517303584,"38":-0.09380350853605153,"39":0.0025561251322797234,"40":0.013265002952216075,"41":0.04602399778976227,"42":0.09615031085170939,"43":0.0866584862454114,"44":-0.19822517478160864,"45":0.1168742339097173,"46":-0.05023771729205203,"47":-0.16667231563863566,"48":-0.11818031267537084,"49":-0.18037265925539567,"50":-0.027064616520726652,"51":-0.20164970303990104,"52":-0.018092243366600886,"53":0.06248089584703529,"54":-0.03880768023802308,"55":-0.14846694749255954,"56":-0.017940548068683764,"57":-0.15954010827068105,"58":0.04176611591226663,"59":0.12223419650178363,"60":0.08785241153680662,"61":-0.39991271683361407,"62":0.06653396453595473,"63":-0.006637804302467229,"64":-0.11853826529671191,"65":0.10671255464785778,"66":-0.031519356271820835,"67":0.010225492614634978,"68":0.05237588533273876,"69":-0.22616193312339541,"70":0.08329904414384381,"71":-0.09698538728896124,"72":0.12292908506084427,"73":-0.052408734892291496,"74":0.13412790706590802}},{"sx":5,"sy":5,"depth":3,"w":{"0":0.040835808285244454,"1":-0.06833969803441796,"2":-0.11912854156895442,"3":-0.10853859994354922,"4":-0.00457310574303166,"5":0.06313269333391361,"6":0.21561712031654662,"7":-0.012266986282695293,"8":-0.11818145645806039,"9":0.2523231332125429,"10":-0.0607551892806507,"11":0.00584103603015507,"12":-0.016795372862536864,"13":-0.12857713012344227,"14":-0.04772440149450323,"15":0.143122026626108,"16":-0.23314837612224615,"17":-0.17695430898775008,"18":-0.14421289964673562,"19":-0.045632244370380125,"20":0.10059167622786849,"21":-0.027043077991169315,"22":0.021180035161302714,"23":0.19176480381521155,"24":0.011009030764903172,"25":0.13005793496377163,"26":0.1279861299752985,"27":-0.13286226196638698,"28":0.13621349985105063,"29":0.0575721456578777,"30":-0.13377883774367644,"31":0.02806501835404464,"32":-0.19728331948289574,"33":0.0941807085577185,"34":0.046576749962962585,"35":-0.1918992770377688,"36":-0.07622266854978056,"37":0.1504389384078493,"38":0.05412048144182987,"39":-0.041613400370932016,"40":-0.06445319489071276,"41":-0.256660443445538,"42":-0.04039538478543821,"43":0.06508806256522029,"44":0.07339075257253262,"45":0.11068689458115591,"46":0.01225723801327681,"47":-0.10722162979412123,"48":0.0701490489299282,"49":0.047763768289591654,"50":0.1472371431695509,"51":0.16200507614226933,"52":-0.17715560018277984,"53":-0.015167601436706299,"54":-0.05183329862903936,"55":-0.06286836564158742,"56":-0.130067562980791,"57":-0.02989743760231226,"58":0.08286352167283845,"59":-0.024445431117364167,"60":0.06044657779630083,"61":0.14957422838627918,"62":-0.1013223717021368,"63":0.09746807441629325,"64":0.16986084432531887,"65":0.1608214810563157,"66":0.021126262524330135,"67":-0.05507689526017514,"68":0.14288486094569297,"69":0.04679512037117999,"70":0.08116042233807015,"71":0.01238087730177343,"72":-0.07385752697801883,"73":-0.09145259242741005,"74":0.07094318247760877}}],"biases":{"sx":1,"sy":1,"depth":32,"w":{"0":0.16694700587939024,"1":0.0818308983888949,"2":0.08967148396152273,"3":0.07181887677561509,"4":0.05804835355367712,"5":0.12634566361631308,"6":0.07836114490328429,"7":0.0711616427110707,"8":0.09129016916620226,"9":0.08081252872190331,"10":0.10749750599510909,"11":0.06688841742602686,"12":0.08917032408280313,"13":0.11918694600937563,"14":0.07970199843387854,"15":0.1186745257042483,"16":0.1300754855439208,"17":0.12216927838351725,"18":0.07923612257545426,"19":0.06541131003767357,"20":0.09970598776091424,"21":0.11354318382056278,"22":0.11755184915646161,"23":0.09437620178639926,"24":0.11902541826943704,"25":0.07283962755882419,"26":0.10812170570855857,"27":0.061878846180005574,"28":0.07727833570706029,"29":0.08677712880387699,"30":0.08848185969013839,"31":0.08547626582150869}}},{"out_depth":32,"out_sx":64,"out_sy":64,"layer_type":"relu"},{"sx":2,"sy":2,"stride":2,"in_depth":32,"out_depth":32,"out_sx":32,"out_sy":32,"layer_type":"pool","pad":0},{"sx":5,"sy":5,"stride":1,"in_depth":32,"out_depth":40,"out_sx":32,"out_sy":32,"layer_type":"conv","l1_decay_mul":0,"l2_decay_mul":1,"pad":2,"filters":[{"sx":5,"sy":5,"depth":32,"w":{"0":0.003797616942018317,"1":0.04949868406839165,"2":-0.02420580408733529,"3":0.04468842460517154,"4":-0.012716044610932948,"5":0.04862659503677008,"6":0.020400770661807073,"7":0.008259956390746627,"8":0.03805638865094055,"9":0.0720332506338045,"10":-0.03821398941451343,"11":0.015157546699920503,"12":-0.01358167259479346,"13":-0.03198164419139553,"14":0.0026432519006517495,"15":-0.02223931014044751,"16":-0.06512354637190632,"17":-0.035340484419183554,"18":0.023522973554798564,"19":0.0019568759829848973,"20":-0.06633759406430034,"21":-0.00011337182237029477,"22":-0.007078425689871473,"23":0.031734957808156765,"24":0.043572018250754,"25":0.018633435481332093,"26":-0.03053615868838774,"27":0.014276927543487665,"28":-0.024521617351047197,"29":-0.006592635980839677,"30":0.058012149808007216,"31":-0.020022642175703195,"32":0.08794583384509887,"33":-0.010352846110700675,"34":-0.08108046357544753,"35":0.008547681999026505,"36":-0.0002901594305445616,"37":-0.02915806747807784,"38":-0.031977679597147764,"39":0.00010037282446730852,"40":0.0075378514230997114,"41":-0.036580377901776207,"42":-0.003912187304247295,"43":0.014818633234061348,"44":-0.028213594038641626,"45":0.010015800976120308,"46":-0.034599701061127974,"47":-0.06532688544200421,"48":-0.02167892630944563,"49":0.05837437661216254,"50":0.0035304274661635835,"51":0.02607061463651448,"52":-0.052970422272566195,"53":-0.01911389642153501,"54":-0.09921012174577926,"55":-0.017492167729182214,"56":0.06910446657005637,"57":0.03257339589264456,"58":-0.07063134024721839,"59":0.0383378517416423,"60":-0.0033720864391881804,"61":-0.0052161796247159635,"62":0.006247866878684266,"63":0.031053872912201144,"64":0.02653988948616424,"65":-0.028022001369656383,"66":-0.03267871458910523,"67":0.008621881837537591,"68":0.00301810796610237,"69":0.09272939283667117,"70":0.019438021266927473,"71":0.007771343896684921,"72":0.018317726332090143,"73":-0.07176875156967866,"74":0.0011850087173141172,"75":0.034965013823541176,"76":0.030684097944334902,"77":0.009444801776927338,"78":-0.048107965820075385,"79":-0.026367873265930777,"80":0.0498769686215135,"81":0.018794358504887847,"82":0.05082004431353232,"83":-0.00421331201533884,"84":-0.029383989377444533,"85":0.03821931053461181,"86":-0.07568162083190698,"87":-0.011008565241469894,"88":0.0052410790769740105,"89":0.019181744025512384,"90":-0.08063392319264744,"91":-0.036135934198712985,"92":-0.07885110991934519,"93":-0.010391589194618935,"94":0.04718012647137286,"95":-0.05013926157285202,"96":0.006967099507607328,"97":0.012308640052641892,"98":0.021688396979856486,"99":0.04524378011080336,"100":-0.05388980823121114,"101":0.06562009965235421,"102":0.05921060139740393,"103":0.0003983347251489131,"104":0.0772141523120882,"105":0.002242560438538932,"106":-0.04694805215122619,"107":0.02947193990930527,"108":0.01505698247810377,"109":-0.03612390497137392,"110":-0.059334237516059214,"111":0.011142801321432867,"112":0.032958219362107855,"113":-0.01922716155447749,"114":0.023559133238076232,"115":0.051276492575874605,"116":0.00819950494586933,"117":-0.029215912327084356,"118":0.029019901989243983,"119":0.04119711912081473,"120":0.04470913496504405,"121":0.050238781608442924,"122":0.013698593441530845,"123":-0.00003782305043118709,"124":-0.027666708826161165,"125":-0.02948269401338503,"126":0.021456400451124687,"127":-0.018211147745358737,"128":-0.003707330421653051,"129":0.060000381357591864,"130":-0.0196621529764523,"131":-0.012560596715672657,"132":0.024728212750706094,"133":-0.0495966707897532,"134":0.024740783027780506,"135":-0.04028724041454093,"136":0.05019056733476543,"137":0.015198335054278133,"138":-0.0170720143432563,"139":0.024412573131613456,"140":-0.027670815424125028,"141":0.03546490024159553,"142":-0.02504635057853693,"143":-0.0022536403568796937,"144":0.06785395387067897,"145":-0.04234763734878994,"146":0.055259045366199175,"147":0.015811162049065217,"148":-0.03820758199405515,"149":-0.03933220966279758,"150":0.05070186391925382,"151":0.10342051432582249,"152":0.017529238757418637,"153":0.018760917991908512,"154":-0.041465398366323264,"155":-0.06986372700866499,"156":-0.02394851201016387,"157":0.03190401006939617,"158":0.07160041360015064,"159":0.016698040954739615,"160":-0.02781680428282676,"161":0.01599500802748701,"162":0.028603147644677047,"163":0.003182204627069573,"164":-0.023469153234491173,"165":0.038132930698322,"166":0.028239335991042412,"167":-0.012400496789425373,"168":0.027425502554994662,"169":-0.050211713530483704,"170":0.007424674055637291,"171":-0.01420260158070973,"172":0.004345515507253143,"173":-0.015277449476371325,"174":-0.019294380138811996,"175":-0.0009028529284904308,"176":-0.025446233466235833,"177":0.010762394954907143,"178":0.0349921782992002,"179":-0.02690643610738165,"180":-0.048250009685666354,"181":-0.04357506779993303,"182":0.035063704643704646,"183":0.01952782359378517,"184":0.053817484901459635,"185":-0.07970402571337856,"186":-0.01983247277215446,"187":0.02730093153593875,"188":0.024654344265472788,"189":-0.046746586843981114,"190":0.023672123326592107,"191":-0.009383830193960028,"192":-0.023528222973850117,"193":-0.03689500520752863,"194":-0.004676619554591461,"195":0.002792352540351406,"196":0.0655009638068629,"197":-0.08217105499477657,"198":0.018078990738919394,"199":0.03374602504313136,"200":-0.03293657918999599,"201":-0.036992032363196155,"202":-0.015066949453070128,"203":-0.008506073028167494,"204":0.03876817251165185,"205":0.003410912156168404,"206":0.01906371141720128,"207":-0.008012235157688515,"208":0.024687724592734807,"209":-0.013175560318867942,"210":0.03801667013043585,"211":0.07402836262626342,"212":0.019859760188283143,"213":-0.05893678833357425,"214":-0.10456400591069716,"215":0.03358249014220147,"216":0.03894194459453592,"217":0.004645916105349241,"218":0.023597439575510845,"219":0.008715736331736024,"220":-0.0055270864535119455,"221":0.016092386670476386,"222":0.0247089881888314,"223":-0.05598847451350811,"224":0.05504118843991259,"225":-0.028814789738106764,"226":0.05888369699354217,"227":-0.02522400568663543,"228":0.06887131483301032,"229":-0.03556857575388588,"230":-0.02078243933710329,"231":0.00921657071489729,"232":-0.04517361241077872,"233":0.05480551950524782,"234":-0.04366158398682997,"235":0.026960461251371498,"236":0.03933879547148351,"237":-0.03888647879612512,"238":-0.028886289856001664,"239":-0.02663826082792847,"240":0.014101844576212457,"241":-0.011987869235687641,"242":0.03587826123065084,"243":0.0056887949372525955,"244":-0.0426643223728619,"245":-0.06601650744350723,"246":-0.051483244268425814,"247":-0.05763423565589748,"248":0.03574572704359001,"249":-0.03788763346850886,"250":-0.010710660882934507,"251":0.0038242734055427474,"252":-0.037060731555716674,"253":-0.030028721211331613,"254":0.022731203660591056,"255":-0.011980945570812857,"256":0.021604122856635974,"257":0.06588790030998846,"258":-0.007710874854376993,"259":-0.020249677257773283,"260":0.004295702070773495,"261":-0.02653112701259127,"262":0.008832698080631645,"263":-0.03098809712580253,"264":0.04714489746508962,"265":-0.024415243452077625,"266":-0.03288207217897957,"267":0.02900518229948606,"268":-0.053331560817158445,"269":-0.012233901422674045,"270":0.005081204183613696,"271":-0.0562962853463932,"272":0.014240596903751188,"273":-0.008691091602670196,"274":0.01837435788590953,"275":-0.06514111044567727,"276":-0.051237230812357135,"277":-0.00133175734492321,"278":0.0189220811038474,"279":-0.042684398038597145,"280":0.016746123025600766,"281":0.0696494105278722,"282":-0.02941025665406764,"283":-0.026050986034571906,"284":-0.048054817156301735,"285":0.04095746644209141,"286":0.0062477212259401645,"287":0.02215010149600115,"288":-0.03453348679126866,"289":0.049547724689896905,"290":0.057299408103791624,"291":0.015466377809664462,"292":0.050177348845945206,"293":0.01579548462590226,"294":0.038587516267426694,"295":0.0007242443076809767,"296":0.037453506289885904,"297":0.05709325395597941,"298":-0.04604088542048508,"299":-0.0020568861687975796,"300":0.031182934868911664,"301":0.03500825128724362,"302":-0.032773235329559745,"303":-0.03696788730560028,"304":0.010326310646834272,"305":0.029068691809355295,"306":0.019050381779718288,"307":-0.027594677798766946,"308":-0.05517805722842695,"309":0.003358441340365748,"310":0.0029714183637544462,"311":0.003498239384001749,"312":0.022331378945787322,"313":0.04150979971953699,"314":-0.049501788611286415,"315":0.12867846046915307,"316":0.019306486056215353,"317":-0.031115021340588342,"318":-0.0393325156499317,"319":-0.0788954933929872,"320":-0.04687387332610786,"321":0.028050621791290427,"322":0.01948988773644037,"323":0.042505369530359084,"324":0.0013969511818709673,"325":-0.015834127518396624,"326":0.021065287322277453,"327":0.020709054861058004,"328":0.019200448810249324,"329":-0.002065675503728854,"330":-0.029053009565316514,"331":0.013848411896842603,"332":-0.021117210180850773,"333":0.040334295651931903,"334":-0.049292092371743826,"335":0.007985144420786476,"336":0.07182488225305786,"337":-0.020116580974033012,"338":0.04878469723507456,"339":0.020752169482437126,"340":-0.025898709783565822,"341":-0.03687489067374818,"342":0.005342196304307071,"343":0.06538885908829047,"344":-0.040307285169719216,"345":0.008703590777607772,"346":-0.07416478984292031,"347":0.04379385807960379,"348":0.00924343683837688,"349":0.057595015624162624,"350":-0.02969033210551457,"351":-0.007522726250215484,"352":-0.029110871374210468,"353":0.05499333403340068,"354":-0.07129443431798473,"355":0.04705709371179366,"356":0.02398777375105703,"357":-0.0031426119989334503,"358":0.0016200304187787467,"359":-0.012367322895408286,"360":-0.051247834773140044,"361":-0.07381588597264623,"362":-0.02104031712751618,"363":-0.04464525980834968,"364":0.006659176273432418,"365":-0.014750916256806036,"366":-0.029650373976356028,"367":-0.08004410454809253,"368":0.011567018946408233,"369":0.027452471871642542,"370":0.03706241939113043,"371":0.05741620651358363,"372":-0.03637550384487221,"373":-0.013300639163803253,"374":0.02673252838175432,"375":-0.008049887957226116,"376":0.05160696598407101,"377":-0.02435549973219181,"378":-0.09008314470456945,"379":0.031710431143283827,"380":0.013232667679081305,"381":0.009019060080510783,"382":0.030065899053041335,"383":0.04547944269343107,"384":-0.02707122808848059,"385":-0.0011334860232141183,"386":0.035247742048363534,"387":0.042299964016365314,"388":0.07715425347084977,"389":-0.0527546260093989,"390":0.034522091914054275,"391":-0.01979024403728187,"392":0.0005430131904282194,"393":-0.02216623655542628,"394":-0.05682643594230332,"395":-0.0014988521439013342,"396":0.024345381070261244,"397":-0.042083450539655655,"398":-0.063124894773566,"399":-0.05933599072397961,"400":-0.029754360786161168,"401":0.04391474123546451,"402":0.05456572835277505,"403":0.015694186047618627,"404":-0.0442204492621332,"405":-0.03599825372427086,"406":-0.03167473214508264,"407":-0.06094056348161489,"408":0.04231987811142407,"409":0.04222448320471048,"410":0.0005382577545195425,"411":-0.0029123644399717545,"412":-0.04390634903859636,"413":0.040920364255078646,"414":0.08910461799639345,"415":0.00892744022684134,"416":-0.05011372994890388,"417":-0.08314209743366552,"418":0.029953107867407246,"419":0.022618917034207143,"420":0.006862069934265861,"421":0.034989659187836454,"422":0.02715048824480721,"423":0.003634292204200815,"424":0.05615619866178163,"425":-0.018600896521762382,"426":-0.013464188067530075,"427":0.000948314195011778,"428":0.01929808905310842,"429":0.0027276203886449253,"430":-0.04406822838786666,"431":0.05312877365067025,"432":0.015084747928019254,"433":-0.028401856014818185,"434":0.045343761428876465,"435":0.037634191425399616,"436":-0.041364811166302216,"437":-0.05491441336151372,"438":-0.10752215783695146,"439":0.0018802472073665747,"440":0.008056987645349479,"441":-0.008030322926300569,"442":0.01691763648030386,"443":-0.004892915459797748,"444":-0.05682357305874932,"445":-0.03345710071132533,"446":-0.00709139610608021,"447":0.026942882083092094,"448":0.01429843665120267,"449":-0.006998833784245778,"450":0.010562424558168238,"451":0.07023411570819196,"452":0.0037381585677203743,"453":0.011259321674494727,"454":-0.05485257791743326,"455":0.03983454726125774,"456":0.023841483169946862,"457":0.03290470181648517,"458":-0.076361875547254,"459":-0.05685318987202759,"460":-0.04241391965112169,"461":0.1132459710346921,"462":-0.04679944107953353,"463":0.06892443944898728,"464":0.01039893806521925,"465":0.010691769952532463,"466":0.020744855053178066,"467":0.03251293272269508,"468":0.03178316580238983,"469":-0.026848971506186748,"470":0.009591072296551687,"471":-0.000017379075914881136,"472":0.009950069569746898,"473":0.05117134786041434,"474":0.009544702592092471,"475":0.05538645780793507,"476":-0.05560105677430466,"477":-0.016198597255697212,"478":-0.0129771619552399,"479":-0.055762187622523045,"480":-0.03184835623448,"481":-0.007831829430160853,"482":0.028595488705599168,"483":0.02768281116983185,"484":-0.01086419489850661,"485":0.042973978882506494,"486":0.0346363000142454,"487":0.011311733972598466,"488":0.020640983231599817,"489":-0.014710367109525464,"490":-0.09406098729083325,"491":-0.001661170461836702,"492":0.030238941256769583,"493":-0.040097832075765304,"494":-0.07054877020914031,"495":0.015427944835635449,"496":0.015676501731070557,"497":0.09307555380628661,"498":0.008032980528883299,"499":0.03887332947601961,"500":-0.024490130599205327,"501":-0.0160405196358895,"502":-0.0012239543794999113,"503":-0.01699087538217459,"504":0.019160900837577113,"505":-0.02454924046385714,"506":-0.05645227796187642,"507":0.0287837712521287,"508":-0.030509247266698847,"509":0.020262247329380013,"510":0.053675893793782924,"511":-0.057374279648315755,"512":-0.03958373674229359,"513":-0.007213005723250186,"514":0.01928423245747503,"515":-0.032889845216817384,"516":0.0006925339810278598,"517":-0.004731938120364951,"518":-0.004529275456874601,"519":0.05412865908999491,"520":0.02418955611586133,"521":0.05494422824195503,"522":-0.048391825067340126,"523":0.00767302871066452,"524":0.008685868072027056,"525":0.005950924315757739,"526":-0.05395751117843892,"527":-0.07088376455553856,"528":0.006009697277283587,"529":-0.06065858149538096,"530":0.0598722947081317,"531":0.05819301983723055,"532":0.07364606665204164,"533":-0.022213520823851196,"534":-0.09260515968088696,"535":0.0021922777601173843,"536":-0.032880390505505,"537":-0.03228499836649917,"538":-0.03371783288340069,"539":-0.0013065596239198035,"540":0.006411396071372254,"541":0.03952167938097329,"542":-0.019398058687075396,"543":-0.05713807713672741,"544":-0.0003067087479093231,"545":0.004868468283656661,"546":-0.007531157139299687,"547":0.05567903973464791,"548":0.012820130760620127,"549":0.0108515344547509,"550":0.09434054830379054,"551":-0.04075251320227398,"552":0.03968997230397755,"553":-0.00021596299599128233,"554":-0.13369656079059195,"555":-0.0009339010221094315,"556":-0.06945719033230213,"557":-0.012376895799843602,"558":-0.058768990467223156,"559":-0.022000706075649454,"560":0.002653213182433207,"561":0.0070989238043086085,"562":0.023210951805427295,"563":0.05683710197474961,"564":-0.07276935356172576,"565":-0.04137729150014031,"566":-0.0812922972347714,"567":-0.027655628458527037,"568":-0.005345602262190317,"569":-0.022610583578778543,"570":-0.04618440383569039,"571":0.00952418595183523,"572":-0.013364451837827671,"573":-0.04747547240227036,"574":-0.004783377071214805,"575":-0.08122803426247625,"576":-0.05020587318043806,"577":0.013276372679085883,"578":-0.09396757560086456,"579":0.022510535584410095,"580":0.017659342324452314,"581":-0.004624871951037844,"582":-0.07515214415867805,"583":0.0577373387000881,"584":-0.007743844569941895,"585":-0.06118925474135521,"586":-0.1008861771963261,"587":0.023943591724088602,"588":-0.009430199358905055,"589":-0.015626029309733686,"590":-0.06909933274007408,"591":-0.03593644445867223,"592":0.025099904422463876,"593":-0.06373135974900816,"594":0.035550153628350734,"595":-0.044543621372388584,"596":-0.03816074961213614,"597":-0.005312000793640039,"598":0.00009825293491530748,"599":-0.06665650097260212,"600":-0.033792823621524005,"601":0.02009294182704431,"602":-0.07665548494221153,"603":0.048977971211309965,"604":-0.00767185212150886,"605":0.015651008096187868,"606":-0.0029347692279640177,"607":-0.04052797727964986,"608":-0.0005941535527693759,"609":-0.030617245798803983,"610":0.08304791034317144,"611":0.05043857313230323,"612":0.035446198189023385,"613":0.00589551372772488,"614":0.03501920981625553,"615":0.022564567738766042,"616":-0.026187599189336122,"617":0.0017963128806693749,"618":0.032853008516451544,"619":-0.048016234641960816,"620":-0.02596226607907617,"621":-0.02948577601784907,"622":-0.026314612131891058,"623":0.020672990969373757,"624":0.010820550733910219,"625":-0.02849199501288408,"626":0.039150182171603605,"627":0.06382924750243926,"628":0.02183305372769068,"629":0.0572940522168505,"630":-0.01838304972999497,"631":-0.020684680192730818,"632":-0.03642297815387409,"633":0.014310007409871315,"634":-0.03191901766022758,"635":0.01897549018386283,"636":0.01708137787471738,"637":0.01231466735603471,"638":-0.02718136554606256,"639":-0.02674097531132252,"640":-0.013009198440708867,"641":0.007106307827865009,"642":-0.01944855022730975,"643":0.02894868554493168,"644":-0.046191749463474985,"645":-0.05002072045887287,"646":0.03978724959716061,"647":0.01192572751599218,"648":0.0386862663313697,"649":-0.08071187226267133,"650":-0.036730457319799605,"651":-0.025802334081248674,"652":0.06325739765095414,"653":-0.03354692366183481,"654":-0.019202306298742696,"655":-0.0777349688301978,"656":0.04290913443144816,"657":-0.035239518783634696,"658":0.039249879552546135,"659":0.053700142073866836,"660":-0.04209354355787714,"661":-0.00754820002385478,"662":-0.0525881635368795,"663":0.007399181514230145,"664":0.007089680574470186,"665":0.03541050187551761,"666":-0.04058166195882467,"667":0.014448381209565406,"668":-0.053299309471197376,"669":-0.09153103206250916,"670":-0.00602191249670475,"671":-0.0623412866068386,"672":-0.01572209520693285,"673":0.018418220300959045,"674":0.11390306113968762,"675":0.061706503384088715,"676":-0.05414936213331567,"677":-0.0517524074814871,"678":0.03807903718367171,"679":0.020223171968479788,"680":0.01877320271206276,"681":-0.07029540569144992,"682":-0.0031718405779301625,"683":-0.0038595087055235343,"684":-0.030912297236964786,"685":-0.04459313303496716,"686":0.014633401017757064,"687":-0.024900395372298056,"688":0.0487683239360751,"689":0.06866317632257683,"690":-0.017022908818319433,"691":0.054053563508360866,"692":0.042747756291204926,"693":-0.06759201220332557,"694":-0.020970789758218353,"695":-0.03579400652952993,"696":-0.000021662131161776193,"697":-0.019621023556579586,"698":0.012225095817164876,"699":0.002367557469491477,"700":-0.020384780539201425,"701":-0.019278351841849065,"702":0.0482255282014946,"703":-0.020506919656921068,"704":-0.045221448949591285,"705":0.009940342288812173,"706":-0.03694596797110691,"707":0.108016822286062,"708":0.0836576423021246,"709":0.015620032696458652,"710":0.06337676058633443,"711":-0.021656158156198407,"712":-0.020162102320119436,"713":-0.017010389181022413,"714":-0.07201555525876692,"715":0.06481229649734019,"716":0.00782738309882245,"717":0.029192426729145578,"718":0.004223474645375725,"719":0.001526416221386388,"720":-0.02233890652665042,"721":0.02633809595871876,"722":0.020157516567800106,"723":0.006901685944509004,"724":-0.027908113309110198,"725":-0.02671343486892184,"726":-0.040092526750143534,"727":-0.08505492494864564,"728":0.028754670159354054,"729":-0.020857100405769814,"730":-0.011264030418316187,"731":-0.00901134711308959,"732":-0.01817691784619751,"733":-0.021484665287973253,"734":0.023039563571087388,"735":-0.016889387513982564,"736":-0.004699266516520999,"737":0.02096682218169156,"738":-0.02927777819516657,"739":-0.031086570969878012,"740":-0.0025577785419222863,"741":0.051555786244726495,"742":0.005668640660858711,"743":0.06281619395568594,"744":-0.009389905019219364,"745":-0.026986391418608452,"746":-0.03348761949023973,"747":0.052620898997023734,"748":-0.01849411285371238,"749":-0.009550222229543865,"750":-0.06585787252034525,"751":-0.06812258413338743,"752":0.04469338316351506,"753":0.04271664827021723,"754":0.011793919776031234,"755":-0.03128155040126977,"756":-0.07532030951110671,"757":0.03164922704468038,"758":0.014524632613837655,"759":0.1064849540291431,"760":-0.004351186396634875,"761":-0.010876673732085005,"762":-0.0665018457468122,"763":-0.008922851129333597,"764":0.006042469184198741,"765":0.013940777079869618,"766":0.04876810957994696,"767":-0.022048376210797995,"768":-0.018621064833844788,"769":0.002410970020564417,"770":0.0650877299859391,"771":0.006431464968549563,"772":0.04186084717468361,"773":0.041266137725693194,"774":-0.008372425218208425,"775":-0.045041086692113194,"776":-0.018107642885127683,"777":-0.017012783286849253,"778":-0.12113197947016908,"779":-0.014252588841848537,"780":0.06136560770315281,"781":-0.0013524553494181275,"782":-0.021366577056711116,"783":-0.05370974448998555,"784":0.02051247902559617,"785":-0.014797191022542252,"786":0.058532548351910706,"787":-0.027430367476969048,"788":0.006583538830173583,"789":0.042512142508947685,"790":-0.017648340207080823,"791":-0.0493815629613607,"792":-0.039542484069853286,"793":-0.06468875595224265,"794":-0.03168416480495012,"795":-0.0026364504107719827,"796":-0.03279959054149653,"797":-0.03599626484539078,"798":0.018180375925248585,"799":-0.04533019072606488}},{"sx":5,"sy":5,"depth":32,"w":{"0":0.005336974261788774,"1":-0.024683899100272386,"2":0.06989492776897036,"3":0.011389630554867131,"4":0.023303519036083655,"5":-0.018340064875542357,"6":0.02468591929145033,"7":-0.01549235139670341,"8":-0.025059959725904173,"9":-0.010607295071645146,"10":0.029752073704487205,"11":0.040156111963747416,"12":-0.0020408743096096116,"13":0.05702187537624103,"14":-0.07440646344465696,"15":0.052847318591723175,"16":-0.055434348245619665,"17":-0.0852504046455132,"18":-0.04753992372706073,"19":-0.10627314485722796,"20":-0.00890596840913284,"21":0.05064796229671717,"22":0.058073722933587625,"23":-0.006838216816900253,"24":0.054277115322030924,"25":-0.027084238101107456,"26":-0.05351266633197296,"27":-0.11372073388931989,"28":-0.031511755984569886,"29":0.017157017645623964,"30":0.003973147143626575,"31":-0.03145365081029446,"32":-0.0379792867245887,"33":-0.02338304949686279,"34":-0.02999871696432921,"35":-0.07588607324101013,"36":0.013901480440126714,"37":0.057316865622255485,"38":-0.02995656704826336,"39":-0.004448819798040817,"40":-0.05545366883101278,"41":-0.022210988080729882,"42":0.009896231778270505,"43":0.0053495718477407795,"44":0.005778962649508113,"45":0.02472676248565774,"46":0.04389996080277847,"47":-0.05548724093869008,"48":-0.053322326317697635,"49":-0.045896676183738265,"50":-0.029126580098839977,"51":0.013570925082155648,"52":-0.01541970839232802,"53":-0.010387560482287929,"54":-0.010194821785027935,"55":-0.029995044778816763,"56":-0.015595903602152066,"57":-0.050837506508598196,"58":-0.031965744852847526,"59":-0.05989123684293582,"60":0.00006884112896269928,"61":-0.0474676536500846,"62":-0.027942271867197256,"63":0.031288961610671594,"64":-0.012690098397757978,"65":-0.014129773418349176,"66":-0.06718709125781515,"67":-0.017082570265491995,"68":-0.06040131483088138,"69":0.007778950796396191,"70":-0.01154448372579114,"71":0.02639247076661369,"72":-0.010959736476878357,"73":-0.010318341427433068,"74":0.03418503531638468,"75":0.0034371229760897706,"76":-0.030405796198335708,"77":-0.10604205493652187,"78":-0.015772775870041784,"79":-0.06065849828326088,"80":-0.04561216680704778,"81":-0.009601258776996078,"82":0.0219015718108783,"83":-0.13657586348341497,"84":0.00663103114712647,"85":0.034831857917242574,"86":0.031630996663891305,"87":-0.07214295808755034,"88":-0.03739953988210092,"89":0.005194512058988517,"90":-0.03107265911821438,"91":-0.034498163164883355,"92":0.02008076724758302,"93":-0.0037182779954638865,"94":-0.03132529065316447,"95":-0.00798881984236427,"96":0.05034361448700775,"97":0.027646637770265405,"98":0.053348480157696505,"99":0.0526812936898205,"100":0.009087080014352593,"101":0.032583593340017605,"102":-0.055407928086510294,"103":-0.0278435512034543,"104":0.02570122802503483,"105":0.05037621284265293,"106":0.03508751681241926,"107":0.021310419296759923,"108":0.028847886588688074,"109":0.0021491901489456224,"110":0.05790870565195915,"111":0.003629293933864043,"112":-0.02463863988021325,"113":0.04432151246975998,"114":0.02001744522642408,"115":-0.004694812620510691,"116":-0.00987366086927306,"117":0.03636861570682847,"118":0.03486225065622003,"119":0.01732927067928255,"120":0.0007071701419055301,"121":0.06293464100033982,"122":-0.005383196184750163,"123":-0.019665217978534134,"124":0.03739750321393149,"125":-0.028268420312544944,"126":-0.02825968460992799,"127":0.0035782602486126346,"128":0.020816400352961558,"129":0.0140907128483014,"130":-0.04077137343460816,"131":-0.039851844212731136,"132":-0.007110777378698665,"133":-0.023294163270771828,"134":-0.06372492743984329,"135":-0.007213846771909402,"136":0.05826162802644094,"137":0.004874439010344757,"138":0.009329949878127693,"139":0.02205144344500277,"140":-0.00960283431696462,"141":-0.02792175454590299,"142":-0.040944621771123395,"143":0.037934979996094464,"144":-0.019453842411844436,"145":-0.042488994116423276,"146":0.04537176735602589,"147":0.01313642998449145,"148":-0.02202368931319034,"149":-0.06200578195510807,"150":-0.013123957131722326,"151":0.04322978604339722,"152":-0.02054933509197469,"153":0.042125716733649884,"154":0.018060100580484465,"155":-0.016795653224801234,"156":-0.03218452330841811,"157":-0.02761526512699061,"158":0.05988190369082709,"159":0.04479339340212937,"160":0.023772395926314468,"161":-0.02920595590209865,"162":0.00601588660787144,"163":0.03883895540478474,"164":0.031056398413750415,"165":0.00014243936205685112,"166":-0.021786224581398696,"167":0.00532698316047756,"168":-0.01938610760145776,"169":-0.0035041159688243935,"170":0.017053759653418203,"171":-0.015148868280381552,"172":-0.004096308375600853,"173":-0.03191680980544867,"174":-0.03061131794442062,"175":-0.09147062245892144,"176":0.02348258737489333,"177":0.06134132750779096,"178":-0.00267407409264653,"179":0.034881285916275574,"180":0.008600688510007223,"181":-0.04201012572353246,"182":-0.029816342773687318,"183":-0.04478079246567744,"184":-0.004473375067153818,"185":-0.016412421771223856,"186":0.01743631660848606,"187":0.016498644883162227,"188":-0.06268102998013864,"189":0.009909607241820604,"190":-0.00324084606197907,"191":-0.020771632534295446,"192":-0.004146065470247803,"193":0.02528000642575768,"194":-0.012842533203970129,"195":-0.05225234118591844,"196":-0.04942748435012284,"197":-0.002059985375950509,"198":-0.026714339316851396,"199":-0.07583539886228492,"200":-0.027876073685919937,"201":0.004144201296623828,"202":-0.018811744757354372,"203":0.0380011131588594,"204":0.02664232586527572,"205":0.015142151676281903,"206":0.026800986201328546,"207":-0.025009212810361045,"208":-0.04661977576711521,"209":-0.05161840610565644,"210":0.002441334062945731,"211":-0.062457997222686995,"212":-0.008127911358439146,"213":0.017288714433022233,"214":0.04728003577675303,"215":-0.030303352153894795,"216":0.036941055302682636,"217":-0.027354321561224592,"218":-0.05054342330023983,"219":-0.079314438961794,"220":-0.0592296695029588,"221":-0.004404741927258753,"222":0.04618739604403276,"223":-0.011464361319303383,"224":-0.054108138935356,"225":-0.028018244232171828,"226":0.02084401329173011,"227":-0.044365066546430056,"228":0.0005586824232943369,"229":-0.007541101046932252,"230":-0.07377693613912008,"231":0.02470043993104562,"232":0.0384276400794999,"233":0.036653406892740464,"234":0.03428077711132874,"235":0.04245656693504535,"236":0.028095669629542852,"237":-0.03924690429809867,"238":0.04016903105448171,"239":0.02400468806353414,"240":-0.012506615867431743,"241":0.02780679764455975,"242":-0.025058095196547434,"243":0.01883368636865342,"244":-0.019450991200027204,"245":-0.0548371378788594,"246":-0.03445345358162357,"247":-0.016017060173307746,"248":0.00014639950380820785,"249":0.0588542507215065,"250":-0.06239296062419901,"251":-0.1025206611593348,"252":0.00499234128655444,"253":-0.012130269387997534,"254":0.030901990180583174,"255":0.02478784887294841,"256":-0.04451497422544507,"257":-0.03472989221218715,"258":0.07974564832171227,"259":-0.004444263989948241,"260":0.009035741787638692,"261":0.017828646385238733,"262":-0.038654313768297865,"263":0.014925576256123852,"264":0.007724253183367854,"265":0.027443694724819653,"266":0.06698193785138473,"267":-0.02493412141819715,"268":-0.0017709665421612893,"269":0.02135513892159546,"270":-0.0007461900575038539,"271":0.014390276142415928,"272":0.00019697986072590346,"273":-0.06456093962119663,"274":-0.02625418108868666,"275":0.060432555041703015,"276":-0.03212477421273794,"277":0.035934929026869976,"278":0.04458362618405165,"279":-0.02676849439339093,"280":0.0027615922699359722,"281":0.04966231749306651,"282":-0.003814888535055561,"283":-0.03600546063414129,"284":0.002743831450133482,"285":0.0018324912610018437,"286":-0.015705653754580412,"287":-0.01836432295562732,"288":0.018336776946539724,"289":0.012516261492771612,"290":-0.0024513596618237618,"291":-0.022348908040842785,"292":0.049387962687270213,"293":0.043552368404891004,"294":-0.013681784758638287,"295":-0.005787509686682388,"296":0.005762326855781509,"297":0.0636501015938167,"298":-0.00026127814641798677,"299":0.029548621876702087,"300":-0.013446695635837745,"301":0.09087697121701928,"302":0.016353253234536055,"303":-0.026883257203994055,"304":-0.010299631015276131,"305":0.029574955464288635,"306":0.037543080040790364,"307":0.04935762986113981,"308":-0.060361010408906644,"309":0.06951212630266554,"310":0.026742587286123692,"311":-0.003423254069333705,"312":-0.03827674372931262,"313":0.0038643944273826845,"314":0.03605956849776142,"315":0.07545217396954214,"316":-0.0008891345393210288,"317":0.07097292041086038,"318":-0.02918893901010616,"319":-0.041916686780879904,"320":0.025742873174092375,"321":0.0108427171685069,"322":-0.02719425684477551,"323":0.011673671984524847,"324":0.07662736532886066,"325":-0.009816897480226879,"326":0.026287094431095708,"327":0.012085045236109522,"328":0.03178008095785899,"329":-0.022327319655600242,"330":-0.005090095488667757,"331":-0.01811315204825825,"332":0.046920350367854476,"333":-0.04736058804263646,"334":-0.040164786480294715,"335":-0.015710396843910717,"336":-0.04439372591407306,"337":-0.03531898903711656,"338":0.006419542200345892,"339":-0.012311736476093743,"340":-0.06769116854739686,"341":0.008228566085006737,"342":-0.02080695135724939,"343":-0.04753166734862402,"344":0.0673001022791519,"345":0.023343659254365354,"346":0.027770714400013562,"347":-0.037167136135629775,"348":0.024056004872564946,"349":-0.04002183334827477,"350":-0.08069117467747172,"351":0.03385917617821823,"352":0.10202262620721445,"353":-0.05346904347997929,"354":-0.01433505970159368,"355":0.02887641382986308,"356":-0.02359267002795164,"357":-0.0037418424326871595,"358":-0.07896470592413275,"359":0.01920716425948202,"360":-0.027643338139008378,"361":-0.010274505502897506,"362":-0.006356394398935014,"363":-0.01799105098226285,"364":-0.0413958600868315,"365":0.05000199020929513,"366":-0.029215726999657122,"367":-0.03893666641225971,"368":-0.021571737728439244,"369":-0.031091242690625066,"370":0.024407142497819535,"371":-0.033414792165707495,"372":-0.0009903318152601145,"373":-0.04405514041340749,"374":-0.022894263884616524,"375":0.020487887808122312,"376":-0.04234184721595223,"377":0.04205088160588383,"378":-0.012063082839220822,"379":-0.03977740194613646,"380":0.03845518082047366,"381":0.009394565721557877,"382":-0.04207704887546678,"383":-0.061721676229478196,"384":-0.04058045175905825,"385":-0.019257638316598904,"386":0.0049621547633579375,"387":-0.04805804971208077,"388":0.05584539571182087,"389":0.006917957673200405,"390":-0.008104916233127722,"391":-0.04136314828292066,"392":-0.03938169706254574,"393":-0.0017536425080210383,"394":-0.0023826799289775507,"395":-0.06835759527485279,"396":-0.012065543482937834,"397":-0.034767793953635745,"398":-0.002735602572867387,"399":-0.05103469461496046,"400":0.030562110627883804,"401":-0.002623277954116367,"402":0.044286204046920165,"403":0.026803411879479114,"404":0.024093066796944278,"405":-0.005934977296674541,"406":0.0355559719446175,"407":-0.011917029568610028,"408":-0.01195012807933797,"409":-0.023357538131012386,"410":-0.007274172085318114,"411":0.008214193722888256,"412":0.01689745851178449,"413":-0.011466398830511626,"414":-0.02336383714787217,"415":-0.010371137171488694,"416":0.002399337849305538,"417":-0.0032673287492434775,"418":-0.008699642476628727,"419":0.012603281499571161,"420":-0.05641180105483441,"421":0.02440594412279356,"422":-0.018695725695860747,"423":-0.05291730291715212,"424":-0.0029326424448180496,"425":-0.0121058649643095,"426":0.003496323693801439,"427":0.0685445180049235,"428":0.003129017690069341,"429":-0.010647975423466242,"430":-0.003741126601886756,"431":-0.033205233809983005,"432":0.044513051698007414,"433":-0.03442127605476162,"434":0.014936756655492791,"435":-0.0004017475044954745,"436":0.06574791094549151,"437":0.0422185830001166,"438":-0.06988485462814996,"439":-0.00985679478295855,"440":-0.050664758384819784,"441":0.04158407229768297,"442":-0.05526515148309505,"443":0.07623770221994912,"444":0.06426763562850053,"445":0.0003821872545568347,"446":-0.006739347051480926,"447":-0.018081961462170715,"448":0.04270979352866522,"449":-0.052039099994591505,"450":0.041173873032190736,"451":-0.03122938304226721,"452":0.025517850039694197,"453":-0.031853234758204986,"454":0.0019267331501007484,"455":-0.03361009550595295,"456":-0.026571070581866117,"457":-0.032808776147334386,"458":-0.015126635420845216,"459":-0.04149189936823163,"460":0.015410886909809834,"461":0.024935915572955315,"462":0.05443908592215897,"463":0.016548580365918084,"464":-0.0128970109754141,"465":0.016476893205080122,"466":0.03777407274323849,"467":-0.004121195828583509,"468":0.004103979624312307,"469":-0.04685432862881098,"470":-0.08608195367832729,"471":0.045876354999447914,"472":-0.04140739360045061,"473":0.03888636570419403,"474":-0.02090357274955886,"475":0.03728860448034116,"476":0.03896409945084654,"477":0.018137777235500353,"478":0.05202849964587132,"479":0.0012289542205402208,"480":0.004817080253744847,"481":-0.04031948251956812,"482":-0.0018664930446290855,"483":-0.019722455848244082,"484":0.000005450594840373875,"485":0.02035362179639785,"486":0.08922932673798119,"487":0.007737631133279915,"488":-0.007754612817602636,"489":0.019580783671271952,"490":-0.0018812754078370545,"491":0.007338580154280143,"492":-0.00588392899879305,"493":0.03282945296849446,"494":-0.01250143071507615,"495":0.033878492400754835,"496":0.012771546289403182,"497":0.017187233204925385,"498":0.056038944977737336,"499":0.004632809541971107,"500":0.005498221486068841,"501":0.03058607906115886,"502":-0.03452160836763137,"503":-0.03492155619106961,"504":0.04447341148816207,"505":0.03237451179595796,"506":-0.012846583562657528,"507":-0.026858073713085517,"508":0.012268274043001412,"509":-0.0567520980905965,"510":-0.0008341818321628992,"511":-0.027708627360506864,"512":-0.004786583281882757,"513":0.03711907570308987,"514":0.01619696684055029,"515":-0.030990840000696643,"516":-0.02335120670519794,"517":-0.014619152851897178,"518":-0.012148811357303228,"519":-0.015137174463908349,"520":-0.050298541386258624,"521":0.002825721609506353,"522":0.014433387347405267,"523":0.06845766042313473,"524":0.06164060908047194,"525":-0.022947590871713244,"526":0.016195181132993685,"527":-0.0296810484300815,"528":-0.013697149598028374,"529":-0.04114908549024779,"530":0.03197075869500328,"531":0.04279299602420864,"532":-0.031141335037357432,"533":0.014776661972771657,"534":-0.00018276825256687408,"535":-0.06232184875429561,"536":-0.05585374672192055,"537":-0.03815910331048598,"538":-0.06575272111947048,"539":0.036959618774843196,"540":-0.0772322492165889,"541":0.05111737116635045,"542":0.03031500053781301,"543":0.008323478848886163,"544":-0.00970079234016271,"545":-0.05226674925801737,"546":-0.040356419604147584,"547":-0.005612696103942463,"548":-0.018722936126142085,"549":0.0017529812730899728,"550":-0.010661877455013562,"551":-0.0031164740452847527,"552":-0.021590291729087583,"553":0.06746331743121524,