{"layers":[{"out_depth":3,"out_sx":64,"out_sy":64,"layer_type":"input"},{"sx":5,"sy":5,"stride":1,"in_depth":3,"out_depth":32,"out_sx":64,"out_sy":64,"layer_type":"conv","l1_decay_mul":0,"l2_decay_mul":1,"pad":2,"filters":[{"sx":5,"sy":5,"depth":3,"w":{"0":0.21377250264391795,"1":0.06177371955207836,"2":-0.15260089485182238,"3":-0.04143357690961538,"4":-0.17542194254282642,"5":0.22955397794897153,"6":0.05367971728673266,"7":-0.007891841687268876,"8":0.034992765186716235,"9":0.08595470728823973,"10":0.18454248361845174,"11":0.13158475035326309,"12":-0.1638339266680166,"13":0.1131962076865506,"14":0.11859180623676115,"15":0.09119571678857401,"16":0.17184603603692797,"17":0.0591170368314558,"18":-0.1263304832140089,"19":0.0538317608860796,"20":0.05222350828108838,"21":0.17736273215458534,"22":0.008317110993174443,"23":0.054689723294964895,"24":0.013522303140045327,"25":0.07449761853106844,"26":0.08181209402857594,"27":-0.04560048966314966,"28":0.19815797368610888,"29":-0.010927886537514819,"30":-0.16566327141557888,"31":-0.056300477059642556,"32":-0.06423319886657847,"33":0.17030017480210133,"34":0.17652029236202313,"35":0.06278434134015842,"36":-0.02779889675108572,"37":-0.033329782947091637,"38":0.20100457724461143,"39":0.09765362918763802,"40":-0.08376274255837043,"41":0.07094560239719107,"42":-0.06143540970817215,"43":0.08329355526515485,"44":-0.01512682501607267,"45":0.1666069146232841,"46":0.10096513010048093,"47":0.007611406898930115,"48":0.06716329408421029,"49":-0.014202157225677211,"50":-0.011605994582590222,"51":0.04482113112917411,"52":0.1108994676297871,"53":0.12120337156045506,"54":0.12026802614650886,"55":-0.029497516833158714,"56":-0.05822007547476933,"57":-0.06191777722009637,"58":0.06286728587468778,"59":-0.24897040861584654,"60":0.0004957136734554315,"61":-0.1821929594807843,"62":0.11925801549281381,"63":0.010267508931705523,"64":0.006307476249419752,"65":0.19440141911958247,"66":0.025100347612585158,"67":0.09981728255130419,"68":-0.03586166964890654,"69":0.11145415527815308,"70":-0.1225442620506032,"71":0.03510747732785233,"72":-0.13372196826160385,"73":-0.16749999033130836,"74":0.15965990328886367}},{"sx":5,"sy":5,"depth":3,"w":{"0":-0.12119197271695337,"1":-0.2161520350107346,"2":-0.060538120147649144,"3":-0.0663984375276232,"4":-0.18220140646568458,"5":0.0182719314097847,"6":-0.08999005235552636,"7":0.02465993810379285,"8":0.014602481127256973,"9":-0.11153456432632063,"10":-0.2535732397716553,"11":0.12327159600757617,"12":-0.07872696330880768,"13":-0.14928301360305804,"14":-0.042927979802321825,"15":0.06400304701409791,"16":-0.03550612559149118,"17":-0.0850719219242709,"18":-0.23739210067311473,"19":0.04789886988002718,"20":0.07662432666343286,"21":0.0930814151021245,"22":0.09607597753573179,"23":0.032869386806231644,"24":-0.18619430346106486,"25":-0.006021180715534462,"26":-0.04985547643328025,"27":-0.19615404641608256,"28":-0.0427925135249249,"29":-0.033775036981512276,"30":-0.11016640710601502,"31":-0.061836704631890595,"32":0.006316810945882625,"33":0.030235057675476493,"34":-0.14788070498837264,"35":0.06245885101114292,"36":0.09876980995431016,"37":-0.1431331449073586,"38":-0.03380988390290187,"39":0.11916597188281194,"40":0.16147037478701085,"41":-0.03335658072689373,"42":-0.14691571540771423,"43":-0.30445088572927625,"44":-0.25417746164395505,"45":0.21008188951333515,"46":-0.040470646439890685,"47":-0.014440762220066768,"48":0.01642951700132908,"49":-0.007333257183520407,"50":0.006815124266412679,"51":-0.24261402232854365,"52":0.049507253044926466,"53":-0.06404037073015648,"54":-0.08147199409512737,"55":-0.012683414682821042,"56":0.017660403203680543,"57":0.12907148810021327,"58":-0.22192084985604232,"59":0.028567094723950706,"60":0.058030016686323994,"61":-0.129999960414219,"62":0.16764565222440334,"63":0.03427445267379875,"64":-0.10688423756088272,"65":-0.05742098401907834,"66":-0.15471560124164022,"67":-0.059266488853436994,"68":-0.023913856999826375,"69":-0.11244410844541378,"70":-0.07585009708796756,"71":0.016034994054948157,"72":0.02447381314873668,"73":0.026197164012546324,"74":-0.11648603604694455}},{"sx":5,"sy":5,"depth":3,"w":{"0":0.04160527425105256,"1":-0.05053512591955556,"2":-0.1035499232697257,"3":-0.03280788969676467,"4":-0.1079644299793501,"5":-0.05377805136607049,"6":0.09762239125556997,"7":-0.014351303586537627,"8":0.0431605150498671,"9":0.1526463194168986,"10":-0.11029812234078995,"11":-0.08995080550899422,"12":0.06393736015036064,"13":0.1307012335505874,"14":-0.10731869901171451,"15":0.09136785431100658,"16":-0.007701952991634647,"17":0.008846050491193047,"18":-0.15620505129870155,"19":-0.19669383150402492,"20":-0.1500005816512658,"21":-0.09125035074721789,"22":0.2091439471341991,"23":0.15777377150731603,"24":0.018318661871655876,"25":-0.2675163124389781,"26":-0.0790444276174383,"27":-0.09994916637514328,"28":-0.14819065897919023,"29":0.22784398683127474,"30":0.0068150733236693245,"31":-0.06668809168675235,"32":0.1032205455400893,"33":-0.14342573851522322,"34":0.08672559317652376,"35":-0.07209737808030987,"36":0.055404730106798944,"37":-0.15705786085443277,"38":-0.06647204206485442,"39":0.002957486763489742,"40":-0.13656928510587396,"41":0.017531148788816384,"42":-0.1386306001521677,"43":-0.2576405326407968,"44":0.037622539588919285,"45":-0.12952531349840304,"46":0.15981125677814073,"47":-0.05210308173078756,"48":-0.08535204984562215,"49":0.017257118435627047,"50":-0.08383061820321247,"51":0.05402780879328464,"52":0.0841069102467124,"53":0.11265843881140077,"54":-0.08412268343048665,"55":0.04214526073142954,"56":-0.013044969786601345,"57":-0.14097960447698116,"58":-0.04964168174681754,"59":0.13758715418110992,"60":-0.07262469119073993,"61":-0.032845063888965555,"62":-0.11351527996014989,"63":0.010560371505080487,"64":0.05422580574013963,"65":-0.09917876193374382,"66":-0.054401414375988624,"67":-0.004940036919829575,"68":0.0058221939791083905,"69":-0.037676776009869364,"70":-0.09047883438946841,"71":-0.043069882564646625,"72":-0.04774618162697188,"73":0.01989060367009636,"74":-0.0930024582610883}},{"sx":5,"sy":5,"depth":3,"w":{"0":-0.024891451540011763,"1":0.0904140745617451,"2":-0.1071842559141969,"3":0.14027261597734625,"4":0.00666492397554619,"5":0.008306637309316736,"6":0.05643789449958287,"7":-0.09548110649358918,"8":-0.2984508474916319,"9":0.08733904449844689,"10":0.07816629744961656,"11":-0.05513489554404415,"12":0.06257466469797135,"13":0.06496828868731926,"14":-0.0847563784775113,"15":-0.07234803512883799,"16":0.05729890154106919,"17":-0.037014590648474587,"18":0.018678343111988918,"19":-0.11148825210442148,"20":-0.12762841409902792,"21":0.024339808242846338,"22":0.0058618215694609815,"23":-0.021051403613953162,"24":-0.04903236262814131,"25":-0.018370155121500288,"26":0.10210447869400041,"27":-0.039331335143090784,"28":-0.1524833542905246,"29":-0.06734734983859225,"30":-0.08802722468086234,"31":-0.11154511450610566,"32":-0.05386211180172867,"33":-0.013702947648673252,"34":0.09889188952758629,"35":-0.16766718472399386,"36":-0.14764063570338418,"37":-0.08912458330993209,"38":0.08309725902023236,"39":-0.13985514083214687,"40":0.08535006910679878,"41":-0.1306251608187277,"42":0.06464111192780238,"43":-0.06344376296999173,"44":-0.003596084084661161,"45":-0.05671702116867925,"46":-0.0337246346386348,"47":-0.024856998510962076,"48":-0.06061289949410128,"49":-0.010448651911865054,"50":0.014605241396509946,"51":0.020655970590975157,"52":-0.1146726141802744,"53":0.06225305677258216,"54":0.1703932955404075,"55":0.008549221979293616,"56":0.009656219624306578,"57":-0.0449233997357972,"58":-0.1673565072201761,"59":-0.03879882082473563,"60":0.008189047364117942,"61":0.1011200590441405,"62":0.042038177337796495,"63":0.029188470744562794,"64":-0.03855741923395746,"65":-0.04965330141702433,"66":-0.04280429295730745,"67":-0.17503170497840548,"68":-0.021243765383637522,"69":0.13689849909155424,"70":0.013540443857723393,"71":-0.06052376076029446,"72":-0.04835616960097903,"73":-0.053884659222413395,"74":-0.13018648662678858}},{"sx":5,"sy":5,"depth":3,"w":{"0":0.07264056165620317,"1":0.08404697387588304,"2":-0.12733437085445137,"3":-0.07213589608968574,"4":-0.09891088266428774,"5":-0.18575749756555895,"6":-0.056890575248663255,"7":-0.05171404210784664,"8":-0.002514538098357662,"9":-0.07753520684488122,"10":-0.06200893046435489,"11":-0.07770751224852135,"12":0.2180127685297887,"13":0.13742839621502276,"14":-0.010833300121489054,"15":-0.16290556704350473,"16":-0.048802726646543455,"17":0.002366323081316261,"18":0.03422988680286492,"19":0.16161676130516053,"20":0.03229897996470137,"21":-0.16172289335595286,"22":0.13984920709764567,"23":0.031792951148765396,"24":-0.1118602928452778,"25":-0.03343918661615725,"26":-0.23730449442240098,"27":-0.24162716727222794,"28":0.14659263912454037,"29":0.07018063927782063,"30":0.026830390188890697,"31":0.04092467761198321,"32":-0.08217132010576383,"33":-0.07184696064798682,"34":0.09777365719617027,"35":0.02132160945145864,"36":-0.13076483226385152,"37":-0.1096201189820777,"38":0.10364813655904291,"39":0.05864509162489054,"40":0.3591976437709187,"41":0.08604019187973558,"42":0.09525731480009521,"43":-0.012975452267571746,"44":0.22922521702148896,"45":-0.04498202655340725,"46":0.04308862689305855,"47":-0.004039126553039048,"48":0.01282134050475662,"49":0.07214061464567686,"50":-0.04010489417741809,"51":-0.056408384217334955,"52":0.1125980219900634,"53":-0.03693109709451952,"54":-0.1680836617815399,"55":-0.08182694558048882,"56":0.1567965761393212,"57":0.1667437774216935,"58":0.17925869334455433,"59":-0.18737120222226983,"60":-0.04583344534488188,"61":-0.03119116513860827,"62":-0.12773641209476197,"63":-0.1781381648277858,"64":0.05559554070286047,"65":-0.09683707984094807,"66":-0.22667670066379586,"67":-0.23311956301483994,"68":-0.17707100975738577,"69":-0.0622550125998287,"70":-0.12214986776577401,"71":0.08932455370949058,"72":0.04912222984873692,"73":0.0038820412057013797,"74":0.22008132677606332}},{"sx":5,"sy":5,"depth":3,"w":{"0":0.020342350484834678,"1":0.063965108548259,"2":0.0667768542815564,"3":0.057050681712209166,"4":0.0504191179752517,"5":0.1602920591032523,"6":-0.07194513685605797,"7":0.19571772890834793,"8":0.023854041965574443,"9":0.16559181602203504,"10":-0.1402569098099207,"11":0.040801380950966866,"12":-0.02728138364618752,"13":-0.015088673952910003,"14":-0.025096012107565988,"15":-0.028917224211901512,"16":0.18970410088685188,"17":0.05855973422477444,"18":-0.005326451920447723,"19":0.18394758344653747,"20":-0.07554606330402058,"21":-0.012160436896439343,"22":0.10677990920008443,"23":-0.1394958167010848,"24":0.11164109188908658,"25":-0.11992739059091811,"26":-0.03595774260506266,"27":0.065947325111369,"28":0.24557729678497733,"29":0.07899544630012365,"30":-0.23875202215226274,"31":0.05220430342860881,"32":0.025740044470074636,"33":0.31186954429429453,"34":0.05032355451754731,"35":0.009649828318554446,"36":-0.05035014540183201,"37":0.2544330785773129,"38":0.03217822087700841,"39":0.04982396902428433,"40":-0.02983680925349736,"41":0.18341436859920457,"42":0.07726301004536199,"43":-0.0006359414780972924,"44":-0.07792778850506855,"45":0.2684138390393364,"46":-0.14512269017881257,"47":0.11862108871494847,"48":0.003775855244639491,"49":-0.16448874355457033,"50":0.08666129888265442,"51":0.08177593427942263,"52":0.05903488793247601,"53":0.11561072427043094,"54":-0.006294542189152521,"55":-0.03864475354670289,"56":0.2278585406581395,"57":0.017669174558969977,"58":-0.08878375583539601,"59":-0.08686125384848203,"60":-0.15430206502379884,"61":0.09777607740476077,"62":0.06310555325744097,"63":0.10447008186603489,"64":0.22080552106878867,"65":-0.03736040270802939,"66":-0.1613335642057376,"67":0.03286622049639959,"68":0.09707728180358842,"69":-0.2453393214962997,"70":-0.057029249202662814,"71":-0.07899773355223408,"72":0.06605076566531032,"73":-0.03740991029661051,"74":0.053553682064156026}},{"sx":5,"sy":5,"depth":3,"w":{"0":0.024572927718582962,"1":-0.06867414203671418,"2":0.08002161538614831,"3":-0.23061483116486253,"4":-0.0993164591105304,"5":-0.25977263999291794,"6":0.10256261229387421,"7":-0.05475244332788122,"8":-0.08536172551328254,"9":-0.16963833750470675,"10":-0.1699756136269461,"11":-0.02150438384016442,"12":-0.13780334990544074,"13":-0.14464498454048916,"14":0.013438797572472024,"15":0.009745867362684728,"16":-0.0071774042508303436,"17":-0.06012558694556779,"18":0.15772357844427168,"19":-0.15183017667057508,"20":-0.1625158931182396,"21":-0.179615524396859,"22":-0.02806292129811782,"23":-0.3048718888112551,"24":0.012245344922185823,"25":-0.15195526966273973,"26":-0.10741048302842608,"27":-0.1983898526747889,"28":0.06565621064297959,"29":0.039727033873210055,"30":0.06679167846667834,"31":0.0929755464813049,"32":0.0399032075941924,"33":-0.10375649876676481,"34":-0.13749327395737915,"35":-0.08430977066034913,"36":-0.1459016398037353,"37":-0.005133534824561434,"38":-0.19695090885216238,"39":-0.043909510844454436,"40":-0.11853504456008136,"41":0.08447589831039151,"42":0.17583362727816143,"43":0.0991841703455462,"44":0.08155931081871075,"45":-0.07173729834173227,"46":0.008454432493081624,"47":0.04150661165872566,"48":-0.0175097847382567,"49":0.15439113921807987,"50":0.13691109471654891,"51":0.12628229251454387,"52":0.1253520601126769,"53":-0.06701170266251805,"54":0.04643456011104445,"55":-0.06996902071965685,"56":-0.039890285400481625,"57":0.16422713603208514,"58":0.2630260750681183,"59":-0.10492604065716421,"60":0.07057224725390002,"61":-0.005776635892523405,"62":-0.05840403505812184,"63":0.009177850332120287,"64":-0.01612747334943895,"65":0.047861374582579365,"66":0.11636750858921316,"67":0.10728883436231358,"68":-0.03726504874608141,"69":0.04105732556048376,"70":-0.09002886502607041,"71":-0.11116208518551637,"72":0.06301217391722849,"73":-0.04889608006142559,"74":-0.02887953461640183}},{"sx":5,"sy":5,"depth":3,"w":{"0":-0.05504495786685119,"1":-0.00800871518782294,"2":-0.10943703031231887,"3":0.29212633254697057,"4":-0.14413613434821657,"5":-0.05662290555836489,"6":0.17196180326175295,"7":0.13327095265000452,"8":0.10031745709027322,"9":-0.012782372368162287,"10":-0.14757207429058983,"11":0.02314708637931229,"12":-0.1030083802810818,"13":0.15915226573169874,"14":-0.11503417499923925,"15":-0.19026420679695022,"16":-0.03168958634535615,"17":-0.08743730546391011,"18":0.03060962071618046,"19":-0.30041729635783276,"20":-0.2017063632095663,"21":0.052140683207911986,"22":0.27085389941906096,"23":0.12592237843309698,"24":-0.2427270697910203,"25":-0.014533985224575646,"26":0.017549357566075688,"27":-0.24792974935133233,"28":-0.22845844068803325,"29":0.03228633571642559,"30":0.007285006982053336,"31":-0.07955597053679551,"32":0.025390739336693325,"33":0.24619722893784346,"34":-0.15494521218627352,"35":0.0849572633029822,"36":0.19568014250761676,"37":0.1573855066898433,"38":0.16363128998663426,"39":-0.04560780387124612,"40":-0.15515458603308566,"41":0.08662815779861228,"42":0.09211763092920872,"43":0.16961267442874814,"44":-0.16430708749499853,"45":0.10109695861113849,"46":-0.006263612576376274,"47":-0.19645854792905712,"48":0.13958834540986914,"49":0.04519051859755826,"50":0.12706323011262183,"51":0.05529522031478776,"52":-0.2172892033274107,"53":0.01867810129553545,"54":0.16240594391966096,"55":-0.11682122029279075,"56":-0.008012069813992967,"57":-0.09142249404640256,"58":0.016212403801122162,"59":-0.03374466937112788,"60":-0.07806605319879692,"61":-0.0859214011974183,"62":0.04717550892649523,"63":-0.11659724691623195,"64":0.01620679521672322,"65":-0.0450796267378258,"66":-0.15144283694438154,"67":0.06181621341412871,"68":-0.13344287009179934,"69":-0.2522816579982945,"70":-0.0023317951132017763,"71":-0.020425654409383535,"72":0.17389037568724294,"73":-0.007355242665122214,"74":0.060658768694598714}},{"sx":5,"sy":5,"depth":3,"w":{"0":-0.17230922811571356,"1":-0.05638300942847065,"2":-0.04468834363604385,"3":0.1587494886945896,"4":-0.03371453049266305,"5":0.15127958755813575,"6":-0.24316403541657125,"7":0.09334647819981062,"8":-0.18384551319410083,"9":-0.24435330865204724,"10":-0.08812548526502666,"11":-0.08256097532222778,"12":0.050497458479059516,"13":0.08553311902748033,"14":0.12278650252452912,"15":0.021249677025764586,"16":-0.045069937442927484,"17":0.027935105448002016,"18":-0.1449662544577673,"19":0.04451839360544831,"20":0.15798279766757686,"21":0.14418088362039352,"22":-0.09076504605157873,"23":-0.10778153215490295,"24":0.1583044856393773,"25":0.02393607266701856,"26":0.05241824293933331,"27":-0.07090684605767945,"28":0.21909753077989086,"29":0.1773928046763611,"30":0.042740417647009775,"31":0.05078424681191954,"32":0.154194768986308,"33":0.2509037588888441,"34":0.0040421339929763885,"35":0.08591852242221452,"36":-0.015595411459222492,"37":-0.004829250412328392,"38":0.010983533419557273,"39":0.08338485217736544,"40":0.07933388853240807,"41":0.0639461962353569,"42":-0.04030094630761124,"43":-0.04480057780852654,"44":-0.05737808131216482,"45":0.13893094979328108,"46":0.004144096832881913,"47":-0.008426400429486627,"48":0.0023625148563018107,"49":-0.1963843290283539,"50":-0.27283676933336676,"51":0.28820073469171337,"52":-0.024346527645341485,"53":-0.20867302251837513,"54":0.15563122415359587,"55":0.14071102256305315,"56":0.15016467251183757,"57":-0.016792638275521337,"58":0.11609918942906636,"59":-0.18789908805283131,"60":0.3038552837407963,"61":0.040705640806761194,"62":0.10053483662034456,"63":0.031112651742319534,"64":0.14815454675081885,"65":0.04094877280344828,"66":-0.03692904116978963,"67":0.08234824892487373,"68":0.06821386168130104,"69":-0.15463826654811383,"70":0.11321205630742323,"71":-0.04983561391663284,"72":0.14038766856868587,"73":-0.04366966403140389,"74":0.10856297844074038}},{"sx":5,"sy":5,"depth":3,"w":{"0":-0.046852919461401604,"1":0.005631630742804261,"2":-0.048309580980439595,"3":0.1015084641321806,"4":-0.0049829762123813565,"5":-0.12556339574111308,"6":-0.06120647716151845,"7":-0.06813977322136237,"8":-0.07537452658243306,"9":0.019409626011485062,"10":0.05988242674343637,"11":-0.07661997276633843,"12":0.012516478319392031,"13":0.2314635708056992,"14":-0.03835770215147012,"15":0.1610510221387236,"16":0.006172190159589086,"17":0.10465868962802169,"18":-0.08148476186637575,"19":-0.1643176529323713,"20":-0.005525614803196037,"21":0.008243566339518291,"22":-0.258235809894232,"23":-0.29507977081235914,"24":0.3019879794633327,"25":-0.18339875596442626,"26":-0.04881838997961299,"27":0.021562096255782242,"28":0.2143092885167883,"29":0.14266811022602377,"30":-0.00033425416546262724,"31":-0.14932759139642368,"32":0.05937313971453923,"33":-0.20901876371411784,"34":0.17652468070677368,"35":0.030220046917566853,"36":0.024629291509113294,"37":-0.002647961660374858,"38":-0.13153737270440322,"39":-0.11385711441127927,"40":-0.07274552457245823,"41":0.02303124777568858,"42":0.08121719885023795,"43":-0.06552875282831744,"44":0.05380711531576927,"45":-0.020114191788463173,"46":0.040239868542471385,"47":-0.24579745587706228,"48":-0.07239344295661934,"49":-0.11548279691365526,"50":-0.048526328455704856,"51":0.0231139086576526,"52":0.2288736866450266,"53":-0.03297036080167417,"54":0.11132438220080854,"55":0.03178151865441817,"56":0.12989100970571346,"57":0.22216777911172486,"58":0.21387173804113827,"59":0.05367405128698434,"60":-0.12137260558506802,"61":-0.12501139750580045,"62":0.10864590207633211,"63":0.18165182485255638,"64":-0.026674506790638843,"65":-0.022307654473380456,"66":0.011921960283406509,"67":-0.07712939044123884,"68":-0.08688925088144916,"69":-0.064354540537463,"70":0.11537917993396851,"71":0.06933529253764947,"72":-0.06839462100974844,"73":0.21409668002302526,"74":0.06763982668682061}},{"sx":5,"sy":5,"depth":3,"w":{"0":0.20258656993620297,"1":0.12494893942729372,"2":0.11459095513746982,"3":-0.0481035011891481,"4":-0.04217599684144512,"5":0.19758224599578997,"6":0.0812963300416811,"7":-0.03084058974445013,"8":-0.22382570165810062,"9":-0.10085391084282837,"10":-0.09618928150968434,"11":0.14880654804266724,"12":0.1573309117464822,"13":-0.09454699867906712,"14":-0.1955444673199392,"15":-0.05501088335296064,"16":-0.07743463138438446,"17":-0.0786659606037595,"18":0.022320891102767998,"19":0.21595755219479676,"20":-0.0837784542035209,"21":0.04162095194525854,"22":-0.029931421019684993,"23":0.01321933866926269,"24":-0.061925144555134676,"25":0.031770913019733206,"26":0.05038821252080436,"27":0.0734923932743384,"28":0.07013888846901054,"29":-0.13423990097189697,"30":-0.23899376090200897,"31":0.03257698037071447,"32":0.03358753203254028,"33":0.1642709337297356,"34":-0.16297443046882026,"35":0.081623692899556,"36":0.042671703711663164,"37":-0.027983808323451004,"38":0.02080296295681228,"39":-0.18994030222724295,"40":0.15313774413999587,"41":0.23978352499476366,"42":0.09222542261405932,"43":0.007263648464930665,"44":0.016415839541252503,"45":0.01292443364457507,"46":0.16028241545116298,"47":-0.1493318714882157,"48":0.013937399579320543,"49":0.20120134461805023,"50":0.08776255551102448,"51":0.013962246924968313,"52":0.03909200418978981,"53":0.028616811955653677,"54":0.19726023975717805,"55":-0.21899052027938956,"56":0.06959668808271638,"57":-0.06791913829772438,"58":0.0576446065978848,"59":0.24858346949850146,"60":0.11407933500631773,"61":-0.031720855177603285,"62":-0.008392163784791878,"63":-0.2040261718886109,"64":-0.18154505494080234,"65":0.027942607385978497,"66":-0.038366809186437666,"67":-0.1744156930990979,"68":0.08541540569576471,"69":-0.11656069224589724,"70":-0.029243468289613207,"71":-0.21602319219280466,"72":0.1437016015898115,"73":-0.035516828686253964,"74":-0.25447675456285157}},{"sx":5,"sy":5,"depth":3,"w":{"0":-0.09250986646250023,"1":-0.0832058582963431,"2":0.03939550541905575,"3":0.058991696058877725,"4":-0.0115544299877196,"5":0.02165239316390482,"6":-0.0978854682072634,"7":-0.08581761531593761,"8":-0.07228165456933795,"9":0.005736529378774807,"10":-0.04724501323067226,"11":0.034999266389954854,"12":0.016781331440116298,"13":0.027600687391270716,"14":-0.15416876306655028,"15":-0.13978693356985414,"16":-0.022993472010028857,"17":0.09491970436872622,"18":0.14433735777887827,"19":-0.1462685940043592,"20":0.026099527907233203,"21":0.04499208546793978,"22":-0.014091597483109916,"23":-0.017747161642194968,"24":0.052406329164501116,"25":0.10826811258349057,"26":0.10511188522364762,"27":0.13425311580345037,"28":0.14654004447787325,"29":-0.16673483091360125,"30":-0.16511042624001193,"31":0.04336536748021679,"32":0.0005723265423913586,"33":0.069888863061022,"34":-0.02563750596304247,"35":-0.0946050295557624,"36":-0.013971328535904857,"37":0.002350421521474761,"38":0.013069124650513535,"39":-0.10796829602332152,"40":-0.07521892368114792,"41":0.056455243695887815,"42":-0.07158967114858356,"43":-0.04318457303126622,"44":0.06286838866127735,"45":0.12464241124593364,"46":0.17405628948903384,"47":-0.05261843056717812,"48":-0.008881193657807998,"49":-0.008143108853106406,"50":0.010389163505741433,"51":-0.05863849616893579,"52":-0.17523850597660526,"53":-0.06934286260757547,"54":-0.052538060917545475,"55":0.11057355373174803,"56":0.05629985670769759,"57":0.27022355037683143,"58":-0.17483983239163822,"59":-0.012901204477476183,"60":0.03102854930762176,"61":-0.06975173469698316,"62":0.008785189006335244,"63":0.023623512500067625,"64":-0.008560063833351618,"65":-0.22019364112092632,"66":0.15275897712976724,"67":-0.25276364941774065,"68":-0.09713784649474108,"69":0.07167505288350898,"70":0.1542089554551599,"71":0.019817606230075592,"72":0.1092382921337147,"73":0.04901704926633843,"74":0.08759144774501071}},{"sx":5,"sy":5,"depth":3,"w":{"0":-0.06713509527284826,"1":-0.09702323780235214,"2":0.18489251217637545,"3":0.2165458424755303,"4":-0.12022565617473512,"5":0.03207346122347763,"6":0.025623694627682634,"7":0.11206559557490987,"8":-0.1617853605121806,"9":-0.09821456058705501,"10":-0.15183366482475638,"11":0.07702706146999089,"12":0.089721653509313,"13":0.18084859353921537,"14":0.022223737582418024,"15":-0.016881821055112475,"16":0.21787739739784376,"17":0.035630504440423184,"18":0.007902947310766656,"19":0.09280906887792977,"20":0.12353707590383549,"21":-0.07532199410121115,"22":0.15010503337165298,"23":-0.09381970285385854,"24":-0.00877717286959029,"25":0.10139060412144205,"26":-0.14608045593986874,"27":0.04707526732884448,"28":-0.11551766590791786,"29":0.0020480229396367886,"30":-0.008348990129363545,"31":-0.04398660856648426,"32":-0.029624235531295506,"33":-0.14755943814961336,"34":0.08184559197307545,"35":-0.04379821035302064,"36":-0.16573384288410703,"37":-0.08794970486627478,"38":-0.025181849127125663,"39":0.2685750499391947,"40":0.05848953058378213,"41":-0.02822914037027957,"42":0.03420287272486222,"43":-0.030198391913060594,"44":0.058318959964319496,"45":0.05677261029674996,"46":-0.059623976266131536,"47":0.008444334605479983,"48":0.0464881683701608,"49":0.006519649134464211,"50":-0.10166173412157092,"51":-0.05066026105480418,"52":-0.08353323889401203,"53":0.12215422306649845,"54":-0.010170629477847519,"55":0.2643642567850772,"56":-0.04266010379384044,"57":0.013588515119883373,"58":-0.0061047147478726525,"59":-0.2042374125240055,"60":-0.06515645022892459,"61":-0.19545447262114857,"62":0.09300341621862551,"63":-0.06504946045384513,"64":0.04474496944075871,"65":-0.022514308595148903,"66":-0.09058134774024033,"67":-0.03878746923941883,"68":0.03391791693135557,"69":-0.21540815711485675,"70":0.16144145487990225,"71":-0.2768598761264788,"72":0.039146789451145074,"73":-0.11893784029796949,"74":-0.11618605309773802}},{"sx":5,"sy":5,"depth":3,"w":{"0":0.0011099664428024143,"1":-0.03916820196606687,"2":-0.18793235083774507,"3":-0.12973659661408107,"4":0.05896764445720148,"5":-0.06596310731053213,"6":0.20616701545151075,"7":0.048486677842703024,"8":-0.02887324966404533,"9":0.019515201732305757,"10":-0.2245423477299158,"11":0.02127154831063632,"12":0.024756028373072697,"13":-0.09722078833161707,"14":-0.08201633078986822,"15":0.1208105860193278,"16":0.010293475529160517,"17":0.016260158548902337,"18":-0.03908803103911836,"19":-0.07053329928409847,"20":0.14982539371658535,"21":0.0957323157543684,"22":-0.016631001499571973,"23":-0.04225298662514203,"24":0.08654078343971604,"25":0.10842062475994704,"26":-0.13851202593095124,"27":-0.03749825219788622,"28":0.06732402470369726,"29":0.059371684424745275,"30":-0.16535884970179543,"31":0.1058127006796993,"32":0.10825666433410334,"33":-0.3123651732122222,"34":0.002291984161533589,"35":-0.13152074561449018,"36":0.03911165229524842,"37":-0.03580978306710906,"38":0.26919783344340004,"39":0.18288521399083038,"40":-0.13813076238178632,"41":0.012944557287081609,"42":0.021830177519879937,"43":0.12502347381997825,"44":-0.03224303475073395,"45":-0.18611343321642587,"46":-0.05045974464030731,"47":0.11173478066848186,"48":0.040239559650752585,"49":0.046623357569452004,"50":-0.12557083672199817,"51":0.021696603849806657,"52":0.09302230707748434,"53":-0.09318261826595109,"54":-0.0310718671843495,"55":-0.005852289556366633,"56":0.2222634287939314,"57":-0.0190675514640618,"58":-0.033759393399962014,"59":0.03950200432166717,"60":0.10854568849134845,"61":0.03081971935628354,"62":0.04584507707482728,"63":-0.09846221775775088,"64":0.10474597458223586,"65":0.0634309739647468,"66":-0.25736106508168133,"67":0.06790294735332893,"68":0.13467322664404627,"69":0.07572762619006931,"70":0.09727935792345391,"71":-0.012519609691600963,"72":-0.02976154770268244,"73":0.01132722865490928,"74":-0.02501756239459718}},{"sx":5,"sy":5,"depth":3,"w":{"0":-0.04380591698636549,"1":-0.17321389878640725,"2":-0.07044528946987785,"3":0.09136845665497724,"4":0.11003970221056063,"5":0.0550285186304909,"6":0.11435009498841174,"7":0.056544410482561216,"8":-0.005231550791122951,"9":0.016209590987275667,"10":0.2492441283586847,"11":0.06943943781823567,"12":0.021190905633882214,"13":-0.061241031931352115,"14":0.009626326988375214,"15":-0.018769459601658378,"16":0.09525730281977693,"17":-0.03974669843286006,"18":0.01897944024231104,"19":0.08372787994532181,"20":0.004406792152701872,"21":0.1386127104384456,"22":-0.04169337019811449,"23":0.15530925340663812,"24":-0.05947630814386139,"25":0.11788548896304413,"26":0.06016925964193168,"27":0.056270121308024335,"28":-0.11090607597983691,"29":0.24924740517526214,"30":0.31972765833269995,"31":0.01814143616065244,"32":-0.06727680082745431,"33":-0.041460176679250525,"34":0.07937400775231855,"35":0.002069896552283242,"36":0.24821249894206482,"37":-0.014536383386400625,"38":-0.02120534581479498,"39":0.05800868935614635,"40":-0.00951853278036565,"41":-0.05896733787396458,"42":-0.3222188290720714,"43":-0.11555958523750237,"44":-0.10772378654103094,"45":0.030465419333200013,"46":0.047217303011162774,"47":-0.012496964143703956,"48":-0.04202607645397248,"49":-0.023431346082252343,"50":0.26963255862968155,"51":-0.012815292209584845,"52":0.14989246492893116,"53":0.16546058317272597,"54":0.0671865989218138,"55":0.0026603227094070007,"56":0.004582141406757408,"57":-0.20051235936780007,"58":-0.14799189495326412,"59":0.031827082025481124,"60":0.09877287633424671,"61":-0.0057997206338405395,"62":-0.27779105323915426,"63":0.03857116393127122,"64":-0.1885171360366883,"65":-0.20896526767805595,"66":-0.059340779093775914,"67":-0.07829831522217857,"68":0.056738486547590866,"69":-0.09967320250768609,"70":-0.09541453871085648,"71":0.011869527219249342,"72":0.03866840705961564,"73":-0.33114669903445143,"74":-0.060817305293776665}},{"sx":5,"sy":5,"depth":3,"w":{"0":0.019669431243520705,"1":-0.10772515122054241,"2":0.026621939189161607,"3":-0.13478573713846567,"4":0.1823328188174824,"5":-0.1157744043004155,"6":0.19570447298543545,"7":0.19102874748419021,"8":-0.2732420316314824,"9":0.08513299768745652,"10":-0.06199997963514305,"11":0.02741204330667445,"12":0.0809125602599886,"13":-0.2536930616053551,"14":-0.0644315314080452,"15":0.08562078201413546,"16":0.02094618720929687,"17":-0.08387230052657615,"18":0.1004373783250731,"19":0.21113196395307857,"20":0.05515264550197051,"21":0.28339384626926584,"22":-0.016177067735258028,"23":-0.012128741291465463,"24":0.11367119155072591,"25":0.08858677592890486,"26":-0.006008349677933045,"27":-0.11842657516784863,"28":-0.15189126583735474,"29":-0.031715340758277345,"30":-0.019999275474712468,"31":0.25368078353146445,"32":-0.06610518469124786,"33":0.08157536482454963,"34":-0.12082945781368656,"35":0.12641074201317395,"36":-0.11008327058226695,"37":0.034215088924810885,"38":-0.008217412355392863,"39":0.07212541616605261,"40":-0.009662981337974934,"41":-0.04846737478276125,"42":-0.08780781782886674,"43":0.10685376358189518,"44":-0.13188642818204666,"45":-0.0163894483091371,"46":-0.11835853971609388,"47":-0.07607840167221103,"48":0.04934852897448886,"49":-0.24353043103977995,"50":0.18252148288486023,"51":0.034822455148618474,"52":0.07503401485142261,"53":-0.003963015520488638,"54":-0.038897780902062216,"55":-0.16386945397091165,"56":0.035361078796264864,"57":0.013627309436324009,"58":-0.08484934426051341,"59":0.06600928446422046,"60":-0.07923439058627517,"61":-0.20088401480076895,"62":-0.0520087258500578,"63":0.04840484941958158,"64":0.05985990682496846,"65":0.0013050686629734124,"66":0.1489575004309344,"67":0.23123484540058092,"68":-0.1377443369468542,"69":0.10222363664198889,"70":-0.11247445073418022,"71":-0.08265734423575133,"72":0.00642981218908238,"73":-0.012568585767904664,"74":0.03230702490200827}},{"sx":5,"sy":5,"depth":3,"w":{"0":0.19607805927195346,"1":-0.00027885332584117026,"2":-0.04273248783799045,"3":-0.09788142043835757,"4":0.07884105748301802,"5":0.0165716974494178,"6":-0.05921194861305095,"7":0.24551009452311218,"8":-0.2431701433314511,"9":-0.06528170277459716,"10":-0.05073425630146001,"11":-0.18847439678020372,"12":-0.11208900739369884,"13":0.10736948532636664,"14":0.052160194382084135,"15":0.18007215032921592,"16":-0.09149187973356368,"17":0.019058559283214895,"18":0.20567176087083017,"19":0.0002066722809598265,"20":-0.08261483451174555,"21":-0.03626730383355276,"22":0.04574068855432859,"23":0.03635641269517618,"24":-0.07904539528571547,"25":-0.11518587312911349,"26":-0.10074075840109006,"27":0.0010684312098946898,"28":-0.10835919574196794,"29":-0.10732560920954061,"30":0.005472850737561987,"31":0.1037374140793839,"32":-0.10823454500537817,"33":-0.023977586686779875,"34":0.10246635066612697,"35":-0.06778697412032463,"36":0.18161405026230956,"37":-0.053900643238294105,"38":-0.05705270261066154,"39":-0.17454950714406112,"40":-0.02072106518341687,"41":-0.01755896531681147,"42":0.12441030783888919,"43":-0.030273650012089065,"44":0.014918836323220077,"45":0.20152147799216483,"46":0.17061112984807855,"47":-0.03349415538520027,"48":0.06830425654162091,"49":0.07157649930796374,"50":0.09726011950232763,"51":0.18059122530031863,"52":0.13376212493797232,"53":0.19510708368391647,"54":-0.08882699044257836,"55":-0.10923892737639254,"56":0.12318835514379405,"57":0.08272082503049258,"58":0.18918093860291363,"59":-0.16919987045281953,"60":0.03583894336656317,"61":0.0016536016318551387,"62":0.27821242600434687,"63":0.07895183514313316,"64":0.006127169176498287,"65":0.012972104352610706,"66":-0.01468663791699935,"67":0.004638248487938256,"68":-0.14293041367942866,"69":0.09033189224241188,"70":0.18328808315656603,"71":0.10180121014105349,"72":0.06472760552452493,"73":-0.12758339249660341,"74":-0.06389982558597286}},{"sx":5,"sy":5,"depth":3,"w":{"0":0.20144933818236335,"1":-0.03658567730255485,"2":-0.029524374898947853,"3":0.15677085068860663,"4":-0.015317032575024819,"5":-0.02436159664758003,"6":-0.03044309193365007,"7":0.08516454654685762,"8":0.14177628326316227,"9":0.15558680096657715,"10":-0.10632813771358296,"11":0.001820638316798153,"12":-0.030799396587710276,"13":-0.16419435765167922,"14":0.07018030138403998,"15":0.002163932245320039,"16":0.14900602950988728,"17":-0.0473562107238936,"18":0.0906971499228173,"19":0.04067099819399262,"20":-0.050150051527474135,"21":-0.08422119939628354,"22":0.061169701146656784,"23":0.034513403592761185,"24":-0.16496017720290734,"25":-0.12553171660660734,"26":-0.06951426656374539,"27":0.12865373877047553,"28":0.05054886718750056,"29":-0.08440880412186699,"30":0.06666670120141542,"31":-0.017662678829554662,"32":-0.07416746763700986,"33":0.251939362298115,"34":-0.012729146622444303,"35":-0.03365059670025055,"36":0.3442032764818802,"37":0.22127255604253437,"38":-0.1162067558267266,"39":-0.1139156448414008,"40":-0.049562090005715986,"41":-0.11314971220376013,"42":0.047878560820480705,"43":-0.0956388057112465,"44":0.13311148950798943,"45":-0.03584319998833257,"46":-0.025245160522251467,"47":0.11860343422391274,"48":0.1527613806051364,"49":0.11518501044608612,"50":0.021833705802158293,"51":-0.09063450492133565,"52":-0.033115868039635926,"53":0.1478091040667359,"54":-0.04821278298860928,"55":0.04363825681186637,"56":-0.045045159442117,"57":-0.0006175159693585001,"58":-0.010030415912152264,"59":0.018622135996678404,"60":0.06471757975491331,"61":-0.03067063407721543,"62":0.09218398572325032,"63":-0.03737548624799115,"64":-0.05097052382396059,"65":0.173505849953782,"66":0.07963641865121492,"67":0.18368287067088374,"68":-0.036284695880562226,"69":0.2750861242463286,"70":-0.07127733129261775,"71":0.0582695599036193,"72":-0.10760891831676406,"73":0.20216199023608875,"74":0.20906277386333907}},{"sx":5,"sy":5,"depth":3,"w":{"0":-0.17088025357318157,"1":-0.1755203221352055,"2":-0.18289508975604893,"3":-0.20899537254450196,"4":0.014490395220613614,"5":0.07778170411933841,"6":0.029701995846750078,"7":-0.08686145590774703,"8":-0.10028278387579478,"9":0.08657592633596863,"10":-0.19563343068558972,"11":0.012904882956736112,"12":-0.050375872282489326,"13":-0.020411949756123537,"14":-0.14243446326951326,"15":0.01737155654072554,"16":-0.2748312364237002,"17":-0.0400119766171747,"18":-0.06931609650025994,"19":-0.07982898250728808,"20":-0.13999010113634647,"21":0.2542725830808626,"22":0.08624186057391749,"23":-0.17582284693733463,"24":-0.17978849004079878,"25":-0.05008820383867373,"26":-0.08635785392924374,"27":-0.061545067192636464,"28":0.09623875285729017,"29":0.03324779633674186,"30":-0.08987285446393586,"31":-0.19172518718538734,"32":-0.12127582262248938,"33":-0.06388433207742313,"34":-0.01964644801301733,"35":-0.005025286788029868,"36":0.026465557007697437,"37":-0.2731540493266482,"38":-0.2892813436825165,"39":-0.04967305103246553,"40":-0.04081134376694968,"41":-0.004173835378484778,"42":-0.11713687804154223,"43":-0.025308287754792113,"44":-0.1392007831132696,"45":-0.15539866161696653,"46":0.06466914183763217,"47":-0.3235839699936672,"48":-0.02909377385944777,"49":-0.08614206424312594,"50":-0.20746513678509185,"51":-0.03015527890581281,"52":-0.1766800930535411,"53":-0.11047240188460201,"54":0.062018762036512784,"55":-0.02064054756305228,"56":0.04541181424697194,"57":0.054261277759073634,"58":0.1107918892491487,"59":0.0253382937411862,"60":0.1954345561447729,"61":-0.2836074212433356,"62":0.016312782288478316,"63":-0.005031241732090755,"64":-0.0777323719608458,"65":0.06374767553150146,"66":-0.06763165894536716,"67":-0.07953761766020065,"68":0.008128848530261645,"69":-0.23156980002716637,"70":0.07665233095687367,"71":-0.1632160803367005,"72":-0.23025507201334228,"73":0.04669640976699821,"74":-0.00857959401283893}},{"sx":5,"sy":5,"depth":3,"w":{"0":0.007075528375638151,"1":0.046984776210433246,"2":-0.09914311177887686,"3":-0.15451589386663017,"4":0.06881267865342981,"5":-0.06788407631311136,"6":-0.03609179536714062,"7":-0.07844168073042714,"8":-0.18065360742124925,"9":0.01975303570377789,"10":-0.010785999218432206,"11":-0.19074477758825492,"12":0.03935117691450576,"13":-0.18540085934805517,"14":0.20717332107235395,"15":0.1780476870646611,"16":-0.13735498939046584,"17":0.06915083729069023,"18":-0.05264026193889834,"19":-0.10505583972118447,"20":-0.12094810600947606,"21":0.058111180451719535,"22":-0.007383804342319262,"23":-0.11932883967508259,"24":-0.040821952057916396,"25":-0.12558741469176327,"26":0.06842824915107859,"27":-0.08849757027252572,"28":-0.09280142144416305,"29":-0.13526788099071935,"30":0.06547977219347356,"31":-0.05766458949912913,"32":-0.06240763790337841,"33":-0.05712487261312136,"34":0.0498892874243613,"35":-0.1892852541217967,"36":0.011062511816002712,"37":-0.05533202363979847,"38":-0.06274425632381432,"39":-0.1343472769633101,"40":-0.23385848834433692,"41":-0.07348127405378521,"42":0.20416394186906273,"43":0.0674174531897365,"44":0.054068911391382514,"45":-0.036314314975190304,"46":0.05989508997238801,"47":0.04568320132182049,"48":-0.08306618208422782,"49":-0.09886379350981628,"50":-0.25956218947467835,"51":-0.0674668169567062,"52":0.0750357436308087,"53":-0.08422893761544638,"54":0.10494593653260081,"55":-0.02176028187245512,"56":0.16949656637139016,"57":-0.061575931615372746,"58":-0.32400597506071416,"59":0.08762753263750413,"60":0.042099311511532386,"61":-0.02150108526631861,"62":0.19015285186786704,"63":0.005603331140536866,"64":0.10325295579587253,"65":-0.11459536840876708,"66":-0.015542463380342196,"67":0.07600232127855536,"68":-0.058560242842502976,"69":-0.06151354683375199,"70":0.027862780288359514,"71":-0.3143393593786009,"72":0.06267935510857794,"73":-0.2124828961830632,"74":-0.06866080300753921}},{"sx":5,"sy":5,"depth":3,"w":{"0":0.16216526891318933,"1":-0.24836194800068337,"2":0.07095412019539861,"3":-0.010176679390245863,"4":0.0773374824892997,"5":-0.10662906830254308,"6":-0.04451319233900386,"7":0.16238220589520394,"8":0.1422150955793658,"9":-0.010374084928528829,"10":-0.14637987363328303,"11":0.008583887151233588,"12":0.08449931710211918,"13":-0.32943391964623403,"14":0.0009732380264820321,"15":-0.0704605723809964,"16":-0.031493712977994595,"17":0.03319680854140356,"18":-0.06026517214028402,"19":0.0642280603656681,"20":0.005766525552343486,"21":-0.20415607521700788,"22":-0.15984421717532046,"23":-0.2678466649596335,"24":0.021142123150715352,"25":-0.07856688962581711,"26":-0.1732104215371752,"27":-0.024359098743807157,"28":-0.02889498971169122,"29":-0.14846381411053725,"30":-0.15919249660953974,"31":0.09060223709464874,"32":-0.13588463515115634,"33":0.04160436629793732,"34":0.11538770867494459,"35":-0.02218375005044396,"36":0.08653922411603127,"37":0.023759115938924654,"38":-0.06060523052781426,"39":0.011977033297814795,"40":0.020495874009015435,"41":-0.07427422666399594,"42":0.017580600824969348,"43":0.01683303161044849,"44":0.18647983322268372,"45":0.02480613058163807,"46":0.1045907250286704,"47":-0.03787694849489478,"48":0.040794685357929246,"49":-0.07457413941826382,"50":0.15280007390258962,"51":0.21276516229363435,"52":-0.058808628645238906,"53":-0.11075438816933939,"54":0.18187923772839482,"55":0.015213340400824041,"56":-0.037249465983765405,"57":0.10641470502060103,"58":-0.02531428291207262,"59":-0.22830743430532802,"60":-0.0725210434092557,"61":0.24130143836189233,"62":0.005936852276984152,"63":-0.05338189421502077,"64":-0.11821572487791873,"65":-0.09037302482742177,"66":0.2581234495222922,"67":0.04397158977448618,"68":0.02505925290811328,"69":0.04390762224621921,"70":0.010839668789967623,"71":0.2186051639644062,"72":0.20320791574614486,"73":0.17958514281910493,"74":0.08627335088051703}},{"sx":5,"sy":5,"depth":3,"w":{"0":-0.00929479813272891,"1":0.17105140304213745,"2":0.004968711407718217,"3":0.034761094020226944,"4":0.1396170163715112,"5":-0.2199437165470513,"6":0.10170153901291523,"7":-0.06726213861135281,"8":-0.04307910326873027,"9":-0.2014055812811451,"10":0.002373330219915864,"11":0.024723619694373377,"12":-0.1999753507634316,"13":-0.21584446098392257,"14":0.01571707761541766,"15":-0.1795952760800343,"16":0.09861302019779494,"17":-0.15103707070712455,"18":0.04097884220773194,"19":0.13197939957699387,"20":-0.13569071013463643,"21":-0.15551811536293084,"22":0.10708131887752617,"23":-0.11397644911771156,"24":0.23882812950427415,"25":0.13772176704199562,"26":0.19516001373399358,"27":-0.12530563886718887,"28":0.10719579366748068,"29":0.04838719295512037,"30":-0.2996905580822707,"31":-0.10006206257718579,"32":0.04991320680115572,"33":0.05897272324146401,"34":-0.16351691379600633,"35":0.1280033748672869,"36":0.12038909076231931,"37":-0.09144829441484131,"38":0.05558867796064656,"39":-0.006332065556862801,"40":0.23950609531383815,"41":0.040413821604968675,"42":-0.09894675802754815,"43":-0.0806639026481994,"44":0.03726461942268821,"45":-0.033309432462011755,"46":-0.04183274011783712,"47":0.0161461707726754,"48":-0.22812541395337027,"49":0.06771377232843076,"50":0.19258746280642683,"51":0.11676135517895166,"52":0.21652618107361393,"53":-0.07939426922499918,"54":0.017338219166826947,"55":-0.000052906583995570616,"56":0.12086611991312551,"57":0.11229688962153252,"58":0.06647792508933979,"59":-0.13298935353334235,"60":0.025610473069092806,"61":0.14468617249872784,"62":0.06982476870195378,"63":0.05708231947881313,"64":0.044993213648452386,"65":-0.02648613978571765,"66":-0.11393223273762841,"67":-0.0334967229559619,"68":-0.02231279536698253,"69":0.0434655322077667,"70":-0.114477061936938,"71":0.1260376162725219,"72":0.01281497013807944,"73":0.0360409687526972,"74":-0.02933617418764556}},{"sx":5,"sy":5,"depth":3,"w":{"0":-0.07290186275984226,"1":0.09533105226360165,"2":-0.01903261753562608,"3":0.1776280278759179,"4":-0.1159928063623617,"5":-0.003967825387528737,"6":0.038343724987347436,"7":0.05652844703149265,"8":-0.012337118364939033,"9":0.13792450108770246,"10":-0.049738016501822656,"11":0.06426522454475043,"12":0.03412206126523591,"13":-0.050359895312582025,"14":-0.03891663771131724,"15":0.1860524174807214,"16":-0.006923932211840223,"17":-0.09640450344043369,"18":-0.08211370563606131,"19":-0.15918712880790975,"20":0.1257205260026266,"21":-0.00449765575221866,"22":-0.21406971544698758,"23":-0.1575293980188994,"24":0.10261683913765471,"25":-0.13587678060769218,"26":0.1557608283859665,"27":0.11979421880679125,"28":-0.22205534482035938,"29":-0.032083810077447324,"30":-0.04039611074616402,"31":0.002295905990584399,"32":0.14564396622602738,"33":0.014269140770505456,"34":0.017240189994515483,"35":-0.18308765564433774,"36":-0.07773172290987866,"37":-0.014189317878118434,"38":0.1344751815280025,"39":0.10680236409250553,"40":0.037847886600107565,"41":0.009959276369788063,"42":0.11230105281796947,"43":0.07013002019450179,"44":-0.20717550781801913,"45":-0.1344709488172614,"46":-0.0954161503001426,"47":0.12133598728616156,"48":0.09039180417888508,"49":-0.11939435424690804,"50":0.1500846677515214,"51":0.0020130913885943996,"52":0.03674231021286943,"53":0.046360715344688136,"54":0.06561391663051395,"55":0.1722857093768054,"56":0.13117106143207669,"57":-0.10484777407236845,"58":-0.11177076993005854,"59":-0.06187413042419514,"60":0.022532507565783535,"61":0.034265135189933876,"62":0.07636798307139725,"63":-0.13573475741421384,"64":0.023075029892442627,"65":-0.1601554651914784,"66":-0.03651194058192157,"67":0.12668752516904197,"68":-0.03784536559767465,"69":-0.021804067686292092,"70":0.13238489798772582,"71":0.13443626165502237,"72":0.12862117851280447,"73":-0.2502127405725869,"74":0.12748100895387515}},{"sx":5,"sy":5,"depth":3,"w":{"0":-0.006074255637763399,"1":0.059682126672938506,"2":-0.23483514856091267,"3":-0.12351638110839434,"4":-0.20269550064685027,"5":-0.16896689267788212,"6":-0.056191309094483166,"7":-0.04159994027821424,"8":-0.014476359554416417,"9":-0.10947701465207343,"10":-0.10671176468468077,"11":-0.12664582344066325,"12":-0.23347131326345893,"13":-0.0652148221478602,"14":-0.1616151179033254,"15":-0.04584300871362429,"16":0.15041860384284278,"17":0.06207892424572328,"18":0.009342935637410198,"19":-0.03793128828722193,"20":0.04580259350316119,"21":0.12358553769571888,"22":-0.010681314729863105,"23":-0.022289131612887803,"24":-0.225167905281888,"25":0.049137202457733786,"26":-0.1428135514052996,"27":0.13382484449481755,"28":-0.13247491499699804,"29":-0.08300300908571305,"30":-0.009682624099490425,"31":-0.039144128906724064,"32":-0.07280712625808138,"33":0.011842098344522106,"34":0.040360239040614504,"35":0.10735442899409517,"36":0.043585881786869805,"37":-0.005561576218473258,"38":0.1792670393271465,"39":0.12115630010922485,"40":-0.015812780409678512,"41":-0.05799790499729322,"42":0.0486433536118703,"43":-0.031360961797802116,"44":-0.12618011253540565,"45":-0.0182722569342336,"46":0.021150102714518417,"47":0.04112703571940352,"48":0.05882965326315006,"49":0.01904120309545444,"50":-0.09075816361348048,"51":0.029171880350679708,"52":-0.007841789870833046,"53":0.0942248254877542,"54":0.07684681371867667,"55":0.0908264680818832,"56":0.08517012910262382,"57":-0.03468538274587036,"58":0.09359247056094007,"59":-0.0854944216071166,"60":0.15164262514792623,"61":0.23983689066406252,"62":0.11919543099495494,"63":0.122786289950933,"64":0.1352987460638418,"65":-0.010366720304348659,"66":0.08521518149017869,"67":0.1487748037404957,"68":0.2181621312171467,"69":-0.017519281073566116,"70":0.14806409897615797,"71":0.039203879381529035,"72":-0.10911527176882659,"73":0.14252752108595843,"74":-0.059522170537961445}},{"sx":5,"sy":5,"depth":3,"w":{"0":0.07720637887185436,"1":0.1953711188637055,"2":-0.0506311596585393,"3":0.036721692561006186,"4":0.006903914285143043,"5":0.058724814358268006,"6":-0.003685617551531967,"7":0.006174541847900426,"8":0.08396312354950161,"9":-0.11943899913845428,"10":-0.06360698477815224,"11":-0.0100753101442185,"12":0.04582960561341143,"13":-0.1338421497933256,"14":0.019881424050613824,"15":0.004995344020581226,"16":0.13080516496105846,"17":-0.02550775161100636,"18":0.09294843925655612,"19":-0.11235439021335583,"20":0.055584805137437285,"21":-0.035017619025694016,"22":-0.06233831668590648,"23":0.38869195632294484,"24":0.1451646674642118,"25":0.14098317485575218,"26":0.014942020326881284,"27":0.08839314975856159,"28":-0.238771323066847,"29":0.10257026767223208,"30":0.14795612393045693,"31":0.07641021778813659,"32":-0.0936431066192344,"33":0.08193314293125294,"34":0.1859925883507064,"35":-0.1283266580475157,"36":-0.047184501781405194,"37":0.018856089177057382,"38":-0.04827206352226465,"39":0.14412643018636848,"40":-0.18777833205323102,"41":0.04517920887470165,"42":0.005663931864942191,"43":-0.1685117016112986,"44":0.09600158659106874,"45":-0.027372225351877798,"46":0.01912161224827935,"47":-0.0510379115427194,"48":0.07619946293969525,"49":-0.13992017535021167,"50":0.15199496854166478,"51":0.18692758865101713,"52":0.11719194693915946,"53":0.11930111824192086,"54":0.02828016296640718,"55":-0.02514280155328788,"56":-0.039121619729336046,"57":0.060955425521732276,"58":0.04219828824208321,"59":-0.04199054563313808,"60":0.06028588744579352,"61":0.09378387746485084,"62":0.0018962953277571822,"63":0.05971858476220138,"64":0.1500483477251876,"65":0.08894449723510689,"66":-0.1124210544500554,"67":0.21317867771376015,"68":0.20529929118942555,"69":0.28906377287512447,"70":-0.06186709867067524,"71":-0.04420052623663846,"72":0.017832460445329462,"73":-0.1188389515039357,"74":0.08826353722501297}},{"sx":5,"sy":5,"depth":3,"w":{"0":0.09761031943287954,"1":-0.12345722825660385,"2":-0.2519315022694317,"3":0.003941263477045841,"4":0.21669643299571328,"5":-0.0800597206841193,"6":-0.035623113748172175,"7":0.14991447180738532,"8":-0.09977164954293147,"9":-0.027636177576287325,"10":0.2450816083359816,"11":0.0967269343041715,"12":0.06594408645276185,"13":-0.09749212803782001,"14":-0.002094639223924161,"15":0.13675504478966358,"16":0.10324862360248094,"17":0.055175169749072626,"18":0.25126231092507817,"19":0.05487588380817474,"20":-0.0236660930126012,"21":0.013104142201572088,"22":0.1653643784191565,"23":-0.012756536624606218,"24":-0.151498802455942,"25":0.2022558027294905,"26":0.03596093300988269,"27":-0.04354890925169231,"28":0.02472638979846011,"29":0.031044072021815635,"30":-0.12460617119971683,"31":-0.1458512949753955,"32":0.028283323798792295,"33":-0.18614038229936428,"34":-0.12398754836695057,"35":0.040249421979271074,"36":0.022574906917809837,"37":0.027750139525192785,"38":-0.06370992429046296,"39":-0.07379890921671442,"40":-0.21316337830267254,"41":0.10373421818289383,"42":0.06798558336702802,"43":0.06783408748035222,"44":0.13321264729884555,"45":0.05534601577906577,"46":0.040770933714633494,"47":-0.12066786439318142,"48":-0.01418502394744043,"49":-0.09787139314026948,"50":-0.1406298135794919,"51":-0.15416382602172596,"52":-0.06991301622822226,"53":-0.264151184861206,"54":0.03372921843877244,"55":-0.24157656485895135,"56":0.06899740132956604,"57":-0.011291838098777655,"58":-0.008427992494052992,"59":-0.022364389758512345,"60":-0.027775542484476088,"61":0.10562099507874591,"62":0.04999169420057832,"63":-0.09458452204916738,"64":-0.011875077152826024,"65":-0.18491464844041863,"66":-0.02196345370331213,"67":-0.18635441286719048,"68":0.10152513537350233,"69":-0.2836727790826818,"70":0.3319547582120667,"71":0.11334655852680628,"72":0.002425703247967949,"73":0.011204709571427034,"74":-0.07060263263640269}},{"sx":5,"sy":5,"depth":3,"w":{"0":0.023706347835253043,"1":-0.05474988177144509,"2":-0.001660993335837005,"3":-0.04883124103571088,"4":0.0633747798113883,"5":0.051845495776797194,"6":0.13176270080648944,"7":-0.0880795351196319,"8":0.051542597685609794,"9":-0.047479578426929445,"10":0.0634713651985463,"11":-0.18119978077522214,"12":0.06479029408956416,"13":-0.07709753218013303,"14":-0.042689678053161165,"15":0.2516436108268909,"16":0.00924436519207284,"17":-0.1268150373822614,"18":-0.08387431762026284,"19":-0.06146275705252635,"20":-0.04982323319557457,"21":0.0507608636651009,"22":-0.01945451597459004,"23":0.17616818863447953,"24":-0.11365574825778961,"25":-0.16750514543098022,"26":0.08683467938683367,"27":-0.10911771895954518,"28":-0.09250120078238287,"29":-0.2875260546249534,"30":-0.13325546134242908,"31":-0.02173478927294853,"32":0.1427650625076865,"33":0.1884766868161264,"34":0.2597049524110263,"35":-0.22947473484244812,"36":0.06876240538260547,"37":-0.02216903793185994,"38":-0.05691073031480366,"39":-0.024665866565336484,"40":-0.016618246980557493,"41":0.08998504188343004,"42":0.04403066367707656,"43":0.006375318369946737,"44":0.16427808029723928,"45":0.051160184106964046,"46":0.16553162188323658,"47":-0.12325235208006731,"48":0.09125897614731313,"49":0.18472581151000406,"50":-0.03817129887831607,"51":0.1300106564234547,"52":-0.09964504034575533,"53":-0.01295881744832698,"54":0.004904481033526022,"55":0.009297632471574755,"56":0.13396119580308696,"57":0.10014910621352978,"58":0.11047075887565659,"59":0.04240891224419043,"60":-0.07273366265865684,"61":0.02653399811491775,"62":-0.09024992305761943,"63":-0.021358163259942057,"64":-0.034737228209211886,"65":-0.12293470812108988,"66":0.061994031933248914,"67":0.17626705088433148,"68":0.021883083611596892,"69":0.2527027526394325,"70":-0.21184358121328298,"71":-0.14209854007315223,"72":-0.053626738545684616,"73":-0.29740769629614733,"74":0.15444584877958062}},{"sx":5,"sy":5,"depth":3,"w":{"0":0.10709094985404098,"1":-0.07995413050247333,"2":-0.014974843980114342,"3":0.004317383328619854,"4":-0.17482562048319786,"5":-0.1857892489333552,"6":-0.04757722712200609,"7":-0.03178101778984093,"8":-0.017322829878792304,"9":-0.015285766878688985,"10":0.10522432030065555,"11":-0.10180463356596112,"12":-0.08197764817004353,"13":0.03756181196885149,"14":-0.28088438041230634,"15":0.1417672382174262,"16":-0.09660284769179722,"17":-0.23720454498031904,"18":0.028713443869209855,"19":0.10420536779205763,"20":-0.014556822041965553,"21":-0.1446341434503001,"22":0.0013481007691863425,"23":-0.2997413494414878,"24":-0.005800532381481239,"25":-0.13000250198059246,"26":0.06283778343588585,"27":-0.10799673259173714,"28":0.03789204880836024,"29":0.04730765362974161,"30":-0.02475080407522782,"31":-0.1725289432805226,"32":-0.12512497445389745,"33":0.060818339335326696,"34":-0.29692790879747344,"35":-0.21952027883555233,"36":-0.20884950456728016,"37":0.002460494250147882,"38":-0.2012890097172292,"39":0.05967591849172842,"40":-0.022400881821605004,"41":0.08896820479774058,"42":-0.08156931678173215,"43":-0.0872501966133434,"44":0.08182640493414556,"45":-0.15864672922666168,"46":-0.09002229668317446,"47":-0.12256515571481605,"48":-0.0573658913447371,"49":-0.12775117978586947,"50":0.13045698791162785,"51":-0.15715233818584712,"52":-0.12068349663049446,"53":-0.07082936232676368,"54":-0.2627787579844084,"55":-0.1053176410252664,"56":0.11375684615034908,"57":0.014069490879984806,"58":-0.009319769426788367,"59":-0.10689011658344469,"60":0.10685518233963238,"61":0.10192014713678613,"62":-0.10927612266512267,"63":-0.22495732024377063,"64":0.06356572704424655,"65":-0.16835281187327755,"66":-0.1196360203405505,"67":-0.020399727880184924,"68":0.033059987451937896,"69":0.026389841698326637,"70":0.062017509524143484,"71":0.04249234676639106,"72":0.06043545831468193,"73":-0.14927909324077523,"74":-0.024298980027345193}},{"sx":5,"sy":5,"depth":3,"w":{"0":0.02623913193106065,"1":0.3292592614603818,"2":-0.06415713565161832,"3":-0.11844676203790777,"4":0.10844657246009123,"5":0.22277267230584935,"6":-0.0950952124308664,"7":0.2885813447045532,"8":0.08715508482810477,"9":0.11896302913040543,"10":0.14606830309321994,"11":-0.09141434123627615,"12":0.0791074662855618,"13":0.0732273697472362,"14":0.0018879889226233143,"15":-0.018461163783284027,"16":-0.036852342162559074,"17":0.04168435651598486,"18":-0.09277860776174637,"19":-0.09039550066845194,"20":0.03102491140934962,"21":-0.09505494914598651,"22":-0.12755536710518278,"23":-0.10100413271417356,"24":0.02642720505288088,"25":-0.06575165529403913,"26":0.2350495751846863,"27":0.1816590475976536,"28":0.12771113959573258,"29":0.10164773809743434,"30":0.04203829083649515,"31":0.2485871008465478,"32":0.08659142228880679,"33":0.2293274091675073,"34":-0.030320992011228027,"35":-0.1462773265472731,"36":0.04207911034881976,"37":-0.18039734933827029,"38":-0.07007451166398215,"39":0.17428382478031781,"40":-0.09784013192928012,"41":0.013158815578849093,"42":-0.010225544263450525,"43":-0.07425153310905777,"44":0.3319054145922625,"45":0.09889093855027731,"46":-0.02558820094152256,"47":0.0038251026266980202,"48":-0.28849480628830004,"49":0.016782367849623663,"50":-0.34735266282968097,"51":-0.16826609456038102,"52":-0.11303422770263499,"53":0.04684865846130294,"54":-0.005764345103635212,"55":0.16233677394697388,"56":-0.10955306333162837,"57":-0.05139442987441259,"58":-0.04410388899186353,"59":-0.08959841617999255,"60":0.12864550842679318,"61":-0.007155506109191557,"62":0.1826301674806301,"63":-0.1625202045261717,"64":-0.15877512735175117,"65":-0.18859988640994507,"66":0.2725129756275395,"67":-0.02661742364159271,"68":0.036560582429537664,"69":-0.08775339162140068,"70":-0.1956848076864781,"71":-0.22291307865915688,"72":0.19738026741527684,"73":0.00788427322609156,"74":-0.21144797755200448}},{"sx":5,"sy":5,"depth":3,"w":{"0":-0.10063325735909111,"1":0.17821785880124755,"2":0.13177274974334147,"3":0.16106104288679607,"4":0.17238898701888886,"5":0.12396580040687,"6":0.1123148740875897,"7":0.05867093602409802,"8":0.09068011332004595,"9":-0.09134648336575336,"10":-0.07788908394028356,"11":-0.20326543767222774,"12":-0.02515824204554878,"13":0.038466410631093406,"14":-0.22631688333918457,"15":0.04031104546229032,"16":-0.05939095261034066,"17":-0.08166108022907106,"18":-0.03745141883668455,"19":0.15156050682443475,"20":-0.03195721911363199,"21":-0.10916367946919857,"22":-0.03949727748900515,"23":-0.2530564340229083,"24":0.299778170706969,"25":-0.0182127944065665,"26":0.07250960102042404,"27":-0.07462153979442958,"28":0.008975065449208938,"29":0.09775439389318502,"30":0.15081578777721932,"31":-0.3097620476025249,"32":-0.2738492386203605,"33":-0.15122351744974727,"34":-0.09972397966093723,"35":0.027449051384438445,"36":-0.11005499150959158,"37":0.0614127382875392,"38":-0.16934727229685273,"39":-0.004813272547138136,"40":-0.058085078808832076,"41":-0.09424900028434757,"42":0.14901409561082438,"43":0.11404229338678752,"44":0.07671337048481085,"45":0.08989870800831676,"46":-0.05432170159864212,"47":0.10424681578404495,"48":-0.11016465223447112,"49":0.035200819851069015,"50":-0.057057790404065396,"51":0.02249734357619918,"52":-0.02369954209259273,"53":-0.11389717200744359,"54":0.018899614370930545,"55":-0.04354628307308024,"56":0.04546211491637809,"57":0.19590322822798584,"58":0.27541917020355394,"59":0.2899758584288414,"60":-0.07550087535876626,"61":-0.2808344292671009,"62":-0.07327857194257023,"63":-0.1546421415780418,"64":0.19766842294355647,"65":-0.023704051064365055,"66":-0.01928818202473922,"67":0.05289349244849581,"68":-0.18589814331721408,"69":0.07574160719776898,"70":0.0771582232488081,"71":0.04952975582944112,"72":-0.03391538448906616,"73":0.04429432786524745,"74":0.04386318352146104}},{"sx":5,"sy":5,"depth":3,"w":{"0":0.05825271594072218,"1":-0.03892368526813474,"2":-0.09211479833473699,"3":0.14464908520480738,"4":-0.10910203802500017,"5":0.02970172929403471,"6":0.03858611691219636,"7":-0.1356522293781147,"8":0.08732874979170949,"9":-0.09159846581727757,"10":-0.020356104963426512,"11":0.05781314629197979,"12":0.1673224542944908,"13":-0.18882714345330287,"14":0.02113353782344836,"15":-0.14203157530984636,"16":0.020989241315468265,"17":0.1418180864737641,"18":-0.06513586451598419,"19":-0.10003126444819883,"20":0.11101208756306305,"21":-0.12217779415952125,"22":0.026501011601014174,"23":-0.07638701931564422,"24":-0.18219150231911857,"25":-0.14513765223425476,"26":-0.14274693816928063,"27":0.030926873412223558,"28":-0.1835206127622481,"29":-0.06568995584084085,"30":-0.0037517408794032095,"31":-0.06098366403321708,"32":-0.12672546590935713,"33":-0.03729423747387445,"34":0.000745629909559334,"35":0.04178414099710689,"36":-0.22305150809701493,"37":-0.12524083071805903,"38":-0.08950161302309911,"39":0.00850680641795739,"40":0.01841138008708899,"41":0.05133542259521114,"42":0.10063546033094609,"43":0.08963236984338303,"44":-0.19587323677044405,"45":0.12167273498024075,"46":-0.04662745373572212,"47":-0.16534014449734158,"48":-0.11300911742876357,"49":-0.17639472849328877,"50":-0.025846079263672203,"51":-0.19551828184385345,"52":-0.013317624772549974,"53":0.06472978444194337,"54":-0.030876392784326682,"55":-0.14229147455479238,"56":-0.015043046538948189,"57":-0.15289602617572617,"58":0.04638795424724929,"59":0.12306926422176713,"60":0.08963008465426897,"61":-0.3996462703830549,"62":0.0629913478761753,"63":-0.0035425824456950697,"64":-0.11705961838145883,"65":0.1032486485453714,"66":-0.027460446068366545,"67":0.012403322256916928,"68":0.04982150940330009,"69":-0.22094066392816666,"70":0.08605038917540687,"71":-0.09949621182598935,"72":0.1282737985573689,"73":-0.04977245654606233,"74":0.13091554355303592}},{"sx":5,"sy":5,"depth":3,"w":{"0":0.040892846111950105,"1":-0.06656261948105831,"2":-0.10791501291200022,"3":-0.10935894441150935,"4":-0.003909132053526601,"5":0.07221576680915719,"6":0.21041847528293342,"7":-0.016168320298814345,"8":-0.1149541616391339,"9":0.2464090630015008,"10":-0.06575526729191729,"11":0.007450577625359758,"12":-0.019715309428175298,"13":-0.1308122937445973,"14":-0.043463454254242515,"15":0.14353963924715182,"16":-0.23067903171996818,"17":-0.1638827181444415,"18":-0.14682777539065237,"19":-0.04661125966812487,"20":0.10816478297431527,"21":-0.03397832386043766,"22":0.01522190557098044,"23":0.19263804169073237,"24":0.006342447750670157,"25":0.12605862886641234,"26":0.1296401182922033,"27":-0.13435101902389046,"28":0.1355421273836779,"29":0.06256897059190583,"30":-0.13342152155788306,"31":0.030348042280140704,"32":-0.1854872623702939,"33":0.09158439248342853,"34":0.04538568231381305,"35":-0.1856743327906087,"36":-0.08121023102742535,"37":0.14621576853571452,"38":0.05540242423983285,"39":-0.04436325872562861,"40":-0.06656441928440979,"41":-0.25318404328996574,"42":-0.04061367559347714,"43":0.06566722124508229,"44":0.07978876693673746,"45":0.10888090044260515,"46":0.012251644638816315,"47":-0.09983486260463958,"48":0.06719834175727142,"49":0.04593148494819204,"50":0.15143209714909966,"51":0.15774895530645125,"52":-0.18063721152447684,"53":-0.013396374346726851,"54":-0.054473354494856116,"55":-0.06468590918376645,"56":-0.1263516223335764,"57":-0.02993229710108778,"58":0.08402686165570344,"59":-0.017418346785939776,"60":0.05824243110333084,"61":0.14870134694490345,"62":-0.09590122127497325,"63":0.09502431350326328,"64":0.16792769590260528,"65":0.1634275430285002,"66":0.016913829910690563,"67":-0.059004691794296196,"68":0.14331408392703826,"69":0.043486441318936024,"70":0.07812235272607275,"71":0.013946152654040428,"72":-0.07543882138222245,"73":-0.092280814801175,"74":0.07584166151693984}}],"biases":{"sx":1,"sy":1,"depth":32,"w":{"0":0.1576146713644737,"1":0.09227227107146485,"2":0.09567426061066393,"3":0.08261472759540985,"4":0.0727422900196457,"5":0.12717897491745292,"6":0.08873434271524637,"7":0.08533795918928605,"8":0.0979812414258831,"9":0.09673032161656599,"10":0.10664392258413553,"11":0.0755302728573571,"12":0.0936641910575217,"13":0.1167800068928246,"14":0.08192459443378458,"15":0.1175460648986932,"16":0.11947808873841552,"17":0.1172045558716746,"18":0.08969354243397148,"19":0.08074672262352513,"20":0.10220314715605638,"21":0.11735282921687941,"22":0.11430820789857452,"23":0.11097047060127643,"24":0.11628097178756715,"25":0.08657480024910734,"26":0.11333292848259066,"27":0.07228056597415797,"28":0.08727480245410835,"29":0.08877333527302399,"30":0.09599319461945653,"31":0.09593789321706363}}},{"out_depth":32,"out_sx":64,"out_sy":64,"layer_type":"relu"},{"sx":2,"sy":2,"stride":2,"in_depth":32,"out_depth":32,"out_sx":32,"out_sy":32,"layer_type":"pool","pad":0},{"sx":5,"sy":5,"stride":1,"in_depth":32,"out_depth":40,"out_sx":32,"out_sy":32,"layer_type":"conv","l1_decay_mul":0,"l2_decay_mul":1,"pad":2,"filters":[{"sx":5,"sy":5,"depth":32,"w":{"0":0.006408918059814366,"1":0.05020824978116229,"2":-0.02477932196576661,"3":0.04358367015312827,"4":-0.011881553031074174,"5":0.051329288696248004,"6":0.02247265338448848,"7":0.006658959322591442,"8":0.043572371752772884,"9":0.08254456265069017,"10":-0.02843330385804531,"11":0.01734534346867677,"12":-0.012961398844639975,"13":-0.02751309509241497,"14":0.005946826716642232,"15":-0.01738747319341964,"16":-0.05306262824016177,"17":-0.03244754283167583,"18":0.02326135556921806,"19":0.0020679104180530276,"20":-0.05851850152738764,"21":0.004501816550565403,"22":-0.00359388282296124,"23":0.04025916350542279,"24":0.04578535570402712,"25":0.012908434326634096,"26":-0.015824826733565736,"27":0.013501957244093378,"28":-0.02093438031429752,"29":-0.0028655147459512374,"30":0.05693731037531217,"31":-0.01349284176530991,"32":0.08815754376407552,"33":-0.011817039661692508,"34":-0.0830962420143614,"35":0.006353478853910548,"36":0.0010094932963761638,"37":-0.02757109171427827,"38":-0.03128508010157738,"39":0.0009357828577093596,"40":0.011660382070196856,"41":-0.028476230176458176,"42":0.003213879662632601,"43":0.02163845104394119,"44":-0.02932309226576435,"45":0.014040162772191302,"46":-0.033920011549816276,"47":-0.06254188310812592,"48":-0.017878014551506095,"49":0.06156504714477487,"50":0.003002305491890755,"51":0.02415193991323091,"52":-0.03980960732520828,"53":-0.013129237197722979,"54":-0.09587164374639774,"55":-0.01187523296082212,"56":0.07008173768732077,"57":0.027700019986139784,"58":-0.05575611431767102,"59":0.03705841878572085,"60":-0.0008421063498195472,"61":0.0007786959535026007,"62":0.004353364410932594,"63":0.03563294993858388,"64":0.024302497969209736,"65":-0.02788789044300446,"66":-0.03373837126809888,"67":0.00734070138976025,"68":0.002822580622572515,"69":0.09171573793636213,"70":0.020617320395070526,"71":0.009146499299452576,"72":0.018866028857892878,"73":-0.07030993742694605,"74":0.00806218319828614,"75":0.036328886296353495,"76":0.029870854914146268,"77":0.010696974655947015,"78":-0.04427252383502432,"79":-0.01830742755223355,"80":0.056911215618890905,"81":0.022468537573577772,"82":0.0496354247081629,"83":-0.004519393681120035,"84":-0.01769308844039941,"85":0.04114105163320851,"86":-0.07331055864647083,"87":-0.0004292719859531547,"88":0.004631147267211954,"89":0.014405281500632295,"90":-0.06333898449119275,"91":-0.03745885517474441,"92":-0.07596401983758759,"93":-0.011452617217155412,"94":0.04543389417565567,"95":-0.038103954726934716,"96":0.00038464235952917854,"97":0.013886433237968917,"98":0.022317668547907663,"99":0.045364504897722195,"100":-0.051510143874296976,"101":0.058532464844383465,"102":0.06300878089058999,"103":0.0014562997104135753,"104":0.07242983761897763,"105":0.0056060530918025965,"106":-0.04051153961184494,"107":0.03295845246349179,"108":0.015052222547250355,"109":-0.03645230169783928,"110":-0.055908445507503554,"111":0.015743451033082896,"112":0.036432438336100305,"113":-0.022100081290183045,"114":0.024458296795362166,"115":0.05292654324418866,"116":0.015251494709177398,"117":-0.027921577061018894,"118":0.031010246883995885,"119":0.048925334210221744,"120":0.04095737513601758,"121":0.04718640114661894,"122":0.02724875338353806,"123":0.0007329002261872496,"124":-0.02428149915354042,"125":-0.029408512340821102,"126":0.02150706440915498,"127":-0.011896997205829011,"128":-0.012715718773923967,"129":0.06147521260829496,"130":-0.018513539121356774,"131":-0.011925925795077775,"132":0.024752737133766706,"133":-0.06020658079751981,"134":0.026183020812843714,"135":-0.03859727602717745,"136":0.04346580709876246,"137":0.010885586011167351,"138":-0.013556766903075156,"139":0.025973799155580887,"140":-0.027716348705589446,"141":0.03453645297855627,"142":-0.024501701145798128,"143":0.000888025801549404,"144":0.06740468522083515,"145":-0.050772384073735966,"146":0.057023550280765445,"147":0.017449576751575702,"148":-0.034931663624138805,"149":-0.04066880285203473,"150":0.05107610360386147,"151":0.10747568271291352,"152":0.009094410904757932,"153":0.017422388593152698,"154":-0.030187055095967124,"155":-0.06834502344459013,"156":-0.02169780628394947,"157":0.029520551984729165,"158":0.07234344173404127,"159":0.02261769807845081,"160":-0.02303152143086667,"161":0.0162945968655547,"162":0.028661610946282955,"163":0.00265095426195417,"164":-0.022841254048552223,"165":0.03974181303171375,"166":0.026773209157413907,"167":-0.011459648713710309,"168":0.02608834966454003,"169":-0.038400279753717924,"170":0.013743695818106817,"171":-0.008820298774242126,"172":0.006565361488907103,"173":-0.01283549260062109,"174":-0.013069867714197646,"175":0.00846317933536735,"176":-0.024330753352445042,"177":0.014763048123559072,"178":0.03548592777305226,"179":-0.027207097906565433,"180":-0.04649637089699297,"181":-0.04317812097458497,"182":0.039018345718546656,"183":0.011689954635319943,"184":0.05616489026476805,"185":-0.08032536608874263,"186":-0.01336423402153571,"187":0.027576737022325843,"188":0.0277326802373011,"189":-0.03862101865526416,"190":0.024072576547466574,"191":-0.007184018246025512,"192":-0.02075355030330735,"193":-0.038045562626687165,"194":-0.005507259118199243,"195":0.0014818581228407727,"196":0.06550477534006365,"197":-0.08032795995461524,"198":0.016066467800787562,"199":0.034100874163864155,"200":-0.032210159528660284,"201":-0.02530562335659193,"202":-0.01174378064105733,"203":-0.0032034586863965934,"204":0.039557883188781374,"205":0.008770318135611755,"206":0.022163550125504895,"207":-0.004402158568462183,"208":0.0191669002359238,"209":-0.009652914983162028,"210":0.03811837580735485,"211":0.07208172284327832,"212":0.029301441705687374,"213":-0.05483507227283391,"214":-0.09897955786096317,"215":0.030863687510495293,"216":0.04070241136972446,"217":0.0034116264156408903,"218":0.02645163141944223,"219":0.008081702033531325,"220":-0.0023629553323949166,"221":0.02365478083643832,"222":0.02407969933832171,"223":-0.050420792940203796,"224":0.056324476956021274,"225":-0.028788312187468846,"226":0.05845247167967796,"227":-0.026091427324909443,"228":0.06575025191362582,"229":-0.03331012718081521,"230":-0.02238069684398291,"231":0.010715372093563262,"232":-0.04525856970597622,"233":0.05607918084371407,"234":-0.03893972432866826,"235":0.028337520874102486,"236":0.03915631808194498,"237":-0.03232088627431978,"238":-0.024298714167764118,"239":-0.018566929592404153,"240":0.016260954958063466,"241":-0.009160968907504445,"242":0.03548344224905355,"243":0.004801711669879748,"244":-0.032710206827456,"245":-0.06090484394531242,"246":-0.0454984992173342,"247":-0.05031925660947209,"248":0.036264530842395185,"249":-0.0390544459285977,"250":-0.0004027850193062196,"251":0.003188693363452841,"252":-0.03393409189290812,"253":-0.02639495467245288,"254":0.021737359243838725,"255":0.00006988986839838084,"256":0.019520701336406265,"257":0.0670407231017728,"258":-0.007068202172392034,"259":-0.02022505278606541,"260":0.0029403913492411313,"261":-0.028676372808807273,"262":0.009710747194373023,"263":-0.03025984173247445,"264":0.04487984298842769,"265":-0.023678205161177288,"266":-0.02698840815088711,"267":0.03040479566549201,"268":-0.05283645724814755,"269":-0.00905689726059997,"270":0.008155930417504283,"271":-0.04986257265989067,"272":0.017608214438461955,"273":-0.00826094090113376,"274":0.019306121660580485,"275":-0.06431324732649608,"276":-0.045848559972342794,"277":0.002798055801409142,"278":0.024466466921534622,"279":-0.036669090149943045,"280":0.014651807620455044,"281":0.06971220572071256,"282":-0.024161469182482243,"283":-0.025358758133074123,"284":-0.04252121302675759,"285":0.04216064527516402,"286":0.0069526062753504266,"287":0.030885871551559276,"288":-0.039997450949649134,"289":0.05145768373338374,"290":0.05909937348649277,"291":0.016755141470634723,"292":0.048391788650591946,"293":0.009143888615313208,"294":0.039632245500902295,"295":0.001315928450879199,"296":0.03025888440667994,"297":0.05136934910012589,"298":-0.04420272640074136,"299":-0.002751718632909764,"300":0.03178443630568412,"301":0.036575440951747126,"302":-0.027335744275069296,"303":-0.03272715385536651,"304":0.007651607226223413,"305":0.023465994978033207,"306":0.02126019857718829,"307":-0.025802162458422477,"308":-0.056208090964919154,"309":0.0034230201369763644,"310":0.007390760800294476,"311":0.0070416292287736135,"312":0.01631279492893061,"313":0.041233048250436465,"314":-0.045172997947435914,"315":0.13073832895043166,"316":0.021516687332998746,"317":-0.03416372246601045,"318":-0.03783899453082851,"319":-0.07391523013736886,"320":-0.044267793811100034,"321":0.028475452542736958,"322":0.01941987497504391,"323":0.042320868121114734,"324":0.00433689158236094,"325":-0.015878988892147703,"326":0.02129401898471901,"327":0.022116647668346572,"328":0.014392605229061406,"329":0.010895286581578395,"330":-0.0156993684002271,"331":0.017811201026923514,"332":-0.01781530112504957,"333":0.04173577449209579,"334":-0.041256518861869984,"335":0.016310257334702788,"336":0.07096291457833667,"337":-0.018148598890679983,"338":0.04932484437524928,"339":0.02111973302730142,"340":-0.022629977660797957,"341":-0.036683572769807986,"342":0.009362830360919555,"343":0.059380605393714474,"344":-0.04141879826938672,"345":0.00786137698513859,"346":-0.06402150819716615,"347":0.044520585976432665,"348":0.014344544463543845,"349":0.06932581681705728,"350":-0.029122168504366424,"351":-0.004143746364239454,"352":-0.025755496932224967,"353":0.05436873944729194,"354":-0.07259564064714903,"355":0.04538277561795369,"356":0.025237988446829975,"357":-0.0021152070326457997,"358":0.000682651674497938,"359":-0.010899320347487956,"360":-0.05766563362916047,"361":-0.0624100925943099,"362":-0.011705888244061918,"363":-0.04099525682876194,"364":0.007309977920081923,"365":-0.011645592011484787,"366":-0.023018010016003745,"367":-0.07707477755400224,"368":0.004817465491411114,"369":0.02385113827293445,"370":0.0366415845958608,"371":0.05575805392495143,"372":-0.032048624648645496,"373":-0.00913105631597458,"374":0.0312687742012636,"375":-0.012516361306273309,"376":0.049548959452870384,"377":-0.026732396047029774,"378":-0.08218728034418024,"379":0.030880118493875862,"380":0.018157545020085437,"381":0.017245535626758766,"382":0.029349453503989105,"383":0.05100348848538428,"384":-0.024908131679783094,"385":-0.00085799070513356,"386":0.03437432600084646,"387":0.04098092857605832,"388":0.07495032577549096,"389":-0.05196223169104714,"390":0.033775553043073135,"391":-0.017768753980775535,"392":-0.00612205600078045,"393":-0.021371963976446515,"394":-0.04689141334031385,"395":-0.0010262603345549182,"396":0.0241433873290825,"397":-0.039405672121853724,"398":-0.055644495513214896,"399":-0.05271805418418791,"400":-0.033500598578331355,"401":0.04253588529236061,"402":0.05411019337731268,"403":0.014856513209438918,"404":-0.03930009272648313,"405":-0.031287193183203485,"406":-0.02699118111928033,"407":-0.05956680533590257,"408":0.04020362600439193,"409":0.03866070548336467,"410":0.014640287947836082,"411":-0.0038886299669438408,"412":-0.037268433706934445,"413":0.042676473220726305,"414":0.08822758382574188,"415":0.019039160050802854,"416":-0.052344135994098005,"417":-0.08179039863968333,"418":0.030315371252205736,"419":0.0222258176536677,"420":0.005048609395245081,"421":0.030169889429329324,"422":0.028013696554967497,"423":0.004721113050943767,"424":0.05067032772058156,"425":-0.0186092438054594,"426":-0.0022772974870976267,"427":0.0011053769070720873,"428":0.02074097570258567,"429":0.004743443240025762,"430":-0.03984681933062396,"431":0.05919856162799225,"432":0.015819643169715458,"433":-0.030823753181736625,"434":0.04639145408025946,"435":0.038414044501522866,"436":-0.038765888103697806,"437":-0.05245961538410587,"438":-0.10283373537554301,"439":0.0068403739099834725,"440":0.005521303934086178,"441":-0.010380223991703994,"442":0.029650758225527915,"443":-0.004317911318583116,"444":-0.047592581647302186,"445":-0.03194516804240425,"446":-0.006831121537627588,"447":0.032745523758494925,"448":0.01066113165359753,"449":-0.004696915266163324,"450":0.011819727318407016,"451":0.07076941813226285,"452":0.002079973959486804,"453":0.005163791148341017,"454":-0.05262229399039746,"455":0.0412758644619421,"456":0.016909863349514647,"457":0.025967259891133614,"458":-0.06976648589035184,"459":-0.058139460869367963,"460":-0.04236398626870796,"461":0.11354680373825644,"462":-0.04116036904599382,"463":0.07561291969611064,"464":0.010035611343921606,"465":0.006119056248274881,"466":0.023051650169856254,"467":0.0342240625405885,"468":0.030868579131574606,"469":-0.025232537049844125,"470":0.013778543700092676,"471":0.003445093521283593,"472":0.005128818389897942,"473":0.048707873673643876,"474":0.01785852624085356,"475":0.05720595273988313,"476":-0.05300312329878147,"477":-0.020716712257560454,"478":-0.011796478487509494,"479":-0.05388233013810456,"480":-0.032835453754088945,"481":-0.007447115676171362,"482":0.02970854758283873,"483":0.028094461672019812,"484":-0.0075470114994552395,"485":0.03898712248978935,"486":0.03491298969329765,"487":0.014307486415631484,"488":0.018702933138574792,"489":-0.0017440979939677477,"490":-0.08472871836115266,"491":0.0044933900493899755,"492":0.0349770301941714,"493":-0.03853216345078899,"494":-0.056678231398004736,"495":0.02876503279705532,"496":0.014191203999740982,"497":0.09087421378173494,"498":0.00924591859611566,"499":0.03883608425865434,"500":-0.020279432956450176,"501":-0.0145649832656914,"502":0.003608159981307497,"503":-0.020121130724766966,"504":0.014780307257107772,"505":-0.02081602788538197,"506":-0.04744817616172259,"507":0.029870718645120597,"508":-0.024184141398471224,"509":0.032129625128528974,"510":0.05486935169468791,"511":-0.05249134098004566,"512":-0.03807638449558359,"513":-0.008102253555352759,"514":0.018052000394818815,"515":-0.03464443909181495,"516":0.0009477899037084358,"517":-0.00799941307390465,"518":-0.0064497956281745275,"519":0.0564677647640952,"520":0.02277987926353203,"521":0.06244285329723379,"522":-0.0409863056628291,"523":0.011181968322959233,"524":0.010404808290587916,"525":0.008323836153428164,"526":-0.03970517836825705,"527":-0.06368495251408708,"528":0.0029395165507505555,"529":-0.06271203702960797,"530":0.058698205416504085,"531":0.05579198611580461,"532":0.07664784284943449,"533":-0.018169052486563343,"534":-0.08815033383921354,"535":0.00010073919751683783,"536":-0.036441646778091516,"537":-0.031520948392186714,"538":-0.028003071722101855,"539":-0.003080191712854463,"540":0.00919481767721132,"541":0.044071761276109137,"542":-0.02033833026859783,"543":-0.04943809541568139,"544":0.001846033642831781,"545":0.0043368618658844935,"546":-0.008630669639188033,"547":0.05412789729545497,"548":0.009548924623992894,"549":0.006033060079203466,"550":0.09299511317685094,"551":-0.03901798575553568,"552":0.03812410996556735,"553":0.00035936772749320644,"554":-0.12381975135517158,"555":-0.0016415332732867874,"556":-0.06509425271159874,"557":-0.011060137628965407,"558":-0.044586538079746524,"559":-0.011486183495270499,"560":0.0037073623878407817,"561":0.004549625323558507,"562":0.021733626541749228,"563":0.05537087755150266,"564":-0.07108913961144776,"565":-0.03961913918726362,"566":-0.07760815265354944,"567":-0.028472442005146002,"568":-0.007566766538371848,"569":-0.022877296389507005,"570":-0.03505657306033003,"571":0.0080318474330808,"572":-0.003433533853923883,"573":-0.04577916421964359,"574":-0.005531925131691644,"575":-0.07249467785659683,"576":-0.04839549971114762,"577":0.014630443479378199,"578":-0.09389474813943756,"579":0.022594663634692744,"580":0.015534857304151387,"581":-0.005848744778259566,"582":-0.07565590524427625,"583":0.05886835562251961,"584":-0.009763923700507273,"585":-0.06406512911191324,"586":-0.08935057171067283,"587":0.024532883892453186,"588":-0.004309975980015827,"589":-0.014704595327732163,"590":-0.057581141250391786,"591":-0.027181488156577383,"592":0.028975725606183243,"593":-0.06627380509479834,"594":0.035701505752879434,"595":-0.04378873875448221,"596":-0.03935391027008855,"597":-0.003377921492350195,"598":0.005108696166438862,"599":-0.06466404274267618,"600":-0.03398658441724286,"601":0.020375860980280266,"602":-0.06714722547299033,"603":0.04897101474540549,"604":0.00665743922573662,"605":0.017434777186197153,"606":-0.0028780020322956724,"607":-0.03751150469073201,"608":-0.0022003115563037265,"609":-0.028226346483915102,"610":0.08447140449669006,"611":0.051475691288248776,"612":0.034090366208341626,"613":0.0008815840297273272,"614":0.036213521463604376,"615":0.024948607627868366,"616":-0.031707493310218667,"617":-0.004095704251003671,"618":0.04303775089366637,"619":-0.04900884276439498,"620":-0.021266798646059005,"621":-0.03185998447222765,"622":-0.015310757807710641,"623":0.03064579334426128,"624":0.012707771838636486,"625":-0.03198684648899051,"626":0.0413916268958088,"627":0.0659008846822216,"628":0.020129765167094058,"629":0.05737219182823133,"630":-0.016099982306055027,"631":-0.02054851219455569,"632":-0.03941051411001976,"633":0.015344239258201492,"634":-0.022939405729139974,"635":0.020613190408332288,"636":0.02779846959030879,"637":0.012411694159387747,"638":-0.025565941948610203,"639":-0.026026186928180924,"640":-0.016241844503961808,"641":0.00788535322559901,"642":-0.01791830933161623,"643":0.03043684254763598,"644":-0.041578405897038394,"645":-0.05616920830782765,"646":0.03896412926921239,"647":0.015882476685127694,"648":0.03573101681444895,"649":-0.07235659341555031,"650":-0.027575799516749756,"651":-0.0199560923495691,"652":0.07070376524968586,"653":-0.03225709189081437,"654":-0.008416774788072706,"655":-0.0659006348709807,"656":0.03822139610810243,"657":-0.03976238614034231,"658":0.04074997447279799,"659":0.054520396391371934,"660":-0.042133738236461216,"661":-0.00629541323750601,"662":-0.04919260534768178,"663":0.0007938995196561975,"664":0.0011218976330082191,"665":0.04128281070330579,"666":-0.03394822544749943,"667":0.01591626966157534,"668":-0.04143597204250344,"669":-0.08026053412293344,"670":-0.004375805872674426,"671":-0.05760234186798193,"672":-0.016226663031193342,"673":0.016871159261139964,"674":0.11263055930247673,"675":0.05989315308459149,"676":-0.05298466880566984,"677":-0.05647075393438022,"678":0.035601796859836145,"679":0.022279564558235307,"680":0.019530456479975103,"681":-0.06698788539801351,"682":0.0036636277329167265,"683":-0.0015193399402586003,"684":-0.0281446318922347,"685":-0.0439508540798869,"686":0.022587635501328873,"687":-0.016484594235892148,"688":0.044179837712746764,"689":0.06580690893484753,"690":-0.018496458275506035,"691":0.05126395445376443,"692":0.04208415585936596,"693":-0.06668300563188724,"694":-0.017518708581379362,"695":-0.04121572360109205,"696":-0.004718526393352189,"697":-0.016637729302321956,"698":0.015834193606747135,"699":0.000521756010788122,"700":-0.016860556178290124,"701":-0.01590994362991499,"702":0.04746301144504589,"703":-0.015772635474931306,"704":-0.0427104856568208,"705":0.009126195267252519,"706":-0.0378019308513379,"707":0.1068442375180633,"708":0.08114206614222183,"709":0.013369703420658659,"710":0.06088313715297824,"711":-0.02042698794437075,"712":-0.019448400148665123,"713":-0.01932031062069645,"714":-0.06423897521909892,"715":0.06191674824317565,"716":0.012997187137543517,"717":0.02895971955305729,"718":0.014916343240190547,"719":0.01082384939803951,"720":-0.02412734100147462,"721":0.025611163535715253,"722":0.017605136829001687,"723":0.005114926402576586,"724":-0.031250208054481504,"725":-0.027279283711072022,"726":-0.0380587470214102,"727":-0.08914499231456924,"728":0.02809383682387755,"729":-0.021621192419437375,"730":-0.005637285880992195,"731":-0.011616100574752524,"732":-0.016566799732083838,"733":-0.02321737018290171,"734":0.02142087086764091,"735":-0.013831983106611122,"736":-0.0015409742949771012,"737":0.022292500836531264,"738":-0.028698751692627023,"739":-0.030607235289966655,"740":-0.0043902057862974485,"741":0.04971735946409204,"742":0.00447317694647441,"743":0.06443514386428444,"744":-0.012000382115985211,"745":-0.03171476466782551,"746":-0.025852582033950394,"747":0.051134328457585844,"748":-0.012131160844572938,"749":-0.011131112229803094,"750":-0.05486333312325011,"751":-0.05887796388656963,"752":0.04781522361778598,"753":0.04124540497571482,"754":0.011139904746248448,"755":-0.030791899765363284,"756":-0.07850211052060693,"757":0.03086372635043476,"758":0.01760762942825427,"759":0.10423598238824895,"760":-0.004779407129373374,"761":-0.009882170767673754,"762":-0.06071274207241408,"763":-0.009513089796533454,"764":0.015860099248750426,"765":0.01029885595806066,"766":0.04903362910856844,"767":-0.022827144567848727,"768":-0.02017783529625948,"769":0.00515247725466242,"770":0.06746154605561543,"771":0.009247919857391686,"772":0.041111253138548215,"773":0.036924543484021966,"774":-0.008060692738997228,"775":-0.04301884997185383,"776":-0.025842334947989803,"777":-0.021588632679996136,"778":-0.11477979456252081,"779":-0.015206625110965611,"780":0.06770791391325458,"781":-0.0043400323161120425,"782":-0.013655303860551103,"783":-0.04428390052143251,"784":0.02233425449520673,"785":-0.019913917209865347,"786":0.06060820362145924,"787":-0.024235091518021865,"788":0.0034052020057255454,"789":0.03930710513256789,"790":-0.01748949060657982,"791":-0.05212679894360079,"792":-0.044361808924761,"793":-0.06102940897978685,"794":-0.026695483361674786,"795":-0.0007838621659816829,"796":-0.019754788361821905,"797":-0.03597784192997271,"798":0.020191320712299714,"799":-0.04761328803112941}},{"sx":5,"sy":5,"depth":32,"w":{"0":0.010731368322501099,"1":-0.016767547218527704,"2":0.07215966391013043,"3":0.022949742664666,"4":0.021072125167765233,"5":-0.010722492244331742,"6":0.03912857943406926,"7":-0.011662293059784506,"8":-0.017249423780530654,"9":-0.005945303607727467,"10":0.03528488915298636,"11":0.04676566437243256,"12":0.006442108452818883,"13":0.05142966823670267,"14":-0.06715488934130619,"15":0.06861073757882839,"16":-0.038115005847980866,"17":-0.07420405867350657,"18":-0.03518753500303208,"19":-0.09330376284581249,"20":0.003531610350736527,"21":0.04745005949269876,"22":0.05254865406366114,"23":0.0065293927735140585,"24":0.06335903082506245,"25":-0.02763097675466754,"26":-0.03805930242781797,"27":-0.10162255969765184,"28":-0.025173116000592594,"29":0.025374950669018747,"30":0.0063838661909174305,"31":-0.028686514216539036,"32":-0.036139232904050474,"33":-0.015672428270790753,"34":-0.02573429874760338,"35":-0.06450115063352052,"36":0.015047379386606104,"37":0.061648025882962754,"38":-0.010712410164516344,"39":-0.004008967762841086,"40":-0.046903563933270505,"41":-0.019615596973006563,"42":0.008648099510860752,"43":0.01201116434545151,"44":0.010718512367523499,"45":0.015848737517222655,"46":0.0448995914819471,"47":-0.042771977129520175,"48":-0.03222766984776726,"49":-0.03659749377722334,"50":-0.01606132552774985,"51":0.027062004939112268,"52":-0.0037177931524379304,"53":-0.01700781085252911,"54":-0.014631580852630412,"55":-0.01660303561664566,"56":-0.008940121734045379,"57":-0.05166039527048399,"58":-0.0168422578665647,"59":-0.048393969885783726,"60":0.003757136820373648,"61":-0.04202562502889269,"62":-0.024421528279862912,"63":0.03469170612665626,"64":-0.013916450103752906,"65":-0.010269825236355494,"66":-0.06198607618126879,"67":-0.005635428304636364,"68":-0.05941586402860536,"69":0.008556623134365395,"70":0.007672134622802707,"71":0.021311733308918973,"72":-0.005258883533828217,"73":-0.009514397734341372,"74":0.029496074317370533,"75":0.009726275531569961,"76":-0.03373209118027391,"77":-0.11418350702401704,"78":-0.02064283250260703,"79":-0.05610002270046848,"80":-0.029921627921067822,"81":-0.0026365347817612255,"82":0.03709007200297237,"83":-0.12339934326990319,"84":0.012494138550542853,"85":0.028280514633375164,"86":0.02549435506931798,"87":-0.06414190863517051,"88":-0.03209293299541605,"89":0.0032422219246816407,"90":-0.021101025452462962,"91":-0.020104710200820802,"92":0.01613623720961056,"93":-0.0024445888636301025,"94":-0.026870411623609237,"95":-0.005090083810846479,"96":0.048236104463832,"97":0.033410977156815985,"98":0.05373333865813771,"99":0.06154391562707291,"100":0.004478218106701804,"101":0.03143401013625236,"102":-0.04156009432862444,"103":-0.025981247346514618,"104":0.025062216331402643,"105":0.04263531267443474,"106":0.027089213169720103,"107":0.025028672118850966,"108":0.017596285495706694,"109":-0.0055565073857195245,"110":0.04885327763746228,"111":0.004511990351957174,"112":-0.016027246716237516,"113":0.04635702276211328,"114":0.030432361169318228,"115":0.0009800525223104912,"116":-0.0051203850548558255,"117":0.029346649646425197,"118":0.02940806311083229,"119":0.023557578490171635,"120":0.0034073012715126545,"121":0.054861184038571695,"122":0.0002562222239062132,"123":-0.01018250092796363,"124":0.024414653223955012,"125":-0.03273159214316435,"126":-0.025595784763941413,"127":0.00628612071822143,"128":0.014252555989552341,"129":0.01923386284007059,"130":-0.04131856721818172,"131":-0.03051475969042604,"132":-0.017917374108276183,"133":-0.027297937214822647,"134":-0.04968659135765214,"135":-0.01266029137279433,"136":0.056960883198859454,"137":-0.005047828318895665,"138":-0.003686931427368707,"139":0.01947198994823997,"140":-0.012422519880239949,"141":-0.03691078199403466,"142":-0.05335649536101814,"143":0.04031305522065949,"144":-0.01424481416815763,"145":-0.04531793590286269,"146":0.05085486598187974,"147":0.02230594021602963,"148":-0.016439169812412547,"149":-0.07052371854091445,"150":-0.01918440661381377,"151":0.04779029558600865,"152":-0.02295704029815204,"153":0.027544197194122096,"154":0.023607155608356106,"155":-0.01162207287390665,"156":-0.04881510869390509,"157":-0.04045751715170653,"158":0.06033893539035612,"159":0.0350401663342535,"160":0.027209396591751433,"161":-0.02227094556898773,"162":0.01053556808949851,"163":0.05089320423403039,"164":0.029765778776907358,"165":0.007748431846021523,"166":-0.008020920725450718,"167":0.014067227830580105,"168":-0.011145743672313121,"169":-0.00009981276284031141,"170":0.022039767902665895,"171":-0.012381126289600192,"172":0.0077387777709772175,"173":-0.03592577826805257,"174":-0.027332627521305795,"175":-0.07214088121829715,"176":0.03360633664163539,"177":0.07032698146593526,"178":0.006442653666995312,"179":0.046370933111764524,"180":0.017519952586306002,"181":-0.04634435217402801,"182":-0.03579956456935135,"183":-0.03267440726694128,"184":0.0010259679318135038,"185":-0.007905992435464079,"186":0.029287455964299304,"187":0.025084569543074156,"188":-0.05438457415351065,"189":0.01234604732100075,"190":-0.0018586035686168653,"191":-0.011657655440727074,"192":-0.0039310094269694494,"193":0.029232909264318,"194":-0.007703743753951149,"195":-0.04135756858782453,"196":-0.045515314552536275,"197":0.0019397361579976432,"198":-0.011382749614558709,"199":-0.06954158494940524,"200":-0.01864372102064722,"201":0.010795145414433206,"202":-0.014947887825742476,"203":0.046927389298941344,"204":0.032933037825820556,"205":0.009518789089973423,"206":0.0294485160988176,"207":-0.008703509800410073,"208":-0.03711166015108326,"209":-0.04474109084671381,"210":0.015669128000715946,"211":-0.050878897932030015,"212":0.003557476994617952,"213":0.013543109807739305,"214":0.04465691400886462,"215":-0.02014333301713385,"216":0.041592012452420404,"217":-0.017740231185680383,"218":-0.03713079885600598,"219":-0.06687341630002791,"220":-0.0521576986383261,"221":0.004394247828002139,"222":0.05016482662708619,"223":-0.013312207960951285,"224":-0.0541824922140232,"225":-0.027630201164742144,"226":0.023759648899095355,"227":-0.034284542202149694,"228":0.0007074358630248709,"229":-0.0042046238619373524,"230":-0.06137501529835739,"231":0.025301298584496562,"232":0.04264288023341428,"233":0.036954241903933344,"234":0.03293018543560353,"235":0.04997085862798642,"236":0.029792764521616114,"237":-0.04689438922753456,"238":0.041288850261477626,"239":0.03227748965143539,"240":-0.004386629741766239,"241":0.035601876303176544,"242":-0.01628323982601876,"243":0.026512710447581748,"244":-0.015556000045927935,"245":-0.061707392106000666,"246":-0.04053947177856214,"247":-0.010967161278547202,"248":0.006609205625382635,"249":0.06228940209263315,"250":-0.0560621686963918,"251":-0.09379453943833317,"252":0.0047637153618533415,"253":-0.014119630835922903,"254":0.029571973318706854,"255":0.026416327510946552,"256":-0.04729594011479124,"257":-0.03430674913648284,"258":0.07823017364742926,"259":0.0013702568078753279,"260":0.003531588988416477,"261":0.01792258510452728,"262":-0.03450465104892414,"263":0.018788320587693606,"264":0.00905518851646804,"265":0.016869447216768165,"266":0.0636727645719507,"267":-0.019994186556901706,"268":-0.003818099116402054,"269":0.01651026757767709,"270":-0.009159495908213643,"271":0.013931064307493586,"272":0.0033297628386935274,"273":-0.06301387054854099,"274":-0.022322385005476807,"275":0.0623673551522993,"276":-0.03327214183889264,"277":0.026851101568223987,"278":0.03902232120490706,"279":-0.024310666272843062,"280":0.005032658711185713,"281":0.04685523800004154,"282":-0.0017124510250569637,"283":-0.032899170549822145,"284":-0.000288100409816776,"285":-0.002060641281070563,"286":-0.017299649082511605,"287":-0.021489788036082688,"288":0.012011621564966378,"289":0.01386273217336832,"290":-0.002321848098195491,"291":-0.018341120393114845,"292":0.03592622238315617,"293":0.04030510483916496,"294":-0.013148766169193775,"295":-0.0074274780780581836,"296":0.0021089109112282225,"297":0.04759517890946212,"298":-0.004730497330828114,"299":0.0248628509605976,"300":-0.016326611340416998,"301":0.08119297419532533,"302":0.010218058355178835,"303":-0.020709952996276492,"304":-0.011275913197608964,"305":0.026040674117168258,"306":0.039479295483107725,"307":0.050818154977087485,"308":-0.06495512394636595,"309":0.062373500763909864,"310":0.02007651482889422,"311":-0.0002778895176087522,"312":-0.04172234843153016,"313":-0.005016697006581486,"314":0.04011297964463296,"315":0.07570285253367279,"316":-0.0102823804166447,"317":0.05410245921393416,"318":-0.03246766320964493,"319":-0.04490431289051777,"320":0.02660431193032677,"321":0.013726133781045851,"322":-0.02568943731670727,"323":0.019157310135608733,"324":0.07455026417712714,"325":-0.006730671691204811,"326":0.0378507631909289,"327":0.011517546489057937,"328":0.03713341159098099,"329":-0.013158988881672488,"330":-0.01156521662572697,"331":-0.014877873016239893,"332":0.05019114846994309,"333":-0.04978310341323018,"334":-0.04425594692836428,"335":-0.0010741043552525045,"336":-0.03761641188572197,"337":-0.02762598648137739,"338":0.011887570755974314,"339":-0.006054962939805601,"340":-0.052345783787181646,"341":0.004904412462378217,"342":-0.01975195604880223,"343":-0.04063721225749494,"344":0.07061318013638505,"345":0.025601125122381718,"346":0.028736294875979333,"347":-0.032147215327059595,"348":0.02697997880760748,"349":-0.04141991154473036,"350":-0.07868744916116284,"351":0.040517625276517394,"352":0.10170336383450027,"353":-0.05393048951966982,"354":-0.012891948015636059,"355":0.03588724674555849,"356":-0.023274379911924572,"357":-0.0026667694442601016,"358":-0.06814093119944693,"359":0.020429291551483077,"360":-0.02080979388483446,"361":0.005174047165551907,"362":-0.010594743947221739,"363":-0.011308076269047894,"364":-0.04198357748328715,"365":0.05106394323483047,"366":-0.03727236876247085,"367":-0.027211350316085937,"368":-0.016785431347279445,"369":-0.02469623685900332,"370":0.03149956445697379,"371":-0.02704612821670693,"372":0.014228173215053519,"373":-0.044749126895092646,"374":-0.021319497830274994,"375":0.02680867190581453,"376":-0.03944348947786018,"377":0.044860086768720456,"378":-0.009373558773488357,"379":-0.0329054259962579,"380":0.04052714047865282,"381":0.021463446290535048,"382":-0.04199315761136853,"383":-0.05372677774897386,"384":-0.03780554005515098,"385":-0.020681118849254138,"386":0.0026680507087496275,"387":-0.045290629214379374,"388":0.05426010740656754,"389":0.01151853881827009,"390":-0.0024094727905672243,"391":-0.03832559330124136,"392":-0.03559508075586579,"393":0.006010745761885959,"394":-0.00392847927294242,"395":-0.06557995663139654,"396":-0.012456178008196307,"397":-0.033521429990054925,"398":-0.009684244055879223,"399":-0.04288204865166203,"400":0.03559150848514005,"401":0.0064073375068186165,"402":0.04605828530562603,"403":0.028035512859822406,"404":0.03302330767663167,"405":-0.0046474648167366545,"406":0.0359718868417424,"407":-0.01289121073014711,"408":-0.005548263109693131,"409":-0.02301344441396208,"410":-0.006145513090802447,"411":0.009751477541862221,"412":0.012603758301881825,"413":-0.006440545734822242,"414":-0.027367756787600905,"415":0.0015285941939152574,"416":0.0027071237930690263,"417":-0.0064483628385909484,"418":-0.013564772886656678,"419":0.014571554951701286,"420":-0.060365326186189575,"421":0.027264151289942844,"422":-0.018206734101326734,"423":-0.05145555858309472,"424":-0.001202587381933542,"425":-0.010939824144665827,"426":-0.00022549254858051274,"427":0.07738888621880251,"428":-0.000407597338326251,"429":-0.010903759777759458,"430":-0.014671384279629855,"431":-0.03075194812410878,"432":0.03978340568096478,"433":-0.028843631045930188,"434":0.013242541279035113,"435":-0.0015281869042596643,"436":0.06575166001896221,"437":0.04424740699894299,"438":-0.06712281807841623,"439":-0.016360375321929223,"440":-0.04678516713686591,"441":0.03712485864133374,"442":-0.05706812286026564,"443":0.07456322259446083,"444":0.057605546497169084,"445":-0.00025400466540436025,"446":-0.010670538814102074,"447":-0.012460722359201884,"448":0.0382707233779945,"449":-0.05474148509074747,"450":0.03614060636681472,"451":-0.03289091654767672,"452":0.01286744276578745,"453":-0.03457667908602779,"454":-0.002536114963373347,"455":-0.03389194377005796,"456":-0.029460340133306444,"457":-0.04323779043669217,"458":-0.020217819490646348,"459":-0.04103079929472837,"460":0.007417392635961367,"461":0.023301187247459484,"462":0.04279030886876767,"463":0.023001864896699187,"464":-0.01752753809775247,"465":0.02040419654405363,"466":0.033881895973932104,"467":-0.007675864643232064,"468":0.001518442899433623,"469":-0.04961860251204018,"470":-0.08570869263189103,"471":0.04192554246164644,"472":-0.0393216247498118,"473":0.029939722659655905,"474":-0.01939533492219116,"475":0.03370705094302343,"476":0.02689332857560723,"477":0.009996520373144226,"478":0.04612398930001203,"479":0.0026635481743911174,"480":0.006539457489649316,"481":-0.04289887546355215,"482":-0.005230772203182166,"483":-0.018820914079713636,"484":-0.0024055512500855427,"485":0.024874341967144865,"486":0.09426523829498289,"487":0.004302528590702605,"488":0.0026056361621632153,"489":0.023322845735276775,"490":-0.0022712440512638,"491":0.009684033133532124,"492":-0.009949163977676482,"493":0.03791632884307266,"494":-0.02471557275006158,"495":0.040317502127142926,"496":0.02034230082405,"497":0.029273647685443882,"498":0.05499547620903053,"499":0.004903177957532012,"500":0.01795249140805667,"501":0.03437781292046666,"502":-0.027490958808196127,"503":-0.024360692414504965,"504":0.0535111155695453,"505":0.02209277355379034,"506":-0.00038609894690484693,"507":-0.027978181352783755,"508":0.001182923503938655,"509":-0.05332470400629845,"510":-0.004005493250598223,"511":-0.02296181343346209,"512":-0.002410804034602235,"513":0.03429329618737505,"514":0.012467620347460025,"515":-0.02887685896368411,"516":-0.0233326676596672,"517":-0.008818282950302136,"518":-0.0037600028746914978,"519":-0.014853296478218635,"520":-0.037616469322387915,"521":0.010328706911743347,"522":0.01469578477562586,"523":0.07301560959707928,"524":0.055986219213471224,"525":-0.015155007278801478,"526":0.007498201341979901,"527":-0.026056519838429826,"528":-0.0042253798191208185,"529":-0.02867724650168193,"530":0.029973196039992038,"531":0.045520457105609896,"532":-0.021937034692092815,"533":0.02317408777337652,"534":0.006972408118340966,"535":-0.04523022086013477,"536":-0.045683582173619536,"537":-0.04720726419190699,"538":-0.05079404156875995,"539":0.03507359379700529,"540":-0.08310632595318165,"541":0.0500456585228895,"542":0.02389001853588927,"543":0.01578458299080253,"544":-0.007285918559788895,"545":-0.05345184002147923,"546":-0.042675221082822255,"547":-0.005151743477816071,"548":-0.020253062145704857,"549":0.0089589994941986,"550":-0.00677902917171924,"551":0.0011802765267342414,"552":-0.007200880826519001,"553":0.07360225973364294,