{"layers":[{"out_depth":3,"out_sx":32,"out_sy":32,"layer_type":"input"},{"sx":5,"sy":5,"stride":1,"in_depth":3,"out_depth":16,"out_sx":32,"out_sy":32,"layer_type":"conv","l1_decay_mul":0,"l2_decay_mul":1,"pad":2,"filters":[{"sx":5,"sy":5,"depth":3,"w":{"0":0.2020365578147805,"1":-0.004737885882181531,"2":0.05238667460593229,"3":0.08914360917735757,"4":0.03827901994378658,"5":0.38532538677710176,"6":0.13444567126782678,"7":0.09996961614786282,"8":0.16431312146870605,"9":0.20563722794406364,"10":0.12112566459237611,"11":0.07558465725225992,"12":0.00930284638265872,"13":0.14560861516321955,"14":-0.2185364987570988,"15":0.0013908067015658502,"16":-0.14231247295488125,"17":-0.04375914553276726,"18":0.1321790771925855,"19":0.010469790854494612,"20":0.19852073960192182,"21":0.12904193739264083,"22":-0.07214571007179271,"23":0.11471992361916018,"24":-0.2032227563284533,"25":-0.08113967889323902,"26":-0.04173117427611376,"27":-0.08654960822383992,"28":-0.06141485047202323,"29":-0.20344823937027512,"30":0.0031147192455948194,"31":-0.1025399391321212,"32":-0.03288194420990588,"33":-0.15706863381503225,"34":0.047879493209565145,"35":0.3190017113705735,"36":-0.15624453110790676,"37":-0.01837547501345736,"38":-0.07431800191016624,"39":-0.29203596004896215,"40":0.09334881187725746,"41":-0.2032059061931281,"42":0.2190898970717801,"43":0.07442731393934947,"44":-0.20696920579435243,"45":0.12388105105503633,"46":-0.06675440380385977,"47":-0.06154522430613363,"48":0.06933469840039365,"49":0.061467141976820926,"50":0.039078495896151304,"51":0.07864976417874091,"52":-0.08292534678213,"53":-0.11421328547643862,"54":-0.3228741074669203,"55":-0.20432312769908706,"56":-0.18853991551323457,"57":0.08041578303918505,"58":-0.333167388737764,"59":0.09033183561467106,"60":-0.14294321668488907,"61":0.021172844958669668,"62":-0.048462020602380175,"63":-0.01967680078907179,"64":-0.12817247700770787,"65":0.12983872844404762,"66":0.0015005693333172512,"67":0.013446240999778215,"68":-0.02004022528753234,"69":0.05466760889939122,"70":-0.195761306003972,"71":0.008603156624100728,"72":-0.006221696950009971,"73":-0.14551964834740036,"74":0.03182788426234022}},{"sx":5,"sy":5,"depth":3,"w":{"0":-0.16904141942798373,"1":-0.21821361211037893,"2":-0.17955060153623456,"3":0.30458400628404175,"4":0.14521162266771145,"5":0.3382881832271497,"6":0.033075306245936784,"7":0.1901955623289084,"8":0.22410862390098354,"9":-0.1223329970890212,"10":-0.15039815165919468,"11":0.08859995567102896,"12":-0.04028097061580206,"13":-0.11183755482860724,"14":0.06863317896491544,"15":-0.11133069162626937,"16":-0.15457622354901518,"17":-0.11407937848480322,"18":0.024305277946520577,"19":-0.0001852588049755368,"20":0.0076117983823619706,"21":0.05409022467052928,"22":0.30767999812805485,"23":0.14836730822784722,"24":0.15408942866829597,"25":-0.20896621714173086,"26":-0.20926279670746475,"27":-0.5961846632399422,"28":-0.15603821204754278,"29":-0.06811696135366264,"30":0.030978737174454415,"31":-0.09952365372982583,"32":0.09886666784025784,"33":-0.266071612756552,"34":-0.14140510098641593,"35":-0.05590808034936723,"36":0.17342101113415181,"37":0.13113352958726754,"38":0.06142039182137445,"39":0.14208431133684066,"40":-0.040806000702386984,"41":-0.1693031011008429,"42":-0.028124902801049984,"43":-0.1270906517127736,"44":0.10132415031042458,"45":0.01953696443401111,"46":0.013850367324338303,"47":0.23365774774477913,"48":-0.030924327638524488,"49":0.25472515189344835,"50":0.3049404308364585,"51":-0.08038825323585416,"52":0.0796994582174278,"53":0.16033408343045388,"54":0.07985661443763452,"55":0.26719051777644115,"56":-0.08928051883215905,"57":-0.1112810863681154,"58":0.0023702240303358057,"59":0.10546122688012186,"60":-0.035366639661081216,"61":0.08972197389913629,"62":0.2573472063267774,"63":0.11132179287893491,"64":0.0371349961395044,"65":0.10002725990367822,"66":0.05587671293667937,"67":0.16492044544255258,"68":0.2592419864465642,"69":0.24138531807057798,"70":0.01984889246360436,"71":0.21690970154543024,"72":-0.04296322088517051,"73":0.03504726224549136,"74":-0.041084560306246486}},{"sx":5,"sy":5,"depth":3,"w":{"0":0.14741340986758517,"1":0.08011205833221108,"2":-0.11275519091099119,"3":0.05710847459980667,"4":0.057716269375579506,"5":-0.03893612520432824,"6":-0.003513044002603908,"7":0.0655590226421353,"8":0.045664360994016134,"9":0.18050858289825975,"10":-0.0289775010905532,"11":-0.02280652659240945,"12":0.24444649897224924,"13":0.24862407432564163,"14":-0.10967048098084708,"15":-0.021486184220466394,"16":-0.014969323571235845,"17":0.00516200595760521,"18":-0.039112968027286726,"19":0.07641487101480815,"20":0.1211714140611459,"21":0.02921350816218747,"22":0.09793997562609283,"23":-0.04585528290187378,"24":-0.06429049984238165,"25":0.14730734221643385,"26":0.1864093304451743,"27":0.06443651602870218,"28":-0.02787212308487912,"29":0.1124193380945426,"30":0.10455786894252753,"31":-0.07762311287150685,"32":-0.03611587909551972,"33":-0.12201268601676574,"34":-0.039241518332466696,"35":0.05101213085128675,"36":-0.10934799450213213,"37":0.1150499089852186,"38":0.29421674075423515,"39":0.2891802803210216,"40":0.0818636323147026,"41":0.07902309233327086,"42":-0.09060959468217078,"43":0.11595144229726698,"44":0.11595819132065438,"45":0.045309859201953705,"46":0.03293408374209203,"47":-0.16950256501236685,"48":0.12355621040358279,"49":0.1501090469905321,"50":0.2831096529924015,"51":0.2393601735152294,"52":0.0858041437855045,"53":0.17985697995860891,"54":0.11834030938492095,"55":0.2372182400510927,"56":0.13509014830839142,"57":0.13390612976386487,"58":0.19197083540941864,"59":-0.016783305320949845,"60":0.027921353116851146,"61":0.14007856694025497,"62":0.11877634351596864,"63":-0.03454910454994359,"64":0.008652257599723292,"65":-0.0174888293656512,"66":0.11690547197704344,"67":0.12700842816838187,"68":0.045814743070414436,"69":0.19682770879544345,"70":-0.11477307574696397,"71":0.0635570364365984,"72":-0.05348033695021306,"73":-0.029911391633491675,"74":0.09445410949897345}},{"sx":5,"sy":5,"depth":3,"w":{"0":-0.2004204592217082,"1":0.2172766542726399,"2":0.042008695848584424,"3":0.009683776442030315,"4":0.0543143080886039,"5":0.054469766362988926,"6":0.13740255341234278,"7":-0.04462174327173061,"8":-0.04199629633128952,"9":0.07309078068505331,"10":0.18783183215777488,"11":0.1980247033877007,"12":0.2606701139137632,"13":0.21332883812959866,"14":0.38840404325548755,"15":-0.003835911496524972,"16":-0.05743061185791733,"17":-0.24262734913001327,"18":-0.23556941331803263,"19":0.035237538566065645,"20":-0.1253629317897981,"21":-0.014182802315794552,"22":-0.06963695554768878,"23":-0.2812638968155132,"24":-0.0059763211965246695,"25":0.09524034773674334,"26":0.08067208281490955,"27":0.009457408927511273,"28":0.20899220528365775,"29":0.10646336385619992,"30":-0.35781980584802187,"31":-0.3245778033378476,"32":-0.5905110049550956,"33":0.05958726135349296,"34":0.07480324926074965,"35":-0.06367246035135472,"36":-0.02066111723913972,"37":0.13040674055828758,"38":0.20740570324631416,"39":-0.13376257470444264,"40":-0.25005554405832586,"41":-0.22971257224751848,"42":-0.08649178197431942,"43":-0.26057964604331657,"44":-0.027710932642189344,"45":0.05480575217660452,"46":0.07819468114081841,"47":0.09651108188822914,"48":0.038803144010074626,"49":-0.08462938312358051,"50":-0.21698961034033587,"51":-0.0035454304954164856,"52":-0.09828242282571675,"53":0.06520085053395769,"54":-0.09840399401145582,"55":0.07883601964748221,"56":0.09567074681016134,"57":0.10803460110978945,"58":0.13356924727310204,"59":0.1418236630593011,"60":0.2502430387685828,"61":0.46414262438769477,"62":0.1357597281138313,"63":0.3654659742151089,"64":0.010214962850550015,"65":-0.2723052609558725,"66":0.0008208910373573564,"67":-0.1804064281527896,"68":-0.08386511018575812,"69":-0.08571011335669775,"70":0.03466183460425251,"71":0.38160419934794537,"72":-0.1451521511499523,"73":-0.22795606215295258,"74":-0.2742516318774395}},{"sx":5,"sy":5,"depth":3,"w":{"0":-0.03181299972163933,"1":-0.17983803251119015,"2":-0.30016958153243917,"3":0.17932991005650686,"4":0.2010119002404612,"5":0.2074326268888912,"6":-0.07710287351137847,"7":0.24021688933993748,"8":0.22711827117759245,"9":-0.02155385740211707,"10":0.002205910965373305,"11":0.025670720386610713,"12":0.002162793989927807,"13":0.01624475650814016,"14":-0.1579641709738407,"15":0.06739155657542868,"16":-0.11758530626026586,"17":-0.13440505706089678,"18":-0.03428024408181952,"19":-0.03077463230864776,"20":-0.025047573492440273,"21":-0.1957978831075316,"22":-0.12389149620799007,"23":0.03734476624573169,"24":-0.05581065286837976,"25":0.17872696659680565,"26":0.10977171094746038,"27":0.07073429344335382,"28":-0.04956129914897417,"29":-0.11036004432132447,"30":0.11517096033497956,"31":0.21155618684498348,"32":0.32079395250874965,"33":-0.09095822119588147,"34":-0.13642872049761556,"35":-0.1150636599914317,"36":0.11319237626465285,"37":0.04543316294605263,"38":0.23551069630391547,"39":-0.17651309239318932,"40":0.050890304367272834,"41":0.11821316691855845,"42":0.0020462036465090836,"43":0.1614819623432394,"44":0.22652170036851865,"45":-0.18279753562434728,"46":-0.047986500614658936,"47":-0.1010958458589007,"48":-0.14885277028581775,"49":-0.5969092358783477,"50":-0.9459790869410255,"51":0.11986190422203515,"52":-0.1702959328642094,"53":0.045626763099240034,"54":0.06062629479885586,"55":0.18369658615212361,"56":0.10331152084560791,"57":-0.12444326363721338,"58":-0.2247396083442996,"59":-0.2081146130033468,"60":0.19122870902686268,"61":0.3371746618140536,"62":0.44376815197185254,"63":-0.1314440683962568,"64":-0.11633308994381308,"65":0.07324609600163254,"66":0.0929670564501323,"67":0.2170334022819721,"68":-0.024448761564788844,"69":0.08985170347827715,"70":0.20889727168345795,"71":0.16890078735092845,"72":0.09463066285080476,"73":-0.20273100440203107,"74":-0.3292935926618664}},{"sx":5,"sy":5,"depth":3,"w":{"0":-0.004001872324514648,"1":-0.21327910471362777,"2":-0.08058604410154685,"3":-0.05247999540791984,"4":0.04286533077246968,"5":0.19832683556263114,"6":-0.02362934310640096,"7":0.15644705325165326,"8":0.3363339767905385,"9":-0.3443343730666137,"10":0.00036088739192298344,"11":-0.10400590196186862,"12":-0.16670679366310692,"13":-0.3398509447451494,"14":-0.3014520146414438,"15":-0.028115243441211146,"16":0.18715133757019659,"17":0.15116169813483105,"18":0.12942285739487966,"19":0.05542882690946075,"20":0.13509194670403274,"21":-0.18138633004942767,"22":0.1012651978882155,"23":0.032359159273353415,"24":-0.26594991995698797,"25":-0.031835917128868615,"26":0.185401252102981,"27":-0.1725130537120743,"28":0.0445762199349715,"29":0.1930757625250632,"30":-0.002187762850728191,"31":-0.005671973279976558,"32":0.15225991716146134,"33":-0.14874020093449047,"34":0.076066081028727,"35":0.14142602638207524,"36":-0.14328621474067332,"37":0.022440093758466777,"38":-0.02459740835285609,"39":-0.25548983325063734,"40":-0.06734939127406257,"41":-0.2246174593539761,"42":-0.3050313530048251,"43":-0.1300233086853248,"44":-0.11028930173713365,"45":-0.05575966017825985,"46":0.12875483896710593,"47":-0.03481453572300763,"48":-0.00024386738603949067,"49":-0.0354736863737621,"50":-0.029677490123809956,"51":-0.060247171296750585,"52":0.03132385971719255,"53":-0.08374563396607365,"54":-0.35714355096605777,"55":-0.1540260483410393,"56":-0.11000998577402664,"57":-0.37691473159368877,"58":-0.08179484004761578,"59":0.004885862394400347,"60":-0.13311003008338307,"61":-0.39432399905070126,"62":-0.3512391183363294,"63":-0.10764454219915444,"64":-0.007193790131498234,"65":-0.19017399728816356,"66":-0.2557616656183774,"67":-0.020693558017470918,"68":-0.1717096138936384,"69":0.11587936251094166,"70":0.08349822802433184,"71":0.2928634389575567,"72":-0.0639183384419757,"73":0.20266950932337147,"74":0.31024474559100945}},{"sx":5,"sy":5,"depth":3,"w":{"0":-0.10072542444028117,"1":-0.05033222656497035,"2":-0.23975028648485122,"3":-0.1119887902500486,"4":-0.09808506904933943,"5":-0.1545168705958503,"6":-0.35362119121521846,"7":-0.18939214946913793,"8":-0.5485819170194296,"9":0.021048501744845242,"10":-0.1550237897146105,"11":-0.09417253523092659,"12":0.07850531784770576,"13":0.07509280192817397,"14":-0.009869606512847282,"15":-0.3882360432398297,"16":-0.048013932951867934,"17":-0.36203731353115204,"18":0.2182750515542619,"19":0.5219238009983039,"20":0.053441596670470326,"21":0.2654843181547641,"22":0.18017744680725747,"23":0.23072918645610158,"24":0.10578584222085612,"25":-0.15477447619828905,"26":-0.10536280942661429,"27":-0.09764409180735696,"28":0.06715720530068023,"29":-0.2572100495654796,"30":0.3362185947571829,"31":0.3089977776115392,"32":0.16632415665876674,"33":0.028568390378624985,"34":0.2847413888320272,"35":0.2547443357723309,"36":0.007627399519623156,"37":0.03461681708972317,"38":0.08423627621747529,"39":0.05815297210993424,"40":0.047470225110872254,"41":-0.0981495133837836,"42":0.01652145535752892,"43":0.19933993558916036,"44":0.08710453099874747,"45":0.2884236112727329,"46":0.04009381717851985,"47":0.11382681515445214,"48":0.09819850464302958,"49":0.06940207469926128,"50":0.13719734726812954,"51":-0.07441097483817254,"52":-0.2078313640041068,"53":-0.007938564982275725,"54":0.043027387251700654,"55":-0.14987179976381032,"56":0.12579477890071408,"57":0.2928580047288255,"58":-0.06789435410104427,"59":0.2581699746573819,"60":-0.26663697845564854,"61":0.025781604907711416,"62":0.09747223378248997,"63":-0.10286331625618542,"64":-0.10020381389004336,"65":-0.24663438168827287,"66":-0.32420813448683705,"67":-0.3982718776144459,"68":-0.34841523945559416,"69":0.04449337449150314,"70":0.2689155689480509,"71":0.31697721188680067,"72":0.008220441521942908,"73":-0.21742349754814233,"74":-0.0021484058766162457}},{"sx":5,"sy":5,"depth":3,"w":{"0":0.05400667473208207,"1":0.14608314328109534,"2":-0.028716342720603274,"3":-0.026627391309158303,"4":0.0620178378722141,"5":0.3196968827895674,"6":0.19825881390577874,"7":-0.16154502300020904,"8":0.3265569157210113,"9":0.1730740380516266,"10":-0.08400124238670413,"11":0.2229267421157564,"12":-0.09121049593406058,"13":-0.024682421979056512,"14":0.28010103085834337,"15":-0.026020482689723318,"16":-0.19037309897337962,"17":0.2511049213150811,"18":-0.017482922362352365,"19":0.019852118765191953,"20":0.16792870412520575,"21":0.037458005250143006,"22":0.06743911596888064,"23":0.21942230605640836,"24":0.062419978714869616,"25":0.02460010429050687,"26":0.4929190831586928,"27":0.14009392218510178,"28":-0.2825688976893026,"29":-0.10547748989661675,"30":-0.018632977043601357,"31":-0.32850189641948757,"32":0.17631761077872163,"33":0.008463758298069751,"34":-0.012403612925248395,"35":0.25789492888247373,"36":-0.1277600517823437,"37":0.004189651531146126,"38":0.08402926548984768,"39":-0.01806291160755362,"40":-0.30550844120908455,"41":-0.14014168696894477,"42":0.17132558119749605,"43":-0.29804874295743755,"44":0.12805171940080748,"45":0.05280987736255311,"46":-0.3626932671118071,"47":-0.17221671498166985,"48":-0.05296091256044228,"49":-0.2099758770594635,"50":0.1003694392933056,"51":-0.15257110888542208,"52":0.008185715202684138,"53":0.054405671585629256,"54":0.11406520837855699,"55":0.10600168467812025,"56":0.11845337245281447,"57":-0.27996900771360467,"58":-0.007295558286204558,"59":-0.27936775315876683,"60":-0.08836604352077897,"61":-0.14937902801885122,"62":-0.058856872715292906,"63":-0.1199336330195344,"64":-0.13707678392767536,"65":0.07959941406646505,"66":-0.04037091823121138,"67":-0.1841094604667759,"68":0.14960742730820958,"69":0.10075606427521655,"70":-0.11360916309109202,"71":-0.08761980574939289,"72":0.20491816889746314,"73":-0.22337776093535994,"74":0.1796127857074068}},{"sx":5,"sy":5,"depth":3,"w":{"0":0.07617916497446117,"1":0.31534224439241143,"2":0.23139132392710215,"3":0.11583177993314665,"4":0.05597617552384468,"5":0.1007170602105883,"6":0.06838871391083802,"7":0.08373346187767539,"8":0.15032277841837083,"9":0.14701416084357619,"10":0.3411819673854607,"11":0.06686200488874627,"12":0.2050551042265526,"13":-0.09502616819956454,"14":-0.021814843706884787,"15":-0.003621446700838463,"16":0.15200203751586797,"17":0.06099753393219652,"18":0.15239018549787,"19":0.11233417726319656,"20":0.20457027821114726,"21":-0.036439079150988894,"22":0.1292156530217592,"23":0.1559000399384222,"24":0.34444574541695727,"25":0.1644078280352164,"26":0.07936053508601872,"27":0.006752250486661579,"28":0.12390072052898621,"29":0.07430504841477627,"30":-0.14139548563378448,"31":0.03975837542695048,"32":0.03864727908160937,"33":-0.0031815726331954593,"34":0.030585962471699483,"35":0.09011461233328504,"36":0.0870826225117982,"37":-0.1439652138537959,"38":0.2587141341596374,"39":0.13296491050637815,"40":-0.04385496025634255,"41":-0.0006290650821012936,"42":0.00006355922013081007,"43":-0.21215170639168907,"44":0.018866540406462476,"45":-0.11836446249404432,"46":-0.17206221229673477,"47":-0.07749904069442369,"48":-0.33689455766195686,"49":-0.25656143190799735,"50":-0.22581689309938294,"51":-0.27971832987921097,"52":-0.2130730557635407,"53":-0.48882541385873923,"54":0.21993798162375533,"55":-0.01783004571239372,"56":-0.07835877786861518,"57":0.05710414245887162,"58":-0.14678095190224608,"59":-0.09873727846031044,"60":-0.23937549293670293,"61":-0.02850231835177364,"62":-0.03459039983716161,"63":-0.168525822583586,"64":-0.012690711302268303,"65":-0.14246447630631442,"66":-0.1825163073595678,"67":-0.34379225643974615,"68":-0.3879484542551248,"69":0.043189014236959936,"70":-0.08005813370153185,"71":-0.2718138638157497,"72":-0.10963619876669438,"73":0.12738074230320343,"74":0.12694527973328243}},{"sx":5,"sy":5,"depth":3,"w":{"0":-0.01321556444981187,"1":-0.12390527571010021,"2":0.2271024715994036,"3":-0.07995001310955516,"4":0.03246613890773119,"5":-0.038925443007406225,"6":-0.08531446217800642,"7":-0.06946038537655609,"8":-0.11189229387657945,"9":-0.0910564402919776,"10":0.09259009304782366,"11":0.056384912555776864,"12":0.040963935626777,"13":-0.12679123419450594,"14":0.0746093082628603,"15":0.16150425854706263,"16":0.18654926935033347,"17":0.16816613583504375,"18":0.08673209858673976,"19":0.07782499940829789,"20":0.07642572578032975,"21":0.03653853839346135,"22":0.14716735581551993,"23":0.07797731997936083,"24":0.07109832889272581,"25":0.1234834555942033,"26":0.2421577645954957,"27":0.054685136054602165,"28":0.16118661331638967,"29":-0.048966164171372326,"30":-0.031197773497455724,"31":0.0817056925186794,"32":0.2197091584071034,"33":0.12353624246709495,"34":0.004824859028862353,"35":0.18946082747344908,"36":-0.034406564304529735,"37":-0.2484273336880517,"38":-0.29644632137910987,"39":0.01186052337230655,"40":0.055720881872499704,"41":-0.0876973543133288,"42":-0.12719601211891132,"43":-0.050678900399578126,"44":-0.09445807279681853,"45":-0.05300690985665451,"46":0.04594726930288162,"47":0.09882469870426253,"48":-0.03111087669036332,"49":0.09133287001004423,"50":0.17686557561819183,"51":-0.1563851179912305,"52":0.20499320027503357,"53":-0.29804746163846585,"54":0.07770242906957327,"55":-0.015263644155996455,"56":0.04603255137700328,"57":0.06951644974405637,"58":0.13155714624450318,"59":0.10251995510552593,"60":0.041227978639055085,"61":0.1335699996492905,"62":0.1568076646223358,"63":-0.018148351257163384,"64":-0.14972334683171604,"65":-0.1548085365545333,"66":-0.3115695626331841,"67":-0.2527994555412794,"68":-0.32715171395966886,"69":0.21780606833275495,"70":-0.11514618182737475,"71":-0.15698381649044782,"72":0.026733470138429187,"73":-0.1775824640811586,"74":-0.2947127576536469}},{"sx":5,"sy":5,"depth":3,"w":{"0":-0.040338044002787364,"1":0.2054734973583127,"2":0.04574488563417778,"3":-0.09094525380910658,"4":-0.3265616820902192,"5":-0.31198118699895167,"6":-0.09773522701694447,"7":-0.004575560918015261,"8":-0.2179511526410448,"9":-0.010867900985500728,"10":-0.12125278809250215,"11":-0.06181307810539467,"12":-0.14257008948459945,"13":0.21137394768273154,"14":0.10030026183668563,"15":-0.4353724466223853,"16":-0.34446641633730796,"17":-0.47611811397996534,"18":-0.15723671670329464,"19":0.03366385105238074,"20":0.09248399150034162,"21":0.08851395853161657,"22":0.2872684064095435,"23":0.1007588595639046,"24":-0.2120606261828743,"25":0.12168498175772495,"26":0.03915518550945461,"27":-0.029366322863289912,"28":0.2024045436671444,"29":0.23712054763859405,"30":0.026017776240531074,"31":-0.14517737988053053,"32":-0.3230885232131179,"33":-0.12104556934315605,"34":-0.1544874458191584,"35":-0.07249426477530063,"36":0.00020047204550176093,"37":-0.10622904819814744,"38":-0.2425567535411003,"39":-0.04804784613342462,"40":-0.09248017167678377,"41":-0.13990009286561547,"42":0.18103256513440114,"43":0.12311982988710225,"44":0.34566671754009387,"45":0.2494554585743378,"46":0.1871643388501459,"47":0.22767402659954206,"48":-0.018136803108370785,"49":-0.012258427291544513,"50":-0.04368061246534608,"51":0.17038443854204013,"52":-0.010572188227744106,"53":0.1812581847041756,"54":-0.15936459088478935,"55":-0.1213039495658831,"56":0.02445212460501521,"57":0.08063109691317252,"58":0.09577583276211535,"59":0.16788825992669526,"60":-0.006154823328913864,"61":0.06393052063479628,"62":0.027682662059875282,"63":0.2609487250987649,"64":0.19789714448413873,"65":-0.07508535175775741,"66":0.044282248654329455,"67":-0.03744636116458909,"68":0.08859516755206327,"69":-0.3334625604448462,"70":0.14563947349164347,"71":0.05195307093433787,"72":-0.08851161484371463,"73":-0.16702116090844635,"74":-0.31208554078902273}},{"sx":5,"sy":5,"depth":3,"w":{"0":-0.1760448294445182,"1":-0.31336431965760214,"2":-0.09833748484778204,"3":-0.08541870761427353,"4":-0.11804945119132079,"5":-0.20515022707617986,"6":-0.1342698523511956,"7":-0.33958631323778266,"8":-0.059784402766261326,"9":-0.22887133725276287,"10":-0.22028260326157104,"11":-0.2253019020727382,"12":-0.25335428234719626,"13":-0.251336475567413,"14":-0.05010697761986693,"15":-0.24649738930906084,"16":-0.21405410058482782,"17":-0.019145870759655997,"18":-0.4488824528728074,"19":-0.018537944284407568,"20":-0.018571374160665,"21":-0.383640295957815,"22":-0.20466486664157277,"23":-0.29030718761629765,"24":-0.30687387286600887,"25":-0.17064206437342874,"26":-0.2678912206347912,"27":-0.4023517346780395,"28":-0.025678673811165103,"29":-0.032507617510027335,"30":-0.07485121075941292,"31":-0.1292177971302705,"32":-0.02019447809548283,"33":-0.28872964730283224,"34":-0.23592000527924933,"35":0.10249511129534404,"36":-0.2600313161083907,"37":-0.03169303947603652,"38":-0.11619140087908905,"39":-0.4510407953280695,"40":-0.39803900392535074,"41":-0.13574058312558557,"42":-0.00022865204456341275,"43":-0.29759219460426894,"44":0.1250439997424686,"45":-0.13130716031995843,"46":-0.14608933854628509,"47":-0.18885986575458727,"48":-0.13377879151717165,"49":-0.1337883254513926,"50":-0.17850112113953556,"51":-0.21623009307634858,"52":-0.14371747587637773,"53":-0.25559807961278574,"54":0.0003142139378588075,"55":-0.29063910852500396,"56":0.12099848919009895,"57":-0.10961064701837014,"58":-0.17192186288799666,"59":-0.17850243275012012,"60":-0.273385363547234,"61":-0.23138860315789622,"62":-0.03373223596335495,"63":-0.06515166575547533,"64":-0.08140237953098431,"65":-0.2226709641031419,"66":-0.31411890118502966,"67":-0.06653582004502612,"68":-0.015359181916019822,"69":-0.2266306844801925,"70":-0.1507163896790975,"71":-0.1814672159619294,"72":-0.1433118092643093,"73":-0.05166495430842012,"74":0.08722909418495342}},{"sx":5,"sy":5,"depth":3,"w":{"0":0.2789426872823297,"1":0.2738336476586069,"2":0.6208280278123433,"3":-0.04807458671716652,"4":-0.18700081272982755,"5":-0.2838202918479071,"6":-0.10199786177474227,"7":0.1465126568642592,"8":0.20857097670475247,"9":-0.07940646979432267,"10":-0.24496780541786736,"11":-0.2904203114741069,"12":-0.03679939068371092,"13":0.2139698426675806,"14":0.08133744064148131,"15":0.2532808374331307,"16":0.08032556611111193,"17":0.36746269114408375,"18":-0.07814938471193209,"19":-0.02726783082048298,"20":-0.15268776701772532,"21":-0.26543618684887665,"22":-0.2897472741473723,"23":-0.6039062903148409,"24":-0.25947931221377485,"25":-0.30614546778796575,"26":-0.3398688082386894,"27":-0.06723356830450411,"28":0.03189322810627419,"29":-0.007358610721499801,"30":0.12033566239584573,"31":0.04928985205642417,"32":-0.362438365316703,"33":-0.020294074919065035,"34":-0.0002276823218497941,"35":0.06525606503616033,"36":-0.025071842270163406,"37":-0.15422258460490312,"38":-0.34001369152333355,"39":0.16332532310809014,"40":0.25639248956693617,"41":0.22787101860326803,"42":0.13044866694186705,"43":0.14587960163472588,"44":0.15331019094184153,"45":0.019494907164365822,"46":-0.049389637134057474,"47":-0.24344502399459989,"48":-0.13619840544833794,"49":-0.04164345093419772,"50":-0.23268359987512208,"51":0.07881317166789632,"52":0.15557018098807338,"53":-0.06303537357478735,"54":-0.06111126776782014,"55":0.07886305094594355,"56":0.308382472142428,"57":-0.082699039054052,"58":0.21854922967569917,"59":0.31270213189136364,"60":0.15132511711827398,"61":-0.015086299333455802,"62":0.08199903181109514,"63":0.16620541178575976,"64":-0.2247402454705356,"65":-0.04958434871577023,"66":0.06450936944166677,"67":-0.05816505150426182,"68":-0.006572469148967271,"69":-0.05688457856810322,"70":0.09211834858898765,"71":0.3658342769513553,"72":-0.03639595744426964,"73":0.028456246177803447,"74":0.24365999566086716}},{"sx":5,"sy":5,"depth":3,"w":{"0":-0.23122959509630786,"1":0.11259195846524536,"2":0.05742252345040563,"3":-0.11122074079736881,"4":-0.006371449694758417,"5":0.04216176488326256,"6":-0.09025628423849584,"7":-0.16759378490221505,"8":-0.2976532817546231,"9":-0.3144030125695249,"10":-0.06321461584147783,"11":-0.09799955383523609,"12":-0.1301567310236795,"13":-0.37057394533279,"14":-0.4297760707098565,"15":-0.08773402323627782,"16":-0.1260291323424089,"17":-0.21058623362582274,"18":-0.1701200961728147,"19":-0.16502577033462987,"20":-0.03633638197648953,"21":-0.262373864759719,"22":-0.23279011016014647,"23":-0.40089141570152137,"24":-0.327166684253166,"25":-0.24426809208454403,"26":-0.30839103227991815,"27":-0.06391115017071568,"28":-0.3307777093280603,"29":-0.1440686882117824,"30":0.10265361857029108,"31":-0.04606567304788702,"32":0.24773418723112983,"33":0.008256436580385997,"34":-0.147427099070069,"35":-0.1273235314693055,"36":-0.15011185452661566,"37":-0.15805144332909474,"38":0.07707362134890106,"39":-0.2891717205568288,"40":-0.25101494466938745,"41":-0.048134460622476186,"42":-0.09417769934244459,"43":-0.23859461983698474,"44":-0.20280111039569304,"45":0.21355340735121392,"46":0.23118188303581036,"47":0.3189339323534973,"48":0.12167415231187938,"49":-0.04679451126683865,"50":0.23996884174035596,"51":0.0022937083958842583,"52":-0.052125138651906794,"53":0.0876517508052856,"54":0.08185813906723018,"55":-0.07811573475969998,"56":-0.29305829788570986,"57":-0.0622443925693943,"58":-0.030819527693667782,"59":-0.033169064938264436,"60":-0.19276843634675375,"61":0.023672408793629546,"62":-0.2594619238514283,"63":-0.15131589914063115,"64":0.0804920403972072,"65":0.12473642462761879,"66":-0.14947103528740074,"67":-0.049469986689728816,"68":0.2595599110357117,"69":0.09717853672654476,"70":0.12802158545157266,"71":0.24479846524160906,"72":0.06530919385517629,"73":0.048878949575142744,"74":0.17908240787512214}},{"sx":5,"sy":5,"depth":3,"w":{"0":-0.01716671257087349,"1":-0.06950823345316345,"2":-0.13767471894007524,"3":0.06018167516219542,"4":0.11335531037031299,"5":0.023778052367144076,"6":0.020272916081702976,"7":-0.031702339726219136,"8":0.03847408938545197,"9":0.016128908273835167,"10":-0.047346373689683065,"11":0.07381136417269346,"12":0.003457315617637721,"13":0.17983881646454558,"14":0.263976620081946,"15":0.1349627304719429,"16":-0.06196695072859394,"17":-0.050680355885329806,"18":-0.0564102469459004,"19":-0.03161776425085562,"20":0.04959015517605215,"21":0.18417386208058636,"22":0.1315090570010144,"23":0.08024323153742631,"24":-0.05066448139252437,"25":0.08524853397906257,"26":0.13613921121596806,"27":-0.09424806408048604,"28":0.14183199310231914,"29":0.1391879220423034,"30":0.09504660765859527,"31":-0.2983359538203119,"32":-0.4238698175868284,"33":0.03937985642760219,"34":0.08250870671039728,"35":-0.09822723199650965,"36":0.1909136312924258,"37":-0.054163096956605004,"38":-0.3233085345935456,"39":0.0013536004151121714,"40":-0.09038614862749107,"41":0.016109868518331977,"42":0.14403911599603844,"43":0.31167455902011726,"44":0.23483142749103925,"45":-0.2541411152339978,"46":-0.34126295162170694,"47":-0.2726629661615792,"48":-0.11613356001133843,"49":-0.02723642471403311,"50":-0.34338822664645896,"51":-0.04296851947780118,"52":-0.18783483006785806,"53":-0.21646055816821694,"54":-0.12256995627213785,"55":-0.04607174947473279,"56":-0.012471512515809266,"57":-0.05177112393459154,"58":-0.006132602490165488,"59":-0.09900382724759914,"60":0.12684322190264152,"61":0.29487943776750986,"62":0.16275579333765197,"63":0.23287039862761713,"64":0.1878231270192935,"65":0.09208002031462656,"66":-0.34837971021195363,"67":-0.30273392677103594,"68":-0.26145151231227637,"69":-0.013995953761038345,"70":-0.2534885535271343,"71":-0.1266922179912523,"72":0.060345459737886124,"73":-0.1318392112422167,"74":-0.060114888266744625}},{"sx":5,"sy":5,"depth":3,"w":{"0":-0.0072316340637699995,"1":-0.2733070138435063,"2":-0.30301891976842227,"3":-0.27771391426009534,"4":-0.143928212020901,"5":-0.5185931489065523,"6":-0.2961028737334583,"7":-0.07139855170088251,"8":-0.20026718902592683,"9":0.05775249518195731,"10":-0.14044645812915058,"11":-0.2131169442348547,"12":0.016207041616567587,"13":-0.07445861966684783,"14":-0.02881305729589768,"15":-0.46553678496834705,"16":-0.11677709543561908,"17":-0.3927053279904302,"18":-0.2218353195856221,"19":-0.2932739746476314,"20":-0.48817413795845516,"21":-0.3116564139051947,"22":-0.13726872226944242,"23":-0.46914886851870036,"24":-0.0387769710144664,"25":-0.20455923916674118,"26":-0.3325996197593603,"27":-0.11098072694278757,"28":-0.1781688540140444,"29":-0.11317928299043378,"30":-0.1097302476650776,"31":-0.11491535506358928,"32":-0.26580857875063635,"33":-0.13792994438572045,"34":-0.16421728627329557,"35":-0.44171569869029315,"36":-0.2581552836652701,"37":-0.17892158822053866,"38":-0.4272054773835028,"39":-0.317133693548207,"40":-0.04686026330019795,"41":-0.14792345695275447,"42":0.15944484736499148,"43":-0.006723946622771095,"44":-0.0604873968726122,"45":-0.0706398891297789,"46":-0.026633486696452907,"47":-0.22834010287804501,"48":-0.019794183971847845,"49":-0.18413461376055174,"50":-0.38918668218605934,"51":-0.5242075303201189,"52":-0.13522803765740188,"53":-0.44228902611111864,"54":-0.05615969226391787,"55":-0.10567228825867124,"56":-0.35630191080219187,"57":0.008708675490501736,"58":0.05916525201942476,"59":0.14334014857104352,"60":0.22920149754321367,"61":0.007038736330837913,"62":0.07437865139909146,"63":-0.01916525387831397,"64":-0.0808201298309662,"65":-0.09875870395092211,"66":0.1277881940119436,"67":-0.29364880395285103,"68":-0.09923400010658788,"69":-0.2425644395061998,"70":-0.21837082527730772,"71":-0.41238177625354494,"72":0.07550579384774396,"73":-0.09410752737017623,"74":-0.046168564252784226}}],"biases":{"sx":1,"sy":1,"depth":16,"w":{"0":0.4453792514177529,"1":0.15041276220749164,"2":0.26439103018694415,"3":0.08277726412995198,"4":0.019761380977372834,"5":-0.0943869044107184,"6":0.08919649781016167,"7":0.4537491285624977,"8":0.4367448383194531,"9":0.31348081787732224,"10":-0.014645795390492138,"11":0.4258981445101004,"12":-0.0709678472998853,"13":-0.06110179053053298,"14":0.17053097366369394,"15":0.17395688868982126}}},{"out_depth":16,"out_sx":32,"out_sy":32,"layer_type":"relu"},{"sx":2,"sy":2,"stride":2,"in_depth":16,"out_depth":16,"out_sx":16,"out_sy":16,"layer_type":"pool","pad":0},{"sx":5,"sy":5,"stride":1,"in_depth":16,"out_depth":20,"out_sx":16,"out_sy":16,"layer_type":"conv","l1_decay_mul":0,"l2_decay_mul":1,"pad":2,"filters":[{"sx":5,"sy":5,"depth":16,"w":{"0":0.04767659466528546,"1":-0.04498005118251422,"2":0.06587063691635658,"3":-0.09562892815097164,"4":0.12341759661172633,"5":-0.09433868940430723,"6":-0.03376178050094203,"7":0.036546674053807175,"8":0.047029861145926985,"9":0.09472393488392497,"10":-0.18157182187765852,"11":-0.1939872328910808,"12":-0.26604052573867576,"13":-0.023291523299457342,"14":-0.03476360804481351,"15":-0.23378346331838606,"16":0.004458390032349289,"17":-0.030456462279325778,"18":0.02301445673092393,"19":-0.15764956236991315,"20":-0.0482287642684455,"21":-0.07980936546200182,"22":0.066985674537247,"23":0.05515153121612812,"24":0.057718935600004136,"25":0.09409139575523227,"26":-0.10630451841155722,"27":-0.04673230207749151,"28":-0.12580508240308796,"29":-0.13159259504850077,"30":-0.10202430086367147,"31":-0.240153697890785,"32":0.06788471920196505,"33":-0.0233694950305272,"34":-0.06090275246449597,"35":-0.16400641129808516,"36":-0.004987471552546172,"37":-0.05564546402399691,"38":-0.048479722735751685,"39":0.09368548471747858,"40":0.06543541481245631,"41":0.06111137092851028,"42":-0.16628156732705313,"43":-0.03259540895017727,"44":-0.10492202968909642,"45":0.019416381163404897,"46":-0.017168442585374734,"47":-0.22408368154253855,"48":-0.016871739347311336,"49":-0.023917800559523274,"50":0.07027896233324933,"51":0.018676397611818166,"52":0.006584902669207415,"53":-0.02194485368955777,"54":0.029250881528435364,"55":-0.10069395688548592,"56":0.013036124464945334,"57":-0.0008272407970097803,"58":-0.057476094002570435,"59":0.03602536699935254,"60":0.04361799748368615,"61":0.05380535998487783,"62":-0.08249347837297723,"63":-0.08382764165960528,"64":-0.08891605952146844,"65":0.010165701618770114,"66":-0.02364874502131743,"67":-0.044979278230867885,"68":0.029928959306060862,"69":-0.006796194534953925,"70":0.0946233770501218,"71":0.0505834375929722,"72":-0.008024750467350034,"73":0.033270580033973145,"74":-0.008393627323058175,"75":0.10591321105939354,"76":0.10867196603148145,"77":0.1881796848627932,"78":-0.018146915392885148,"79":0.09806046449419097,"80":-0.023278463820270323,"81":-0.06270237130613081,"82":-0.09534133795369171,"83":-0.04312692733658365,"84":0.16479179483634124,"85":-0.0570880000100393,"86":-0.11839889820699892,"87":0.07205132044635186,"88":0.011936230743195247,"89":-0.06807731301666133,"90":-0.15491605073785325,"91":-0.057550913829947536,"92":-0.004432391855483047,"93":-0.1334068176881425,"94":0.02231410778395624,"95":-0.07300373991805097,"96":0.08417501464086595,"97":0.03807583093360216,"98":-0.038579154811999104,"99":-0.04366874009708005,"100":0.023646310798310435,"101":-0.035314527238430135,"102":0.009162752253932817,"103":0.0010336542941566014,"104":0.09151101435241149,"105":-0.004189635483052164,"106":0.05797892091797991,"107":-0.01932879795164516,"108":-0.14750165556280692,"109":-0.052340756240036874,"110":-0.0793241201016248,"111":-0.11994117598212309,"112":-0.05894760594986225,"113":0.007798660035298083,"114":-0.05453107125432292,"115":0.02223352170938006,"116":-0.052635824774982874,"117":-0.02472507992192397,"118":-0.06375656515380775,"119":0.04627496613372456,"120":0.05460145083151755,"121":0.03425173056949239,"122":-0.1236934591196805,"123":-0.07545259663497621,"124":-0.12059201184795323,"125":-0.12155047517508068,"126":-0.050858005976530625,"127":-0.2303469530408731,"128":-0.010678444799608678,"129":-0.023504524903256115,"130":-0.06652603360561903,"131":-0.01004237270723546,"132":-0.05170052744085271,"133":-0.049860731124396485,"134":-0.09347903942207457,"135":-0.030976376281606197,"136":0.0927760105680616,"137":0.020288864700694846,"138":-0.017579628368650953,"139":-0.09853825480042043,"140":-0.0012187231603288235,"141":-0.10324232478162013,"142":-0.07702494996584282,"143":-0.16673988438192067,"144":-0.07496680357537223,"145":-0.00026892801949920155,"146":-0.024046315467313867,"147":0.012650658443703834,"148":0.051038338706627585,"149":-0.023307700255060706,"150":-0.004266058962935631,"151":-0.014078853752279942,"152":0.024758408133726286,"153":0.029613716729925986,"154":0.013902650181073561,"155":-0.06939372740640397,"156":-0.003982494744550075,"157":-0.026553669986019525,"158":0.023875255984936655,"159":-0.11223160523659953,"160":0.06422135292710465,"161":-0.052203646278168356,"162":-0.00252095303580066,"163":0.0983481724940385,"164":0.14142248747391195,"165":0.009973084154189979,"166":-0.05453028859474211,"167":-0.035348391781352635,"168":-0.08501350637095774,"169":0.11334545034899551,"170":-0.08835494152720187,"171":0.19277658548160054,"172":0.0654959545392782,"173":0.04198050263905734,"174":-0.11632104732048235,"175":0.11918130269537437,"176":-0.01323678958866533,"177":-0.00989377361906535,"178":-0.032279358253235226,"179":0.021884344790258466,"180":0.1502997019973974,"181":0.04251231683049539,"182":0.05686615472926794,"183":-0.06910370084928638,"184":0.017946587077670134,"185":-0.033404505696711016,"186":-0.07968561057479107,"187":0.04205116379292204,"188":-0.10356498722344595,"189":0.05588920306083657,"190":0.026707880482167577,"191":0.11808552720469481,"192":0.012446899854668873,"193":0.001903379326860851,"194":-0.003248981656895613,"195":-0.036170030479194495,"196":0.10363782152510213,"197":0.037805568437551194,"198":-0.020994560715982664,"199":0.08902036805604088,"200":0.012055381415164566,"201":0.03367599837677276,"202":-0.07383442229518086,"203":0.09167584589964865,"204":-0.011706178125802021,"205":0.05519418473049551,"206":0.06680362302571308,"207":-0.11651657088657022,"208":-0.059684138025875105,"209":-0.04661266132624679,"210":-0.0386774653676892,"211":0.14984579886081886,"212":0.09176827270562196,"213":0.01814181131024908,"214":0.12104469190808602,"215":0.0063397815093091696,"216":0.1402583863945686,"217":0.07285783427744492,"218":0.04207648572936721,"219":0.09744910464632653,"220":-0.021506777128627003,"221":0.04073161608185667,"222":0.07924916479326097,"223":0.005475626009048292,"224":-0.032613094818679474,"225":-0.023261596268978228,"226":-0.006111963127893288,"227":0.05855122908694719,"228":0.2895036150242508,"229":0.02653009666930744,"230":0.07778529682288793,"231":0.07419114235892851,"232":0.04388309766131777,"233":0.08499392468608702,"234":0.027030747288310432,"235":0.025023910027622918,"236":0.017509696655221847,"237":-0.03793486180227439,"238":0.16319212380139025,"239":-0.005425557764537811,"240":-0.122568106414172,"241":-0.10934829657499906,"242":-0.08719351618442286,"243":-0.04559950991836076,"244":-0.0024434272626915406,"245":0.04075553793193001,"246":0.03545803083491898,"247":-0.059530928971636074,"248":-0.11319786566153074,"249":0.03912833173693204,"250":0.029548418620290225,"251":0.09450125305385261,"252":-0.00007524990613383384,"253":0.0951597942158796,"254":-0.0375892164471148,"255":-0.01320710973333729,"256":-0.0024845704987760996,"257":0.08616134455394403,"258":0.011471828359824753,"259":-0.06634935672356831,"260":0.004802034169478346,"261":0.025567851666247976,"262":-0.17295816012795603,"263":-0.008834373118376709,"264":-0.1422714527947726,"265":-0.08412646783073079,"266":0.11436989796632695,"267":0.18710352638279715,"268":-0.11427453359557299,"269":0.06935010265303147,"270":0.08666258878778776,"271":0.06937869349694036,"272":-0.11029242344871437,"273":-0.051619891899722145,"274":0.07689587700437167,"275":0.05597570189851084,"276":0.09543845858150589,"277":0.07271679071672328,"278":0.06895246096581704,"279":-0.055748581532688,"280":-0.1794262741162554,"281":0.01872873749973731,"282":0.07647346615769085,"283":0.12715368783002332,"284":-0.0373702895027098,"285":0.20459482674491514,"286":0.008665305944170157,"287":0.03117528759526107,"288":-0.02093722504077001,"289":0.008619942716456535,"290":-0.0827238467394791,"291":0.13552171333481694,"292":0.16325559299277953,"293":0.07844071530611652,"294":0.06506934154777723,"295":-0.022207176111053013,"296":0.027257161447107894,"297":0.1320276156306399,"298":0.06664612872031123,"299":0.17771593102502647,"300":0.00888151557038004,"301":0.015930754666938593,"302":0.17679507523126572,"303":0.053129732348998905,"304":-0.1472560163717839,"305":-0.08744972877826848,"306":0.07154760783274791,"307":0.0642645288564622,"308":0.30116050379566933,"309":0.12667869495746836,"310":0.03821433002891525,"311":-0.0282452001353418,"312":0.1392196993610631,"313":0.06835499927418245,"314":0.0860139442473076,"315":0.03080933477715161,"316":0.0038142893921691338,"317":-0.04436251327066797,"318":0.15766991353291002,"319":0.010972156393371249,"320":-0.09149013947861974,"321":-0.13472316559645395,"322":0.010205966589052783,"323":0.022838791088379582,"324":0.12161149918808688,"325":0.05034318798681229,"326":0.06617692879975591,"327":-0.01029374510841428,"328":0.09862607236247119,"329":-0.002128105743096248,"330":-0.06315719068091485,"331":0.0392847162535155,"332":0.014361723136392918,"333":-0.005429566303381357,"334":0.12051701611628433,"335":0.003274854430858901,"336":-0.05110732988929867,"337":0.010358796556732077,"338":0.06692918844016986,"339":0.08238658401268088,"340":0.01904662583788837,"341":0.08987231935344397,"342":0.1341398811336645,"343":-0.02729594816940217,"344":-0.0788443544167844,"345":-0.09727474797383812,"346":-0.026861405769275273,"347":-0.02519388892867587,"348":0.1274897850380472,"349":0.0054512674711821914,"350":-0.0446769119773015,"351":-0.04647698145215267,"352":0.11903951046318498,"353":0.2951610602171068,"354":-0.018155918256060957,"355":0.010922423927825905,"356":0.01089922645316163,"357":0.12288965394275492,"358":0.16337481741093157,"359":0.009560068640659539,"360":-0.20280249759024244,"361":0.011039592159423203,"362":-0.042641267370258966,"363":-0.0620648184832613,"364":-0.030764145296103287,"365":0.10980265223452788,"366":-0.11642015996857207,"367":-0.03139593942404073,"368":-0.0308116094977854,"369":0.10207318298366541,"370":0.015542563799384438,"371":0.18272969588051538,"372":0.15881915079566342,"373":0.08673069163151387,"374":0.2820885150125769,"375":0.019135428192495477,"376":-0.04667912236140383,"377":0.07271019050736632,"378":0.10432416261064804,"379":0.1033078047990978,"380":0.26656099427286645,"381":0.12993429753072,"382":-0.05846999746218,"383":0.05272924551899606,"384":0.04244455244630297,"385":0.16354020317307635,"386":0.06812006707258189,"387":0.21856430688056916,"388":0.2571478993156086,"389":0.12869891182639545,"390":0.18718468003342373,"391":-0.11273877452778501,"392":-0.03644086371136975,"393":0.1531215418055795,"394":0.2738824541891943,"395":0.03840570949173641,"396":0.13000615086451112,"397":0.019999051456604033,"398":0.17664470682560346,"399":0.04343033068752219}},{"sx":5,"sy":5,"depth":16,"w":{"0":-0.04415021116566459,"1":-0.0865219680014681,"2":-0.00021343933574900138,"3":-0.04483772088925491,"4":0.03567832353347511,"5":-0.04387911957610045,"6":-0.050397534281387414,"7":-0.052588264900656746,"8":0.045478291564810355,"9":-0.1530079466174156,"10":-0.09386939170472287,"11":-0.017811878066602765,"12":-0.030199594412775976,"13":0.001287505807452567,"14":-0.0319267393771265,"15":-0.04874091325897737,"16":-0.12518514727643337,"17":-0.04926877977408724,"18":-0.09077427660555795,"19":-0.0714266963104473,"20":-0.1205499931033346,"21":-0.06216529623870116,"22":-0.026854923192647345,"23":-0.03633786361897587,"24":0.022061742040388906,"25":-0.057832022529378684,"26":0.03903581005021726,"27":-0.09899782458733652,"28":-0.038793695006452335,"29":-0.12027297847144992,"30":-0.027935530443460813,"31":-0.12138484890259059,"32":0.043992871210071796,"33":0.04577695430879952,"34":0.02493849614757808,"35":-0.18038556497916,"36":-0.08942965792803849,"37":-0.11440937621295595,"38":-0.04171504482999299,"39":-0.06373993094226418,"40":-0.02653639989635597,"41":-0.08459707411493238,"42":0.020392601289622368,"43":-0.05783669546640523,"44":-0.077456096316104,"45":-0.14606947630601402,"46":-0.13584744867170895,"47":-0.022586431460685945,"48":-0.007826538607814456,"49":-0.0867425769714386,"50":-0.11578480153835417,"51":-0.04934956815412707,"52":0.009296390198964888,"53":-0.06540419422187935,"54":-0.04404916997116689,"55":0.07506817654161758,"56":-0.06888321150067356,"57":0.03815835036605359,"58":-0.020857192470044843,"59":-0.05769554493507062,"60":-0.08699583242656156,"61":-0.08700129736261525,"62":0.03853111764538899,"63":-0.05166500230040095,"64":0.02211462064119653,"65":0.07628939325239704,"66":-0.003150386178025159,"67":-0.02798158725668229,"68":-0.037815968356671885,"69":-0.06270125560189807,"70":-0.11172695450981887,"71":-0.100813161400736,"72":0.02450579537176704,"73":0.08855552783843149,"74":-0.08189560941921852,"75":-0.07922994117118423,"76":0.03512652638199019,"77":-0.15697738210435808,"78":0.02161919864172032,"79":-0.13511214705428617,"80":-0.09385511984965371,"81":-0.15958870473147793,"82":-0.051599428623509094,"83":0.03491001958622139,"84":-0.009036943404671118,"85":0.06164010083583918,"86":-0.02367953486157862,"87":-0.045195617973317274,"88":-0.036607195577454676,"89":-0.029039746762300048,"90":-0.09475988914487359,"91":0.056734427137719735,"92":0.015814858053752216,"93":-0.13669976833849096,"94":0.06365234580757359,"95":-0.018379472637435397,"96":-0.0709662413173529,"97":-0.129603548828599,"98":-0.1202566536824199,"99":-0.043053512269431236,"100":0.029005939345570247,"101":0.05157546671244312,"102":-0.042661258812830616,"103":0.006067450681922213,"104":0.046715898570525154,"105":0.007538359630802326,"106":-0.03484633206487123,"107":-0.03762502947729851,"108":-0.08785608236367609,"109":0.01708275129334921,"110":-0.0007427279083760689,"111":-0.0338818066624618,"112":0.02326060291146906,"113":-0.04146163115635229,"114":-0.053641194206290856,"115":-0.01500427959102884,"116":-0.011462006669412866,"117":-0.037742045429910914,"118":-0.0420907889824394,"119":-0.06919060584823132,"120":0.04396819507119577,"121":-0.014319606480746677,"122":-0.006854503485367311,"123":0.07778473781647571,"124":-0.0927751747430949,"125":-0.08722604106409114,"126":0.0020061453182781174,"127":-0.09418037888668933,"128":0.052179301413589646,"129":0.013416664203931226,"130":-0.09664061535646432,"131":0.04370288428450511,"132":-0.07082613608413604,"133":-0.013436055868876173,"134":0.006267873382784094,"135":-0.13051350882218962,"136":-0.012317471692577069,"137":0.06837209964307975,"138":-0.03609828127786774,"139":-0.006660374636560211,"140":-0.07439569116302076,"141":0.014077003028576686,"142":-0.028104653659674853,"143":-0.09360122501458815,"144":0.049302776234346875,"145":-0.05441224161531313,"146":-0.09743721476738153,"147":-0.04691459326221311,"148":0.023998543263197808,"149":0.04905279269431595,"150":-0.04072371769621285,"151":-0.03521520546743608,"152":0.03935332735286559,"153":0.060461952031006724,"154":-0.12899455574514102,"155":-0.014552260687531373,"156":-0.0972692688545546,"157":-0.0008883898135834062,"158":0.07054314424518708,"159":-0.11858392546723585,"160":-0.06238294858297374,"161":-0.1357261559857656,"162":-0.1179125265608987,"163":0.038318272038456364,"164":0.08684351368259678,"165":0.09129022267026625,"166":-0.1563146941757299,"167":-0.17498924911157787,"168":0.048883060881714346,"169":-0.026656733239538696,"170":0.0214227758047081,"171":0.12999195439189315,"172":0.05899279355250617,"173":0.022703393959552582,"174":0.06067090968756868,"175":0.10574343762484588,"176":-0.03440571844985401,"177":-0.07882737594410545,"178":-0.19129021155527287,"179":0.0877370108357006,"180":0.022024395514390734,"181":0.11604038517236656,"182":-0.10468566602791898,"183":-0.07557924598145883,"184":0.07513046348218867,"185":0.011006837257132227,"186":-0.005774113386431321,"187":0.12662652110063952,"188":-0.09834113481177788,"189":0.12375584131818061,"190":0.03829076147807288,"191":0.14984447036084178,"192":-0.047902229491686266,"193":-0.04909744415031832,"194":-0.07578099843227311,"195":0.04828422715452477,"196":0.04401357226201789,"197":0.013313530412976013,"198":-0.11225612672372492,"199":0.04801394067280662,"200":0.050130569722651896,"201":-0.020406199679190516,"202":-0.031027039135093554,"203":0.22118036453035783,"204":0.005476529344276854,"205":0.006384202687859474,"206":0.11947015855351838,"207":0.17252396760824912,"208":-0.18319046741483996,"209":0.008529790469110532,"210":0.05002889509401975,"211":-0.024394280319558755,"212":-0.07651401859699528,"213":-0.1290761185075396,"214":-0.022562975735361087,"215":-0.032446421861100715,"216":0.006826840647439446,"217":-0.06810422364446936,"218":0.021094881453360248,"219":-0.022643812043018317,"220":-0.03379235304140829,"221":0.07966916941218288,"222":0.003715228148165103,"223":0.03420443871353036,"224":-0.03595445627924096,"225":0.04840346355721078,"226":-0.002311608960316004,"227":-0.03704549937924071,"228":-0.06337711527267513,"229":0.012001602660916509,"230":0.10312804706777365,"231":0.08925380134020726,"232":-0.01671219170739384,"233":0.03762739403567534,"234":0.05455055478726748,"235":-0.10517202727496672,"236":0.011386144807640474,"237":0.008552896029858268,"238":-0.013187368062657877,"239":-0.06859868812809877,"240":-0.12441134482610838,"241":-0.02559213044065466,"242":0.02139226162667172,"243":0.05234790079485951,"244":-0.019493326022610884,"245":-0.010530310751590492,"246":-0.07527548006807247,"247":-0.2693603167058905,"248":-0.15745071457357465,"249":-0.1377511666325269,"250":-0.061336890273739966,"251":0.07317767219691443,"252":0.08467077253057488,"253":0.1464243046967246,"254":-0.08548105748622027,"255":0.13023530152315757,"256":-0.1314412074277335,"257":-0.055576874281134885,"258":-0.13089938797055356,"259":0.06503279829633968,"260":0.0717934837221987,"261":0.11924211368830108,"262":-0.0005426205951095539,"263":-0.23079323314573355,"264":-0.06661203123702099,"265":-0.17071548784091137,"266":0.07008315644572026,"267":0.21959738850997998,"268":0.01588265408029054,"269":0.27736661651025074,"270":0.05221026001148742,"271":0.22336326678639543,"272":-0.15224045655189206,"273":-0.046106703533354394,"274":-0.03716056801999743,"275":0.06728420732719514,"276":0.020210051498579698,"277":0.05068021681830544,"278":-0.00034312280001705104,"279":-0.034796912276940345,"280":0.04770973679932137,"281":-0.0074368767134984646,"282":0.17495059316178416,"283":0.07160230870408357,"284":0.08641281267002753,"285":0.08425151574431851,"286":0.02376913253219703,"287":0.23335438957627627,"288":0.10532925463385025,"289":0.17187386449792652,"290":0.09337033635314464,"291":0.0862252210328294,"292":0.04802284243162743,"293":-0.012662399657431427,"294":0.043979440339768944,"295":0.012031812933764523,"296":-0.05355273524260555,"297":0.026204298794798353,"298":0.16102455621978265,"299":-0.030707185648107257,"300":0.10705012257370224,"301":-0.03132880958284258,"302":0.11545019144130726,"303":0.04626126791518467,"304":0.059983597716823184,"305":-0.026545656310754357,"306":-0.03972229151804145,"307":0.010394194269458586,"308":-0.08846940198066275,"309":0.02536335045896031,"310":0.09552628417701586,"311":-0.01244225688881393,"312":0.06624258314165672,"313":0.03942069006452987,"314":0.0827103652233058,"315":-0.04525543616763455,"316":-0.038672259065866,"317":0.02033366147128832,"318":-0.0024143091541533037,"319":-0.0182166353571011,"320":-0.10366911129554177,"321":0.13642177211461204,"322":0.0047528305234930185,"323":-0.021807586120319307,"324":0.041866832530378484,"325":-0.06579849316393183,"326":0.06753929106473981,"327":-0.17166161129147944,"328":-0.13131337437034635,"329":-0.09731287942132434,"330":0.009359286988717698,"331":-0.11798012321021441,"332":0.1309718556937625,"333":0.059852357399252855,"334":-0.09924122190329142,"335":-0.06007415716464123,"336":-0.13535906008259632,"337":0.031864885355222215,"338":0.07096268854960179,"339":0.03520130929594066,"340":-0.07042280772128477,"341":-0.01633426304650884,"342":0.07279376645424421,"343":-0.0033602527822116863,"344":-0.09566856568614092,"345":-0.019533553289064077,"346":0.10018499453054269,"347":0.03297712100850021,"348":0.08456728786466379,"349":0.058137332295346955,"350":-0.021933111739532808,"351":0.1821086536514946,"352":-0.07089076862698952,"353":0.06859657955364447,"354":0.01616234427617274,"355":0.025777421559349426,"356":0.01896328696626353,"357":-0.005849927017364416,"358":0.07396150693986442,"359":0.04580284768247131,"360":-0.10387922166016002,"361":-0.03929796100521767,"362":0.05837239838381631,"363":-0.06122707416669134,"364":0.020022085334628986,"365":0.01558402277950004,"366":-0.0526693768803163,"367":0.03459287867019943,"368":-0.07855333631942367,"369":0.2390256934944183,"370":-0.03415614975889823,"371":0.04105905518905543,"372":0.034197205510342076,"373":0.002865874866044991,"374":-0.09183972547925012,"375":0.0013467768645369742,"376":-0.05051505921084244,"377":-0.034364845221439747,"378":0.06324605467404547,"379":-0.13582726305404955,"380":0.0158378793542703,"381":0.04132858047349308,"382":0.01268184430232749,"383":-0.1708460137970524,"384":0.01615230159499717,"385":0.07127733900102184,"386":-0.11157067985004565,"387":-0.008544261273495118,"388":0.04876804596982862,"389":-0.05623196760008385,"390":0.04523621557961267,"391":-0.0185106510114768,"392":0.013238764519047652,"393":0.03016288608779723,"394":0.038776198259671234,"395":0.03213444490567567,"396":0.11768074210536754,"397":-0.05991879444909207,"398":0.07608110617734916,"399":-0.09508943076537717}},{"sx":5,"sy":5,"depth":16,"w":{"0":0.0036733876626222563,"1":0.05867496877302711,"2":0.15788613026121115,"3":0.17267262875160752,"4":0.09686029789526719,"5":-0.16717548841700922,"6":-0.06196719051374419,"7":0.10931293791254516,"8":0.035379740609875095,"9":0.02021863973323341,"10":0.03895988860319203,"11":-0.1600929672972411,"12":0.12591903132928872,"13":-0.014202627902009525,"14":0.12258970206714917,"15":-0.1565725572076765,"16":0.0238335767941569,"17":0.21829302382938887,"18":0.02568159586740338,"19":0.10215347602319726,"20":0.05169022922684082,"21":-0.01517444635698035,"22":-0.09314206201381744,"23":0.02018683962607592,"24":-0.004154338797987634,"25":-0.13505147505256562,"26":0.07327501190884325,"27":-0.09998216920221165,"28":-0.025604944635696698,"29":-0.04301266913875249,"30":0.030179568624257948,"31":-0.10037922808519167,"32":0.055884725358826014,"33":0.04261501004308024,"34":-0.020128492705231496,"35":-0.0754080777870417,"36":-0.029406085587655603,"37":-0.03718007323523557,"38":-0.04798634545610343,"39":0.08026416945981173,"40":-0.18863996305353695,"41":0.016277842980225818,"42":0.020085144994880576,"43":-0.029761084695014817,"44":0.08563044419272564,"45":0.0206264875619629,"46":0.02235783763884815,"47":-0.13844731357480125,"48":0.025324990505028292,"49":0.04738894405829105,"50":-0.015546050091655219,"51":-0.014188168173625497,"52":-0.08910395844076634,"53":-0.12055232127625923,"54":0.07537025975450708,"55":-0.06780193987799848,"56":-0.019116777162727756,"57":-0.11103895072833127,"58":0.023787616358810184,"59":-0.0010261488691557978,"60":0.11916907413920112,"61":0.2627126740777609,"62":-0.11273236871092332,"63":-0.011140569954909663,"64":-0.029549741355338808,"65":-0.032645387876020254,"66":-0.156801171839354,"67":0.048716535112680634,"68":-0.07223780831026065,"69":-0.08478862131460724,"70":0.07754064910233943,"71":-0.06239204517802628,"72":-0.14574138614670104,"73":-0.11841496562445504,"74":-0.017546969158596486,"75":0.10152423510035247,"76":0.002368373327117873,"77":0.1445101853477815,"78":0.042558278482596454,"79":0.16623147058949994,"80":0.051871906022651244,"81":0.05177476416770099,"82":0.005193171671125461,"83":0.17353531195364055,"84":0.09692257993108798,"85":0.04827351655709293,"86":0.010370677766055115,"87":0.055054797161492364,"88":0.05652158097721192,"89":0.11437244728667686,"90":-0.04186998242942994,"91":0.022621776608063176,"92":0.13750735182400148,"93":-0.0020628814419600336,"94":0.00938052618105612,"95":0.019074385780950606,"96":0.08774166546153703,"97":0.13926420797940528,"98":0.131870108291709,"99":0.08479902053400877,"100":0.015517917357750502,"101":-0.012280606249408082,"102":-0.03170106669514254,"103":0.02217167356593453,"104":-0.058975040596225305,"105":-0.024594652527228242,"106":0.09794204209504269,"107":-0.05687029589093647,"108":-0.04717285991398872,"109":-0.011610969341052367,"110":0.007444532896668991,"111":0.0071044432059930674,"112":0.057781996905523304,"113":-0.009334906106311925,"114":0.05748770231533334,"115":0.07969506648827314,"116":-0.05689908283757636,"117":-0.07047245793602241,"118":-0.05890034836398741,"119":0.12389141002457763,"120":0.04405555734307991,"121":0.006910334433953702,"122":-0.03549430773385409,"123":0.02373086115200386,"124":-0.03948441429129698,"125":0.07682416587659066,"126":-0.02367848625302057,"127":0.04992298847472708,"128":0.003973979165943462,"129":-0.003081978393519771,"130":0.08428572870984438,"131":-0.0536455717000387,"132":-0.023212163028003992,"133":0.0368648328312998,"134":0.025557384120939063,"135":-0.010193406132636985,"136":0.0274077645160831,"137":0.02567264331351358,"138":0.01293844978595406,"139":-0.0444817849311805,"140":-0.20552626600350418,"141":-0.031778766489082004,"142":-0.037682781244314976,"143":0.06391598626922741,"144":-0.06769326792905875,"145":-0.029958252808191067,"146":-0.16023809091421184,"147":0.06485690453541913,"148":-0.08810882692809963,"149":-0.10789266221050917,"150":-0.07663221275697805,"151":-0.05634970555590856,"152":-0.07174189964082094,"153":-0.06063653042050043,"154":0.08253007375359862,"155":0.05068189345360378,"156":-0.057198494879841306,"157":-0.14219332126723924,"158":0.041264209506781654,"159":0.05071954906567754,"160":0.06096786382457227,"161":-0.050552331290248644,"162":0.00530459186131764,"163":0.2379866032060882,"164":0.20282086487893808,"165":-0.07928688554147122,"166":0.08878138119778324,"167":0.010811679877927347,"168":0.126267427510068,"169":0.054562004708809425,"170":0.12251116538574879,"171":-0.05201985229277395,"172":0.08839104668097537,"173":-0.058591234277256314,"174":0.26324748916184915,"175":0.14142167186765248,"176":0.03992389995481284,"177":0.09517132934235856,"178":-0.008455103851552162,"179":0.15746611843435007,"180":0.13962474184960474,"181":-0.03718098765293306,"182":0.05540846413069721,"183":0.0024730716225527427,"184":0.13738417696489305,"185":0.011785255771950855,"186":0.027038613232370078,"187":0.026542037717644445,"188":0.04317035057029842,"189":0.0625148141191604,"190":0.1670743111136518,"191":-0.0681976832947193,"192":-0.00708091385188884,"193":-0.06876545145185553,"194":0.03273469967967989,"195":-0.059352600698337914,"196":0.011696445930821734,"197":0.11828101849361052,"198":0.007952346348240534,"199":0.12679479063455804,"200":0.041074083570324466,"201":-0.012901675843132709,"202":-0.009282979824064765,"203":-0.050471226108077076,"204":-0.09075787365899318,"205":0.022319280315659974,"206":-0.03886663792442939,"207":-0.04331980610159074,"208":-0.003790718612486682,"209":0.08212813003997364,"210":0.0017314904636215555,"211":-0.012815264697578222,"212":-0.1636385858342542,"213":-0.008292743512713571,"214":-0.09012446660830449,"215":0.0019352554969983712,"216":-0.05955419343969755,"217":-0.1349603861612127,"218":-0.05236058225857844,"219":0.021170224606300032,"220":-0.13057152263323088,"221":0.07440005976640954,"222":-0.1073063177689051,"223":-0.024766158202784567,"224":-0.16445925838882494,"225":-0.08691690152351231,"226":-0.11682331889740764,"227":0.14664664281635348,"228":0.009516484044118024,"229":-0.02671746467456668,"230":-0.09473847905338088,"231":0.06953746756473819,"232":-0.03184305637002125,"233":-0.21115788260919555,"234":0.050502984647987414,"235":0.148222967895132,"236":-0.05454911134542257,"237":0.03013121883316779,"238":0.06139840786036022,"239":0.11061508817281235,"240":0.011260899961248684,"241":0.11448356635263034,"242":-0.11071743918472587,"243":0.02408446930156113,"244":0.045443993967528976,"245":-0.0691977039857413,"246":0.15394145773584145,"247":-0.08073052793610365,"248":-0.05764460561153408,"249":0.014598332316296458,"250":0.07855338930251296,"251":0.022428480183103134,"252":0.049810140728023936,"253":-0.04981616965714474,"254":0.08822210578777864,"255":-0.036738767334515525,"256":-0.05234667002114792,"257":0.017637655176367718,"258":0.031391370971274195,"259":0.12807510828996374,"260":0.13515859521700344,"261":-0.08927516188572457,"262":0.08620532047870726,"263":0.054887346951128686,"264":0.08703678668099443,"265":0.000599086256108582,"266":0.0897025958087115,"267":0.00464524029289295,"268":0.0045202695329030875,"269":0.04255509363710492,"270":0.09863035757358925,"271":-0.09702019498890123,"272":0.07884326634873194,"273":-0.0210760328722781,"274":-0.040390404748124144,"275":0.04217857475984473,"276":0.05658874681430589,"277":-0.0671088627957193,"278":-0.09271406262521359,"279":0.01723994133840024,"280":0.0105528838667338,"281":0.006367249768495154,"282":-0.008418635641404488,"283":0.0006564754572542975,"284":-0.14315498173006108,"285":-0.13313352358604644,"286":0.1137748543850254,"287":-0.05486128574146496,"288":0.004472745071157776,"289":-0.08029236283650171,"290":-0.008825242234405525,"291":-0.08331803853667907,"292":-0.05447336675653288,"293":-0.0009960298748837274,"294":-0.04594421267177186,"295":-0.047743091524662,"296":-0.03197575484534457,"297":0.12670499393852833,"298":-0.07664142255074712,"299":0.04547734344782973,"300":-0.1530139736355273,"301":-0.05331666750113115,"302":-0.06565992449183947,"303":-0.05875344518277603,"304":-0.07911995771350191,"305":-0.07417555120731366,"306":-0.03655839719470987,"307":-0.095077464193719,"308":0.06394267055095049,"309":-0.11904203533413012,"310":0.10851492950833679,"311":-0.12013375240967658,"312":-0.11436020810465672,"313":-0.027930069065194338,"314":-0.1404899869989929,"315":-0.04160302024680796,"316":0.008783899676353424,"317":0.041302968920199176,"318":0.026613973147755265,"319":-0.0014243325662181173,"320":0.015294738708422961,"321":0.01715044468787485,"322":0.07652765517153039,"323":0.045120666283766306,"324":0.04970694907126175,"325":0.10142305545044905,"326":0.23809823786584508,"327":0.058271177207292794,"328":0.12672010662536223,"329":0.12217649105652363,"330":0.13758523897025574,"331":0.15301880166485152,"332":0.08586743224959538,"333":0.04259013589879114,"334":-0.02677168374244271,"335":0.17714070605456286,"336":-0.10438032612513633,"337":-0.08009165597372334,"338":0.02459581346865614,"339":0.02151891287321956,"340":0.10591707471180466,"341":0.06539505134460795,"342":0.13275986336236226,"343":-0.10916938252843111,"344":-0.020418029103532794,"345":0.02106355315813349,"346":0.008680395294926192,"347":0.15754769534680327,"348":-0.022625731817708574,"349":-0.01742873605113827,"350":0.07961399459095254,"351":0.014670953744887508,"352":-0.04227162047947131,"353":-0.003819124637230023,"354":0.06338597083758689,"355":-0.01057554061139583,"356":-0.0012456128938990963,"357":-0.03250230151455118,"358":-0.041371704315782735,"359":0.003475445258500948,"360":-0.07178065725902262,"361":-0.0306122282759053,"362":0.0048197932020481865,"363":0.041400425175566656,"364":-0.07908386532965894,"365":-0.1430650771047048,"366":0.07779082405810984,"367":-0.026861615345394278,"368":0.057007983421641775,"369":0.011067501429868652,"370":-0.034691805958915356,"371":-0.011255618146337158,"372":-0.024313602627688266,"373":-0.06724585917452534,"374":0.004959643111633982,"375":0.043786465666065186,"376":0.06708541121520466,"377":0.03624350037317236,"378":0.0740587551939939,"379":-0.03223531079847049,"380":0.02811732207454157,"381":0.01016356208208165,"382":0.08860764835238144,"383":-0.10346185938783987,"384":0.007809049288750721,"385":-0.018142079164082087,"386":-0.05708283809707347,"387":0.06424700445095938,"388":0.06138318915642851,"389":-0.011994955050313658,"390":-0.022126582930753494,"391":0.017243948698991356,"392":-0.029491843132101056,"393":0.049859119133952516,"394":0.025313646824024514,"395":0.04790028444474292,"396":-0.049783599177638846,"397":-0.05248500520400193,"398":0.12069580272106668,"399":-0.12725902587769528}},{"sx":5,"sy":5,"depth":16,"w":{"0":-0.019357381996444073,"1":-0.23725238481961247,"2":-0.01764060669975335,"3":-0.02765013050358158,"4":0.08409288125643538,"5":0.025485773340992994,"6":0.02942159252957901,"7":-0.1175290998808785,"8":0.16423401942717197,"9":0.05237761461491129,"10":-0.02390447419000507,"11":0.002649981935903592,"12":0.10654993987855074,"13":0.08942226966303667,"14":0.0034847747517805284,"15":-0.05978458022051111,"16":0.03246908007636382,"17":-0.14926052400383963,"18":0.07645604307826352,"19":0.019755827587816,"20":0.025787097348688337,"21":0.2596825549347669,"22":0.11372791439528109,"23":-0.017513584423927402,"24":0.15074446232018887,"25":0.06446330293179509,"26":0.025387634037429985,"27":0.1336725722393787,"28":0.32863933289888103,"29":0.12753570984252802,"30":0.018944010478958214,"31":0.057826068626826765,"32":-0.0896148803857929,"33":-0.05875534489698722,"34":0.0046066654937793865,"35":0.07599406747148522,"36":-0.00710607100392827,"37":0.03900943718132203,"38":0.08297276719280343,"39":-0.11701360959658394,"40":0.04158191375490614,"41":0.009248824952951819,"42":0.1646283301740572,"43":0.09051514711828765,"44":0.1558226017907904,"45":0.05586123425880975,"46":-0.033931306702813,"47":-0.020384191279097644,"48":0.04342236652876875,"49":0.046972343775528,"50":0.0761006886438382,"51":0.017622112623937827,"52":0.08520276337923838,"53":-0.09686293563809141,"54":0.09391270673356446,"55":-0.06364589534653058,"56":0.11287995567882964,"57":-0.027455935535234188,"58":0.10648825924454496,"59":-0.1520536194111913,"60":0.04122907461931463,"61":-0.03486734385455087,"62":0.10495986515485146,"63":-0.11813234391271832,"64":-0.027922370306567003,"65":0.0409026569816834,"66":0.07791557539597534,"67":-0.006062316268681681,"68":0.09672642576247702,"69":-0.1107631686735311,"70":0.06521056390122489,"71":-0.078710366581114,"72":0.0916309510410127,"73":0.14744357057706597,"74":0.04885807262916941,"75":-0.2255822566002211,"76":0.12562913947530335,"77":-0.11261398798434279,"78":-0.056846869420840246,"79":-0.11135062364457826,"80":-0.044384771742804786,"81":-0.13121966113274675,"82":-0.14818933430911366,"83":0.14439674005645153,"84":0.09707933133552306,"85":0.08718809647337433,"86":0.09927485160881563,"87":-0.13815636823500763,"88":0.21826189890507708,"89":0.06960861149056746,"90":0.13131155406765993,"91":0.04761102042908929,"92":0.19552248667829794,"93":0.1028572214783718,"94":0.08167912750453145,"95":0.029202790999605308,"96":0.03946196536898388,"97":-0.028866236639306285,"98":-0.014970352708779004,"99":0.21637036223741948,"100":0.15031305557131033,"101":0.10369746428112392,"102":0.19713828264118363,"103":0.04270589892065672,"104":0.18317254381995174,"105":-0.03430747530439781,"106":0.18857526351972778,"107":0.11784801139462019,"108":0.4071868296096502,"109":0.1096862675528208,"110":0.07546112964779352,"111":0.21017530214397037,"112":-0.09526620535231733,"113":-0.07118872691871479,"114":0.05690622893164806,"115":0.02079200413493029,"116":-0.07368761600058461,"117":-0.019144856866595627,"118":0.09356875599383291,"119":-0.008583198564411827,"120":-0.010172125793052047,"121":-0.022987467818426564,"122":0.07713613555795,"123":0.07019183131411305,"124":0.2649642464126157,"125":-0.053217248243825295,"126":-0.03331033333546387,"127":-0.005203771969630327,"128":-0.017784795782547932,"129":0.045631975838909634,"130":0.11705834222008876,"131":0.005399501204400944,"132":-0.0027384597584043657,"133":-0.11824484167608375,"134":0.04653148931817321,"135":0.028883072007271433,"136":0.00426449903769602,"137":0.001891515623703551,"138":0.1490397493301548,"139":-0.23288091335448344,"140":0.07866250926525413,"141":-0.12922151749596453,"142":-0.02232785597713282,"143":-0.19783226572084173,"144":0.09264844804190615,"145":-0.043678058748213705,"146":-0.028324201925389793,"147":-0.06674254234191887,"148":0.031086452908880978,"149":-0.12198778757020659,"150":0.0964356639237982,"151":-0.11586062243571295,"152":0.10050754908773614,"153":0.04312411224637621,"154":-0.0005695017307189623,"155":-0.21443461787758333,"156":-0.1953515001587443,"157":-0.1777510992605069,"158":-0.024691073888845266,"159":-0.28875130208500194,"160":-0.0021041457823270525,"161":-0.02416168087965729,"162":-0.06216076408759159,"163":0.14418581364695052,"164":-0.014925125622130681,"165":0.13512798774500215,"166":0.16508928283861213,"167":-0.11633342851195147,"168":0.11503010480506921,"169":0.09208281662658711,"170":0.13768167774448464,"171":0.10887831743839012,"172":0.36394588514185755,"173":0.1588388523713956,"174":0.06005252930369201,"175":0.15703577366730737,"176":-0.14800969862426536,"177":-0.08779694314229436,"178":0.053826326678944166,"179":0.12998820148497947,"180":0.030959094796500036,"181":0.10734664645381203,"182":0.12915127260378398,"183":-0.06131676088172829,"184":-0.015161708318354837,"185":-0.09474997378706766,"186":0.18640078171553096,"187":0.16016110979754777,"188":0.3593941105791529,"189":0.03602951844199674,"190":0.015741775843737718,"191":0.09869646142950535,"192":-0.045291662602436514,"193":-0.00764564927403094,"194":0.13435066216629213,"195":-0.04477412313720252,"196":-0.11339464377894513,"197":-0.03178036191930179,"198":0.15676075192948047,"199":-0.07496674464076097,"200":-0.027028148773650822,"201":-0.16448918932336154,"202":0.12330626624001992,"203":0.015550475724828849,"204":0.04092214851144402,"205":-0.0628498632557334,"206":-0.11805761173040517,"207":-0.06554317044118474,"208":-0.01082692792153902,"209":0.026881758456083572,"210":0.0011877893588263222,"211":-0.11668348599645062,"212":-0.1939382167168875,"213":0.02541089462133135,"214":-0.009403069562369868,"215":-0.05452066447478428,"216":-0.01321403256937542,"217":0.018802082426841147,"218":-0.13583220526502793,"219":-0.07051073311842726,"220":0.007470026362461408,"221":-0.11390916650978904,"222":-0.22199525702462475,"223":-0.20908340735493625,"224":0.1384880259003098,"225":0.08756235908275149,"226":0.0683458806450517,"227":-0.23459945000780671,"228":-0.0674198092659761,"229":-0.16122407728355767,"230":0.01263062263182174,"231":-0.04581306407000384,"232":0.10195814524812498,"233":0.16443638247062037,"234":-0.07097835370209875,"235":-0.06271802668421246,"236":-0.058163887165488155,"237":-0.14873582141641625,"238":-0.207560691609835,"239":-0.15801504662261243,"240":-0.13504990012070864,"241":-0.16215943063929136,"242":-0.07001756077279456,"243":0.07919233878066362,"244":-0.03625389903104048,"245":0.01676794150516787,"246":0.06284012447062763,"247":-0.16652568494929718,"248":-0.1390966855141713,"249":-0.12294075228466664,"250":0.2194850641939181,"251":0.05020999059055998,"252":0.30200839223152964,"253":0.019278813546132898,"254":0.10344140713678747,"255":0.12839832517283442,"256":0.09368798742413557,"257":0.041990963231885656,"258":0.12259507855579034,"259":0.08186841233142068,"260":-0.05710180227791136,"261":-0.028145099619425046,"262":0.06382410240303754,"263":0.005362612980257396,"264":-0.043542894412471285,"265":0.00375879372819496,"266":0.20238010072314325,"267":0.06727283732880011,"268":0.14273559047765438,"269":-0.09843934844720573,"270":-0.07778876930813063,"271":0.02943939520517969,"272":0.07634597748584081,"273":0.030418799780188868,"274":0.01880550822955046,"275":-0.09497487370216481,"276":-0.13311931882964687,"277":0.02652228430127664,"278":-0.012389246327226985,"279":-0.02711130347450659,"280":0.002860554756618866,"281":-0.03366354300947491,"282":0.11438368500945313,"283":-0.03885516567396604,"284":-0.13235622381970227,"285":-0.10668104153379532,"286":-0.13552816430017944,"287":-0.12245170573711452,"288":0.07765176326193826,"289":0.14085301777954837,"290":0.12783461573575325,"291":-0.15486326058681052,"292":-0.056578015197632114,"293":0.03073457060270933,"294":-0.14297069428507966,"295":0.018058527392418592,"296":-0.005831743622551643,"297":0.11087694644728337,"298":-0.03723085074036402,"299":-0.04968272237198002,"300":-0.03293117498348549,"301":-0.005120313685899913,"302":-0.26079782148101394,"303":0.013829750244431862,"304":0.1489799941745029,"305":-0.07374396053270461,"306":-0.01173584688245022,"307":-0.11816569866565307,"308":-0.04437948703956619,"309":0.13480099044931457,"310":0.04999959128524599,"311":0.061258885957580216,"312":0.10347469973447387,"313":0.09597549409547963,"314":-0.133872032534882,"315":0.1299699544036828,"316":-0.009505783490450385,"317":0.010352296579369232,"318":-0.1726860706333387,"319":-0.020544616774782448,"320":-0.03150862123605497,"321":-0.12915651004865508,"322":0.04771993501932434,"323":0.011243018079603918,"324":-0.04339331878636088,"325":-0.005209228856072105,"326":0.047616349892819196,"327":-0.07491520712071927,"328":-0.09101889572446138,"329":-0.02997921261354994,"330":0.15081875867207328,"331":-0.00032013463198370687,"332":0.10533868225550183,"333":-0.09279696862703789,"334":-0.0018882764986028879,"335":0.03575592544239525,"336":0.03475506226022397,"337":0.027244015689902354,"338":0.029653895945891545,"339":0.1396809397557745,"340":-0.04310072714387749,"341":-0.07009753715198384,"342":0.04287469669823979,"343":0.0037847474364408455,"344":-0.05000661126941515,"345":-0.06505046208738811,"346":0.1285776155361477,"347":-0.11122000625036277,"348":0.0650859956695719,"349":-0.13159368928985865,"350":0.006373262143665017,"351":-0.16041660297102606,"352":0.047159604306590226,"353":0.12609011797374806,"354":0.09151334662206187,"355":-0.09653281552105934,"356":-0.042286870502865545,"357":0.03606382990712542,"358":-0.04360311401246156,"359":0.07370467008652026,"360":-0.04322916812193349,"361":0.02662375299814925,"362":-0.10822221784941857,"363":-0.17398596042268688,"364":-0.061181013980759605,"365":-0.08793278044542512,"366":-0.15990088268350988,"367":-0.2505447164574861,"368":0.09761656156930856,"369":0.037432823829649894,"370":0.07934364730537563,"371":-0.05002443277933301,"372":0.062410568465928934,"373":0.04093141986794053,"374":-0.09889845402114751,"375":0.031464716311897664,"376":0.10997223432717301,"377":0.13341661957670886,"378":-0.1480990874159127,"379":0.08697637358654883,"380":0.08173397070205543,"381":-0.07979646152151253,"382":-0.13190629748508992,"383":-0.06878434744698331,"384":0.04457921771428072,"385":-0.03195726444828607,"386":0.011402787797856926,"387":0.02261272992695412,"388":-0.01751769927021999,"389":0.10730563452139849,"390":0.022455031911055672,"391":0.11240597718753922,"392":0.17282435234803611,"393":0.06900719408467755,"394":-0.092963001201312,"395":0.09722517447839245,"396":-0.08090175749007199,"397":0.03907101914369667,"398":0.08427399630440166,"399":-0.007273697847049202}},{"sx":5,"sy":5,"depth":16,"w":{"0":-0.08469422978194298,"1":0.04071373059696534,"2":-0.01819952942502249,"3":-0.06940274071607476,"4":-0.05129169771638721,"5":-0.012468408893309562,"6":0.04466039760891032,"7":-0.08081754332553827,"8":0.05503851921286843,"9":-0.04732982209310097,"10":-0.07577899415915693,"11":-0.06498030503759959,"12":-0.054443201737918924,"13":0.1120776235671972,"14":-0.07346432534250812,"15":-0.04567109732691803,"16":0.023648135867303466,"17":0.027825297533064293,"18":-0.04272615949381904,"19":-0.022365618372667897,"20":-0.05549071849128503,"21":0.04500733211652188,"22":-0.030862740866451903,"23":-0.07164160756055646,"24":-0.0010839688193572357,"25":-0.03590585299858363,"26":-0.01569100595310207,"27":-0.012974216842643866,"28":0.0017790151884070483,"29":-0.0035757578995357932,"30":-0.05367990535286617,"31":0.07165747012630866,"32":-0.11666758209670895,"33":0.004789963963344208,"34":-0.04777253350205158,"35":0.05111180668428173,"36":-0.04343054544809217,"37":0.01298446471966834,"38":-0.0893466092207399,"39":0.0008515177272081303,"40":0.0605238654916862,"41":-0.052178225686686945,"42":-0.11374855164162583,"43":-0.035432525260530916,"44":-0.10324683555329987,"45":0.01794591105207021,"46":0.0005552945885790227,"47":-0.018958762970218913,"48":0.02344158835563642,"49":-0.008505670512933905,"50":-0.05561883248644864,"51":-0.025190070648357665,"52":-0.07910432313379336,"53":0.005432730065071107,"54":-0.03818728632370748,"55":-0.05039431660086426,"56":-0.10143653101177698,"57":-0.20433793647032186,"58":-0.08587603163249409,"59":0.030958662364976037,"60":0.0022965895123601325,"61":0.13956091069299417,"62":0.03406772262062413,"63":0.03239547441246075,"64":0.005676517545679912,"65":0.03148441840615185,"66":-0.14367897826710319,"67":-0.0405925103628971,"68":-0.052711703813086076,"69":0.00004245122846742927,"70":-0.08507136029292085,"71":-0.07564474948348598,"72":0.03256942924035501,"73":-0.06816205488227556,"74":0.06491411499483205,"75":0.0210282614713808,"76":0.08888908563373207,"77":-0.07946203595332953,"78":-0.044226441960778226,"79":0.13927756941885602,"80":0.003860082754914871,"81":-0.022490784968327664,"82":-0.06722463536757008,"83":-0.04530561904175299,"84":0.0021743805916931073,"85":0.1138468660305041,"86":0.08504707210461442,"87":-0.10284101048110796,"88":-0.010481295101982112,"89":0.061430757562485595,"90":-0.08627444504650209,"91":0.07538506449074658,"92":-0.1356197392105352,"93":0.06551213546651131,"94":-0.08123595996541993,"95":0.08205324906182325,"96":0.009653408965281282,"97":-0.07609129317014594,"98":-0.014762144730881718,"99":-0.01505566035648103,"100":-0.03655777341129878,"101":0.06756062128935898,"102":-0.08641442359669732,"103":-0.15677207098157925,"104":-0.041081116759672194,"105":-0.08916249020777765,"106":-0.056501946659417435,"107":0.16722332859333439,"108":0.00417789289566787,"109":-0.022612877672931356,"110":0.0416456236819231,"111":0.12442044530175293,"112":-0.0636263606746629,"113":-0.16041764828697222,"114":0.009805423785609751,"115":-0.0014106134793924392,"116":-0.04556996927811728,"117":0.07345145575002639,"118":-0.10356362628384437,"119":-0.026522656626839412,"120":-0.04105213708868167,"121":0.0007483865502363194,"122":-0.10347302102314357,"123":0.06273899160891348,"124":-0.09207443234833734,"125":0.03612567525082826,"126":0.01575305065543329,"127":0.004889031076611104,"128":-0.11945264440441987,"129":-0.06864151196856982,"130":0.01448440707818817,"131":-0.07978325380313825,"132":-0.009558412418802011,"133":-0.03389209027495481,"134":-0.06876786240163292,"135":-0.12251762777433321,"136":-0.04773587052368436,"137":-0.04919803722256662,"138":0.019310574328958434,"139":0.17062827378667628,"140":-0.02781081657844397,"141":0.08758676270380984,"142":0.03349600121157097,"143":0.14380608244423695,"144":-0.1573037615167464,"145":0.022896486468372307,"146":-0.10526008893308207,"147":0.01245817151062762,"148":-0.058836784006519705,"149":0.01615673444957271,"150":0.0017131577045337873,"151":-0.05447878073866194,"152":-0.010626554017490785,"153":0.012973939823580307,"154":-0.019442120301984316,"155":0.09522213914163764,"156":-0.10813670957011316,"157":-0.0217099959477485,"158":0.029069148199182653,"159":0.18267989642463764,"160":-0.06504776404062795,"161":-0.015351282422854183,"162":0.03512434410495644,"163":0.003413778158385032,"164":-0.02543200358021373,"165":0.0336680388287056,"166":0.03175667353370642,"167":-0.034588717073829114,"168":-0.03641817851516526,"169":-0.04838039794711568,"170":0.003579309954987679,"171":0.1034858687239192,"172":0.00952680372550495,"173":-0.04929780393218969,"174":-0.052803587121617035,"175":-0.03991449797572655,"176":-0.012660746948983026,"177":-0.058023080240950285,"178":0.09398123596568983,"179":0.00148882674800569,"180":-0.011970510017393616,"181":-0.024118765792301124,"182":-0.03852163686443022,"183":0.013031963489820211,"184":-0.07161507010235327,"185":0.02483134234049112,"186":-0.047057076298226766,"187":0.18123216318113336,"188":0.1157612354564412,"189":0.08194519055445296,"190":-0.06538533513371518,"191":0.22100853387105218,"192":-0.060702612867547995,"193":-0.026691186893438495,"194":0.07085494058986706,"195":0.03799705491908949,"196":-0.09640400087796201,"197":-0.03611773710418479,"198":0.05651453982458596,"199":-0.053363346374416414,"200":-0.004592489438062004,"201":-0.12618567640162623,"202":-0.04560992807056697,"203":0.05342709670953314,"204":-0.09865369067660829,"205":0.022203531148586354,"206":-0.06360238475105127,"207":0.10528765408105467,"208":-0.12253228607181502,"209":0.045924425910648554,"210":-0.03884326086406816,"211":-0.012377893082927511,"212":-0.08785233533307564,"213":-0.0013981028589222636,"214":-0.08252734171320904,"215":-0.01740969338170736,"216":-0.11735914875127752,"217":-0.13092271415550874,"218":0.027411081506568822,"219":0.0008921606853339684,"220":-0.16379874224194974,"221":0.02348085305027927,"222":-0.10652246370232211,"223":0.09444308420301721,"224":0.009938585703095602,"225":-0.03564606697289387,"226":0.03549903589170212,"227":0.045433756051537114,"228":-0.031502112592073854,"229":-0.00491627708528734,"230":-0.06520583615515815,"231":-0.09600613408355972,"232":-0.01709391053753317,"233":0.05534810192103435,"234":-0.03590962707377385,"235":0.10068350763826338,"236":-0.024621240655925795,"237":0.038413200602504215,"238":-0.034322899789665615,"239":0.16816224794274665,"240":0.042537346192960096,"241":0.06714482268570937,"242":0.01574437947041139,"243":0.005849738192553082,"244":-0.049021268900646016,"245":0.0018766722589728323,"246":0.03644428328081608,"247":0.09470864813501868,"248":-0.09225724625608922,"249":-0.12004471097352977,"250":0.007416007549780414,"251":-0.0018419034471590968,"252":0.05352391534707114,"253":0.0436438374262986,"254":0.025554879427852086,"255":-0.02895089960039907,"256":-0.06696049790851227,"257":-0.06670485628312643,"258":-0.025130034463317505,"259":-0.06632104445455692,"260":0.015511546587020234,"261":-0.03363065450372988,"262":-0.06648372450361226,"263":-0.05015754564737697,"264":0.07442039291475348,"265":-0.04370593740740584,"266":-0.08703113977514293,"267":0.04679044685841651,"268":0.0661741207485094,"269":0.04119387921925117,"270":0.009684434939773452,"271":0.15074084181984113,"272":-0.13443308893492512,"273":0.07979142779725325,"274":-0.03795914668578503,"275":-0.07108489473262287,"276":-0.04642848083481644,"277":-0.0652927636461262,"278":-0.048227299599959195,"279":-0.0220005289455593,"280":0.011313169113999745,"281":-0.0538247903735563,"282":-0.028325801465762704,"283":0.03954787987648543,"284":-0.048032339900333385,"285":0.0400541507446717,"286":-0.058517758999511005,"287":0.06954409906190565,"288":-0.04335630291166615,"289":0.02427299143027564,"290":0.08710252751632885,"291":-0.09967737010457173,"292":-0.12019008536130829,"293":0.09977899691629441,"294":-0.1339712612707484,"295":-0.023889549033354475,"296":-0.06308140496349506,"297":-0.05811164682942143,"298":-0.0036402257436093342,"299":0.1406395074673726,"300":-0.08486063803199598,"301":0.014192635911725888,"302":-0.09375467599960857,"303":0.02164739884097924,"304":-0.0029469215035606614,"305":-0.014087271943876881,"306":0.04584918031756524,"307":-0.01808678857077339,"308":0.0007894143918950583,"309":-0.045737555949779754,"310":-0.03050640397853658,"311":-0.11161811457491161,"312":0.000240284614418335,"313":-0.013761449757161648,"314":0.06849482815975624,"315":0.1610152343857481,"316":-0.0665705446911489,"317":0.05591911906678919,"318":0.0582263183938103,"319":0.025163151331018492,"320":-0.03418119070454537,"321":0.017460292954362484,"322":-0.04869127411103544,"323":-0.0307372404225777,"324":-0.0002486879906009967,"325":-0.0732476993321012,"326":0.021991974671127366,"327":-0.1296270975788065,"328":0.01002361722366299,"329":-0.09374607899140149,"330":-0.07635014905209897,"331":-0.08289607453075577,"332":0.0168174164552733,"333":0.03370637296889775,"334":-0.015253852113521805,"335":0.05938442959209011,"336":0.02048591435176594,"337":0.03787968809560474,"338":0.0796540188488136,"339":0.0014852296007051649,"340":0.009827004840730439,"341":0.01444521522056163,"342":0.05258874685653568,"343":-0.08534230949186657,"344":0.052751595555162976,"345":-0.01965630025760342,"346":0.04752859844709301,"347":-0.031240082499071696,"348":-0.0859243596589892,"349":0.002494077203434937,"350":-0.04471439200205286,"351":0.034848751861609746,"352":-0.10130670409930019,"353":0.09071842503712685,"354":0.08369967982690622,"355":-0.06722788680271301,"356":-0.06468778736303354,"357":-0.10122421594864689,"358":-0.028783993152845144,"359":-0.04244620658576482,"360":-0.07724818432300465,"361":0.02462675164394297,"362":0.016242197646828785,"363":-0.09962565899287443,"364":-0.06792109449956182,"365":-0.02112392933503053,"366":-0.06747015480582855,"367":-0.08572464333891412,"368":0.025607492031124016,"369":0.09685483657939756,"370":0.02182330117893136,"371":-0.02673732741813278,"372":-0.009624464327651615,"373":-0.005107252235250608,"374":-0.0645284579093652,"375":-0.007188394981360627,"376":-0.004035459302254698,"377":0.038856001473246346,"378":-0.02768532210571745,"379":-0.005640511605045515,"380":-0.05072124869165513,"381":0.018088367628669014,"382":-0.03679675403673062,"383":0.040662115996550584,"384":0.00036222317207976684,"385":0.011012411115735607,"386":0.02853735885683623,"387":0.04415728547618211,"388":-0.11156472133876034,"389":0.03842610924449502,"390":-0.0025982481301733552,"391":-0.01230957648447156,"392":-0.05061526910491553,"393":0.07577579961701288,"394":0.004938724251113225,"395":0.07621046998853306,"396":-0.02692211602456184,"397":-0.01268409436649098,"398":-0.044218978175318405,"399":0.06064387162218487}},{"sx":5,"sy":5,"depth":16,"w":{"0":0.02422576927046655,"1":0.0684921875963832,"2":0.08097021321683541,"3":0.10985832561549605,"4":-0.04645965475564838,"5":0.03479688584112959,"6":-0.025416747970139163,"7":-0.020161373490902558,"8":0.030603262433691245,"9":0.010588379965654478,"10":-0.002355244551944999,"11":0.02594170454968221,"12":0.018972404639358086,"13":-0.014151942479110943,"14":0.027407941696658084,"15":0.035846832798965604,"16":-0.015169612995100331,"17":0.019631453181285553,"18":0.013792638482021186,"19":-0.13126737164763327,"20":0.005830634649965463,"21":-0.10180803788255109,"22":0.028045378569999613,"23":-0.04814636902552272,"24":0.07129637002790021,"25":0.010848977944285862,"26":-0.054358177448819156,"27":-0.05557662824814188,"28":-0.014392881194620564,"29":-0.08367187960073678,"30":0.01214063841485565,"31":-0.02847254400115963,"32":-0.06946589637634024,"33":0.0010609269305427522,"34":-0.053741633187351597,"35":-0.047405736391474364,"36":0.10029838278949724,"37":0.0122559494514942,"38":-0.0746435007511194,"39":-0.10076193895185151,"40":0.04837570418299291,"41":0.06206132777499039,"42":-0.029780053838051067,"43":0.07309039788623581,"44":-0.03929854144811551,"45":-0.0027904455753425114,"46":0.02972296295833181,"47":0.11664896016640909,"48":0.022492455094581917,"49":-0.12683489207593088,"50":-0.052177254413705985,"51":-0.014845019022201053,"52":-0.11741490420124195,"53":-0.018422971203926455,"54":-0.12124335964682995,"55":-0.05417552751281133,"56":0.002704269005711389,"57":0.03141090917429779,"58":-0.049249963674388976,"59":0.10712389633619968,"60":0.06440440974760024,"61":-0.01120427520887777,"62":-0.027333988479404697,"63":0.1693621197931539,"64":-0.06413060032721461,"65":-0.05449292506519749,"66":0.01967781455596813,"67":-0.0527884959466528,"68":-0.07333292546764218,"69":-0.006202485970798961,"70":0.019337321451500928,"71":-0.061057768833927016,"72":0.023870752851244213,"73":0.053412108542745876,"74":-0.0033194462149287794,"75":0.0339681508426657,"76":0.04019339404303024,"77":-0.03109705557688646,"78":0.006284933621609898,"79":0.1311231759544775,"80":0.09962995310145298,"81":0.07330182610904165,"82":0.09617677451106205,"83":-0.033429528912141925,"84":-0.08001918734477732,"85":-0.0362989194660151,"86":0.05313017952229761,"87":0.09705339295798382,"88":-0.06556060685958456,"89":-0.09511779084484843,"90":0.06024986294141435,"91":0.004583100776399092,"92":-0.016520151794565098,"93":-0.13985254008211556,"94":-0.13821056977714294,"95":-0.09663621606672881,"96":-0.034742276054076565,"97":0.03353868956641306,"98":0.0683542168584866,"99":-0.0373294226287971,"100":-0.0924006694564574,"101":-0.01379148648476837,"102":-0.06171216876322673,"103":-0.10344112474906082,"104":-0.1483699395784874,"105":0.001962287838273005,"106":-0.12147619713252482,"107":-0.08831796858855304,"108":-0.03333503217022976,"109":0.01728432603670094,"110":-0.13022369796791708,"111":-0.003824730210108833,"112":-0.04869395218969994,"113":-0.037381342196100883,"114":-0.0652073695176462,"115":-0.0168082919289969,"116":0.008934804662048334,"117":-0.0025988668726389364,"118":-0.007119642595365339,"119":-0.14649515817328848,"120":-0.02815047656168501,"121":-0.02701336377074086,"122":-0.13471552451766436,"123":-0.00191097110269591,"124":-0.12195824907956707,"125":0.06456282045029987,"126":-0.04429166982095141,"127":0.046156259468556636,"128":-0.08076692344525832,"129":-0.033695182010760785,"130":-0.07652365037351189,"131":-0.03347750888233923,"132":-0.023302869580431106,"133":0.05842281166472668,"134":-0.09242218247696166,"135":-0.0795251044632627,"136":-0.008910962611380375,"137":-0.060403074379473454,"138":0.09273860126107208,"139":0.020987870883957045,"140":0.011025858882057631,"141":0.005271857820223608,"142":0.04045905762226539,"143":0.10360349660204171,"144":-0.010754627159106415,"145":-0.14299662510683156,"146":-0.034375025816672115,"147":-0.06378335101097515,"148":-0.10582909006116971,"149":0.024702545169160185,"150":-0.07207526255634986,"151":-0.18196385234845688,"152":-0.03353217698294938,"153":0.028715835639715127,"154":-0.011339209039624737,"155":0.07175575978865506,"156":-0.006912747643342367,"157":-0.005957495741129825,"158":-0.017932889218393817,"159":0.1316176508521716,"160":0.05731265225804336,"161":0.060948340013976456,"162":0.11088434490344712,"163":-0.02982861965765687,"164":-0.03739335442291509,"165":-0.04709348773532145,"166":0.034315979386734086,"167":-0.017730521359190846,"168":-0.07973309311560897,"169":-0.013555908366752072,"170":0.024332862509752397,"171":-0.02538158682169999,"172":-0.0203368123711552,"173":-0.039268410043826654,"174":-0.04061735405896301,"175":-0.17153543213762715,"176":-0.001617509890663237,"177":0.11886575665534317,"178":0.027261014037698234,"179":-0.08732272888509451,"180":-0.08009750952751954,"181":0.018255818739728976,"182":0.012719209852667444,"183":0.06815333719775162,"184":-0.049979097583831664,"185":-0.015913313918320304,"186":-0.05766726497003738,"187":-0.040016110603785716,"188":-0.08572152357878796,"189":0.0408363020157418,"190":-0.08968457096771101,"191":-0.028521869911497695,"192":-0.015265715381085145,"193":0.03254815586291766,"194":-0.021615777796582157,"195":-0.05086539166785729,"196":0.02567062055189301,"197":0.0796849324446643,"198":-0.018104255740093403,"199":-0.10243715440219865,"200":-0.0891138811389618,"201":-0.09945674902069845,"202":-0.056831597613118755,"203":0.03006291070635796,"204":0.021115298279020058,"205":0.012936284989825037,"206":-0.03663722369076744,"207":0.10458525797955777,"208":-0.0376214968183849,"209":0.04242438832966713,"210":0.04214800093500068,"211":0.04709682271058988,"212":-0.05946861851314437,"213":-0.02437596033331365,"214":-0.0699774934199001,"215":-0.10040368793825111,"216":-0.2065221316156389,"217":-0.04440838309093462,"218":-0.07908893966590627,"219":0.07899790645101534,"220":-0.018687738272395803,"221":0.13670445745385804,"222":-0.06276684393050289,"223":0.15019946928689454,"224":0.002855332573391738,"225":-0.10710003977058602,"226":-0.01412563507733465,"227":0.0032243865643187537,"228":-0.017119853547294547,"229":-0.02664628720283526,"230":-0.055192804458330046,"231":-0.11176994150799707,"232":0.020091989532993862,"233":-0.16238421707687742,"234":-0.09159012303591178,"235":0.06112921894291013,"236":0.06644664178931674,"237":0.10719652307745801,"238":-0.03840989789615721,"239":0.17115096445183478,"240":0.11498244169976198,"241":0.09517858071935609,"242":0.0955191028819611,"243":-0.07587142960727827,"244":-0.041842206162830915,"245":-0.02748266184414145,"246":-0.010101412822160781,"247":-0.08113328280183645,"248":0.10671559631273017,"249":0.053342305282782096,"250":-0.029453670091953925,"251":-0.025785942335616936,"252":-0.10960548185436479,"253":-0.047211384946091214,"254":-0.10982699546932997,"255":-0.20374134807890243,"256":-0.027645896125876233,"257":-0.0014467830959360305,"258":0.06416889818696836,"259":-0.0918603009606507,"260":-0.08767776106220534,"261":-0.005773657093557473,"262":0.016690145216603558,"263":-0.11668439794763388,"264":-0.04576632759640892,"265":0.0851239236108996,"266":-0.10437428832638221,"267":0.008667322206654875,"268":-0.01683883534852515,"269":-0.05326860714395351,"270":-0.04510448398388903,"271":-0.019686427502181813,"272":0.021618874640069882,"273":-0.0064587242629976956,"274":0.11472980192337899,"275":-0.05997005311190301,"276":-0.12107115272726474,"277":-0.05367784156727053,"278":-0.041736975530198415,"279":-0.1261168910455819,"280":-0.10215016204038868,"281":-0.006073789535494588,"282":-0.044088643016067186,"283":0.09505808175328657,"284":0.04839805075353445,"285":0.07149767550419044,"286":-0.10649849669820362,"287":0.16243689190221838,"288":-0.07743652945474072,"289":0.06656702597368637,"290":0.029756253502155387,"291":-0.09244620025882506,"292":-0.020566393104221772,"293":0.07102067711550307,"294":-0.05658624897380373,"295":-0.1298403679665419,"296":-0.20630248905915283,"297":-0.1016736115702815,"298":-0.04809748475271887,"299":-0.013316197366614255,"300":0.038644297137675185,"301":0.1142404561269103,"302":-0.024598358460659334,"303":0.18281661647659037,"304":-0.17972707098112295,"305":-0.07721977222888293,"306":0.0471279500565304,"307":0.016023150046499995,"308":-0.03151525140360816,"309":0.04322256118307594,"310":-0.03186914823468027,"311":-0.1314018449939258,"312":-0.1895223129597093,"313":-0.14119745794730842,"314":0.031073035142524616,"315":0.11557844038382684,"316":-0.0691428190127952,"317":0.05552395143317384,"318":-0.010014632456461494,"319":0.16094096598910052,"320":0.053009661695919426,"321":-0.023898821949473594,"322":0.06930757912863834,"323":0.04475829309673634,"324":-0.05014972196509234,"325":0.023268553802012915,"326":0.039545199797065424,"327":0.03856544461945077,"328":0.12965472422739502,"329":0.09326324353913704,"330":-0.12726646764169872,"331":-0.06459227787063385,"332":-0.09336262794035013,"333":0.07169551201384956,"334":-0.0562607204801584,"335":-0.04255442520398038,"336":-0.01284451122261673,"337":0.030332427100610706,"338":0.13940461210998417,"339":-0.017790333574042593,"340":-0.040972886187639536,"341":0.02070278677399012,"342":-0.13874242196860093,"343":0.10126946455098268,"344":0.04880303318897444,"345":0.06893958495270894,"346":0.015518178693006852,"347":0.022898531370138198,"348":0.026161820546246335,"349":0.0860914766259782,"350":-0.1612810359040421,"351":-0.0015355936368979025,"352":0.00447325730609871,"353":0.060241482578531125,"354":0.0291585025753177,"355":-0.09181293703777446,"356":-0.0951543967288208,"357":-0.13400855972783893,"358":0.06222076320982891,"359":0.01771282585141887,"360":-0.024218398851204557,"361":-0.03793638505063153,"362":0.035076488628828506,"363":-0.023893072505633096,"364":-0.0016645780703773675,"365":0.043453826518307904,"366":-0.07136928029872876,"367":0.12673127003993356,"368":-0.11811473099774818,"369":0.05450361683396383,"370":0.0321991530803258,"371":-0.026032668966009295,"372":0.0007114975055805131,"373":-0.09947167356738615,"374":0.06954573782291447,"375":-0.041717513742609416,"376":-0.08589202947390524,"377":-0.09754317388293339,"378":0.09893790953795482,"379":0.04107113375920595,"380":0.10793233951742172,"381":0.009798472352654096,"382":-0.047025252443002756,"383":0.15088044290286476,"384":-0.0021760781420758946,"385":0.0065399673924976046,"386":-0.019727524130453467,"387":0.03677760310395646,"388":0.010971502393680459,"389":-0.0454346902638074,"390":0.0568306665195354,"391":-0.054439092902172324,"392":-0.16272186077964187,"393":-0.016085739041526225,"394":0.19524832429693748,"395":0.05824524351603107,"396":-0.012668759282997941,"397":0.13126376789252225,"398":0.011250960091568995,"399":0.19395888967167033}},{"sx":5,"sy":5,"depth":16,"w":{"0":0.07342941645390288,"1":0.02151826487393712,"2":0.02111715088247554,"3":-0.024441099524197204,"4":-0.07405547779150605,"5":-0.07649789679435885,"6":-0.04653480229606306,"7":0.10569483409627194,"8":0.026834778164710665,"9":-0.015917908722372098,"10":-0.07349252563801413,"11":-0.04366066956490919,"12":-0.012291759974866388,"13":0.0707625329176618,"14":0.04724860887753861,"15":-0.09590109666321361,"16":-0.06313843227315993,"17":0.043278401565358934,"18":0.04513018491131278,"19":-0.004464527261763879,"20":-0.04487575088046735,"21":-0.04120501363881123,"22":-0.03560970882480662,"23":0.043643671280901936,"24":0.0009537330916073974,"25":-0.093614809047903,"26":-0.028877258525668775,"27":0.022477035407935147,"28":-0.016740884710703122,"29":0.049799162352155264,"30":-0.01571742297590395,"31":-0.162159792178772,"32":-0.0022174333048639323,"33":-0.05816135101966768,"34":0.06213746610958556,"35":-0.04785851849431328,"36":-0.04968788848954265,"37":-0.10932983170208802,"38":-0.04870474226963963,"39":0.03715268180694334,"40":0.07602268614817,"41":0.0029540397323100038,"42":-0.07564917789887766,"43":-0.05037743503943645,"44":-0.029559091402552626,"45":-0.09873479822535866,"46":-0.08500972816578903,"47":-0.013643521420600846,"48":-0.042461236571379096,"49":0.011422894760714347,"50":-0.02942442952132716,"51":-0.057735782034273084,"52":0.04431506967833083,"53":-0.16706600845920902,"54":-0.036735190223290574,"55":0.05006036581217119,"56":0.043519263223377104,"57":0.007096055217681989,"58":-0.08724057049716674,"59":-0.04566514153791185,"60":0.020549704807659958,"61":-0.11106301581610074,"62":-0.04441492883467768,"63":-0.11167246056773628,"64":0.0545696643427003,"65":0.012842164977342509,"66":0.028598037386646288,"67":-0.043330812462620986,"68":-0.0778954488770341,"69":-0.09090905244506664,"70":-0.18791238783227943,"71":0.06507955292094847,"72":0.111039805714882,"73":0.06875800136950744,"74":-0.2126554873391442,"75":-0.06517182710818233,"76":-0.01699138723745858,"77":-0.05239163431516476,"78":-0.02467461872997948,"79":-0.11634071476694635,"80":-0.05190381695800284,"81":-0.07202201570504271,"82":0.064621911826275,"83":0.0011643162699742711,"84":0.09396130220764748,"85":-0.09939254788013092,"86":0.04367233271541933,"87":0.09078727637463707,"88":0.09153577274067907,"89":0.13240244865763892,"90":0.06991241186147114,"91":-0.0743067867604717,"92":-0.09041012671547971,"93":-0.0784428967236406,"94":0.15789203287070167,"95":0.016388355616590758,"96":0.007645285790385373,"97":-0.09149726815736449,"98":0.1442431366481655,"99":-0.005267743877765319,"100":0.08322740147654835,"101":0.13659630713684426,"102":-0.011782094343848167,"103":0.20184222843340754,"104":0.0664460914917801,"105":0.09253143909572303,"106":-0.04596541258874754,"107":-0.11294051818789028,"108":-0.0898383175487149,"109":-0.019933729702485494,"110":0.08703905051278343,"111":-0.08324829034751571,"112":0.13262694393339153,"113":-0.0032784885718593797,"114":0.019315735336477312,"115":-0.04549193230342011,"116":-0.0044291203293598215,"117":0.06979511592887937,"118":0.058318940839570434,"119":0.07628038204202994,"120":0.10803648403689271,"121":0.08081663698020727,"122":-0.02105050092103392,"123":-0.13116438975751363,"124":-0.02223393038369916,"125":-0.00844030360868136,"126":-0.07212686954385697,"127":-0.08603181708020967,"128":0.01921668490179509,"129":-0.0207002071670613,"130":-0.1493700067624694,"131":-0.06619441198851832,"132":0.00627860481099395,"133":0.016271632357652967,"134":-0.01747182866404701,"135":-0.08755084876248363,"136":0.010484386356509732,"137":0.01135475731965593,"138":-0.11560134565454802,"139":0.02312180056499671,"140":0.06034699011002934,"141":-0.1099304819090707,"142":0.018068157324013043,"143":0.0076716739225308195,"144":0.020696114482946632,"145":-0.030005326295236164,"146":-0.08385904586656555,"147":-0.0335322529316925,"148":-0.06976148626635328,"149":-0.12004256575852842,"150":-0.14289177747357634,"151":-0.0034312326562148023,"152":-0.03647705357151858,"153":-0.047017914671237705,"154":0.006792540450178936,"155":0.01011244438963692,"156":-0.11196037979672716,"157":0.05086742156090707,"158":0.022460926943472938,"159":-0.02533675342311895,"160":0.04646437522374111,"161":-0.074303428519952,"162":0.048086009470968756,"163":0.1228406633319261,"164":0.24965878128204425,"165":0.03997723216651365,"166":0.01804502097436923,