{"layers":[{"out_depth":3,"out_sx":32,"out_sy":32,"layer_type":"input"},{"sx":5,"sy":5,"stride":1,"in_depth":3,"out_depth":16,"out_sx":32,"out_sy":32,"layer_type":"conv","l1_decay_mul":0,"l2_decay_mul":1,"pad":2,"filters":[{"sx":5,"sy":5,"depth":3,"w":{"0":0.1970530359116573,"1":0.010686514899652196,"2":0.027706764036243576,"3":0.024905054684566566,"4":-0.02147040161526709,"5":0.24067958811419318,"6":0.06246245196914406,"7":0.03472540749596954,"8":0.06724018169855013,"9":0.14074999130250426,"10":0.0734148080453465,"11":0.02133090697128916,"12":0.013834469137627968,"13":0.18005063254268747,"14":-0.1585214953151295,"15":0.002370693298350193,"16":-0.1180826458166637,"17":-0.06723972100089075,"18":0.07163348129402375,"19":-0.0375111915250588,"20":0.06219966015606098,"21":0.09174151676178019,"22":-0.08983393487198849,"23":0.07751536118114297,"24":-0.18438590976892424,"25":-0.03023314047359687,"26":0.0353258869578444,"27":-0.056654441278664106,"28":0.005131971991436866,"29":-0.08031800455359052,"30":0.005746766663657672,"31":-0.08413656707001636,"32":-0.06054212987115203,"33":-0.21063099999441104,"34":0.006242697495930533,"35":0.20732273233971885,"36":-0.17650581474880328,"37":-0.005853581641742857,"38":-0.048510502089986834,"39":-0.2531019577992863,"40":0.17245370521674877,"41":-0.06952057338845578,"42":0.21495341587681654,"43":0.1097119162720708,"44":-0.1351828616358264,"45":0.1347371429961914,"46":-0.045398483081889505,"47":-0.052503548626215354,"48":0.07659134212260595,"49":0.07774628054743628,"50":0.01565173587195061,"51":0.10841664265969224,"52":-0.021071373411011354,"53":-0.03399440645618397,"54":-0.2542524936856913,"55":-0.09053533661903783,"56":-0.030775867389328974,"57":0.13025969079388655,"58":-0.2433661790374244,"59":0.23878993943370125,"60":-0.12956973603458885,"61":0.03850669769747098,"62":-0.057333783535761546,"63":-0.01065575384448106,"64":-0.11919929018673676,"65":0.09290650225819759,"66":-0.01602048643330419,"67":0.013362782476429585,"68":-0.03427309177580817,"69":0.0530380545995342,"70":-0.1756075664965875,"71":0.03107664140370596,"72":-0.028873367966734374,"73":-0.1441141857958642,"74":0.04213316095594521}},{"sx":5,"sy":5,"depth":3,"w":{"0":-0.1081134917382019,"1":-0.16767502931154454,"2":-0.18940232764116774,"3":0.2843255801071448,"4":0.10607851951808865,"5":0.2069583765740898,"6":0.03803732151008394,"7":0.17965199952102634,"8":0.14941701170429506,"9":-0.10224358608529908,"10":-0.14544861304001214,"11":0.018424326317454044,"12":0.00697402777246011,"13":-0.07616854482801229,"14":0.036512807738022665,"15":-0.05899774043669197,"16":-0.104422402271062,"17":-0.10513131897131815,"18":0.03387358143347102,"19":0.0021823075845030055,"20":-0.0363959645466273,"21":0.04046568369787687,"22":0.2823773689909032,"23":0.0539713502595729,"24":0.21340575389744246,"25":-0.15212931372646651,"26":-0.18861251318355504,"27":-0.5262890279281102,"28":-0.08930126282784161,"29":-0.043301525927345125,"30":0.06731196985190278,"31":-0.06357574175449937,"32":0.07524085158792697,"33":-0.2366522178343524,"34":-0.11448588250490375,"35":-0.05401988445858979,"36":0.15252328973240215,"37":0.09885686349166675,"38":-0.036346103474317985,"39":0.1628417938738362,"40":-0.01751916136926745,"41":-0.18858366072520502,"42":0.014966676083328119,"43":-0.08254528087648576,"44":0.08730225591157521,"45":0.023228700551642834,"46":0.0045805037296514535,"47":0.12397317285349417,"48":-0.07961958798336273,"49":0.1856368646189779,"50":0.14584365062052176,"51":-0.12277168515920905,"52":0.01462070293570023,"53":0.0057517247170215105,"54":0.057647642899687206,"55":0.23605976708024856,"56":-0.17800778524345937,"57":-0.10044801642192903,"58":-0.0022767403412057817,"59":0.010930650840397967,"60":-0.02543447851152606,"61":0.08561300875869528,"62":0.17010206766732436,"63":0.06987934250014777,"64":-0.033575839511164295,"65":-0.05405335608228757,"66":0.01472855275502126,"67":0.10437577816272255,"68":0.12721929551542274,"69":0.21975906037021933,"70":-0.017494203870405116,"71":0.12584429516769718,"72":-0.04682863019283318,"73":0.016854678545511405,"74":-0.12381042861086658}},{"sx":5,"sy":5,"depth":3,"w":{"0":0.1278809415327224,"1":0.07120318798400431,"2":-0.10876700421189749,"3":0.007471187482933285,"4":0.011271973061952833,"5":-0.07203986706935776,"6":-0.058443820012191554,"7":0.015572325541760869,"8":0.00667859147819797,"9":0.14035667699254067,"10":-0.06770838376230225,"11":-0.04542708041897256,"12":0.18961225269364054,"13":0.2014534513764359,"14":-0.1349613389409356,"15":-0.03924668094587616,"16":-0.025690171171370374,"17":-0.01745883469906906,"18":-0.08878768419120879,"19":0.035302387027126424,"20":0.07742916339932145,"21":-0.028333330064225608,"22":0.044288197763858735,"23":-0.09853268399543534,"24":-0.14005280001029832,"25":0.0760650761815482,"26":0.10764284737601452,"27":0.005271084100470025,"28":-0.08063511368253715,"29":0.06617816821547243,"30":0.0954373007291016,"31":-0.07289113946457622,"32":-0.04738338247870654,"33":-0.17674758199031082,"34":-0.08797839676935194,"35":0.007712698584798193,"36":-0.1802725092789992,"37":0.05233806593365226,"38":0.22795918748621088,"39":0.17801856549949954,"40":-0.033775989456450724,"41":-0.051640779380228735,"42":-0.17980517337955335,"43":0.02739233325811297,"44":0.02927239284525356,"45":0.02616511222486427,"46":0.02102330749317402,"47":-0.2065846432951952,"48":0.05780814451066249,"49":0.08926579969707597,"50":0.21748178555494044,"51":0.15794442798103872,"52":0.002921252687453554,"53":0.08785081042706373,"54":0.0371212326455432,"55":0.15704293521297083,"56":0.04429384657144591,"57":0.05364093650916918,"58":0.11105338458685567,"59":-0.10801832983170674,"60":0.0186099257256183,"61":0.14175335921592902,"62":0.11998643632055939,"63":-0.08495052826470567,"64":-0.03257614849419272,"65":-0.06007185116187862,"66":0.036497552732526396,"67":0.048894397745642165,"68":-0.03672654232767266,"69":0.1379212483113329,"70":-0.16992418747341373,"71":0.012028481095404978,"72":-0.0884895506186763,"73":-0.06138962208124527,"74":0.06292394640885852}},{"sx":5,"sy":5,"depth":3,"w":{"0":-0.19347960030603756,"1":0.20683247271044153,"2":0.0665821220985284,"3":0.03198949620731067,"4":0.05445999883558804,"5":0.07119073275299821,"6":0.1333840678915544,"7":-0.05528445645500461,"8":-0.04898323849575386,"9":-0.030319474198987277,"10":0.05533563683635927,"11":0.011628351003901256,"12":0.2050408571655529,"13":0.1172284696122254,"14":0.24963081868213502,"15":0.010651493546788347,"16":-0.04354516770180811,"17":-0.15655236291791066,"18":-0.18217028389583512,"19":0.08437561990680602,"20":-0.011707030644779784,"21":-0.00038583842596674343,"22":-0.05730355785128596,"23":-0.23701474123908858,"24":-0.04754294834830531,"25":0.04142295758064346,"26":0.01101266042975045,"27":-0.02685752380191626,"28":0.15105617178029124,"29":0.02705900803478435,"30":-0.24487926444254474,"31":-0.17867454192706647,"32":-0.3129694523054496,"33":0.032570631009266264,"34":0.06255665244577077,"35":-0.042990736017224966,"36":-0.050875044268691376,"37":0.08601678801694901,"38":0.12269544162410714,"39":-0.05565406204775502,"40":-0.17212259861999687,"41":-0.15208982982075098,"42":-0.050494186377390095,"43":-0.22849630269071156,"44":0.01052820747035949,"45":-0.004673785390100491,"46":0.03262741439825938,"47":0.08425621125214199,"48":0.03908728343048973,"49":-0.06367166690888923,"50":-0.14580313917789273,"51":0.024973386937236712,"52":-0.07910742874951945,"53":0.07202729580467315,"54":-0.1016909029474407,"55":0.060441803731891355,"56":0.04700565097359457,"57":0.11197604813785873,"58":0.11564223462824115,"59":0.0856377111121112,"60":0.10681786773778895,"61":0.30798707497407896,"62":0.013518854232670238,"63":0.3346871360481888,"64":-0.011585890396439188,"65":-0.2524510670530003,"66":0.049330123025376656,"67":-0.1253516108648937,"68":0.012229225155364109,"69":-0.0784550817332641,"70":0.030783909481899043,"71":0.3643468849631025,"72":-0.05736431808916185,"73":-0.15068659746003166,"74":-0.20858871875464882}},{"sx":5,"sy":5,"depth":3,"w":{"0":0.06586337898048733,"1":-0.11783004333641628,"2":-0.2767167313613095,"3":0.20237870933554886,"4":0.18777549592180973,"5":0.08074879773227608,"6":-0.04398412892020164,"7":0.20480489499510818,"8":0.09299633416868218,"9":0.06555910254326346,"10":0.024512715587664907,"11":-0.04802650228345842,"12":0.09123511122474154,"13":0.051147757018953875,"14":-0.15474729723111033,"15":0.07341486226459334,"16":-0.1225880724781787,"17":-0.052309643345735644,"18":0.010088788500678013,"19":0.008923205169677406,"20":0.035301489362703144,"21":-0.14422990732460397,"22":-0.08976914947924254,"23":0.1241744960654449,"24":-0.08646625359426992,"25":0.1115993593791093,"26":0.06813542348988781,"27":0.09988498027813142,"28":-0.05316327018078411,"29":-0.043484786702909915,"30":0.04632368022252762,"31":0.10214368950797846,"32":0.14303927438717554,"33":-0.030702477322560998,"34":-0.09306445691005888,"35":-0.07309689346954917,"36":0.05785955270426983,"37":-0.05040333542197143,"38":0.10381057925712611,"39":-0.16214502665469488,"40":0.020766051339410313,"41":0.11772639923578938,"42":-0.009509276016712531,"43":0.0896967947851099,"44":0.1496457578083377,"45":-0.14697336377970405,"46":-0.021272285422026204,"47":-0.06525257588923247,"48":0.04744605252339865,"49":-0.3500854038594366,"50":-0.49729631901031623,"51":0.060489784140193535,"52":-0.23504422770707492,"53":-0.01278736325079564,"54":0.035984384370309534,"55":0.12151988639568351,"56":0.02359722753928722,"57":-0.08636444418524447,"58":-0.19641880914980828,"59":-0.08128501191701401,"60":0.13980293067054636,"61":0.23046673138772195,"62":0.3351562503397884,"63":-0.19232311022068008,"64":-0.18473369478526944,"65":0.022260329854826764,"66":0.07212015759324353,"67":0.16472941568577268,"68":-0.08314462943925906,"69":0.03961546514187714,"70":0.10724291818906859,"71":0.014148709047643702,"72":0.13765263483630388,"73":-0.1616960239547927,"74":-0.2119393208712668}},{"sx":5,"sy":5,"depth":3,"w":{"0":0.0181604619003031,"1":-0.20922809658993505,"2":-0.10193733414781661,"3":-0.04827821308967026,"4":0.023863376883952497,"5":0.13749179261225447,"6":-0.015597060208278177,"7":0.12846921174939968,"8":0.22403596068946646,"9":-0.25798106409480864,"10":0.05952371509382821,"11":-0.07817370979370104,"12":-0.07614351052394025,"13":-0.26583521988747116,"14":-0.236920139361254,"15":-0.025842224051896547,"16":0.15698123807398345,"17":0.06076095069316548,"18":0.11272800501000482,"19":0.013385407473738278,"20":0.03310391845210271,"21":-0.1642211040858664,"22":0.09153120011021117,"23":-0.046067104571960144,"24":-0.21917502184185705,"25":-0.016188199581905035,"26":0.16502886585468046,"27":-0.1470539138038106,"28":0.043717089650972554,"29":0.14278599193878874,"30":0.030647598980878314,"31":0.00047456240333441517,"32":0.13622289413663305,"33":-0.11795384574431662,"34":0.07716802695989475,"35":0.11898088900958068,"36":-0.08373418951983,"37":0.06783091128541903,"38":0.01749213176492855,"39":-0.17218295474286277,"40":0.006227884778191753,"41":-0.1269402057235182,"42":-0.2216276336106435,"43":-0.0668244050482723,"44":-0.038519917349601765,"45":-0.06090786642260967,"46":0.0955442585081318,"47":-0.08078254704103573,"48":0.010930890952228113,"49":-0.055081548879601,"50":-0.054353649034530084,"51":-0.007159487337373118,"52":0.061916775010348875,"53":-0.05835743940436494,"54":-0.315215338374276,"55":-0.14058588354264726,"56":-0.11101891761687663,"57":-0.31669192398006485,"58":-0.04425385760735111,"59":0.03074617575693903,"60":-0.08008487863337,"61":-0.3561294612474821,"62":-0.26962822418557075,"63":-0.06450769700372852,"64":0.02976115387381679,"65":-0.12354348698193636,"66":-0.20768858416554253,"67":0.008211297001989288,"68":-0.1531696698698712,"69":0.13391784823415837,"70":0.07270807704387054,"71":0.2383126163649945,"72":-0.06254283065419342,"73":0.1661743472517203,"74":0.24623684946785293}},{"sx":5,"sy":5,"depth":3,"w":{"0":-0.059068903401830755,"1":0.003581781946098156,"2":-0.07991351357296951,"3":-0.08749273967963644,"4":-0.06067738654826387,"5":-0.06246722604451558,"6":-0.2686379462679643,"7":-0.054035558659229765,"8":-0.29943791027757244,"9":0.027732598089709782,"10":-0.14759144870229324,"11":-0.060435837181496116,"12":0.04293792232793148,"13":0.025659909592121343,"14":-0.08008727934493155,"15":-0.31579839330884585,"16":0.06123579185717512,"17":-0.11356050896682789,"18":0.11790513632032625,"19":0.410954611286403,"20":-0.07858973019688564,"21":0.15935601859590767,"22":0.060200718690160464,"23":0.10224786228145141,"24":0.08600769612216863,"25":-0.1773038628700953,"26":-0.10418496862289228,"27":-0.07608551243647081,"28":0.09539154322968,"29":-0.17942215265217182,"30":0.2332291010719299,"31":0.20147066835956995,"32":0.05354361282270636,"33":-0.029155041152934248,"34":0.19525580759212127,"35":0.14736402896092352,"36":0.027792294426936807,"37":0.04315657736220803,"38":0.09483469375063508,"39":0.10693558532654132,"40":0.08878628339889959,"41":-0.026606974562245252,"42":0.004146020976669218,"43":0.16022719390704943,"44":0.05118230501771079,"45":0.22055462879426285,"46":-0.036550193929300166,"47":-0.003244086337848316,"48":0.10323375304120781,"49":0.06877406017325534,"50":0.11483226480831145,"51":-0.049637951820373505,"52":-0.18786551986128713,"53":0.020499400283744806,"54":0.035182261301387706,"55":-0.16910143236879943,"56":0.11310907816417438,"57":0.2715748397199186,"58":-0.125959981736091,"59":0.18952758339679823,"60":-0.30522677241906626,"61":-0.01903381732508864,"62":0.015967025292107688,"63":-0.046842110109555544,"64":-0.022148964256982668,"65":-0.13057270214175412,"66":-0.22196278710349196,"67":-0.2640989831623871,"68":-0.18285534781643503,"69":0.009513879947535924,"70":0.21616093961235697,"71":0.1929958635115519,"72":-0.010422192150312298,"73":-0.24922334439796456,"74":-0.06783793303093541}},{"sx":5,"sy":5,"depth":3,"w":{"0":0.10080618436019234,"1":0.19417097030009978,"2":-0.11078161476466375,"3":-0.036245225824326835,"4":0.051476283397754896,"5":0.17640963381985622,"6":0.17729165939635538,"7":-0.18804473577846106,"8":0.16780896990433256,"9":0.1651761376697341,"10":-0.09285462595413198,"11":0.07803157493222045,"12":-0.0775128437863157,"13":-0.018358781123569947,"14":0.1581504629338578,"15":0.01380965081839623,"16":-0.1542436077988969,"17":0.1289302508839302,"18":-0.03143593564077636,"19":0.0012299750300671438,"20":-0.0009851249983145757,"21":0.02452077885295118,"22":0.049325837522529704,"23":0.041416627146673435,"24":0.060919149826216455,"25":0.020931580423741963,"26":0.3298210273700082,"27":0.19158370761029495,"28":-0.22872545337641012,"29":-0.14997288979814277,"30":0.013534833072457704,"31":-0.2786494264736637,"32":0.1447246620781499,"33":-0.00976531880115703,"34":-0.018683901538221206,"35":0.1565352828317277,"36":-0.1528115142201352,"37":-0.006003195696756625,"38":0.00882732517189113,"39":0.016515305542901138,"40":-0.2500964683614258,"41":-0.15097144183827252,"42":0.2075578989563751,"43":-0.24583397335064064,"44":0.12885902345720926,"45":0.11493549012695052,"46":-0.2785030135731783,"47":-0.13146066200920348,"48":-0.04503592335800211,"49":-0.18623199036019744,"50":0.07407987136917273,"51":-0.1375211410266359,"52":0.04513840942686104,"53":0.05050362541140353,"54":0.11443044786064746,"55":0.1288733874780012,"56":0.0807088434647689,"57":-0.2385153072070147,"58":0.06030206113266018,"59":-0.24881744180770143,"60":-0.02302877959738843,"61":-0.06328928712597162,"62":-0.029774892218775426,"63":-0.08031014862817279,"64":-0.08731211418103552,"65":0.043171003760005884,"66":-0.001987730237555561,"67":-0.13218173377433864,"68":0.1279053626318991,"69":0.1533855058573134,"70":-0.04069473133911454,"71":-0.07749664384107342,"72":0.2337191805940324,"73":-0.17531079620811518,"74":0.16200607406940237}},{"sx":5,"sy":5,"depth":3,"w":{"0":0.047147046447734334,"1":0.27486788011790675,"2":0.12218517886269269,"3":0.08105922895224978,"4":0.02020307795682388,"5":0.01747080922500673,"6":0.016007660973265277,"7":0.03541532977299474,"8":0.05647174147959981,"9":0.0593583616417921,"10":0.25281011519522634,"11":-0.059321364121271127,"12":0.1567717977758381,"13":-0.14184958080579596,"14":-0.062403013649667466,"15":-0.03148551443337219,"16":0.12198865590562515,"17":-0.011807008193323285,"18":0.09725771581009762,"19":0.05049163528060306,"20":0.09152039133188819,"21":-0.07524248169049527,"22":0.09354567397632002,"23":0.07246233096793629,"24":0.29036730194922855,"25":0.1140498768479238,"26":0.0001146214965285141,"27":-0.014813699215976965,"28":0.1094581173817935,"29":0.05954789230768737,"30":-0.15208136919058837,"31":0.03315043528211878,"32":0.0066600672123922,"33":-0.006061207833397063,"34":0.035113043660266983,"35":0.07204737282983373,"36":0.08733085814069495,"37":-0.13156925340873776,"38":0.250678222949886,"39":0.14278914945375662,"40":-0.022172839620594118,"41":0.016871710038321122,"42":0.009380225962514277,"43":-0.18722015554842353,"44":0.047146820939631115,"45":-0.11547958381552287,"46":-0.16072309602303908,"47":-0.0582412199653663,"48":-0.25657413178785565,"49":-0.14973341575228144,"50":-0.07554985367040339,"51":-0.2018149177000408,"52":-0.09567927227557625,"53":-0.3157467637928632,"54":0.23141940925220897,"55":0.015101954253274995,"56":-0.027812153429345836,"57":0.06984337870337505,"58":-0.11460979586198816,"59":-0.04365955645383358,"60":-0.22359880308638413,"61":0.0007412281910105103,"62":0.008432974802827287,"63":-0.13819614193843804,"64":0.04684403913284732,"65":-0.051115529345362516,"66":-0.11143036843376923,"67":-0.2404626975288259,"68":-0.2506474394461126,"69":0.091908209943855,"70":-0.0013829637906256488,"71":-0.1723057217648544,"72":-0.13221128408105995,"73":0.12510334783709148,"74":0.1268937035285969}},{"sx":5,"sy":5,"depth":3,"w":{"0":0.005274677446337057,"1":-0.11383791746406137,"2":0.16469655509351402,"3":-0.023445097575903337,"4":0.08713335376846178,"5":-0.02408348979323673,"6":-0.02833738577069919,"7":-0.003545157686763588,"8":-0.04966704766676517,"9":-0.1169982338975321,"10":0.07050390299579633,"11":0.027095396035932768,"12":0.03162106140162395,"13":-0.13623283563109984,"14":0.08193126661462875,"15":0.11264314520246978,"16":0.11519558246825028,"17":-0.0036632350499833954,"18":0.05512986905000857,"19":0.03704976318908089,"20":-0.038462218771988875,"21":0.0050519326616080135,"22":0.11183204944054755,"23":-0.008746922556244041,"24":0.03657774921616236,"25":0.07884705266984,"26":0.15217176067914429,"27":0.0035441956121981684,"28":0.0940316950418512,"29":-0.11637271386028698,"30":-0.10703201201929326,"31":-0.004004525823520646,"32":0.04686556963466859,"33":0.09998050318771645,"34":-0.022883237465811848,"35":0.09752000321262408,"36":0.051892811644378554,"37":-0.13164515754621123,"38":-0.14425457677854345,"39":0.006833923219741685,"40":0.05702198606165209,"41":-0.07349536171617647,"42":-0.08596269102612093,"43":0.009419401324917325,"44":0.009460236484581021,"45":-0.08247130380609285,"46":0.012235800875160846,"47":0.02931382124098626,"48":-0.03057908468008018,"49":0.09138277284100307,"50":0.14650045861545172,"51":-0.14889599486229024,"52":0.23875971888081612,"53":-0.24144572926906935,"54":0.09394109043937775,"55":0.017238447519611382,"56":0.10041123995861595,"57":0.02673271034753374,"58":0.09715397048474252,"59":0.09269903069562946,"60":-0.005780789159355205,"61":0.08115605046728837,"62":0.07512625531783997,"63":0.005529358030696097,"64":-0.10654845552920385,"65":-0.06669414579924411,"66":-0.2437734507529659,"67":-0.1488452871747164,"68":-0.17536417379218797,"69":0.2284312708412603,"70":-0.06937517136937045,"71":-0.08039641717691612,"72":0.0070668653311667185,"73":-0.1730064278001269,"74":-0.2553448905548175}},{"sx":5,"sy":5,"depth":3,"w":{"0":-0.00013786440440816615,"1":0.23235523224367358,"2":0.02641958573955154,"3":0.017201645592466012,"4":-0.21645093736427407,"5":-0.17889456155890815,"6":-0.00649852441022859,"7":0.09964645637496919,"8":-0.10683818159414546,"9":0.023539880809869445,"10":-0.09027414396489923,"11":-0.05909649074667329,"12":-0.1690642408154875,"13":0.1603838655391336,"14":0.0020557039344778856,"15":-0.27413249881117857,"16":-0.15748388078437658,"17":-0.19594910960471915,"18":-0.14805384304815183,"19":0.04079961365735033,"20":0.10089694695208513,"21":0.07571153165136683,"22":0.26649476699614055,"23":0.04380367388588005,"24":-0.20410903571170713,"25":0.12917746059371246,"26":0.045138372106928136,"27":-0.050143406350447825,"28":0.1673862287275578,"29":0.15431218685731016,"30":0.05165902179568915,"31":-0.10462599201112938,"32":-0.21663301205197721,"33":-0.07580805954499828,"34":-0.10207622898418386,"35":0.0000494258822776845,"36":0.04702270086368852,"37":-0.050859641141194276,"38":-0.19335511167940606,"39":-0.03287228669925928,"40":-0.0704324108273239,"41":-0.12891464238890118,"42":0.11949369554657653,"43":0.02663901089537457,"44":0.1907697835926376,"45":0.18941444339453165,"46":0.10874461351562631,"47":0.14782418490421048,"48":0.0015316074513073996,"49":0.0037601151336556977,"50":-0.005484862312845735,"51":0.14195993856628217,"52":-0.045377025786975354,"53":0.09987718332901413,"54":-0.16014552266606377,"55":-0.12575108111165081,"56":-0.0030101514509536698,"57":0.09057554853389337,"58":0.08014901546843503,"59":0.11921498289459023,"60":-0.017877967632770712,"61":0.052894242283681926,"62":0.03731614272158244,"63":0.23510839971834124,"64":0.16396958005467563,"65":-0.12669084531043812,"66":0.05308317406861444,"67":-0.046867764179187366,"68":0.050241954038005826,"69":-0.3018506660937256,"70":0.17074570719886972,"71":0.06413824668169599,"72":-0.013021781182639436,"73":-0.0947328423671983,"74":-0.23809263710134124}},{"sx":5,"sy":5,"depth":3,"w":{"0":-0.06327797698953187,"1":-0.21481788936905954,"2":-0.06742428877746998,"3":0.05496624922814239,"4":0.007090780529918401,"5":-0.1551207967457339,"6":0.004902231824481743,"7":-0.20896179874366236,"8":0.009780426030084851,"9":-0.07215623055534205,"10":-0.06515010731889145,"11":-0.10853890149310451,"12":-0.16929674144722467,"13":-0.17415377669478718,"14":-0.031141858765724874,"15":-0.11914551260245392,"16":-0.10801637182648313,"17":0.014733024585808694,"18":-0.2974850266687932,"19":0.1141853871592557,"20":0.03909787067395412,"21":-0.253918481239684,"22":-0.10078864056460621,"23":-0.2792577370232937,"24":-0.13881438100344232,"25":-0.020751362853295482,"26":-0.20799112787757246,"27":-0.27741052585659787,"28":0.08887954623714915,"29":-0.014014437266485477,"30":0.011452729324202052,"31":-0.07777490692619188,"32":-0.04509987676766212,"33":-0.15857208151172572,"34":-0.13878881035985105,"35":0.13625686944307858,"36":-0.1357099550960161,"37":0.0689303589009363,"38":-0.08990921262175437,"39":-0.33637416498188794,"40":-0.3111849112908584,"41":-0.15171787961816638,"42":0.09982933915865375,"43":-0.21492974887946817,"44":0.11521389258218477,"45":-0.036265284809943336,"46":-0.06989653071343431,"47":-0.1745175639488652,"48":-0.012721550743820347,"49":-0.04143465745915088,"50":-0.1643876870971716,"51":-0.09101380564647508,"52":-0.04350786928834408,"53":-0.22571939923784434,"54":0.15963474322893098,"55":-0.14577350878636047,"56":0.18995191507627765,"57":-0.01358748136651822,"58":-0.09823610254999386,"59":-0.22504819230749476,"60":-0.20138443848327023,"61":-0.1706937846133776,"62":-0.02006761437518536,"63":0.035915492505099705,"64":0.004717709325243192,"65":-0.2036273154303787,"66":-0.20386728206504073,"67":0.026947871971732967,"68":0.00998425095405841,"69":-0.08312627897284879,"70":-0.021157824257407275,"71":-0.1382924945808735,"72":-0.06304425571186227,"73":0.008105579115648935,"74":0.034605504317741}},{"sx":5,"sy":5,"depth":3,"w":{"0":0.1725568100098776,"1":0.10679826900829985,"2":0.324152847699966,"3":0.009642525208472221,"4":-0.1519112387698961,"5":-0.27581801618173896,"6":-0.10520048268689342,"7":0.12760147331361,"8":0.17666780783378894,"9":0.019900047054956408,"10":-0.15554030001652414,"11":-0.17539814023467934,"12":-0.02818147098350957,"13":0.17145136587921084,"14":0.011560913043153563,"15":0.14268129990224873,"16":-0.08149598365044065,"17":0.11583951871001368,"18":-0.014039697370974796,"19":0.019969180761944965,"20":-0.08273689183392963,"21":-0.048412721069068736,"22":-0.0398441634767021,"23":-0.20641081840478484,"24":-0.1958842097232029,"25":-0.2151878758299052,"26":-0.1716244350297748,"27":-0.06548284831391725,"28":0.008581825362288473,"29":-0.032069476624756885,"30":0.09520310455354383,"31":0.008891965692301143,"32":-0.3688932852385067,"33":-0.012695885864464688,"34":0.0017348091975465914,"35":0.07427741078722648,"36":0.0831823545514591,"37":-0.04911819218721393,"38":-0.145048348108319,"39":0.05618384144347875,"40":0.11705099160181563,"41":0.060920996275037186,"42":0.07661011581418987,"43":0.04517714828840786,"44":0.014129442164877146,"45":0.07622390486593901,"46":-0.011279535934932531,"47":-0.1577009725745903,"48":-0.09898341729379126,"49":0.013933323390269614,"50":-0.10249072436871007,"51":0.05195054285557174,"52":0.10668679751450685,"53":-0.11556664094537956,"54":-0.04996295202001357,"55":0.062163321228798786,"56":0.2645398629693124,"57":-0.13757795326921146,"58":0.1102019353445465,"59":0.14372047830582654,"60":0.1726906760782318,"61":-0.021030023901382155,"62":0.07416063038384466,"63":0.1893208677061586,"64":-0.21017905213989543,"65":-0.02796058439008806,"66":0.08106122528688192,"67":-0.06925250432922742,"68":-0.05487020571172127,"69":-0.08658317069561472,"70":0.029377325654283647,"71":0.1983486086621047,"72":-0.050443974208296334,"73":-0.02852471846006135,"74":0.09777558481740456}},{"sx":5,"sy":5,"depth":3,"w":{"0":-0.1693312324828709,"1":0.15098789464332035,"2":0.07270863648095316,"3":-0.04477391858925151,"4":0.038020465802855744,"5":0.07480407201854114,"6":0.007124984922775971,"7":-0.08443416291971056,"8":-0.20890111104337247,"9":-0.19245650757351776,"10":0.046727244221091285,"11":0.005196340418967034,"12":-0.03180138802647083,"13":-0.28253902217394145,"14":-0.3588024321838723,"15":-0.013730801849234945,"16":-0.07879386154923355,"17":-0.2188227478153375,"18":-0.0670932730129975,"19":-0.08543340115368579,"20":0.003711171356777565,"21":-0.12434917599056736,"22":-0.11649507351737481,"23":-0.3143476797439997,"24":-0.1891942388143856,"25":-0.12530956423556458,"26":-0.22318392462235673,"27":0.04961593031136157,"28":-0.2383178529975514,"29":-0.12353208746648844,"30":0.11061556128991283,"31":-0.07050327741106101,"32":0.1836274324114849,"33":0.06770175843038106,"34":-0.10598795455804425,"35":-0.09536574851363153,"36":-0.058972346937730444,"37":-0.08870207205640372,"38":0.12534726229822082,"39":-0.18156353550724794,"40":-0.16360382037542892,"41":0.022392336285450568,"42":0.020873663191740176,"43":-0.1387726742787153,"44":-0.13470144473336954,"45":0.16096300740943195,"46":0.14733344199798054,"47":0.17898007599310004,"48":0.12056504559963332,"49":-0.0798493001159889,"50":0.17768298333628524,"51":0.03470080520163191,"52":-0.04327138580863509,"53":0.07328953889003441,"54":0.14620339324538426,"55":-0.037124243206629375,"56":-0.28444980347820964,"57":0.031657109392426115,"58":0.04684545506444504,"59":0.014419697954278441,"60":-0.21024860612269122,"61":-0.0073067659007495156,"62":-0.3173589534060783,"63":-0.1716217500037188,"64":0.03965288944351715,"65":0.04497473437068472,"66":-0.15594424368919604,"67":-0.07972515914498092,"68":0.17347194784362577,"69":0.09484750317159184,"70":0.0980918902656382,"71":0.1416361727689522,"72":0.11654063291460541,"73":0.08361894408359741,"74":0.1508108684176707}},{"sx":5,"sy":5,"depth":3,"w":{"0":-0.036030512478851244,"1":-0.08423130151643268,"2":-0.1335903825307468,"3":0.03604140669328067,"4":0.09610406107815472,"5":0.023713968420946318,"6":-0.0017638194176531272,"7":-0.05083551755666076,"8":0.0018889390195989107,"9":-0.01207027524195227,"10":-0.07522819111086643,"11":0.028488465279348306,"12":-0.07178689396590698,"13":0.09832297450663573,"14":0.14371080614304071,"15":0.13517877383359558,"16":-0.04555356680304834,"17":0.023402706324722116,"18":-0.06067763232520013,"19":-0.02767339233426047,"20":0.07392739996771178,"21":0.1811009242468121,"22":0.1436667365495989,"23":0.08933444255807524,"24":-0.08773151384303023,"25":0.05039352970852563,"26":0.0815206874361866,"27":-0.13236462867921334,"28":0.1118449651172655,"29":0.07787996611080228,"30":0.1287964744155444,"31":-0.22983044103803674,"32":-0.24497308295407713,"33":0.027210295982960552,"34":0.08815634398109254,"35":-0.04222433784925711,"36":0.20890229766007049,"37":-0.025675760770408097,"38":-0.2940741878963334,"39":-0.00457955579338255,"40":-0.0829761482693719,"41":0.02567420606956742,"42":0.08495395405163911,"43":0.2520123330308143,"44":0.11454216593285735,"45":-0.2272597597239684,"46":-0.27225440490612507,"47":-0.07993976155549137,"48":-0.08732121034382413,"49":0.038859717198861776,"50":-0.18943004157056428,"51":-0.038111076840260265,"52":-0.1526331462980229,"53":-0.13352800698272,"54":-0.10927520566731982,"55":-0.015670659317379706,"56":0.038439820162855166,"57":-0.012364198319657606,"58":0.04669807753309628,"59":-0.043320287394187106,"60":0.014412548719287743,"61":0.1985947698339558,"62":0.1338393961529232,"63":0.1463486491224794,"64":0.1130405547766946,"65":0.07029323711344398,"66":-0.29608316097597365,"67":-0.2199131784903323,"68":-0.11767660007946247,"69":0.048268674054652384,"70":-0.16590737556732585,"71":-0.008583138275615836,"72":0.07873483283526748,"73":-0.11460667028938348,"74":-0.05806934266566764}},{"sx":5,"sy":5,"depth":3,"w":{"0":0.04426985977478488,"1":-0.21237852713384583,"2":-0.14978015214096663,"3":-0.22905641614747166,"4":-0.07677335177792143,"5":-0.33080393770713407,"6":-0.2556745476959773,"7":-0.01844509920235426,"8":-0.053479773572240444,"9":0.09647254646558562,"10":-0.09157275344479023,"11":-0.12151438604878638,"12":-0.018723226702933846,"13":-0.10411062036652896,"14":-0.05829822660616182,"15":-0.3498977623411575,"16":0.0010560429999014564,"17":-0.20232121573570644,"18":-0.08832805630148238,"19":-0.14523909863629428,"20":-0.2283190079519366,"21":-0.2015477441614108,"22":-0.014404435654322895,"23":-0.25512502222530575,"24":0.05402362783374384,"25":-0.10953379190662015,"26":-0.18503593863788434,"27":-0.11049086660413139,"28":-0.1840349966793901,"29":-0.14308597339727108,"30":-0.033442067863531065,"31":-0.04488558267514236,"32":-0.16766028335562688,"33":-0.04799193718252956,"34":-0.06909019202138872,"35":-0.2794350220622867,"36":-0.19890088079349905,"37":-0.10628569529902218,"38":-0.2776353567803987,"39":-0.24486117200165122,"40":0.02725126153311724,"41":-0.03434485537484916,"42":0.1511278444291123,"43":-0.024795840172851594,"44":-0.11595737894257793,"45":-0.06431189922812322,"46":-0.035491623050960715,"47":-0.25518115925743556,"48":0.03776258223601598,"49":-0.12371501019321132,"50":-0.29330473105337274,"51":-0.4235554725875627,"52":-0.021732112123730107,"53":-0.2569709607203606,"54":0.024754853503362984,"55":-0.018398315447806044,"56":-0.2444830881729358,"57":0.06382793238005224,"58":0.11114839693614557,"59":0.1801725000501624,"60":0.18598290221424613,"61":-0.047396666478628606,"62":-0.012637154014726287,"63":-0.012519864059491475,"64":-0.07127732971114,"65":-0.064745732664791,"66":0.18696233706370505,"67":-0.21560067918354345,"68":0.03405318239419569,"69":-0.169642082173517,"70":-0.1314895938845836,"71":-0.3004310379568265,"72":0.09736872292466289,"73":-0.07856119061340654,"74":-0.051136111808762465}}],"biases":{"sx":1,"sy":1,"depth":16,"w":{"0":0.19846216569871916,"1":0.03613491300104207,"2":0.1444039642162654,"3":0.03511140550830007,"4":0.03816277569108943,"5":-0.014494783932045513,"6":0.04653363552452394,"7":0.19641833568827496,"8":0.17183389457042206,"9":0.14910676877698437,"10":0.0298495083215182,"11":0.04040886530778932,"12":0.037210097095945284,"13":-0.053252204986130536,"14":0.05885972601707741,"15":-0.026628464311459214}}},{"out_depth":16,"out_sx":32,"out_sy":32,"layer_type":"relu"},{"sx":2,"sy":2,"stride":2,"in_depth":16,"out_depth":16,"out_sx":16,"out_sy":16,"layer_type":"pool","pad":0},{"sx":5,"sy":5,"stride":1,"in_depth":16,"out_depth":20,"out_sx":16,"out_sy":16,"layer_type":"conv","l1_decay_mul":0,"l2_decay_mul":1,"pad":2,"filters":[{"sx":5,"sy":5,"depth":16,"w":{"0":0.0501709507179165,"1":0.01285618620123861,"2":0.08296219840615733,"3":-0.09025837824289437,"4":0.13974412225897104,"5":-0.09080094667196005,"6":-0.01352476158614984,"7":-0.006679282814611227,"8":0.027245603872543562,"9":0.09487992132903396,"10":-0.15744950499071889,"11":-0.18231795974217072,"12":-0.23462982766258386,"13":-0.011108748881897937,"14":-0.02082807065941193,"15":-0.11829009517820122,"16":-0.011114494387112822,"17":-0.0005969118441694827,"18":0.024407372056226843,"19":-0.1232316975611985,"20":-0.057509255186605095,"21":-0.06857306687772453,"22":0.05874263748737197,"23":0.02695376926582155,"24":0.01132942540263795,"25":0.07306659034810703,"26":-0.06252330724078686,"27":-0.023234247019148304,"28":-0.07808616702862553,"29":-0.08492055027618468,"30":-0.0738083546428019,"31":-0.09691494496018654,"32":0.03365088559360324,"33":-0.007681998675571737,"34":-0.04676308141797089,"35":-0.14446931395383797,"36":-0.03212186044226204,"37":-0.0707104810714355,"38":-0.009818414655757775,"39":0.05438084832611985,"40":0.0368144760848652,"41":0.057011798550076424,"42":-0.11310836573301163,"43":-0.009403497379671045,"44":-0.08786096807763279,"45":0.04874404435100414,"46":0.0027086485640203752,"47":-0.1145875724831308,"48":-0.04673818870000469,"49":-0.020152135699618136,"50":0.0993825721490279,"51":0.0556438453385697,"52":0.03385770389097949,"53":-0.01352697954021995,"54":0.036219776795629516,"55":-0.09460129614233331,"56":-0.0067269074584959355,"57":-0.003036089540135116,"58":-0.016058289007778528,"59":0.020059635165463333,"60":0.016831366864006284,"61":0.03625418814562543,"62":-0.09069308572790553,"63":-0.054315272012724757,"64":-0.06802922454290013,"65":0.017279618962219558,"66":-0.031546055691134195,"67":-0.029864103315698595,"68":0.02695797918718165,"69":0.03953575071399349,"70":0.1116345768689385,"71":0.05947192241058848,"72":-0.005795479063704933,"73":0.06776890683007276,"74":0.02902479730233532,"75":0.04489649626611275,"76":0.07921592952714186,"77":0.1144321115797309,"78":-0.011790512968224243,"79":0.06073639142345614,"80":-0.05200497222584629,"81":-0.02197108761611117,"82":-0.03923929755329235,"83":-0.0566647722383633,"84":0.14864269781676295,"85":-0.038806832371908725,"86":-0.11638712211267677,"87":0.05445298398914114,"88":-0.013126353028587195,"89":-0.06044138052109081,"90":-0.1427098137546648,"91":-0.09201916246032929,"92":0.03599917059751662,"93":-0.11292972122791069,"94":0.025758229056553082,"95":-0.0560121414591746,"96":0.05145238310639138,"97":0.09473697966726988,"98":0.0022609009214528044,"99":-0.041223409195076145,"100":0.01660996826023616,"101":-0.04370889703403129,"102":-0.0010484711580682686,"103":-0.024899527485868506,"104":0.0655531739590335,"105":0.003229052586306076,"106":0.08482515473536995,"107":-0.054113566459198334,"108":-0.1196530411608733,"109":-0.0235529612244169,"110":-0.04917493306830069,"111":-0.03377319734619551,"112":-0.08767326186469951,"113":0.03963050781625631,"114":-0.016352406066169865,"115":0.010835221174997144,"116":-0.07413399341518731,"117":-0.051064329302780403,"118":-0.054153922692061957,"119":0.045010386479882245,"120":0.058678397764301726,"121":0.041069793006829836,"122":-0.12192336717376603,"123":-0.10382067058607769,"124":-0.11765965517876678,"125":-0.12836217988108514,"126":-0.011360121770342175,"127":-0.1529486182222369,"128":0.014153016309914846,"129":0.014395889827675791,"130":-0.046930053734694756,"131":-0.026192729908388335,"132":-0.03525214060092421,"133":-0.04550605431539935,"134":-0.09808859222756458,"135":-0.0067538094805221485,"136":0.11323107968728101,"137":0.03829772704092082,"138":-0.03828280625073472,"139":-0.12285854335196683,"140":-0.011256443256418922,"141":-0.12143221577898361,"142":-0.0608487054447786,"143":-0.13102635419429065,"144":-0.041287076359413526,"145":0.0393839633588019,"146":-0.028558999908487565,"147":0.0026806333459078184,"148":0.04705118856014382,"149":0.02998236942294059,"150":0.016827285152462956,"151":0.013540515317496627,"152":0.05273247342151693,"153":0.054531706177127964,"154":-0.006913449481651926,"155":-0.06886304647722989,"156":0.039012362201090285,"157":-0.040558295755608605,"158":0.019944771464655838,"159":-0.054837467916186454,"160":0.04356552500501402,"161":-0.017176128414133206,"162":0.04938631883697302,"163":0.11142845815952146,"164":0.1321783223916624,"165":0.00486827532131224,"166":-0.017453728560084137,"167":-0.016615307105198904,"168":-0.036855307601429306,"169":0.10048623378502705,"170":-0.05662689165761582,"171":0.10343991566130584,"172":0.07832634037008412,"173":-0.007082033093687717,"174":-0.08590672036629468,"175":0.06086092465268271,"176":-0.01388087603037714,"177":0.006614024359584682,"178":-0.009649024982409394,"179":0.0021146193876178682,"180":0.11771812397899128,"181":0.05056312292667733,"182":0.041423486286931016,"183":-0.06032146433120559,"184":0.023234923887154285,"185":-0.029745522136982835,"186":-0.09101651079951269,"187":-0.02900810817915718,"188":-0.12845345758681248,"189":0.051812203904813,"190":0.024253240725265572,"191":0.07809693630417312,"192":-0.0040402988685003015,"193":0.003364293431423978,"194":0.004952969812106471,"195":-0.05947128875504006,"196":0.0480763126976984,"197":0.02608811904487486,"198":-0.04109954966087536,"199":0.07957601635474024,"200":0.04502347588603813,"201":0.01936090254465304,"202":-0.08155484478985087,"203":0.05697875731715097,"204":-0.034039743677147065,"205":0.06209003331733788,"206":0.09030662317247419,"207":-0.06631115558247973,"208":-0.048295744515896015,"209":-0.013742581179968794,"210":-0.034396664693183095,"211":0.11351891722318959,"212":0.04494726739274005,"213":0.029469295336204133,"214":0.04570625066780216,"215":0.017448556868481138,"216":0.13007043146598288,"217":0.024222693814597192,"218":-0.0007877016151996415,"219":0.07347602904624131,"220":-0.04927353907731291,"221":0.05140144060527201,"222":0.050740295933492094,"223":0.005886222798260303,"224":-0.005455989578095007,"225":-0.009375348008013845,"226":-0.028124515862660984,"227":0.04328158408277354,"228":0.23681290885164152,"229":0.03597345903885314,"230":0.034008538438683504,"231":0.06197721865792607,"232":0.04919105157009298,"233":0.0794936107524745,"234":0.016985061121451008,"235":0.034352181554649856,"236":-0.0006672266405966103,"237":-0.026485945419416557,"238":0.13145095966184656,"239":0.03355642955705665,"240":-0.12274487394462578,"241":-0.06759360402937076,"242":-0.05955289202094349,"243":-0.031207871935784472,"244":-0.011802717065251166,"245":0.027075342314312207,"246":0.03946256813813577,"247":-0.02288898481442455,"248":-0.08013615235829318,"249":0.04922670142572282,"250":0.04749806286108713,"251":0.010903066981845148,"252":-0.015754813357297708,"253":0.051986540192173164,"254":-0.019751336962642824,"255":-0.02119794159073139,"256":0.027365780439770743,"257":0.1008865207086715,"258":0.00420648281963238,"259":-0.07409387073602343,"260":-0.007141638840735027,"261":0.051225655950321324,"262":-0.14162014335832127,"263":0.03482424253046328,"264":-0.09759888693970482,"265":-0.05749801861955782,"266":0.10168525937575328,"267":0.09383221742202894,"268":-0.11286605900200594,"269":0.055176446897940455,"270":0.08063493937568744,"271":0.03545459940420156,"272":-0.11755060856702551,"273":-0.10178967053536676,"274":0.05537627113596345,"275":0.029364749412050233,"276":0.04783638531232925,"277":0.06605169434151595,"278":0.083219403656302,"279":-0.06440739992708759,"280":-0.1332120558196768,"281":0.002603066582038539,"282":0.04690577637293861,"283":0.11265924753708315,"284":-0.023087627556422404,"285":0.1933165339269348,"286":0.0027941822058488185,"287":0.0580754061018618,"288":-0.02876433584064159,"289":0.003249683802479193,"290":-0.0763836796627562,"291":0.09037694388333213,"292":0.09011068056416302,"293":0.06148570797572109,"294":0.011455493212495216,"295":-0.02116868174804055,"296":0.024294549613571123,"297":0.07244039989966114,"298":0.03127340722591822,"299":0.10549568560193925,"300":0.0017329511878923299,"301":0.001668798120948929,"302":0.16078955460008623,"303":0.02522638836184365,"304":-0.1576383901287838,"305":-0.10984529377134546,"306":0.03168800315251476,"307":-0.003792559569470267,"308":0.18055185671214294,"309":0.1354473289431761,"310":-0.022386672437454624,"311":-0.06295593608311516,"312":0.07616808431861237,"313":0.0324833030267324,"314":0.05207081629537821,"315":0.015436362668765219,"316":-0.004381792876402736,"317":-0.0324361157115851,"318":0.07846003803834582,"319":-0.019066503450798983,"320":-0.06591800889286009,"321":-0.11346750334586267,"322":0.022535143796741965,"323":0.017587976898307486,"324":0.11619552299812168,"325":0.050317638969520746,"326":0.03906804555591173,"327":0.006893584064816111,"328":0.07725821867618587,"329":-0.004413285439137443,"330":-0.03780383816220044,"331":-0.014680026764913246,"332":0.004327569164744516,"333":0.00365114490023844,"334":0.11313903711412021,"335":-0.013922153786972908,"336":-0.01644513924775968,"337":-0.0018153702871661686,"338":0.02096441362223953,"339":0.06669753673803606,"340":0.026676744503420904,"341":0.12118644864291067,"342":0.12508615248438576,"343":-0.013725289505750152,"344":-0.03451189140113821,"345":-0.061170054610127214,"346":-0.01818058340086154,"347":-0.03754179245501951,"348":0.11692832758583557,"349":0.059390155835588786,"350":-0.05216707258001472,"351":-0.03765481236050687,"352":0.10678315133111367,"353":0.1600041448475466,"354":-0.05661459593170742,"355":0.015075144557400146,"356":-0.026843323685093554,"357":0.13297094056880573,"358":0.1370414454178956,"359":0.009790472171178885,"360":-0.13041032879318917,"361":0.024783849069351962,"362":-0.029306408154076227,"363":-0.02306070036759088,"364":-0.030326605870202215,"365":0.13196931551248986,"366":-0.09945420916154186,"367":0.023709150021925904,"368":-0.03819898298064236,"369":0.04261642894045594,"370":0.011720746174579428,"371":0.14349598812043446,"372":0.11035518134094018,"373":0.09157413828137899,"374":0.20605976576738969,"375":0.022366487210867453,"376":-0.012242264491739159,"377":0.024134212950026462,"378":0.07722763449098673,"379":0.0836122940776988,"380":0.17432300261959371,"381":0.09717556491817167,"382":-0.0824153033392941,"383":0.024182700124057998,"384":0.027369972597873556,"385":0.12104774481892115,"386":0.04358576184336808,"387":0.14314537079163417,"388":0.19752382203696042,"389":0.11570897806733822,"390":0.14199423243365972,"391":-0.12389078938010298,"392":-0.0359987974054288,"393":0.12556395121446673,"394":0.21383113327031705,"395":-0.0013950845521300622,"396":0.09130568632054112,"397":0.0055194591157796775,"398":0.12914939642874582,"399":0.011893303783682562}},{"sx":5,"sy":5,"depth":16,"w":{"0":-0.0390571191542644,"1":-0.07228958640293985,"2":0.019780139983860648,"3":-0.008950257671140553,"4":0.033827310623354374,"5":-0.06593120651933186,"6":-0.04968101654362953,"7":-0.027010999894009603,"8":0.06799718023885629,"9":-0.13205657145055796,"10":-0.06584933939059101,"11":-0.027628700694873012,"12":-0.016324357851568123,"13":0.01640747330795604,"14":0.0005706122672534101,"15":-0.0031403087901192782,"16":-0.11615995165716354,"17":-0.028138973735337896,"18":-0.07825364845506386,"19":-0.06477356438413313,"20":-0.11045853128661706,"21":-0.06796360471481185,"22":-0.008582445344707805,"23":-0.023239463516759724,"24":0.030618503779624787,"25":-0.04761107004487907,"26":0.04213292112693116,"27":-0.12226991045930163,"28":-0.016041799243939475,"29":-0.09563246134075051,"30":-0.015733476417095937,"31":-0.08719440177139885,"32":0.06402927577326059,"33":0.07225864702434329,"34":0.01659413718539536,"35":-0.1799873893037872,"36":-0.0779673337232397,"37":-0.08735838570519744,"38":-0.025017832989741726,"39":-0.0578221907832544,"40":-0.031049036469926548,"41":-0.07517836041854208,"42":0.02702467521007329,"43":-0.06079572823469585,"44":-0.05872526067556224,"45":-0.10927458660386405,"46":-0.13254960442662123,"47":0.0034159918964654992,"48":-0.004640637063750565,"49":-0.09717341259318095,"50":-0.1284390422150371,"51":-0.047814773868653564,"52":-0.004475123469737729,"53":-0.05500147156013716,"54":-0.04412522419557535,"55":0.0646833948578222,"56":-0.06579673499039138,"57":0.030174964545265217,"58":-0.005936942953822279,"59":-0.037322949067484006,"60":-0.06795049929027636,"61":-0.062442380226268926,"62":0.04066259249757302,"63":-0.008649255866173985,"64":0.018145705068039475,"65":0.07839078218527491,"66":-0.0068169936341818775,"67":-0.014913317946673148,"68":-0.041996247681135634,"69":-0.0623454796421992,"70":-0.130571543785133,"71":-0.09780666029192271,"72":0.008186610232031568,"73":0.06224195449171666,"74":-0.05416372630165256,"75":-0.07227865950451569,"76":0.018186255893831067,"77":-0.1653586444593452,"78":0.019215474687203284,"79":-0.10792129440575143,"80":-0.08806129685738509,"81":-0.1374538167051405,"82":-0.034167885039579765,"83":0.050891637461320846,"84":-0.00300332140249308,"85":0.03812027826307857,"86":-0.022743184911030678,"87":-0.022435310055281845,"88":-0.026371161405890763,"89":-0.028995841599484175,"90":-0.07880774497963068,"91":0.03540316326648315,"92":0.02307300564712884,"93":-0.13149329665235815,"94":0.08449326436505133,"95":-0.023633097859035487,"96":-0.06018292676181062,"97":-0.11926950486222848,"98":-0.11588161880899105,"99":-0.027056451040390228,"100":0.04217198681075395,"101":0.026777416054674097,"102":-0.0452482628424615,"103":0.019789216512687627,"104":0.03736685128029352,"105":0.013899469982284963,"106":-0.0402795789995714,"107":-0.06711352246277365,"108":-0.08511126867301581,"109":0.03758176951606719,"110":0.01586261315399743,"111":-0.04748652440414328,"112":0.023642395569478995,"113":-0.032572036539432005,"114":-0.05329313814810033,"115":-0.010851451380944031,"116":-0.030433996691702336,"117":-0.03246726735118946,"118":-0.0571789980339058,"119":-0.07211074567628664,"120":0.02806914573448724,"121":-0.00890224950890017,"122":-0.01381941840601301,"123":0.08754659746343087,"124":-0.08370672846744258,"125":-0.05504654439961475,"126":-0.0017430737475861878,"127":-0.07895402579420795,"128":0.04873868564100785,"129":-0.003029898017970049,"130":-0.09148094011892526,"131":0.033445649367198946,"132":-0.10572639892836137,"133":-0.017817848838347538,"134":-0.0008108837021547433,"135":-0.13596652856855748,"136":-0.011724431369418656,"137":0.06717955628393149,"138":-0.026413847937570036,"139":0.036996344912769256,"140":-0.08428584728980458,"141":0.038012705160121105,"142":-0.031203967167215994,"143":-0.02951953910849538,"144":0.026452948502605992,"145":-0.04405999795454015,"146":-0.07610192602488297,"147":-0.06537376595675594,"148":-0.012410827067652884,"149":0.04756202583510623,"150":-0.052777370753229615,"151":-0.043464839740151855,"152":0.01830203290399312,"153":0.04264904282664013,"154":-0.13471430765203035,"155":0.015478957830473093,"156":-0.10316377633171388,"157":0.006374794944078887,"158":0.052731824253395745,"159":-0.07407912168071394,"160":-0.04145565560481458,"161":-0.1044240680750336,"162":-0.0869076630445776,"163":0.06694651674203804,"164":0.06617812627689708,"165":0.07357779080841896,"166":-0.1232538919045472,"167":-0.14550961723644804,"168":0.05800518447948301,"169":-0.01370443372780294,"170":0.02039366709918021,"171":0.09225961018987107,"172":0.04979764304705732,"173":0.0030570991319606,"174":0.05099583273572191,"175":0.05895869143558854,"176":-0.02821880866657794,"177":-0.07618978703900964,"178":-0.1840369725127544,"179":0.07399014163497536,"180":0.012565701244842244,"181":0.09019823368710492,"182":-0.09110034459172711,"183":-0.0635979760326238,"184":0.049314151468831995,"185":0.001668614682693123,"186":-0.02552192630564256,"187":0.04746575845911926,"188":-0.09853783615099032,"189":0.09695757428718094,"190":0.00844453082480492,"191":0.04981210779397149,"192":-0.06168017204096102,"193":-0.041858673712202775,"194":-0.06975351473818078,"195":0.020922323732213734,"196":0.037492060841321784,"197":-0.01658880440939289,"198":-0.10399114102937253,"199":0.03599178957564444,"200":0.025677057861570984,"201":-0.008560423954928514,"202":-0.05684301361475552,"203":0.17472158327394396,"204":-0.020654672420549983,"205":0.01411952370683975,"206":0.09335372946353859,"207":0.09853948506822525,"208":-0.18222443005728758,"209":-0.014430410348305864,"210":0.051612854454432554,"211":-0.038825134763337134,"212":-0.09339716766311053,"213":-0.14378574705305366,"214":-0.021624891922879884,"215":-0.0523411960581828,"216":0.003268472788440208,"217":-0.050496172815799004,"218":0.01710471377498526,"219":0.004922881282739546,"220":-0.04570049515291701,"221":0.10859742115554322,"222":-0.009839638410564497,"223":0.05779940533989751,"224":-0.05180934679662127,"225":0.03858791959472442,"226":0.0215172718938815,"227":-0.04365681649522109,"228":-0.05903830130333087,"229":-0.002990116054654871,"230":0.06009913689423728,"231":0.07873706907345815,"232":-0.023186512898024144,"233":0.03246888189591343,"234":0.04803992406879362,"235":-0.07519897560162699,"236":-0.005099109757149958,"237":-0.0008989125025426371,"238":-0.037344582600040366,"239":-0.052244344849055296,"240":-0.07783065746925112,"241":-0.000634773633061684,"242":0.04539726702010494,"243":0.0599744528887865,"244":-0.01600001435254801,"245":0.005285217495648481,"246":-0.0626792003219432,"247":-0.22506208029631383,"248":-0.12210876788937634,"249":-0.090847107882329,"250":-0.060729659182425656,"251":0.043267894334526,"252":0.0776246870775607,"253":0.07831601943124425,"254":-0.07685871635553755,"255":0.0922274469611882,"256":-0.1072495509050165,"257":-0.07087562281104325,"258":-0.13083580471751133,"259":0.03596801357122988,"260":0.07358884361361571,"261":0.09773456990569335,"262":0.007904619971430391,"263":-0.20079435216582653,"264":-0.06267139583353266,"265":-0.14156546444927123,"266":0.02766523013630942,"267":0.12255252645940871,"268":0.009672038181496104,"269":0.19320581928002775,"270":0.053704401074812926,"271":0.10935095499577528,"272":-0.13669179920656088,"273":-0.07661086108483406,"274":-0.05397793261346747,"275":0.031039209247730817,"276":0.016083221843230286,"277":0.04181813928436309,"278":-0.018634196599220276,"279":-0.029186502802854838,"280":0.05730093730000133,"281":0.0033192628250631705,"282":0.12179450403799237,"283":0.025405990296170487,"284":0.03631052306673722,"285":0.042332883587404044,"286":0.01597831219998428,"287":0.1322680666591631,"288":0.10239425738482841,"289":0.1019771289870177,"290":0.09213339767422543,"291":0.038297627765409153,"292":0.030694809322544116,"293":-0.005439232518666782,"294":0.046434803839703595,"295":0.00341692408497639,"296":-0.023272463986088485,"297":0.029066010926634592,"298":0.13078675708197968,"299":-0.0003278107036177447,"300":0.10942038633034776,"301":-0.03461538450619742,"302":0.12062702931587309,"303":0.05125845369859518,"304":0.0333544585245395,"305":-0.05839004816138157,"306":-0.007847138617190061,"307":0.0033792550949914815,"308":-0.10378951378371365,"309":0.005993324558522859,"310":0.07520520644137847,"311":-0.02976622237731035,"312":0.04927007718244558,"313":0.02635076421054785,"314":0.05954332354429414,"315":-0.019637568076777318,"316":-0.0714559140544366,"317":-0.012735431816794675,"318":-0.01091824659514563,"319":-0.012237725745552241,"320":-0.053645048393001445,"321":0.11926745544237269,"322":-0.0005948496466218397,"323":0.00356519519552474,"324":0.046760194630979114,"325":-0.02901124686100843,"326":0.0718938043181721,"327":-0.1284405933475378,"328":-0.09161651039355471,"329":-0.05860253501837655,"330":0.022861408067847026,"331":-0.0673165355977595,"332":0.11215292108147754,"333":0.04435066251840205,"334":-0.06399994491625781,"335":-0.02560003470505998,"336":-0.11986910088619926,"337":0.0027324577284201677,"338":0.05042972721815126,"339":0.038787518261929665,"340":-0.0728282220094028,"341":0.0013765737052788022,"342":0.05694864551979297,"343":0.01521701873818518,"344":-0.08147116106059958,"345":-0.014848487153022283,"346":0.0807712199395808,"347":0.039458836699015114,"348":0.056952271949472486,"349":0.03174019106018428,"350":-0.009481991646421016,"351":0.16770359792677983,"352":-0.05867183621023251,"353":0.03359734937991778,"354":-0.012008794417630463,"355":0.013532823328204307,"356":-0.0012000337028755632,"357":-0.007280415522542657,"358":0.02432055659279797,"359":0.05214718918003726,"360":-0.1102006599413181,"361":-0.06155140602716256,"362":0.02392130215629032,"363":-0.014133125873281149,"364":-0.012496538789069127,"365":0.018391752130841973,"366":-0.06019083671344503,"367":0.056727446606552746,"368":-0.07756509633596359,"369":0.16726551761301628,"370":-0.03717052886441747,"371":0.03071366232380423,"372":-0.014050874607481842,"373":-0.01769370619984134,"374":-0.13422572563096807,"375":-0.014264040789316276,"376":-0.05823994061005264,"377":-0.040005064316403,"378":0.0255826638010187,"379":-0.07364268218115715,"380":-0.003121059753413099,"381":0.037576470072675734,"382":0.0026553719214868076,"383":-0.08961800394228635,"384":0.009328253550423481,"385":0.034450227792516844,"386":-0.09441394020137317,"387":-0.017841195727478505,"388":0.025463185236023197,"389":-0.08391414471048936,"390":0.005280081544312655,"391":-0.038448235346874755,"392":0.007486346797511451,"393":0.03239221270241388,"394":0.03403307507989926,"395":0.042934147991446625,"396":0.07029285910031807,"397":-0.09069150576829095,"398":0.06929800703082256,"399":-0.06458239198091777}},{"sx":5,"sy":5,"depth":16,"w":{"0":0.013994870551920073,"1":0.038796885350969444,"2":0.1472977260187713,"3":0.0825590160771225,"4":0.053579965326047044,"5":-0.12364227294983196,"6":-0.018246339437453046,"7":0.09429023507578423,"8":0.07650708080968623,"9":0.05152512359884515,"10":0.0012039807057165107,"11":-0.07786059577304057,"12":0.09243554994395232,"13":0.005222629436736196,"14":0.1014652955118781,"15":-0.12147397781690504,"16":0.04347022630547169,"17":0.14686794454624108,"18":-0.018134763686858114,"19":0.08660731351215019,"20":0.04603958308287662,"21":0.02252940281557538,"22":-0.05648318624195708,"23":-0.00941321669279536,"24":0.012584897460796754,"25":-0.11956323783518512,"26":0.04749484954835561,"27":-0.02204561325642313,"28":-0.007823872587658747,"29":-0.053184532640984127,"30":0.0077545342160670735,"31":-0.056435553031068675,"32":0.051479361641497336,"33":-0.02195069241041654,"34":-0.05094198031141692,"35":-0.05867877852442119,"36":0.03839250386232484,"37":-0.06842121128225205,"38":-0.04874559992287245,"39":0.08322337776122674,"40":-0.142761170647064,"41":0.03855025882299255,"42":0.038047138742038085,"43":0.044840678716778735,"44":0.08067647068852694,"45":-0.0232101349003872,"46":0.04477141938755406,"47":-0.07752230436505231,"48":0.052055299625682096,"49":0.025570897295709123,"50":0.016928819655677472,"51":0.005258381323073015,"52":-0.04134999815772035,"53":-0.13938616829484587,"54":-0.0032815331510679486,"55":0.012344126879921537,"56":0.04526176362318814,"57":-0.11178939930983912,"58":0.01358140980101046,"59":0.00368793727905501,"60":0.06873356210885426,"61":0.13064480541615522,"62":-0.07558990503959268,"63":0.028315312858154466,"64":0.010394555815936088,"65":-0.01689897400496348,"66":-0.09746461382441719,"67":-0.010479955177250286,"68":-0.017575618753480488,"69":-0.09560610232059395,"70":0.05969595549238258,"71":0.024816632918279097,"72":-0.037131850418595,"73":-0.05806835160754658,"74":-0.09570097872086818,"75":0.012671296153885896,"76":-0.01244334314921724,"77":0.05443734128615364,"78":0.05870461246034365,"79":0.13683427376016946,"80":0.04168908797748833,"81":0.03508463417426226,"82":0.01283109533864422,"83":0.1437518946999515,"84":0.07947111161414958,"85":0.03087595222789912,"86":-0.021949152400840666,"87":0.03807248153942278,"88":0.06326735030132041,"89":0.1177802252402168,"90":-0.06016837486459494,"91":0.036058649538748835,"92":0.0961860068918566,"93":-0.04267382248415881,"94":-0.01905433088402634,"95":-0.006086940477593209,"96":0.07443148193260318,"97":0.10356759220336323,"98":0.09197999565117188,"99":0.013959758515475732,"100":0.0014432589517296432,"101":0.02933832149385712,"102":-0.03606331332876674,"103":-0.025541288544908516,"104":-0.06585370724420475,"105":-0.040547603872691886,"106":0.06673961869498568,"107":-0.05143216558524509,"108":-0.014399814788925254,"109":-0.03069569500696934,"110":-0.061395743752620545,"111":-0.007609402134560286,"112":0.043479034375285434,"113":-0.03727467556232232,"114":0.019196519592951065,"115":0.07314377432288838,"116":-0.033319702201457635,"117":-0.12291359330676178,"118":-0.05638382662483065,"119":0.07105331667827684,"120":-0.009997584077506257,"121":-0.004738425913210656,"122":-0.014527087266362178,"123":0.03859813465629253,"124":0.02288207591128913,"125":0.07008920322735361,"126":-0.038302508973081045,"127":0.03667536913399526,"128":0.03060126922304535,"129":0.01077692104449352,"130":0.09269815477968142,"131":-0.020621049287698628,"132":0.02905041206021987,"133":0.01704494070792611,"134":0.037872888278275875,"135":-0.019429059001482486,"136":0.009780936095814529,"137":0.010499734096840584,"138":0.01327326974700508,"139":-0.006178113972644568,"140":-0.15980858906497522,"141":-0.005714886803135553,"142":-0.03247696409590579,"143":0.07352382264398685,"144":-0.06517489058124436,"145":-0.010024680352529956,"146":-0.08649059222951812,"147":0.057048969190604835,"148":-0.048199457142230645,"149":-0.11331918656686388,"150":-0.11084793382192465,"151":-0.02573990963208187,"152":-0.05410519109832312,"153":-0.06486083495101563,"154":0.04106874201587856,"155":0.00013193233885152542,"156":-0.02920212763912317,"157":-0.11612388157831526,"158":-0.003751106619761373,"159":0.05562397599625995,"160":0.05320043721297165,"161":-0.051660278808165046,"162":0.007662214825757391,"163":0.1468340856467624,"164":0.14958961714464702,"165":-0.03138184331283005,"166":0.07771387751290267,"167":0.011870662015566913,"168":0.11184445837928904,"169":0.05120370914036332,"170":0.0851270735735532,"171":-0.055204543770711836,"172":0.06521348459548576,"173":-0.056673246088388446,"174":0.1671496561300331,"175":0.1088100817927281,"176":0.021981433142715816,"177":0.0972552335946665,"178":-0.03959219124642595,"179":0.10710632483416735,"180":0.10017584135706581,"181":-0.01848495433721882,"182":0.05082534293407534,"183":-0.05113133873829626,"184":0.10385262203925674,"185":-0.029331123306593113,"186":0.000548237257089671,"187":0.005227538899964397,"188":0.03350654582066019,"189":0.03525879295094382,"190":0.10167556377756302,"191":-0.044267097603635036,"192":-0.01727569279754314,"193":-0.05682845984408105,"194":0.005709132327305164,"195":-0.05292753755352631,"196":0.025897569694138933,"197":0.09395671858355657,"198":0.01015651820270239,"199":0.08107050927591422,"200":0.0051643292687839695,"201":-0.008284895968230727,"202":-0.007905017304690945,"203":-0.02862497155584882,"204":-0.07200616176652924,"205":0.014396538992155669,"206":-0.031439997975309684,"207":0.0003219635659571106,"208":0.004550430581244247,"209":0.07981670636760066,"210":0.006804262194304386,"211":0.008446547587828382,"212":-0.10723730457273342,"213":0.006309785119894346,"214":-0.0754049411336469,"215":-0.010441290259556198,"216":-0.06395916001417601,"217":-0.09958772128266535,"218":-0.04536093158933982,"219":0.04679992642418671,"220":-0.06134232394078115,"221":0.04538923449228718,"222":-0.08970490073434913,"223":0.03327483334063256,"224":-0.17032345239300564,"225":-0.05872389988671891,"226":-0.0438089840008011,"227":0.13431877817880755,"228":0.07287275590738415,"229":-0.02680101540857806,"230":-0.049093415710088774,"231":0.09329843060878218,"232":-0.008168133100898936,"233":-0.1798335796664277,"234":0.050634024410186544,"235":0.07877405263248348,"236":-0.0006514887698756065,"237":0.026003185929839828,"238":0.0337783247552874,"239":0.0644273737317318,"240":0.020475025672539574,"241":0.10873596646021963,"242":-0.10560091288101575,"243":0.013850106825681588,"244":0.04284342786720694,"245":-0.06835376519069333,"246":0.1073133156436587,"247":-0.053695951636724276,"248":-0.05049131528562886,"249":0.019612549843063095,"250":0.053030693183566215,"251":-0.05295914628982957,"252":0.03872402383759856,"253":-0.04747555713394096,"254":0.05683623451842228,"255":-0.06752877261292432,"256":-0.08323336567939882,"257":0.018705922854944157,"258":0.035382271739240294,"259":0.10809529916363789,"260":0.11767064324833877,"261":-0.08988791527650021,"262":0.09683280907366461,"263":0.029218751607910116,"264":0.06076025447366659,"265":-0.02903444972914532,"266":0.04524636171284484,"267":-0.03474054352611741,"268":0.006879997033267551,"269":0.037059982044271085,"270":0.06848393435766388,"271":-0.07209521506309471,"272":0.07638638289511897,"273":-0.0031490126408981224,"274":-0.06484927170414555,"275":0.029744260232793557,"276":0.06323012654994892,"277":-0.035377153305492966,"278":-0.06058923875274628,"279":-0.01883309383047048,"280":0.0020343792535164242,"281":-0.006259171650818853,"282":-0.03492912200321901,"283":0.023810849642971886,"284":-0.15647080067406438,"285":-0.07753311302491354,"286":0.07704898453227213,"287":-0.018430711334488974,"288":-0.008155141894485372,"289":-0.09049993884782769,"290":-0.029560207464980334,"291":-0.06621538873495994,"292":-0.03135909189170894,"293":0.01719476234525118,"294":-0.06881369673114279,"295":-0.05615198832602077,"296":-0.0501195180924314,"297":0.11871571945237651,"298":-0.0763181462445871,"299":0.09877299371150505,"300":-0.1031799244851754,"301":-0.05969565714087164,"302":-0.0587183941594124,"303":-0.011464697280122824,"304":-0.0575262449756557,"305":-0.058492422919408045,"306":-0.009298816581001398,"307":-0.07681406420847281,"308":0.10952338612766366,"309":-0.10899222131074039,"310":0.0766209429733476,"311":-0.06174967910769501,"312":-0.10233769251614452,"313":-0.02574162447329924,"314":-0.15509390903908418,"315":-0.08204579273502423,"316":0.03261973075860082,"317":-0.02582781956300038,"318":0.05935422750540017,"319":-0.025480121967201893,"320":-0.006293899220478184,"321":0.06665522339366863,"322":0.08092674906357139,"323":0.044740452310666444,"324":0.02787405293770347,"325":0.0759581075574938,"326":0.14419575909164004,"327":0.06307970018415544,"328":0.07239793400027092,"329":0.07570251107725588,"330":0.1325620707770824,"331":0.08930112755242875,"332":0.06402461323875679,"333":0.04184707135071977,"334":-0.05962741443046651,"335":0.10425493764306273,"336":-0.10471939133117447,"337":-0.058050026640227154,"338":0.014381166161874926,"339":0.014376153462374482,"340":0.09156656102932845,"341":0.04712072111072559,"342":0.09895962137494253,"343":-0.09086014881587479,"344":-0.02421324118767433,"345":0.011916567168312419,"346":-0.003981362043314119,"347":0.08614982684356183,"348":-0.03479493137714367,"349":-0.01696039434024993,"350":0.05675936981633078,"351":-0.005247280055437051,"352":-0.037666262703394286,"353":0.015813224403044297,"354":0.04556360324350415,"355":-0.012809328892946325,"356":0.04070359849171667,"357":-0.012219641300049499,"358":-0.027060126917644537,"359":-0.01478194008326061,"360":-0.062322841942197664,"361":-0.018395253211779778,"362":0.00909451539997343,"363":0.037783500986066525,"364":-0.051150801746777594,"365":-0.1363176108148618,"366":0.05055242806832849,"367":-0.03024054002937672,"368":0.022498523115078228,"369":-0.0058995453017688425,"370":-0.04385621765134632,"371":0.0010481086264326755,"372":-0.01849786375358311,"373":-0.07381499473471621,"374":0.0018148931036267302,"375":0.005603613892722735,"376":0.04779606918447962,"377":0.059616654669992275,"378":0.09576449579909603,"379":0.03589266600264208,"380":0.04576335294453258,"381":0.02886286765238376,"382":0.07696841535654797,"383":-0.032534166606921495,"384":-0.005653862713320286,"385":-0.010871128951168242,"386":-0.06200061773875667,"387":0.05894215733412767,"388":0.09279156028029242,"389":0.012059472335465792,"390":-0.015608194880168538,"391":0.02604695153411777,"392":-0.04038168709440332,"393":0.03692149727158721,"394":0.022238870784042332,"395":0.10227577402001722,"396":-0.05607411306819635,"397":-0.07027453633301144,"398":0.10316696425493432,"399":-0.10273149876428601}},{"sx":5,"sy":5,"depth":16,"w":{"0":0.003957785168303253,"1":-0.16323418221458152,"2":-0.02492621420422895,"3":0.0005045693430877527,"4":0.05536687379668064,"5":-0.018574709716153617,"6":-0.01291846562623039,"7":-0.05230674911168069,"8":0.10568588272517787,"9":0.017992838783749434,"10":-0.035147308162547186,"11":0.03434629007661911,"12":0.03497404308420996,"13":0.06447643816438044,"14":0.0035836811763822955,"15":-0.0003048209617881242,"16":0.02575854654012548,"17":-0.1255505951790044,"18":0.0735674085040337,"19":0.013088930545969784,"20":0.00751759956596028,"21":0.16659749068741206,"22":0.07575932620612488,"23":-0.03679960506403555,"24":0.06940245349691614,"25":0.022259530860538664,"26":-0.022819447813871893,"27":0.10061984349419424,"28":0.24120945455910897,"29":0.09801511289770203,"30":0.015873819003381997,"31":0.013867900112317389,"32":-0.07468668929973765,"33":-0.020876697117241116,"34":0.014760972081826872,"35":0.07148458541492637,"36":-0.02420143748719108,"37":0.01627270764071203,"38":0.07963674010711412,"39":-0.0915496192055817,"40":-0.025949713847616147,"41":-0.010594497330594534,"42":0.12803285314535615,"43":0.0945540631691994,"44":0.10784688723631068,"45":0.04783886229398947,"46":-0.03308785274883209,"47":-0.02672125671298236,"48":0.05237261368823871,"49":0.012156955996880235,"50":0.0534065875058344,"51":-0.006927413299429362,"52":0.01546281002027574,"53":-0.09570285894573476,"54":0.07639218708404164,"55":-0.07268043781726244,"56":0.06059262770708881,"57":-0.044526692603726305,"58":0.08751037629047013,"59":-0.08127689618263559,"60":-0.005314026993814212,"61":-0.03511590101715528,"62":0.07205994877745282,"63":-0.07022562426533317,"64":-0.043576969358111714,"65":-0.0060110703153319275,"66":0.03178587821893623,"67":-0.019416705803994207,"68":0.04722781030583463,"69":-0.09469810509939186,"70":0.050412111160200127,"71":-0.08695369189713817,"72":0.05496490173247726,"73":0.09662852957350342,"74":0.03105255313511199,"75":-0.10286480198445998,"76":0.05457703734779028,"77":-0.08287522004890706,"78":-0.0915542404398437,"79":-0.08702575616404415,"80":-0.048694948383455575,"81":-0.08552530614523801,"82":-0.12289089326881744,"83":0.10060261316905322,"84":0.005765904572821569,"85":0.0765088728045344,"86":0.08643909572785716,"87":-0.09712717828510663,"88":0.12960302686882544,"89":0.02269973993585074,"90":0.09760066726069452,"91":0.054119847862605285,"92":0.08994804328085867,"93":0.08159552673087844,"94":0.0403043788174849,"95":0.016343734588650002,"96":0.019123541266855382,"97":-0.01423070833884162,"98":-0.016888443835852543,"99":0.17145150358492092,"100":0.08313297990407584,"101":0.05049572973399321,"102":0.1341377053658086,"103":0.017026006488316803,"104":0.11746530588059739,"105":-0.03947813148409126,"106":0.13455777455705256,"107":0.08991481541567614,"108":0.23787083252307348,"109":0.08122621438646228,"110":0.08853636058359206,"111":0.1478275354268708,"112":-0.08608772685923105,"113":-0.04399694021452934,"114":0.06545541161603083,"115":0.032595456417615125,"116":-0.05872982613582545,"117":-0.022555496855582176,"118":0.03265926449578594,"119":0.03036452791763604,"120":0.022987025452158763,"121":-0.010682810486429434,"122":0.04285545221450702,"123":0.06464190558741044,"124":0.17005420684665365,"125":-0.0707086604620125,"126":0.030874592026204354,"127":0.017466159398842745,"128":0.015908778827118435,"129":0.02776041661614493,"130":0.0854988353127573,"131":-0.026259110106445133,"132":-0.0286993390365426,"133":-0.050473385270876615,"134":0.027317877599490996,"135":0.07910731001278457,"136":0.050634568800823156,"137":0.02192820033417325,"138":0.11954864368340719,"139":-0.15897774399738276,"140":0.014225319377821174,"141":-0.10327789010718075,"142":0.030164298492563035,"143":-0.11585627480094411,"144":0.05640282027014557,"145":-0.05611824940218472,"146":-0.06046071547457143,"147":-0.05126993929764169,"148":0.039201460443964734,"149":-0.06880962519063648,"150":0.058889871250028904,"151":-0.06945952007102271,"152":0.07817173330557642,"153":0.03244141746591604,"154":-0.030893885498793773,"155":-0.08029019014295989,"156":-0.2071454513976384,"157":-0.12293951720251571,"158":0.0017078354765849891,"159":-0.18843406781683894,"160":-0.007689113693169906,"161":0.011852636617203182,"162":-0.06694473042219919,"163":0.08685783693165282,"164":-0.052044919242051804,"165":0.11161332929837399,"166":0.07960864216066711,"167":-0.044371214581358294,"168":0.10594562594386335,"169":0.07176114257436178,"170":0.08276670815819266,"171":0.08581593857952509,"172":0.2800258569902635,"173":0.11299450860620947,"174":0.060181729040805904,"175":0.15686032925658688,"176":-0.12980536781695087,"177":-0.046416498773410746,"178":0.023623876478240564,"179":0.12509568101009813,"180":0.03149761452796624,"181":0.07991197785068731,"182":0.03774883148299863,"183":-0.049642237086223194,"184":-0.045613794089426396,"185":-0.12846596304887473,"186":0.15340662720187398,"187":0.09848709195570202,"188":0.2528332552487684,"189":0.054486932373229637,"190":0.06956887706489097,"191":0.0646667985121587,"192":-0.04115830604520148,"193":0.030932435038898986,"194":0.10328237319660594,"195":0.0354902362379751,"196":-0.05361750513040622,"197":-0.051538077346236326,"198":0.07768521231462805,"199":-0.04190955410627199,"200":-0.004422468830619975,"201":-0.12073821911428723,"202":0.15871444537998378,"203":-0.018380120210804905,"204":0.020612681110429534,"205":-0.030718281433495143,"206":-0.020863104336464256,"207":-0.020215293962581794,"208":0.0029353482111270967,"209":0.0006472876206726952,"210":-0.05244011028464128,"211":-0.05742812356897,"212":-0.17384632540564773,"213":0.03329205052623671,"214":-0.05390428610070005,"215":-0.016864674793962926,"216":0.008575336345924283,"217":0.021638466335073256,"218":-0.08422124770924942,"219":-0.04322749680245548,"220":-0.0153949486598726,"221":-0.07276549175931507,"222":-0.13156563878439514,"223":-0.14379859603249875,"224":0.09058008349038318,"225":0.02548286056698102,"226":0.04352487936801695,"227":-0.1511531180686628,"228":-0.020028651425401833,"229":-0.14220598226026493,"230":-0.01952174631860441,"231":-0.014916213146270342,"232":0.1040846125660015,"233":0.14878560044140346,"234":-0.030185444379023773,"235":-0.021973637701242308,"236":-0.0953526685988644,"237":-0.10594591222050528,"238":-0.13145161006422748,"239":-0.12979564618713565,"240":-0.14964658404545442,"241":-0.12929416228738974,"242":-0.04811152741292912,"243":0.050741266458229704,"244":-0.07542797785180815,"245":-0.02464839573308504,"246":0.03220736887211794,"247":-0.13838204754024938,"248":-0.11882005099615398,"249":-0.12738625633294437,"250":0.185767550735779,"251":0.002024934129104205,"252":0.2601125671240297,"253":0.011625391990116625,"254":0.11270514384374525,"255":0.11813883760988282,"256":0.09867250417784748,"257":0.0792979759832605,"258":0.12619001690303838,"259":0.07073416012959281,"260":-0.08648564157199895,"261":-0.06034145163209113,"262":0.054167858017008554,"263":-0.040671863148341585,"264":-0.06883545502688596,"265":-0.026354073847653845,"266":0.18925713892105334,"267":-0.01641981687537432,"268":0.11874691728274706,"269":-0.09144634693387593,"270":-0.07699290492620875,"271":0.024620023031578796,"272":0.05575976172324768,"273":0.010779329252016353,"274":-0.0004116687966570549,"275":-0.07835193966723218,"276":-0.10731642406811746,"277":0.002211025265676763,"278":-0.002573778716702678,"279":-0.034452290576191466,"280":-0.021151867491282846,"281":-0.030610152519146904,"282":0.12908365546746625,"283":-0.12320761794378436,"284":-0.11625831303631741,"285":-0.11543191841128743,"286":-0.12589051967102333,"287":-0.11425169299088969,"288":0.06330888739376428,"289":0.13381812462146936,"290":0.0719510169406599,"291":-0.11358493697541056,"292":-0.04286287460095718,"293":0.025809982959400773,"294":-0.11310354878174947,"295":0.027815678190057265,"296":-0.03458996249010744,"297":0.0927475985742637,"298":-0.018551591083835244,"299":-0.11608158515367696,"300":-0.04156379598456413,"301":-0.003979448605825886,"302":-0.21762974934700213,"303":0.01274741132607215,"304":0.10756562555991961,"305":-0.09139301588241815,"306":-0.041892331732841626,"307":-0.03944657914497245,"308":-0.0012314254813028842,"309":0.12315522029990275,"310":0.008426114217521862,"311":0.07994776660604384,"312":0.0756389322339331,"313":0.04872768092128543,"314":-0.10005829275039878,"315":0.07564741665989852,"316":0.008848687947400161,"317":-0.009163328194053043,"318":-0.11926683284034668,"319":-0.035586612323397195,"320":-0.028039277243666883,"321":-0.1409654244601742,"322":0.09219650844531654,"323":-0.004717188173138524,"324":-0.0446497987320516,"325":-0.054822139868067506,"326":0.03472106946361673,"327":-0.022628402426347723,"328":-0.03653704782202265,"329":-0.02601744908147953,"330":0.12532877653700936,"331":-0.038226728679106925,"332":0.06117912841444753,"333":-0.08792420920666856,"334":-0.006154416231329363,"335":-0.00690372460308658,"336":0.04571250483560644,"337":0.06581920665727815,"338":0.04671428561263697,"339":0.09691976600781925,"340":-0.0376490115376572,"341":-0.12815430741354,"342":0.03862946619265074,"343":-0.01692268406331054,"344":-0.04263371204385973,"345":-0.05778097195783478,"346":0.11218197644306468,"347":-0.16902792774728598,"348":0.024720784090720798,"349":-0.12040401177950141,"350":0.010009693313003817,"351":-0.15466353304487904,"352":0.022959418312263707,"353":0.12372926357457494,"354":0.06944549619319731,"355":-0.08751395209852904,"356":-0.05584221112669648,"357":0.002890253895533336,"358":-0.03829454146570744,"359":0.04636168813230878,"360":-0.05613073022022044,"361":0.050477841816351364,"362":-0.10741200204627281,"363":-0.21981522794581307,"364":-0.053943069485952906,"365":-0.10015469456207692,"366":-0.14656339998553006,"367":-0.1744012376363039,"368":0.0559586061734194,"369":0.033350349077079004,"370":0.06130475244985001,"371":-0.05073874227756538,"372":0.018962053953732468,"373":0.03395757541436446,"374":-0.07008927087637518,"375":0.006835318980872605,"376":0.06673999253196951,"377":0.1063094980295795,"378":-0.14893295712122748,"379":0.025125735511176056,"380":0.10626904567798263,"381":-0.032939883265113316,"382":-0.1187794415247238,"383":-0.07170047136781724,"384":-0.023339137615524523,"385":-0.02904681634847555,"386":0.01888614330841681,"387":0.03145957274961463,"388":-0.04955747331986933,"389":0.07692473038413646,"390":0.043614060264694283,"391":0.05525037798899623,"392":0.10129662580324668,"393":0.029621635018892152,"394":-0.06252369204683521,"395":0.04422443453190958,"396":-0.06490357400424532,"397":0.058736687557472515,"398":0.05115612216703405,"399":-0.004395155611889785}},{"sx":5,"sy":5,"depth":16,"w":{"0":-0.07314242865917661,"1":0.06158295951763829,"2":-0.010701880150075132,"3":-0.0547550957419896,"4":-0.034042578573941544,"5":0.00007325896094758917,"6":0.05189356437692374,"7":-0.051861347651496734,"8":0.05770566918471465,"9":-0.047581410610800824,"10":-0.058884731731000936,"11":-0.057059752583288305,"12":-0.053361433555195036,"13":0.1101095661848715,"14":-0.06905606600732025,"15":-0.05776873025232871,"16":0.026766471648546685,"17":0.03467355971910027,"18":-0.041769741262125536,"19":-0.023926989825055815,"20":-0.03892844421583158,"21":0.025478843563231532,"22":-0.023621096349288735,"23":-0.055988850750438704,"24":-0.014686301026722892,"25":-0.026688254476459155,"26":-0.010668207791595111,"27":-0.04099162300245417,"28":0.001858672224604123,"29":-0.010398789308275693,"30":-0.06196247604547932,"31":0.03618780496861345,"32":-0.10962939399818646,"33":0.005155797488507347,"34":-0.039909209910759615,"35":0.0559212160393247,"36":-0.027304517310048636,"37":-0.0025294983078365577,"38":-0.07008722430067346,"39":0.011924494492885095,"40":0.058381845334971406,"41":-0.04060799160198447,"42":-0.1038061585390826,"43":-0.06957958898376128,"44":-0.09664981825040465,"45":-0.014448233462077237,"46":0.01295423917396921,"47":-0.06093887644491508,"48":0.03627904360001764,"49":-0.013479718939819363,"50":-0.039868558269773015,"51":-0.025430076927349183,"52":-0.05697295675126801,"53":-0.0009344989139477139,"54":0.0014494898523953385,"55":-0.022261976066147982,"56":-0.08987176933378528,"57":-0.17852569426709475,"58":-0.08207103029093679,"59":-0.007027987929992491,"60":0.009480535533105567,"61":0.1183442147638837,"62":0.04006238306960135,"63":-0.024606246225717495,"64":0.006695136549412951,"65":0.043447998299464094,"66":-0.1185467129466581,"67":-0.04469615850585981,"68":-0.033694130304118566,"69":-0.00011200183301181773,"70":-0.07674054249464125,"71":-0.05182710413408895,"72":0.04024990027767712,"73":-0.055127748221959816,"74":0.06041924078037871,"75":-0.01569843356574398,"76":0.0828609515130637,"77":-0.09616209845810555,"78":-0.044737578693479836,"79":0.07542478576588481,"80":0.008203354408169274,"81":-0.007227205341529046,"82":-0.05707952563201363,"83":-0.02734205177354981,"84":0.018504720297441164,"85":0.10155643874581755,"86":0.07229241341493038,"87":-0.07036089985326696,"88":-0.002519831805510125,"89":0.057221189912456456,"90":-0.06502445368163765,"91":0.05596942815295166,"92":-0.13086577425107906,"93":0.05163599815847456,"94":-0.07561317834531901,"95":0.06910017834661437,"96":0.02042259290405186,"97":-0.048242820531122305,"98":-0.016568350786961294,"99":-0.0160917750527182,"100":-0.030749877095469377,"101":0.04102968263429654,"102":-0.08598383100964149,"103":-0.13576886556825446,"104":-0.03725049600891296,"105":-0.07895771662241799,"106":-0.04318718367906116,"107":0.08184758939082219,"108":0.011997019897478494,"109":-0.04037205173044714,"110":0.02452990314761687,"111":0.05720478737265227,"112":-0.04517549054561749,"113":-0.15489699659454748,"114":0.0028610248571745195,"115":0.009496665100815763,"116":-0.010131308793620149,"117":0.06363929188554808,"118":-0.09281966951907875,"119":-0.0050119816646318986,"120":-0.02400295106630123,"121":0.032220533483517715,"122":-0.0946555858443582,"123":0.009550579730851768,"124":-0.06166711945992953,"125":0.008873152396587706,"126":0.02277884831717485,"127":-0.037258967857361706,"128":-0.10009470758570597,"129":-0.06368077069497748,"130":0.022760861553110964,"131":-0.06733462726343319,"132":0.02457456862416311,"133":-0.021915140308168345,"134":-0.040790167034804564,"135":-0.0922427854833248,"136":-0.026129940376757792,"137":-0.01335383458260673,"138":0.020716394639913233,"139":0.1365360110465438,"140":0.014238806938660054,"141":0.08187242913418645,"142":0.035862411968532,"143":0.11718310167496283,"144":-0.16086433393683386,"145":0.044886784827951436,"146":-0.07926257623291792,"147":0.019510319917485478,"148":-0.04405458157757715,"149":0.0272372120743457,"150":-0.0030573387051306116,"151":-0.03893067351812638,"152":-0.02450404372181267,"153":0.020739797841692078,"154":-0.017852090039036123,"155":0.053570031282806005,"156":-0.08973095583201712,"157":-0.019241246961110976,"158":0.01116989533471215,"159":0.1307941631513838,"160":-0.04910079858763363,"161":-0.014243631940074655,"162":0.03147530067996779,"163":0.0086514607248457,"164":-0.0017580699690001914,"165":0.01711790725828046,"166":0.0011641784690055407,"167":0.0027133777867117234,"168":-0.02253903376941543,"169":-0.04374547382850303,"170":0.003676778617471623,"171":0.05606107237366197,"172":0.0031998072494551664,"173":-0.08492188658265094,"174":-0.03432500739491621,"175":-0.05122597915981384,"176":0.010565813141633042,"177":-0.037800540557720384,"178":0.0768324113993714,"179":-0.009181805703226282,"180":-0.0031478611509265357,"181":-0.022258296773204917,"182":-0.05340266844541004,"183":0.034649736022531526,"184":-0.06733171942501644,"185":0.03231040176173994,"186":-0.055228442963829796,"187":0.10463798321512865,"188":0.11623774624726771,"189":0.050149133523965356,"190":-0.055567096560017744,"191":0.14633239006428458,"192":-0.03822495094235652,"193":-0.021600938082025595,"194":0.043719159795833754,"195":0.034069345022559615,"196":-0.08010200999512909,"197":-0.01356700039692905,"198":0.06449282210776751,"199":-0.03988034734046131,"200":0.024796344309589147,"201":-0.09514005832970296,"202":-0.029170459099723284,"203":0.015535797840068854,"204":-0.07090921048554255,"205":0.013392530456151054,"206":-0.04495721550393286,"207":0.07278927840798724,"208":-0.10985219427226203,"209":0.03635307770258855,"210":-0.037234934320367175,"211":-0.010262152406194472,"212":-0.047168991505490955,"213":0.01460201634217373,"214":-0.06144112469370504,"215":0.0006415481444732381,"216":-0.0994903931037843,"217":-0.1108898784555871,"218":0.044762573138596454,"219":-0.027206981292478533,"220":-0.12960263892220977,"221":-0.004627343136602361,"222":-0.08307504781340305,"223":0.08814346951298778,"224":0.0037517537831022085,"225":-0.03275780594726097,"226":0.05558115146383586,"227":0.02649162123600391,"228":-0.010092801395584999,"229":-0.0016080034623084092,"230":-0.05376826888770088,"231":-0.08247484559636839,"232":-0.03071520093810549,"233":0.0409823804512174,"234":-0.024175784126786684,"235":0.05431675482659947,"236":-0.036313285006371876,"237":-0.0002810027053773729,"238":-0.030189377057754627,"239":0.1197015371981339,"240":0.0561330414620097,"241":0.07034787606629458,"242":0.013631841742102357,"243":0.0019001946106010589,"244":-0.04607111855598543,"245":-0.012344968169035292,"246":0.02635918191249534,"247":0.09972856625290999,"248":-0.10878631256852543,"249":-0.10635109556762468,"250":0.025734056329449306,"251":-0.016653726447761065,"252":0.04959943258412868,"253":0.05306418431894909,"254":0.03190546264348572,"255":-0.012293710693640778,"256":-0.04521952349406841,"257":-0.05674185598416605,"258":-0.04765349091613648,"259":-0.05205735203105406,"260":0.015714307941973243,"261":-0.015577785234568662,"262":-0.05064786619626052,"263":-0.0356038298333459,"264":0.07355459955732348,"265":-0.025860959951350453,"266":-0.07083671575787673,"267":0.011501657501736122,"268":0.0674495299281283,"269":0.05009397152375806,"270":0.02808157080982577,"271":0.1265322653984305,"272":-0.10304539414164601,"273":0.07106715035740191,"274":-0.06322423590720924,"275":-0.052185106403892616,"276":-0.02042821097312622,"277":-0.03497452187255577,"278":-0.0226009409892154,"279":-0.013274456466861699,"280":0.02300131515001307,"281":-0.020682363831000194,"282":-0.01869985470535948,"283":0.039826484067798706,"284":-0.004660412987182895,"285":0.061193826756781325,"286":-0.031472046696501894,"287":0.058105772999081234,"288":-0.037520935733667576,"289":0.005285039885331129,"290":0.08659457302119997,"291":-0.06664483047172871,"292":-0.08642565468833625,"293":0.09860657630717178,"294":-0.0921397238495784,"295":-0.011362342822104476,"296":-0.05008823429478165,"297":-0.04220212638967861,"298":0.011392700317499237,"299":0.11532224841883526,"300":-0.025538487678474317,"301":-0.008166628993121766,"302":-0.06971611936697526,"303":0.033542087052909564,"304":0.00898932465060474,"305":-0.0052774771883248575,"306":0.06465713234300753,"307":-0.011275323403780142,"308":0.003981576645110006,"309":-0.05469363052508029,"310":0.001525597367071096,"311":-0.09801918664606668,"312":0.0016948870952196945,"313":-0.016714658495184172,"314":0.06710391288257016,"315":0.09830695153410057,"316":-0.05192215447009286,"317":0.03705078097372984,"318":0.06771957863412996,"319":0.0052082174754889765,"320":-0.004157243993219646,"321":0.027593223346036786,"322":-0.06654786549910051,"323":-0.027006711223678297,"324":0.018499305033698166,"325":-0.044104672857465124,"326":0.039739762718646904,"327":-0.09763248718266974,"328":0.023803138147666277,"329":-0.06042033156397722,"330":-0.07988331242898082,"331":-0.058855916786420985,"332":0.029402298467507863,"333":0.034968289514144574,"334":-0.004451073443057799,"335":0.04376632091213485,"336":0.03891159228311696,"337":0.041025170717358506,"338":0.0514902653289697,"339":0.01120169592368425,"340":0.028887135855438072,"341":0.05146478665014003,"342":0.07165035809065894,"343":-0.07109549799853558,"344":0.058858312239926595,"345":-0.004000957419476123,"346":0.05143712366710298,"347":-0.012055567888663896,"348":-0.06282022986492457,"349":0.020282892658594544,"350":-0.03739225164487365,"351":0.014477984928777343,"352":-0.07625461060342505,"353":0.07411298611245991,"354":0.04715268483162112,"355":-0.05156608104257673,"356":-0.04655879875913636,"357":-0.06753225673873484,"358":0.011857330472274531,"359":-0.05101355061753853,"360":-0.06919115349516182,"361":0.05002263908688747,"362":0.035325777385964346,"363":-0.0725851017786023,"364":-0.017523471467610692,"365":-0.00010206771177712004,"366":-0.06436887883870716,"367":-0.08352626647529965,"368":0.023944471623123707,"369":0.07687087087465405,"370":0.009726743790237686,"371":-0.00435730892672498,"372":0.03854028450911119,"373":0.01686378349121471,"374":-0.03075920480398703,"375":-0.002019289813759666,"376":0.004677209097603342,"377":0.040707902865097095,"378":-0.004892725441982331,"379":0.009143014608809398,"380":-0.007660311158734471,"381":0.017933771682304006,"382":-0.019235274140284263,"383":0.06274366816773927,"384":0.023842705109009522,"385":0.011201897536847888,"386":0.03652281639457598,"387":0.06193728153238963,"388":-0.10393566375857773,"389":0.05127081181895401,"390":0.002957831989476077,"391":0.0005474939116897142,"392":-0.044083195148523886,"393":0.07651490018439389,"394":0.009687427720587108,"395":0.03773704559648585,"396":-0.014657688537602248,"397":-0.03494313866483977,"398":-0.02382447197120427,"399":0.02085193290472667}},{"sx":5,"sy":5,"depth":16,"w":{"0":0.00722254948597172,"1":0.08432704881163317,"2":0.07898230816129896,"3":0.10255217737108024,"4":-0.02412243581633407,"5":0.006260418980684624,"6":-0.023220494493854806,"7":-0.040072397848391755,"8":0.009038457565330362,"9":0.030995712787852864,"10":0.0033409933984955152,"11":0.02738649855177415,"12":0.002184783471054294,"13":0.015607568235812639,"14":0.011424378305109967,"15":0.05375713822790637,"16":-0.010513510162811058,"17":0.01347303700332206,"18":0.019528043938780472,"19":-0.11245120928458356,"20":0.022135188573296296,"21":-0.10501692188507983,"22":0.047504683006210996,"23":-0.019237140672587756,"24":0.04811855376263061,"25":0.01733331623038493,"26":-0.04893691519982107,"27":-0.034709083068804776,"28":-0.023619892817206865,"29":-0.06966142702887253,"30":-0.015545467440242008,"31":-0.036884726818666946,"32":-0.05253651275609192,"33":0.007700928707163551,"34":-0.05298254915461845,"35":-0.037157007793723905,"36":0.10333658750879196,"37":0.002122607068585748,"38":-0.05290161500837556,"39":-0.07388558390134489,"40":0.014970308781271204,"41":0.05682795536547481,"42":-0.008383947221990996,"43":0.07110316441277358,"44":-0.043628228384681444,"45":-0.00011552558483981829,"46":0.006662967186434508,"47":0.08257556449118714,"48":0.05343269185390946,"49":-0.11066201126118728,"50":-0.048771058550407476,"51":-0.013382304642441117,"52":-0.08498169755299892,"53":-0.02932757281666848,"54":-0.11496123208508176,"55":-0.001858166536780452,"56":-0.0056557933133086135,"57":0.04133045842423974,"58":-0.04559624677403205,"59":0.09901189896941136,"60":0.05447144309892318,"61":-0.03285229110583842,"62":-0.04138080985602859,"63":0.10458545082141778,"64":-0.022908411700657466,"65":-0.022974759548628373,"66":-0.0039022220274773146,"67":-0.05281806874417778,"68":-0.03775821576402044,"69":0.005339160031066275,"70":0.027006053440861537,"71":-0.013765120739178295,"72":0.030936231558404085,"73":0.07269836737979499,"74":-0.01216027434406253,"75":0.049606699240325264,"76":0.05379266598840221,"77":-0.05257796506924051,"78":-0.006956832640168717,"79":0.07904286382053972,"80":0.10968947143169466,"81":0.05330504494673879,"82":0.08912075645203606,"83":-0.042612512830967834,"84":-0.06975866011592965,"85":-0.016858303458519693,"86":0.05252732416786444,"87":0.1158508063043596,"88":-0.028667764206762748,"89":-0.04766329405592713,"90":0.03919707560705551,"91":-0.005859125172116261,"92":-0.032450199393502244,"93":-0.14634199006225,"94":-0.13767986216085754,"95":-0.09499418151412983,"96":-0.014530762183678885,"97":0.029258629837292254,"98":0.06415974379992563,"99":-0.011007636932595087,"100":-0.06469301401872507,"101":-0.006594638068522451,"102":-0.07440760262746812,"103":-0.05736377137725313,"104":-0.12950246545893646,"105":0.024021229324561674,"106":-0.11715719047273676,"107":-0.08677129225280539,"108":-0.024811592066637318,"109":-0.013388213071559385,"110":-0.12774477646233157,"111":-0.031178607361466885,"112":-0.016285350212037333,"113":-0.024168724965970046,"114":-0.07711568562758601,"115":-0.0034531233674769094,"116":0.0363051686653456,"117":-0.0026077668251985467,"118":-0.0005319517999298593,"119":-0.09751742216321292,"120":-0.012966926466212713,"121":-0.0082458747255439,"122":-0.1244398982416884,"123":0.008649978115745784,"124":-0.1200199007491024,"125":0.050326859011685085,"126":-0.03415832564885805,"127":-0.005157568476515702,"128":-0.04087727250360692,"129":-0.005248235281751674,"130":-0.08855103993357163,"131":-0.052844842844425914,"132":-0.020767741635779543,"133":0.07148165896276588,"134":-0.09897652388787685,"135":-0.023129874916993146,"136":0.04050152909453696,"137":-0.03170834496682003,"138":0.07690742875836273,"139":0.026591644072863446,"140":0.01825777016378783,"141":-0.017393816314318297,"142":0.006525954629871742,"143":0.04705056724931734,"144":0.010643166371090442,"145":-0.1185960425334597,"146":-0.038513844092067845,"147":-0.06402989644942304,"148":-0.08586237913548175,"149":0.029799512070313176,"150":-0.06102453015503373,"151":-0.14127829407005038,"152":-0.0085433905400113,"153":0.04795043517475115,"154":-0.018761739463234967,"155":0.07957689853496473,"156":0.0053212707961318335,"157":-0.009112403732412707,"158":-0.032309174187951324,"159":0.08743782857879859,"160":0.08523510588577084,"161":0.008064876140185731,"162":0.06150684163973074,"163":-0.010070444186854247,"164":-0.01766566657958894,"165":-0.0313832100534007,"166":0.016663795143581434,"167":0.006018094704612835,"168":-0.034508871181823976,"169":0.011780033285592281,"170":0.011783936558362754,"171":0.0040539992817890886,"172":0.0031689868897437487,"173":-0.052112553013496515,"174":-0.007234467337719819,"175":-0.11688712116908159,"176":0.010249782337590009,"177":0.08103018887040735,"178":0.0016488089980780704,"179":-0.0855448165776095,"180":-0.06354104393511141,"181":0.01509983937829834,"182":-0.004198169734584407,"183":0.10860988416491545,"184":-0.03468861459720294,"185":-0.006552993174207302,"186":-0.07245332192745439,"187":-0.012577628310906325,"188":-0.06689117689941171,"189":0.007914593907399127,"190":-0.0759517379581332,"191":-0.008227847220278186,"192":0.0035954331234468104,"193":0.0069079864589226105,"194":-0.03679661054388575,"195":-0.05965993447298593,"196":0.03366427897571898,"197":0.10026822079289356,"198":-0.030768929749106506,"199":-0.05547257741821689,"200":-0.06936050271397406,"201":-0.09153124647071668,"202":-0.08187693366844785,"203":0.04292295237402078,"204":0.02572323074529812,"205":-0.04130291265601809,"206":-0.05503685855161885,"207":0.045437556392731164,"208":-0.011385862046308554,"209":0.062148239325430586,"210":0.04575051591175984,"211":0.012900406188485902,"212":-0.05545344998864194,"213":-0.030986924925453782,"214":-0.08162329797483837,"215":-0.058583503476886165,"216":-0.17355177950841136,"217":-0.018958132002840817,"218":-0.08031696476674757,"219":0.048819429489316314,"220":-0.023647252509511007,"221":0.06535026071865219,"222":-0.08129539172738859,"223":0.07089401298343233,"224":0.011704082405144693,"225":-0.09375073311363799,"226":-0.02377956107973666,"227":-0.0005738340840970332,"228":-0.004454888262290899,"229":-0.04378506917017395,"230":-0.04804002565487021,"231":-0.06654018767822664,"232":0.0404157622633356,"233":-0.13349716426994881,"234":-0.11683746457151868,"235":0.03066615044838228,"236":0.05595715193364101,"237":0.060878163210661654,"238":-0.05346072266340637,"239":0.08974222545202935,"240":0.10555181382151145,"241":0.07039211642581188,"242":0.05878768320155855,"243":-0.06631187491125033,"244":-0.04742650353900533,"245":-0.031482058761874605,"246":-0.028109511859981288,"247":-0.09845217954129176,"248":0.09302963535735082,"249":0.04050710301077262,"250":0.006396020225517477,"251":-0.022963138179468646,"252":-0.07765171895284374,"253":-0.035863373103960317,"254":-0.10580240640473665,"255":-0.13815867829839326,"256":-0.01883737045056266,"257":0.00015371788529910935,"258":0.05124492965870637,"259":-0.0736609742917208,"260":-0.07155243848739494,"261":-0.005651217269769988,"262":0.002053277909363909,"263":-0.09151782448602472,"264":-0.057765626747519866,"265":0.07357858644128581,"266":-0.07010803978742086,"267":0.010353806861485113,"268":-0.014132138324374535,"269":-0.06586606844189635,"270":-0.03377070774017906,"271":-0.047441480357640634,"272":0.04567247415273929,"273":-0.0036070049616303422,"274":0.09390055428485823,"275":-0.05511810333029223,"276":-0.10998957486193014,"277":-0.04860179862581799,"278":-0.04008538186814595,"279":-0.08746322869772787,"280":-0.0876540006490697,"281":0.008951710081304302,"282":-0.044158916851404606,"283":0.09747476236106088,"284":0.03642564055950874,"285":0.06236154780710125,"286":-0.10754929685885564,"287":0.09767781962864276,"288":-0.05458947184712634,"289":0.05941218666682804,"290":0.021720339250499602,"291":-0.08404135221824692,"292":-0.011148283311605797,"293":0.07903728148604379,"294":-0.05097925070322414,"295":-0.0681165007515723,"296":-0.1521097563605209,"297":-0.06118187354667324,"298":-0.04455582037565764,"299":-0.033546747602451236,"300":0.04064347849917247,"301":0.08151308165290401,"302":-0.021082076213238696,"303":0.11994307204858644,"304":-0.14580096301401765,"305":-0.08046722001419984,"306":0.022515447031173003,"307":0.015531291162787394,"308":-0.03219676660439216,"309":0.04283350110236246,"310":-0.03858454575409899,"311":-0.08338436671013447,"312":-0.15513152257085971,"313":-0.12122138491154352,"314":0.036490486459310204,"315":0.0966515413807898,"316":-0.06788473772233312,"317":0.024375685158896647,"318":-0.011924948918642651,"319":0.09442790692641423,"320":0.021299798794782228,"321":-0.03102470504395383,"322":0.057114861447153005,"323":0.03906213559356336,"324":-0.0766432818857246,"325":-0.01387508750990148,"326":0.03303971031357033,"327":0.01643114850252742,"328":0.059202347935665964,"329":0.05996692409796511,"330":-0.09685354852919219,"331":-0.11501380273252909,"332":-0.059629457133916215,"333":0.06724422214816551,"334":-0.07906135681036632,"335":-0.09136242171926832,"336":-0.0017283059070386055,"337":0.05443366945962953,"338":0.12362921230847011,"339":-0.008644373543473314,"340":-0.022970356633199542,"341":0.01947239875617386,"342":-0.10458670020497145,"343":0.10942601838515635,"344":0.02208390860138024,"345":0.08301307264253908,"346":0.046203345045994146,"347":-0.0020073872998623236,"348":0.012883519459420102,"349":0.07829981338195593,"350":-0.16436596921683802,"351":-0.07205158556438693,"352":0.04162866331521491,"353":0.05289443278722005,"354":-0.008793036926906844,"355":-0.08395675825303671,"356":-0.08641457375348877,"357":-0.11260991171918383,"358":0.10275940873771605,"359":0.05755184825412224,"360":-0.0053337445868866925,"361":-0.01299612739284216,"362":0.034281633823315866,"363":-0.007838227932316566,"364":-0.0027913052874927193,"365":0.04173603513565128,"366":-0.07544318520284943,"367":0.05506930586075777,"368":-0.08614772459490629,"369":0.016585813162146423,"370":-0.007121348959017624,"371":-0.03152965576064788,"372":0.017513824647033754,"373":-0.08795865676571078,"374":0.08238640157730404,"375":-0.0038685514240498257,"376":-0.035918451519898975,"377":-0.06251752927569784,"378":0.09973268019135022,"379":0.06342784815825904,"380":0.11881805718582023,"381":-0.022499743413372866,"382":-0.03785809774575682,"383":0.09764851256853463,"384":0.021170889460455557,"385":-0.036111762877497997,"386":-0.03109613082167709,"387":0.03418884655647055,"388":0.006457722907188618,"389":-0.048590021817254414,"390":0.07734854019638665,"391":-0.02074026545240772,"392":-0.12906735590859766,"393":-0.01033595632628178,"394":0.1720170314001913,"395":0.044213756384751106,"396":0.007788913796831639,"397":0.0897000372505877,"398":0.006180941507272605,"399":0.09151399874842386}},{"sx":5,"sy":5,"depth":16,"w":{"0":0.05977065440329461,"1":-0.006789860698757717,"2":0.017763656998714898,"3":-0.030226268368466442,"4":-0.0632110774588701,"5":-0.08353612398793368,"6":-0.03228294307601523,"7":0.09081455733119409,"8":0.023470733984246834,"9":0.0014979135255154552,"10":-0.07397324967677252,"11":-0.08828210407248475,"12":-0.06696088257613396,"13":0.04228340527176407,"14":0.049327209795887526,"15":-0.0921335528184811,"16":-0.048439635240047775,"17":0.01928880723235036,"18":0.007355455179305194,"19":0.0008025850755083955,"20":-0.03710310102499066,"21":-0.035703864440262134,"22":-0.031315319264614054,"23":0.03381779800214826,"24":0.01911298001700086,"25":-0.07329277310685799,"26":-0.046884565832800186,"27":0.0468363316479247,"28":-0.054354377804593915,"29":0.012657514489951983,"30":-0.016839926324288206,"31":-0.12746609517372645,"32":-0.018960084541475398,"33":-0.08037313551801566,"34":0.03471145467308089,"35":-0.026576065698397874,"36":-0.020292778432612117,"37":-0.11948269680571016,"38":-0.03553893488322185,"39":0.007469867252918724,"40":0.07488496923095062,"41":-0.009960442523871132,"42":-0.05374985316468669,"43":-0.030948687938699135,"44":-0.006634069876502504,"45":-0.12733145100230558,"46":-0.056705492376218136,"47":0.0023543964724907643,"48":-0.07647632998823935,"49":0.03332153884370488,"50":-0.007356692313549655,"51":-0.0009367260755818003,"52":0.06320328693277186,"53":-0.20984079977028863,"54":-0.025169218506276955,"55":0.03478045905938576,"56":-0.016496481057264048,"57":-0.03135353944218673,"58":-0.0636387352145411,"59":-0.03869656633385939,"60":0.009045224727860764,"61":-0.11633687148313479,"62":-0.03188064317254983,"63":-0.07722669409774846,"64":0.03505355833096476,"65":0.01318828332889606,"66":0.03619324372224077,"67":-0.02622746230523077,"68":-0.10491409970471036,"69":-0.13238583340429208,"70":-0.2031901519436242,"71":0.01582731857884951,"72":0.031385331661935016,"73":0.04389845554947961,"74":-0.193367334755651,"75":-0.06633664211568494,"76":-0.046382368208185025,"77":-0.041798037984339696,"78":-0.01579201723259642,"79":-0.07067402661018597,"80":-0.0636872123661156,"81":-0.06858548345265678,"82":0.054186551772800115,"83":-0.008931992403873087,"84":0.10092688909749971,"85":-0.09679005487588696,"86":0.002820306906850342,"87":0.05355621323804773,"88":0.0919119765374842,"89":0.10480843544325183,"90":0.04966103519600805,"91":-0.08810105765420054,"92":-0.09277201143680032,"93":-0.07191583376681196,"94":0.1580419439732028,"95":-0.005784609842798883,"96":-0.01607816457010273,"97":-0.08691797629303089,"98":0.1317174594811406,"99":-0.011562667971695658,"100":0.09277798904726564,"101":0.12727096306506133,"102":-0.013757641114624167,"103":0.12408934832318867,"104":0.04238660106300874,"105":0.06979937671440126,"106":-0.059367640152017086,"107":-0.06791019414673344,"108":-0.053778957213662375,"109":0.006261950922873469,"110":0.07573448557783016,"111":-0.09243819807705604,"112":0.07742689924334013,"113":-0.01922352029292014,"114":0.021851658665373405,"115":-0.014119101583787421,"116":-0.004779596138248672,"117":0.010786237502523733,"118":0.08243967040879796,"119":0.008424390778506357,"120":0.08661101408177058,"121":0.06891947274131485,"122":0.005765535172668443,"123":-0.10297610427633934,"124":-0.013334550190123324,"125":-0.013494321012478806,"126":-0.05895828523309027,"127":-0.08694022872494699,"128":0.018172726119891906,"129":0.003284279656490842,"130":-0.11149692649515898,"131":-0.06309838038818254,"132":0.026663057668739883,"133":-0.010244513255831889,"134":0.008433402453984625,"135":-0.08240159554764744,"136":0.024491709136193973,"137":-0.0010102616779290054,"138":-0.10282824806110413,"139":0.008606153324087828,"140":-0.009816275702816001,"141":-0.1153595886390798,"142":0.025346179911820328,"143":0.0028651476963221316,"144":0.03009147332740779,"145":-0.04229353861103053,"146":-0.07177556334573702,"147":-0.06591465826359004,"148":-0.08219914576870649,"149":-0.11212920984065586,"150":-0.07865939765037513,"151":0.002536021238598647,