{"layers":[{"out_depth":3,"out_sx":64,"out_sy":64,"layer_type":"input"},{"sx":5,"sy":5,"stride":1,"in_depth":3,"out_depth":32,"out_sx":64,"out_sy":64,"layer_type":"conv","l1_decay_mul":0,"l2_decay_mul":1,"pad":2,"filters":[{"sx":5,"sy":5,"depth":3,"w":{"0":0.21397232860278922,"1":0.06217413882348769,"2":-0.15142897244547826,"3":-0.04097301200467996,"4":-0.17474146438327065,"5":0.2310757784107815,"6":0.05426304874524765,"7":-0.00707266986497571,"8":0.036642229947565184,"9":0.08667085333677664,"10":0.18547592428453577,"11":0.13334434125135047,"12":-0.1630565542830388,"13":0.11417678899594093,"14":0.12036841290901466,"15":0.09152244673421861,"16":0.17239352939583058,"17":0.06050289652561661,"18":-0.12577494052713686,"19":0.05462498946123069,"20":0.053934248795686854,"21":0.17795868472847573,"22":0.009170324938779551,"23":0.05644275420444751,"24":0.014221950330989448,"25":0.07544352301356208,"26":0.08363963649680885,"27":-0.04490039026625311,"28":0.19907935272463825,"29":-0.00917310754728277,"30":-0.1650171147199119,"31":-0.05542555489607469,"32":-0.06242529822335614,"33":0.17089200136866511,"34":0.17736412257233375,"35":0.06464194818543237,"36":-0.0271886517461372,"37":-0.032447626033032084,"38":0.20286066872479092,"39":0.09830067264851071,"40":-0.0828568827751448,"41":0.07281864193987926,"42":-0.06084150821887939,"43":0.08410773841862086,"44":-0.013388306742486986,"45":0.16734176050638574,"46":0.10195519747621254,"47":0.009628860390132525,"48":0.06786889910259605,"49":-0.013229345291816514,"50":-0.00957925874533972,"51":0.04546685563852008,"52":0.11181296858877694,"53":0.12314443701481834,"54":0.12098535593474742,"55":-0.028523800233061548,"56":-0.05622999411497469,"57":-0.061299592524074284,"58":0.06369007986527185,"59":-0.24717858640138776,"60":0.0013306646683192743,"61":-0.18109654380769838,"62":0.12146477059887685,"63":0.01092399126455256,"64":0.007223110380329518,"65":0.19644552201334325,"66":0.025845712328779583,"67":0.10082681105769113,"68":-0.033793455691751774,"69":0.1121497608452767,"70":-0.12159931382592508,"71":0.03711156695478986,"72":-0.13322735494210727,"73":-0.16680347570480863,"74":0.1613226190993901}},{"sx":5,"sy":5,"depth":3,"w":{"0":-0.12224315218585173,"1":-0.2172042064010879,"2":-0.061424164802838355,"3":-0.06742525256013224,"4":-0.18325918039865133,"5":0.017359482130530138,"6":-0.09098522165278997,"7":0.02361819139498867,"8":0.01369632863323434,"9":-0.11245829440703943,"10":-0.2545299751975301,"11":0.12249272146763522,"12":-0.07940899136175959,"13":-0.14998426763277709,"14":-0.043415751398724216,"15":0.06279523681118869,"16":-0.036713517934366266,"17":-0.08614194887208908,"18":-0.23864106389638992,"19":0.046626512380647314,"20":0.07547051360796894,"21":0.09183982447699,"22":0.09480049775740768,"23":0.0316926337792845,"24":-0.18725599472308857,"25":-0.007118652860519234,"26":-0.05083962986421008,"27":-0.19707134922727176,"28":-0.0437484693687814,"29":-0.03460569072559039,"30":-0.11121083488501418,"31":-0.06285232836844269,"32":0.005536438114616399,"33":0.029034890100555724,"34":-0.14908424147097163,"35":0.0614445602131273,"36":0.09762463133454352,"37":-0.1442938200356011,"38":-0.0348289919268097,"39":0.11804107427057385,"40":0.16033050058818063,"41":-0.03437000053957977,"42":-0.14786389221953364,"43":-0.3054337670861672,"44":-0.25502098621217667,"45":0.20915875601629064,"46":-0.04133143600099211,"47":-0.014978083904697546,"48":0.015301430888211585,"49":-0.008426304593831514,"50":0.005997423828900448,"51":-0.2437826521744232,"52":0.04834282083849562,"53":-0.0650302209824571,"54":-0.0826306571996657,"55":-0.01384645003212447,"56":0.016698060210524834,"57":0.12793868286800278,"58":-0.22307648812829903,"59":0.027587881088483052,"60":0.0573547303208241,"61":-0.13056959533811144,"62":0.16747243834222325,"63":0.03338176580853127,"64":-0.10772713814294942,"65":-0.05793869344031309,"66":-0.15582547258988927,"67":-0.060362598630326815,"68":-0.02479542275363955,"69":-0.11363212412754808,"70":-0.07703458615875144,"71":0.015051151642999321,"72":0.02338036647948923,"73":0.02508504429773297,"74":-0.11740422812974846}},{"sx":5,"sy":5,"depth":3,"w":{"0":0.04072572344191952,"1":-0.0513929903731177,"2":-0.10406745011747665,"3":-0.03358635999357988,"4":-0.10871244354648708,"5":-0.054135899636965024,"6":0.09680777433197821,"7":-0.01510660682548001,"8":0.04284917039250874,"9":0.15196602054268893,"10":-0.1109042391688771,"11":-0.09000550841281402,"12":0.06340374470387303,"13":0.13025227729944613,"14":-0.10709708792205666,"15":0.09017644232948965,"16":-0.008866065982733675,"17":0.008003754251099558,"18":-0.15721466689159597,"19":-0.19767254973834672,"20":-0.15060718771098075,"21":-0.09251127387614395,"22":0.20795684700842776,"23":0.1570342859579268,"24":0.01742349341726423,"25":-0.26831964250662416,"26":-0.079282591727787,"27":-0.10069617929841289,"28":-0.1488438702344822,"29":0.22785397357667456,"30":0.0057178543430917335,"31":-0.0677560501454704,"32":0.10256593150409549,"33":-0.14454057456199093,"34":0.08563907941786116,"35":-0.0727399274381066,"36":0.054319753658321104,"37":-0.1580570427409141,"38":-0.06693741242942457,"39":0.002050902104222888,"40":-0.13736876055925873,"41":0.01738277443055942,"42":-0.13921847505734591,"43":-0.25811923668248216,"44":0.037910189087922534,"45":-0.1305058577219066,"46":0.15889149095174196,"47":-0.05252658498791476,"48":-0.08646697370682747,"49":0.016204957988869315,"50":-0.08435225020194682,"51":0.05268851526007781,"52":0.08287577794058068,"53":0.11203367109004002,"54":-0.085043636595506,"55":0.04134925695438095,"56":-0.013151890682543656,"57":-0.14166971659412392,"58":-0.05019483563161213,"59":0.137841940060797,"60":-0.07360152296926344,"61":-0.033746737703418524,"62":-0.11384328232735694,"63":0.009492017206308805,"64":0.05324788250132278,"65":-0.09954952461621223,"66":-0.055430090644190556,"67":-0.005849578942050339,"68":0.005588195633197496,"69":-0.038537056453230314,"70":-0.0912028925300208,"71":-0.043028771538700654,"72":-0.04853769303419997,"73":0.019239999514763337,"74":-0.0927951513819515}},{"sx":5,"sy":5,"depth":3,"w":{"0":-0.025234168822153964,"1":0.08998974480847766,"2":-0.10798271994427912,"3":0.13992354549410957,"4":0.006231009975424016,"5":0.00750612520791905,"6":0.05608953908591826,"7":-0.09590358622291704,"8":-0.2992119465659191,"9":0.08702914301403233,"10":0.07779083326722175,"11":-0.05583717854706794,"12":0.06235500236837767,"13":0.06469971854224288,"14":-0.0853581506431181,"15":-0.07278351786588824,"16":0.05678022107154225,"17":-0.03797085995351124,"18":0.01818786354952052,"19":-0.11206779959776715,"20":-0.1286597529287252,"21":0.023833857586431778,"22":0.005269557537198848,"23":-0.022113665070341876,"24":-0.04950484584783201,"25":-0.01892299026904481,"26":0.10113402920887574,"27":-0.0396795901533463,"28":-0.1528805740852399,"29":-0.06813541422394277,"30":-0.08841088393557767,"31":-0.11199739517391,"32":-0.05470366864892456,"33":-0.014105256139045896,"34":0.09839526898963452,"35":-0.16859305936197536,"36":-0.1479908142734948,"37":-0.0895757486575015,"38":0.08220779097388155,"39":-0.140255122781567,"40":0.08485939635116072,"41":-0.13154077164064015,"42":0.06404850776443534,"43":-0.06409546866260683,"44":-0.004650126013206712,"45":-0.057081580716891275,"46":-0.03412957027268281,"47":-0.025564667655971474,"48":-0.06098291149964095,"49":-0.010894746634027914,"50":0.013821198564090347,"51":0.020263103579783327,"52":-0.11515053552194017,"53":0.06141460058830986,"54":0.1699877816190434,"55":0.008064583132649052,"56":0.008795812649008408,"57":-0.04554247279984117,"58":-0.16804048496975302,"59":-0.039845745015516854,"60":0.008083055330566056,"61":0.1009960137633186,"62":0.04172862213424353,"63":0.028957404449331703,"64":-0.038823458373259755,"65":-0.05015895166823567,"66":-0.043128834521901235,"67":-0.17540560252358142,"68":-0.021888692992061767,"69":0.13659388307874157,"70":0.013182058517443303,"71":-0.06117404088427121,"72":-0.048864820571146106,"73":-0.05444844883434725,"74":-0.1310552197241447}},{"sx":5,"sy":5,"depth":3,"w":{"0":0.07257195550227376,"1":0.08392838946801706,"2":-0.12785344053944372,"3":-0.07230962060415738,"4":-0.09912934841548646,"5":-0.18640634676712498,"6":-0.05710837464722906,"7":-0.05197375634980481,"8":-0.00314562300397084,"9":-0.0776465711587024,"10":-0.06214899146156363,"11":-0.0781500078478175,"12":0.2183464690639162,"13":0.13774646200966903,"14":-0.010730672686960822,"15":-0.1630632466956352,"16":-0.04897482810776758,"17":0.0019035137387582498,"18":0.034059553830464356,"19":0.16142478894897896,"20":0.03180572757788363,"21":-0.16198234670663633,"22":0.13957348861459273,"23":0.031204361568432024,"24":-0.11199143179458108,"25":-0.033593274268417996,"26":-0.23775819795866304,"27":-0.24141580784342723,"28":0.1467658797547646,"29":0.07012246359230614,"30":0.02656532168670987,"31":0.04064996789760642,"32":-0.0827099443290576,"33":-0.07206300119297682,"34":0.097534944883601,"35":0.020828285491754195,"36":-0.13104947596802569,"37":-0.10990010141184128,"38":0.10312240335383863,"39":0.05852568918049214,"40":0.35905429293328384,"41":0.08563345927242948,"42":0.0954812625993067,"43":-0.012780480406630993,"44":0.22918884739856332,"45":-0.045235173023821636,"46":0.04279492748322725,"47":-0.004662267142078064,"48":0.012488933311158332,"49":0.07178434647284233,"50":-0.0407737443097414,"51":-0.05687963502182168,"52":0.11212075831704606,"53":-0.03768569627690919,"54":-0.16832349801197918,"55":-0.08208867237138831,"56":0.15625948744344767,"57":0.16667232988941974,"58":0.17916675359413928,"59":-0.18768604620960783,"60":-0.04603190504338973,"61":-0.031444931886865465,"62":-0.12832523053636782,"63":-0.17853786203464636,"64":0.055143236481931014,"65":-0.09764280665988442,"66":-0.22715530858000835,"67":-0.23363814368240912,"68":-0.1779647893963335,"69":-0.0625670182767946,"70":-0.12249361776685017,"71":0.08866304196240152,"72":0.04886079106157761,"73":0.003580519939570361,"74":0.2195601180987336}},{"sx":5,"sy":5,"depth":3,"w":{"0":0.021314582129573423,"1":0.06513437702731663,"2":0.0681770039460047,"3":0.05814293536504145,"4":0.051721663426565444,"5":0.16185949155600668,"6":-0.07065058815414692,"7":0.19721864834372732,"8":0.025635725578171124,"9":0.16687944560105109,"10":-0.1387789782352427,"11":0.042540329973716706,"12":-0.02615955365028883,"13":-0.013808652297849021,"14":-0.023542002994655375,"15":-0.028006649742427787,"16":0.19078417659878305,"17":0.059876923780013844,"18":-0.004270270890106348,"19":0.18519325948887524,"20":-0.07404360658554981,"21":-0.010983989731087456,"22":0.10813740171429809,"23":-0.13790890508874257,"24":0.11275719249683236,"25":-0.1186494111209883,"26":-0.03446524845183706,"27":0.06687202001022109,"28":0.24663835014418947,"29":0.08029752824689508,"30":-0.23773650538744473,"31":0.05337477595114105,"32":0.027199288835737273,"33":0.31280159522027634,"34":0.05141587548460346,"35":0.011027248288772263,"36":-0.049370845847986,"37":0.2555680752067373,"38":0.033581399510866375,"39":0.05069864832068463,"40":-0.028821800705101017,"41":0.18468232497562934,"42":0.07797201142559829,"43":0.00017786754452808753,"44":-0.07684199645946885,"45":0.2694637567678171,"46":-0.14391265385632065,"47":0.12016719297354247,"48":0.004803356986863566,"49":-0.1633053784307166,"50":0.0881573434181199,"51":0.08277644059879165,"52":0.06018578102073874,"53":0.11706257335342544,"54":-0.005419371072290736,"55":-0.037619046766713314,"56":0.22922383673349028,"57":0.018244445006556757,"58":-0.08809650506497751,"59":-0.08584270997629705,"60":-0.15298681721023966,"61":0.0992348478635107,"62":0.06494381747184705,"63":0.1055973827626534,"64":0.22206511329313675,"65":-0.0357454932375094,"66":-0.16030880247664842,"67":0.03401725741017258,"68":0.09857705515946226,"69":-0.24433062784640777,"70":-0.05589618688029063,"71":-0.07745436723804845,"72":0.0667227273380167,"73":-0.036619581659810434,"74":0.054696897740082864}},{"sx":5,"sy":5,"depth":3,"w":{"0":0.024782193234438404,"1":-0.0685519759732197,"2":0.0798369157926197,"3":-0.23070638107517635,"4":-0.09951007371544805,"5":-0.2604112547409118,"6":0.10246205269183284,"7":-0.05498345566200265,"8":-0.08608187496258814,"9":-0.16967064928063802,"10":-0.1701134642261533,"11":-0.022117172509743484,"12":-0.13793963880406257,"13":-0.14486904164502168,"14":0.01278665326379085,"15":0.009794523139075839,"16":-0.007218507854570758,"17":-0.0604120156236065,"18":0.15746219307871062,"19":-0.15220845086842147,"20":-0.16327973721498787,"21":-0.18008925324447309,"22":-0.028672030460359668,"23":-0.30596749530301265,"24":0.011816045644939476,"25":-0.15250675047220227,"26":-0.10843677887610383,"27":-0.19874787583482892,"28":0.06519063591941934,"29":0.0388393909220564,"30":0.06694073979107201,"31":0.09305242296961244,"32":0.03979556779525089,"33":-0.10387904601492208,"34":-0.1377109707287472,"35":-0.08478939824881461,"36":-0.1462845557033595,"37":-0.005631495927217295,"38":-0.197802840690579,"39":-0.04424306440129793,"40":-0.1190027815145951,"41":0.08361946398985622,"42":0.175455387472011,"43":0.09868490900952301,"44":0.08069928668353164,"45":-0.07148817998578161,"46":0.008668061459648414,"47":0.041607196077858975,"48":-0.017346702843656542,"49":0.15449585658631793,"50":0.13688050179519523,"51":0.12618935718149318,"52":0.12519286956241,"53":-0.06734999437182945,"54":0.046204303159207316,"55":-0.07028382562426587,"56":-0.04043731288907521,"57":0.1639600604120586,"58":0.2626808481825295,"59":-0.10549596296720752,"60":0.07091157092991977,"61":-0.005436617376723265,"62":-0.058156260810147166,"63":0.009353342112709113,"64":-0.01597045433261814,"65":0.04789716470457679,"66":0.116404255401427,"67":0.10729137516907328,"68":-0.03735519763967424,"69":0.040859774281619396,"70":-0.09025406504975998,"71":-0.11149526626401639,"72":0.06273427863491685,"73":-0.04919282373138228,"74":-0.029281076208435144}},{"sx":5,"sy":5,"depth":3,"w":{"0":-0.05477433139492084,"1":-0.007809794258329475,"2":-0.10960984207962707,"3":0.2927215177086193,"4":-0.14364134914191012,"5":-0.05648091185714833,"6":0.17272845203340745,"7":0.1339378827709826,"8":0.10071732270266975,"9":-0.012540889281321941,"10":-0.14738604328188826,"11":0.023164027801460246,"12":-0.10306650982537606,"13":0.15905579367553005,"14":-0.11534309931413964,"15":-0.18988527123406163,"16":-0.03140553433808696,"17":-0.08750129981110964,"18":0.031209143042827858,"19":-0.29992982600434953,"20":-0.20158044552897364,"21":0.053033514253444686,"22":0.2716345642883563,"23":0.12636276374357128,"24":-0.24242245326696893,"25":-0.014306798459628484,"26":0.01752849739014774,"27":-0.24787461554092408,"28":-0.22847662566072685,"29":0.03199303751046321,"30":0.007686730825627515,"31":-0.07922625947063792,"32":0.025499711609509954,"33":0.2468618972617957,"34":-0.15437292244701162,"35":0.08532240611482614,"36":0.19641065080079484,"37":0.15801540607643855,"38":0.164028538302498,"39":-0.04540372569050373,"40":-0.1550111750277923,"41":0.08653670332737667,"42":0.09230175710724949,"43":0.16973638008061767,"44":-0.16442492644012693,"45":0.10139297687683449,"46":-0.006013547914615298,"47":-0.19634712795450465,"48":0.14005260964951852,"49":0.0455792438008153,"50":0.12732864160087734,"51":0.055703570858428045,"52":-0.2169465807428554,"53":0.018830983465507475,"54":0.16256977852787005,"55":-0.1166769280530631,"56":-0.00806121786650253,"57":-0.09129272377551399,"58":0.01632296024572694,"59":-0.03381169380703508,"60":-0.07791190525730889,"61":-0.08580007048587689,"62":0.04719667023692621,"63":-0.11641748584166178,"64":0.01634110238384239,"65":-0.04510594036203474,"66":-0.15137097558044926,"67":0.06185156803468359,"68":-0.13363179632123143,"69":-0.2523773592305297,"70":-0.0024347395112973213,"71":-0.020679220023451184,"72":0.17405419083536627,"73":-0.007194106276828798,"74":0.060726649606358346}},{"sx":5,"sy":5,"depth":3,"w":{"0":-0.17207359300737962,"1":-0.056055005408634256,"2":-0.04417305114761989,"3":0.15914811382453117,"4":-0.033215221367079314,"5":0.1519199254605145,"6":-0.2426671069826774,"7":0.09393336128645051,"8":-0.1831614480293371,"9":-0.24380074537711763,"10":-0.08748246582412379,"11":-0.08178070721619109,"12":0.05112156198103345,"13":0.0862623710560327,"14":0.12370882765349073,"15":0.021503819396556385,"16":-0.044722911024096444,"17":0.028462502294107968,"18":-0.14454577657827303,"19":0.04505313984529961,"20":0.15865447699204765,"21":0.14474733885350552,"22":-0.09007589617621145,"23":-0.10698219921315667,"24":0.15897024443037247,"25":0.024708873163578084,"26":0.05335405457281809,"27":-0.07025375717728208,"28":0.21986865783396037,"29":0.17838183749194653,"30":0.04301832532359664,"31":0.051165946944192776,"32":0.15478800380433208,"33":0.251366774718818,"34":0.004613663035986599,"35":0.08663052236717259,"36":-0.015020261186981637,"37":-0.0041292085054600094,"38":0.01177742302410976,"39":0.08401414641338331,"40":0.08007636287038135,"41":0.0648345247569491,"42":-0.03971319155638108,"43":-0.044105703667586704,"44":-0.05647813592194995,"45":0.1393506606693426,"46":0.004672183581354321,"47":-0.0076844633311116805,"48":0.002932131650948294,"49":-0.19570190239274263,"50":-0.27197572234386,"51":0.2887878689706275,"52":-0.023630081912603334,"53":-0.2078154135499698,"54":0.15619912651433,"55":0.14139321426871046,"56":0.15099671612089322,"57":-0.016237092509693355,"58":0.11676059709744396,"59":-0.18704721491530915,"60":0.3043371744540254,"61":0.04130630619770915,"62":0.1013412218872651,"63":0.031661374806218695,"64":0.1488287300706355,"65":0.041823449388885305,"66":-0.03638311631142091,"67":0.08301532534402542,"68":0.06907027254747085,"69":-0.15409887875186698,"70":0.11385925936702139,"71":-0.049009407408105506,"72":0.14095757930811528,"73":-0.04300089623684737,"74":0.109400327460517}},{"sx":5,"sy":5,"depth":3,"w":{"0":-0.045926857709256724,"1":0.006704322696071694,"2":-0.047378175718104036,"3":0.10175168529516794,"4":-0.004672317582347417,"5":-0.12560785423256865,"6":-0.0614941732710321,"7":-0.06839947648661279,"8":-0.07630757455905202,"9":0.01965014291699804,"10":0.06010601825296109,"11":-0.07713375877008533,"12":0.013237059513460284,"13":0.23214820049442872,"14":-0.038279557377308794,"15":0.16195123940230216,"16":0.007195822467104745,"17":0.10565230512316931,"18":-0.08170654594638627,"19":-0.16451429545639504,"20":-0.006127744612195808,"21":0.0076001073571498575,"22":-0.258905287404486,"23":-0.2965132984278279,"24":0.30224560776540943,"25":-0.18316980002375982,"26":-0.049263936415379656,"27":0.022348065021238303,"28":0.2150553634583887,"29":0.14290338962474106,"30":0.000043612549050895306,"31":-0.14883742316050708,"32":0.059939341257847056,"33":-0.2090920700095161,"34":0.1765215343175729,"35":0.030049557989831614,"36":0.024301918278234975,"37":-0.002937696702267222,"38":-0.13230383667767592,"39":-0.11376493619855117,"40":-0.07263780047683788,"41":0.022735836582458185,"42":0.08157250105096094,"43":-0.06516385738319314,"44":0.053872635823841906,"45":-0.02014590145732678,"46":0.040336850650665564,"47":-0.24566172784333468,"48":-0.07257379069758844,"49":-0.11554188968809982,"50":-0.048584575447921705,"51":0.023018933952755363,"52":0.22888825537103935,"53":-0.03308340498623845,"54":0.11165390186307404,"55":0.03219729272484406,"56":0.13020897569431628,"57":0.22255868253173272,"58":0.214337270486324,"59":0.05406361979930074,"60":-0.12112890696430959,"61":-0.12464548082848137,"62":0.10910682060715317,"63":0.1818765119178971,"64":-0.026287121327204233,"65":-0.02172737511016929,"66":0.01194903812500615,"67":-0.07693410516003438,"68":-0.08662381033068706,"69":-0.06413395896297817,"70":0.11575377111790328,"71":0.06977813664442648,"72":-0.06801705297787544,"73":0.21460644872778345,"74":0.06820645797498513}},{"sx":5,"sy":5,"depth":3,"w":{"0":0.20376964518708243,"1":0.1263792731985334,"2":0.1161350059848778,"3":-0.04767845629430803,"4":-0.04155157499723314,"5":0.19815290773015584,"6":0.08080068089295693,"7":-0.03109823088491485,"8":-0.22419701292570013,"9":-0.10161889405114388,"10":-0.09675939719411256,"11":0.14802820495828556,"12":0.15596537594121945,"13":-0.09574240356254035,"14":-0.1970556375881134,"15":-0.054385049140081285,"16":-0.07656617454354422,"17":-0.07769502401271722,"18":0.022775996665530575,"19":0.21663844251267605,"20":-0.08312717349186909,"21":0.04121610695226995,"22":-0.030116456338148252,"23":0.012967001100124612,"24":-0.06243124246270678,"25":0.03144750779171966,"26":0.049900332367073155,"27":0.07262942551931593,"28":0.0694204603086483,"29":-0.135178928368405,"30":-0.2383933232330053,"31":0.03344204231414825,"32":0.034645810692108356,"33":0.16486428668869385,"34":-0.1621240931254835,"35":0.08257708916139396,"36":0.04261165054835148,"37":-0.027823560951193312,"38":0.02101544840145235,"39":-0.19021749932057314,"40":0.1530438484322689,"41":0.23972580291001025,"42":0.09159460349300151,"43":0.006770226118797302,"44":0.01597215879264325,"45":0.013802270475464812,"46":0.1614251429694515,"47":-0.14796539008626539,"48":0.014655883736099535,"49":0.20214905052405624,"50":0.08884364951399264,"51":0.013946122102209637,"52":0.03930662925048535,"53":0.028926111470642522,"54":0.19666022708472283,"55":-0.21937511317591796,"56":0.06914139831812803,"57":-0.06869675825091823,"58":0.05702495474963992,"59":0.24790773164889332,"60":0.11520761875337854,"61":-0.030350221324846726,"62":-0.006720268576945053,"63":-0.20363374342696544,"64":-0.18094596074268798,"65":0.02863823309696179,"66":-0.038449657895412825,"67":-0.17430828856957503,"68":0.08551786876072015,"69":-0.11735077552264041,"70":-0.02985813620500217,"71":-0.2168836334676112,"72":0.14282395631909658,"73":-0.03621493128780425,"74":-0.2554870862751863}},{"sx":5,"sy":5,"depth":3,"w":{"0":-0.0917357229301941,"1":-0.08243428276157656,"2":0.040012568817105194,"3":0.0598769455099715,"4":-0.010704205951115793,"5":0.02228406067983401,"6":-0.09735029366899033,"7":-0.08533154187807218,"8":-0.07209646084407766,"9":0.006372358159687679,"10":-0.0466715250558295,"11":0.03530034953172595,"12":0.01721816742978942,"13":0.02798934731880989,"14":-0.15395130895244297,"15":-0.1391567614496532,"16":-0.02236923967328368,"17":0.09546610139149053,"18":0.14500767885489027,"19":-0.14562862882607924,"20":0.026578264666722605,"21":0.04554463035412127,"22":-0.013575990896953535,"23":-0.01747555582617461,"24":0.05318164446588565,"25":0.10897478458459199,"26":0.10564778422578062,"27":0.13485172314860322,"28":0.14711584746558914,"29":-0.16624845308201872,"30":-0.16459488985259427,"31":0.04383808600896298,"32":0.0009112814957785148,"33":0.07021491138678207,"34":-0.025388470704783013,"35":-0.09457878946198162,"36":-0.013657806287507722,"37":0.0025859919498660007,"38":0.013062907100962173,"39":-0.10749965836172326,"40":-0.0748321894003131,"41":0.05671827179406899,"42":-0.07110279431333338,"43":-0.04273196928451559,"44":0.06330543830807543,"45":0.1251099957762431,"46":0.17446703826057264,"47":-0.052394789605056905,"48":-0.00870887748926718,"49":-0.008042788005872489,"50":0.010248020260567679,"51":-0.05876610192977858,"52":-0.17542470179419145,"53":-0.06977624449796944,"54":-0.052149929728498474,"55":0.11090550354122423,"56":0.05653136878100431,"57":0.2705990520662924,"58":-0.17449606952684513,"59":-0.012577660482680329,"60":0.03149469899953651,"61":-0.06938231482428278,"62":0.008931586961331442,"63":0.023677355302271372,"64":-0.008562814082936956,"65":-0.22044182274713092,"66":0.15282943272666472,"67":-0.25271963048192003,"68":-0.09730138591225247,"69":0.07209819378436463,"70":0.15460082527900873,"71":0.020128993599114475,"72":0.10957182826878858,"73":0.04933003499293448,"74":0.08790612243838114}},{"sx":5,"sy":5,"depth":3,"w":{"0":-0.06643715827091612,"1":-0.09638853042253236,"2":0.18521573805556846,"3":0.21709580357935218,"4":-0.11977699410297293,"5":0.03213934025091174,"6":0.025802376684756715,"7":0.11217249735867589,"8":-0.16208210121499633,"9":-0.09837413646951187,"10":-0.15205405853822423,"11":0.07646715466484878,"12":0.08960423036103157,"13":0.180670630642531,"14":0.021693047877512316,"15":-0.01612467018923342,"16":0.21855994260578343,"17":0.03597030497732437,"18":0.008360754060038321,"19":0.09317618424463409,"20":0.12360591847565268,"21":-0.07525868973850662,"22":0.1501158123433887,"23":-0.09418562308950812,"24":-0.008771463154382004,"25":0.10134599413365457,"26":-0.1465466975701535,"27":0.04693666400405214,"28":-0.11569938685731276,"29":0.001411656969363896,"30":-0.007749602195590216,"31":-0.04348279704897148,"32":-0.02959455236695152,"33":-0.1473238865052576,"34":0.08195985482853542,"35":-0.04419320117081852,"36":-0.1657358047060732,"37":-0.08804122806929347,"38":-0.025804708788311596,"39":0.26907833357664956,"40":0.05890236009637273,"41":-0.028375105434647233,"42":0.03445301060002546,"43":-0.03002240061590536,"44":0.05795646601047029,"45":0.05727283685900642,"46":-0.059229926976054045,"47":0.008359112550268161,"48":0.046753531077258305,"49":0.006643323582443891,"50":-0.10208521672107232,"51":-0.05054600900778001,"52":-0.08354123836884533,"53":0.12156321317863365,"54":-0.009904085096999825,"55":0.26449796524271413,"56":-0.043163898887695326,"57":0.013490943013960869,"58":-0.006295871582122909,"59":-0.2050498800215492,"60":-0.06466272055593737,"61":-0.19503589323483475,"62":0.09297352807971367,"63":-0.06481172316731162,"64":0.04487221537091245,"65":-0.02288580291651414,"66":-0.0905407157152749,"67":-0.038851230719637746,"68":0.03329765007203336,"69":-0.21545718880225279,"70":0.16128882824978077,"71":-0.27764988152528286,"72":0.03914752813916967,"73":-0.11901470786415508,"74":-0.11689203156533026}},{"sx":5,"sy":5,"depth":3,"w":{"0":0.0012194124407681039,"1":-0.03893354426330408,"2":-0.18729271491626476,"3":-0.12953398152659712,"4":0.05930279283261497,"5":-0.06525465469314096,"6":0.20643232221531851,"7":0.04887421034734735,"8":-0.028088407205648935,"9":0.01990765333579571,"10":-0.22401231857550377,"11":0.022153423947518496,"12":0.025293997373272422,"13":-0.09656230013493385,"14":-0.08107356505429877,"15":0.12093151350396462,"16":0.010561299963748738,"17":0.017046352366244265,"18":-0.03891213431689066,"19":-0.07018629607226563,"20":0.1506399074041241,"21":0.09595170847276131,"22":-0.016257611195350075,"23":-0.041420257784695116,"24":0.08699805894688184,"25":0.10903115535952754,"26":-0.13749840669168173,"27":-0.03679856814529688,"28":0.06818671652559842,"29":0.060583554394395694,"30":-0.16530395943594145,"31":0.10602408812913253,"32":0.1090943431805891,"33":-0.312163727318032,"34":0.002675535828324879,"35":-0.1305251089185789,"36":0.0393306774172888,"37":-0.03540653420954811,"38":0.2702036218642291,"39":0.18331364414448179,"40":-0.13751602239816194,"41":0.014126311702154193,"42":0.02245624923789444,"43":0.12583197241095104,"44":-0.030920601051024038,"45":-0.18610466295057568,"46":-0.05029042840801384,"47":0.11260377027398309,"48":0.04047204446650556,"49":0.04704476196126426,"50":-0.1244533777884231,"51":0.022013379335485018,"52":0.0935426724973693,"53":-0.09202567822620543,"54":-0.030637193184888833,"55":-0.00522619264157053,"56":0.22351546741717648,"57":-0.018641442303791802,"58":-0.03315507464385066,"59":0.04062561164496364,"60":0.10848611503785532,"61":0.030923079896393087,"62":0.046749550362263095,"63":-0.0982027706211185,"64":0.1051931581229574,"65":0.06462275066901614,"66":-0.25711946042978767,"67":0.06833179297849663,"68":0.13580366907338057,"69":0.07602262604872764,"70":0.09775832519056574,"71":-0.011398459686123595,"72":-0.029572426370439216,"73":0.011694174660706557,"74":-0.024182657196628755}},{"sx":5,"sy":5,"depth":3,"w":{"0":-0.04524532357221977,"1":-0.17446572266678834,"2":-0.07183324033517252,"3":0.09029998588308677,"4":0.10914408663634577,"5":0.053917359937599836,"6":0.11320991284654491,"7":0.055542218087400445,"8":-0.006291489281883762,"9":0.014476121480905862,"10":0.24766938895155471,"11":0.06775592769315415,"12":0.018509607527041977,"13":-0.06376238449926372,"14":0.0069128452271535815,"15":-0.019752253589600966,"16":0.09453063375615457,"17":-0.040334571901164594,"18":0.017858008113635377,"19":0.08279953063047393,"20":0.0034501796558447035,"21":0.1375879050722748,"22":-0.04256825501613236,"23":0.1544486129850313,"24":-0.06138940910647688,"25":0.11612972007532096,"26":0.058476032261913426,"27":0.05328188118749903,"28":-0.1136769152437507,"29":0.24656058669152486,"30":0.3196622043213737,"31":0.018364975502490236,"32":-0.06672890526074501,"33":-0.042040400910231916,"34":0.07900604242490537,"35":0.0018309374192333814,"36":0.2474528750435761,"37":-0.015181468686602962,"38":-0.021833785624595443,"39":0.0558230982304244,"40":-0.011584044637643984,"41":-0.061225934358850834,"42":-0.32590762597409917,"43":-0.11908463382196795,"44":-0.11162986383571864,"45":0.03027718985234229,"46":0.047306429939789854,"47":-0.012110869959562625,"48":-0.04266473099433404,"49":-0.023827857301019096,"50":0.2694900096378967,"51":-0.01388247597129482,"52":0.14896193495802437,"53":0.1645975401928588,"54":0.06507562846929595,"55":0.0006436873687109298,"56":0.0022820123755182883,"57":-0.20406497251130315,"58":-0.15143647066737914,"59":0.027799002149170384,"60":0.09843269029567878,"61":-0.005876626844052092,"62":-0.27763176649510496,"63":0.03771824970728353,"64":-0.1891144445270144,"65":-0.20947093325896823,"66":-0.06062403823070579,"67":-0.07944322356707635,"68":0.05556310330141451,"69":-0.10157730745812084,"70":-0.09722834989466239,"71":0.009728184112729322,"72":0.036117318326166534,"73":-0.33360529331969463,"74":-0.06387667995824318}},{"sx":5,"sy":5,"depth":3,"w":{"0":0.019921848189881748,"1":-0.10742654031762187,"2":0.025898491493184125,"3":-0.13474937810890764,"4":0.18237500917572755,"5":-0.1168931264193991,"6":0.1964314057195001,"7":0.1916516124721777,"8":-0.2738531890405826,"9":0.08563120738609635,"10":-0.06160112221919189,"11":0.026626437454462668,"12":0.0800699761660274,"13":-0.2545633691554321,"14":-0.06640935032660415,"15":0.08603649977035523,"16":0.021408638367753717,"17":-0.08437945639683424,"18":0.101189818134722,"19":0.2118773762440922,"20":0.054922348826905804,"21":0.28410026814473577,"22":-0.015542964077626278,"23":-0.01246828167486281,"24":0.11360832438495065,"25":0.08846917012552155,"26":-0.0070224587645224415,"27":-0.11968185432754606,"28":-0.153132991434968,"29":-0.033931639824826554,"30":-0.01886229254928471,"31":0.2548957794308208,"32":-0.06575335407428994,"33":0.08229891590153676,"34":-0.12009243392753521,"35":0.1263554086900809,"36":-0.10970834359833313,"37":0.03455994214081059,"38":-0.008643546721823811,"39":0.07197257676114267,"40":-0.009840217487517547,"41":-0.04942903768039683,"42":-0.08838506627146163,"43":0.10628079861466079,"44":-0.13337158824919784,"45":-0.01550799648383107,"46":-0.11740046097723537,"47":-0.07596817218043506,"48":0.049940420395061316,"49":-0.24287681025522606,"50":0.1823549788884928,"51":0.035442530448685824,"52":0.07565233940258463,"53":-0.004111475402785268,"54":-0.03899703099077,"55":-0.16397010461653957,"56":0.03442623138135157,"57":0.013755193977347197,"58":-0.08472334328010786,"59":0.06521786876234688,"60":-0.0785453161908042,"61":-0.200119438913683,"62":-0.052003323121067556,"63":0.04914237131893191,"64":0.06067970561278495,"65":0.0013186062960067713,"66":0.14972662800707875,"67":0.23202740320840243,"68":-0.13777143995054159,"69":0.10223023631646552,"70":-0.11244195427406803,"71":-0.08343956361818275,"72":0.0065702408751900625,"73":-0.012381170777061619,"74":0.03164696209585897}},{"sx":5,"sy":5,"depth":3,"w":{"0":0.196613386066974,"1":0.0003960423170845592,"2":-0.04168032533342992,"3":-0.09728803347085681,"4":0.07957411638738106,"5":0.01765054845154328,"6":-0.05870511994129155,"7":0.2461334123875054,"8":-0.24226139107673872,"9":-0.06485295799685305,"10":-0.05021621262146894,"11":-0.18770430244299,"12":-0.11172187689926784,"13":0.1078213812442251,"14":0.052899003374474465,"15":0.18061408183043265,"16":-0.09078452029553365,"17":0.0201631266831318,"18":0.20629163354291746,"19":0.0009955018873455492,"20":-0.08143233063143869,"21":-0.03559979928623183,"22":0.04654326734211241,"23":0.03748810122624981,"24":-0.0785387242674841,"25":-0.11457184176061022,"26":-0.09986823668079829,"27":0.0015088759639703378,"28":-0.1078317943134867,"29":-0.1065091498925476,"30":0.006002765055807813,"31":0.10444443623687151,"32":-0.10715055242707952,"33":-0.02334320530994019,"34":0.10328355530226258,"35":-0.0665810397171893,"36":0.18237537879048785,"37":-0.05298444655057368,"38":-0.05582227839719548,"39":-0.17392324371261944,"40":-0.01997297521953314,"41":-0.016537958207934585,"42":0.12498979616680499,"43":-0.029608375211178234,"44":0.015845652351791237,"45":0.20189812391761697,"46":0.17116712798519065,"47":-0.03253229732170338,"48":0.06876958318327162,"49":0.07221474575709345,"50":0.09830602573012905,"51":0.1812413104551226,"52":0.13455778363869617,"53":0.19624050994489484,"54":-0.08815774783585252,"55":-0.10844338897360718,"56":0.124270963073403,"57":0.08333476589070948,"58":0.18989546094265108,"59":-0.16822879115862674,"60":0.036284070230557006,"61":0.0022836243025017573,"62":0.2792609757475369,"63":0.07945188109342165,"64":0.00679412619895494,"65":0.014035789050543781,"66":-0.014029809496714526,"67":0.005435151812428268,"68":-0.14179044761937684,"69":0.09088566669530869,"70":0.1839784671063806,"71":0.10282311747710768,"72":0.06537042338313269,"73":-0.12683095916155343,"74":-0.06283050642544598}},{"sx":5,"sy":5,"depth":3,"w":{"0":0.20201475613499437,"1":-0.03591448676387608,"2":-0.0285911827080281,"3":0.15762402240433937,"4":-0.014334313111199813,"5":-0.02317004601599017,"6":-0.029134831975475114,"7":0.08662128870028726,"8":0.1434127982554602,"9":0.1570375259164754,"10":-0.10474148661198852,"11":0.003619401089748746,"12":-0.029417671690438008,"13":-0.162705769457452,"14":0.07191515805700782,"15":0.0028619657664745463,"16":0.14982391049956598,"17":-0.04628975514950186,"18":0.09152063579378289,"19":0.041641267225009555,"20":-0.048971832468312784,"21":-0.08297961805046106,"22":0.06256861295563163,"23":0.03608594207504492,"24":-0.1634806164941597,"25":-0.12390902056376527,"26":-0.06768612401582867,"27":0.1300821412440174,"28":0.05211122921681847,"29":-0.08263535690724064,"30":0.06743674186033272,"31":-0.01677924647430845,"32":-0.0730767468418315,"33":0.25274716945025044,"34":-0.01178121680723286,"35":-0.032509517705227975,"36":0.34521039402472137,"37":0.22243729112802846,"38":-0.11484111236382157,"39":-0.11246658731560086,"40":-0.047971402444646045,"41":-0.11140538804794918,"42":0.04929636696800191,"43":-0.0940879557962835,"44":0.13480187037040525,"45":-0.03501027130193813,"46":-0.024328193626872757,"47":0.11962954247421474,"48":0.15358752511404544,"49":0.11610347879196561,"50":0.02287314818795112,"51":-0.08974749592886812,"52":-0.03211574318207837,"53":0.14896849500657627,"54":-0.04716791347649559,"55":0.044764075619805506,"56":-0.043836447255836374,"57":0.0005714618242897376,"58":-0.008766633077378941,"59":0.01989347407917355,"60":0.06565671246798715,"61":-0.029654194196656786,"62":0.0932940833979569,"63":-0.036440595156044,"64":-0.04996708458839967,"65":0.17464187405154558,"66":0.08045256888131748,"67":0.18457641529713875,"68":-0.03523937976771512,"69":0.2759269736269611,"70":-0.07038564128628275,"71":0.05924316211094336,"72":-0.10673701129470545,"73":0.20307570876054776,"74":0.20998635234859206}},{"sx":5,"sy":5,"depth":3,"w":{"0":-0.17189628318325265,"1":-0.17663010744670407,"2":-0.18429393410305894,"3":-0.2099840932861306,"4":0.01342645033353478,"5":0.07651731183776506,"6":0.028839186971117575,"7":-0.08775615464693379,"8":-0.1012449805504787,"9":0.08573705617987207,"10":-0.19648946562141895,"11":0.012033607752108976,"12":-0.05088269630364742,"13":-0.020921727826602485,"14":-0.14293648046229968,"15":0.01603893008245455,"16":-0.2762633152770903,"17":-0.04186839743566405,"18":-0.070586543491341,"19":-0.08117462425907729,"20":-0.14164963193295285,"21":0.25305415882311766,"22":0.08496965360000243,"23":-0.1772939234397775,"24":-0.1809024751480777,"25":-0.05124995468268367,"26":-0.08764656545657314,"27":-0.062478464745710754,"28":0.0952773602607905,"29":0.03217046469768057,"30":-0.09101423296587689,"31":-0.19297166141983813,"32":-0.12292529377111268,"33":-0.06518329555475756,"34":-0.021026201185885326,"35":-0.006744060830204432,"36":0.025419224632924137,"37":-0.27426052870632833,"38":-0.29062895895808055,"39":-0.05075097443771631,"40":-0.04194012384550906,"41":-0.005492071267104517,"42":-0.11803306494590676,"43":-0.02625677999458579,"44":-0.14032883230062096,"45":-0.15669795048448149,"46":0.06326598152210602,"47":-0.32527423678249895,"48":-0.03067045902604725,"49":-0.08780136023603291,"50":-0.20937918119439267,"51":-0.0315816417725001,"52":-0.1781704035262335,"53":-0.11218407119711658,"54":0.06047184362297529,"55":-0.022239242247277212,"56":0.04362333997314639,"57":0.052853311438749585,"58":0.10931833701480453,"59":0.0236723993263147,"60":0.19434165047738805,"61":-0.284777651085785,"62":0.01494106366670585,"63":-0.006408961842545805,"64":-0.07918526517890802,"65":0.06211611155112579,"66":-0.06901805548333505,"67":-0.08098571685017097,"68":0.0065054373639237524,"69":-0.23301472794362868,"70":0.07516190126763846,"71":-0.16479943244179265,"72":-0.23150894377094564,"73":0.0453809019890426,"74":-0.010007732079273603}},{"sx":5,"sy":5,"depth":3,"w":{"0":0.006897877140988408,"1":0.04670739153895196,"2":-0.09994740333924772,"3":-0.15482116907017554,"4":0.06841127417440789,"5":-0.06878487591501722,"6":-0.0363656625250401,"7":-0.0787917837127681,"8":-0.1814683547614729,"9":0.019409106054022848,"10":-0.01119167737807665,"11":-0.19155656008456243,"12":0.03918978534546898,"13":-0.18562019719925024,"14":0.20660142370764123,"15":0.17781831860074238,"16":-0.13772225304146463,"17":0.06814958330641994,"18":-0.05312073627410677,"19":-0.10565129967506744,"20":-0.12216621559044645,"21":0.05760716535733503,"22":-0.007985301653673454,"23":-0.12048556208248962,"24":-0.041355819940607434,"25":-0.12619795460470107,"26":0.0673366529998223,"27":-0.08885171807288667,"28":-0.09322444765257756,"29":-0.13612889297936057,"30":0.06528386120274135,"31":-0.05800547319964581,"32":-0.0633499499822608,"33":-0.05760131810278875,"34":0.049277796240076645,"35":-0.19050744321333946,"36":0.010569501650255901,"37":-0.055948987278038376,"38":-0.06391986074938662,"39":-0.13494776872633474,"40":-0.23454067220984068,"41":-0.0746328800486398,"42":0.2035508612030117,"43":0.06673319657752151,"44":0.052969439436334746,"45":-0.03655007221878667,"46":0.0595240090479173,"47":0.044791106016703976,"48":-0.08357666661122902,"49":-0.09950612429688327,"50":-0.2607284434529837,"51":-0.06809779433537066,"52":0.07427635464446228,"53":-0.08549700781332273,"54":0.10402407762101584,"55":-0.02277256978180301,"56":0.16805727348954175,"57":-0.06235949499684624,"58":-0.3248454143729303,"59":0.08643319182070949,"60":0.04197735148274638,"61":-0.02173446676551431,"62":0.18950895726751685,"63":0.005290052722820659,"64":0.10283940369210741,"65":-0.11544049274596649,"66":-0.016144937440021254,"67":0.07529505158995349,"68":-0.059709907738089735,"69":-0.06231501492241352,"70":0.026986660293966364,"71":-0.31558530276364705,"72":0.06186082030496182,"73":-0.21333720333210307,"74":-0.06980905495943157}},{"sx":5,"sy":5,"depth":3,"w":{"0":0.16314641881278402,"1":-0.24736117879394326,"2":0.07175205799912648,"3":-0.009088031930256398,"4":0.07842625512996147,"5":-0.1057989082875044,"6":-0.04355859321143968,"7":0.16333413775644892,"8":0.1427941008084486,"9":-0.010645672463379809,"10":-0.14664293863720065,"11":0.007801087912860413,"12":0.08419083806530878,"13":-0.329742707494525,"14":0.00010101213388026282,"15":-0.06967165608334527,"16":-0.030717561410570023,"17":0.03363878867600101,"18":-0.05953523522996941,"19":0.06491222221448428,"20":0.006064198732785201,"21":-0.20441836714395745,"22":-0.16015538950477914,"23":-0.2687575363310906,"24":0.020715839735571125,"25":-0.07905377821672392,"26":-0.17438958297067608,"27":-0.024374552270291828,"28":-0.028966491999904424,"29":-0.149175368580865,"30":-0.15876954954072933,"31":0.09098659063348773,"32":-0.1358603210355251,"33":0.042159894389424295,"34":0.1158931461091491,"35":-0.02210878255461801,"36":0.08667370566508331,"37":0.023809213121137082,"38":-0.06114566474220978,"39":0.012134563266321893,"40":0.020571576558442564,"41":-0.07478001384664557,"42":0.018138250045059003,"43":0.017328115584253418,"44":0.18646276643567136,"45":0.02553051756033585,"46":0.10532177107851556,"47":-0.03749297111713093,"48":0.041256311010480134,"49":-0.07409486953161679,"50":0.15291399302414124,"51":0.21323211889859758,"52":-0.058357936280150936,"53":-0.11080952355018875,"54":0.1823181663966611,"55":0.015621585545731523,"56":-0.03725110967272227,"57":0.10659606939655802,"58":-0.025126126197751786,"59":-0.22853010661921405,"60":-0.07201787405699045,"61":0.24183488407783724,"62":0.006137264133483316,"63":-0.053285826926574846,"64":-0.11802974382710484,"65":-0.09053320770654445,"66":0.25857347193123553,"67":0.04446412824073454,"68":0.02518872659895708,"69":0.04439805189922402,"70":0.011367627920903952,"71":0.21881755378097636,"72":0.20383930798364241,"73":0.1802639678335518,"74":0.08670972259851362}},{"sx":5,"sy":5,"depth":3,"w":{"0":-0.009758809506743078,"1":0.1706046205232987,"2":0.004513023232029527,"3":0.034117076380405786,"4":0.1389952313436599,"5":-0.22061498810270735,"6":0.10105232462934097,"7":-0.06788259037371931,"8":-0.043669540581602904,"9":-0.20201330269426765,"10":0.0018171799832533834,"11":0.024303075543249605,"12":-0.20060034245814234,"13":-0.2163942873240219,"14":0.015364681736282393,"15":-0.18008145487029603,"16":0.09817664490338271,"17":-0.15137947235966942,"18":0.040344833638135874,"19":0.13140807404574076,"20":-0.1361748372196511,"21":-0.15607857812785786,"22":0.10657922914417896,"23":-0.11433348234687485,"24":0.238451953085821,"25":0.1374249067102047,"26":0.195108989361596,"27":-0.12577336028643835,"28":0.10681882302347284,"29":0.04826202814114298,"30":-0.3001415039277197,"31":-0.1004356107497934,"32":0.04972632439722944,"33":0.05845556699464917,"34":-0.16393337566344376,"35":0.12780459968718622,"36":0.11987702247660978,"37":-0.09185789466966114,"38":0.05546812270525029,"39":-0.00675463003809368,"40":0.2391733296722558,"41":0.040392550350936626,"42":-0.0994726460574092,"43":-0.08109478906378619,"44":0.03711921846491146,"45":-0.03372719591607645,"46":-0.04216713873578175,"47":0.01607114984332642,"48":-0.22859388197853892,"49":0.06735646335729711,"50":0.19250209506527743,"51":0.11630945237296567,"52":0.2161880801581607,"53":-0.07939430339187328,"54":0.01684824856372931,"55":-0.00046366839172961926,"56":0.12078798405705675,"57":0.11176864335189461,"58":0.0660387477468295,"59":-0.13316053720305215,"60":0.025296641246629985,"61":0.14447498147746454,"62":0.06991284307718831,"63":0.05662129224518023,"64":0.04465442017931255,"65":-0.026513367121315964,"66":-0.11437929916753392,"67":-0.033830873529002076,"68":-0.0222931635193037,"69":0.043060789116189165,"70":-0.11477348706752984,"71":0.1260639639236296,"72":0.012356395658945168,"73":0.03566157139941203,"74":-0.02944927230930168}},{"sx":5,"sy":5,"depth":3,"w":{"0":-0.07234299680834048,"1":0.09603744426311439,"2":-0.01820120521434438,"3":0.17814237856148274,"4":-0.11532804981959172,"5":-0.0032657464882878138,"6":0.03877416089013602,"7":0.057072318206175726,"8":-0.01174046429074707,"9":0.13856265074349666,"10":-0.049004885242385214,"11":0.06509688764804901,"12":0.03484625447677856,"13":-0.049522451665650134,"14":-0.038045397504963926,"15":0.18677347718007944,"16":-0.0060480694675056675,"17":-0.09528742293072126,"18":-0.08157150425805637,"19":-0.15850302221329396,"20":0.1265108812340376,"21":-0.004015390142273502,"22":-0.21346203221281176,"23":-0.15680661896224143,"24":0.10346700985541991,"25":-0.13490308125291692,"26":0.15691740660023898,"27":0.12052369638253584,"28":-0.22118169252354705,"29":-0.0311494921329778,"30":-0.039824663948024024,"31":0.0030215681912284234,"32":0.14668956459152202,"33":0.014756239223613013,"34":0.017896677019037927,"35":-0.18224864975784,"36":-0.0771632713123118,"37":-0.013460882242863638,"38":0.1354070648370448,"39":0.10752770511815551,"40":0.038720171851295726,"41":0.011043374474055722,"42":0.11291398961469308,"43":0.07091755538295938,"44":-0.206281487708637,"45":-0.13385506883026363,"46":-0.09464626649398085,"47":0.12255994594168856,"48":0.09097853730420981,"49":-0.11861314602490938,"50":0.15121678327219648,"51":0.002535134445338898,"52":0.03745898563498894,"53":0.047377837812248455,"54":0.06616080084204215,"55":0.1730140028243248,"56":0.13215501119122913,"57":-0.10450049397421926,"58":-0.11123393780775863,"59":-0.0611218407598915,"60":0.023381030354694816,"61":0.035308520513167935,"62":0.07794127527008904,"63":-0.134969380506666,"64":0.02404792405870289,"65":-0.15878755292561617,"66":-0.035934217795140326,"67":0.12747931606567767,"68":-0.036707493322459435,"69":-0.02129603844498315,"70":0.1330794579673452,"71":0.13545057922891302,"72":0.1289917930601391,"73":-0.24964406187915003,"74":0.1283396880245366}},{"sx":5,"sy":5,"depth":3,"w":{"0":-0.007362463816190951,"1":0.05834284703264833,"2":-0.236358657266832,"3":-0.12507043693787753,"4":-0.20428378626549287,"5":-0.17073179472580952,"6":-0.057419531162071984,"7":-0.04286084233563191,"8":-0.015797886173814966,"9":-0.11116232006482726,"10":-0.10836599907218732,"11":-0.12834375736943116,"12":-0.2354010483032421,"13":-0.0671252217152788,"14":-0.16356363877716137,"15":-0.04685232745235633,"16":0.14935275791485372,"17":0.06097658551845711,"18":0.008290840440433348,"19":-0.039013465216994885,"20":0.04477170509650493,"21":0.12264330112584412,"22":-0.011655762184197836,"23":-0.023126296024948177,"24":-0.22681748660828094,"25":0.04748643691156484,"26":-0.14440971926581866,"27":0.13211579701522033,"28":-0.13421317231271757,"29":-0.08477984619912161,"30":-0.010833400914739727,"31":-0.04034523570824386,"32":-0.07398542960173107,"33":0.011218252753197567,"34":0.039729257966058536,"35":0.10691234988465348,"36":0.04293178161205829,"37":-0.006244504178500146,"38":0.1788678484191249,"39":0.12001710996533206,"40":-0.01695431150726717,"41":-0.05893766959078159,"42":0.047132327917386606,"43":-0.03287251558791801,"44":-0.12761774792803607,"45":-0.019123750340368412,"46":0.020266033197206216,"47":0.040231261677545586,"48":0.05808021167895622,"49":0.01827507437066174,"50":-0.09145732484702002,"51":0.028636245745143073,"52":-0.008420336699888889,"53":0.09384343282545202,"54":0.07618968159306537,"55":0.09014293657157664,"56":0.08473767314578694,"57":-0.0360009531328987,"58":0.09229453128104596,"59":-0.08655334873670098,"60":0.15086560358857345,"61":0.23903473861857574,"62":0.11839443060755213,"63":0.12192739963150734,"64":0.13442095970728515,"65":-0.011184453657837524,"66":0.08482310921429519,"67":0.14833872410804952,"68":0.21783498714911909,"69":-0.018403008592040918,"70":0.14717648250036663,"71":0.03847181276583919,"72":-0.11075946781493813,"73":0.14089512509448432,"74":-0.06092923167968289}},{"sx":5,"sy":5,"depth":3,"w":{"0":0.07779236223044596,"1":0.19600983320560045,"2":-0.049648066571766486,"3":0.03751328810034093,"4":0.007763022340304971,"5":0.05993648293641415,"6":-0.0026264255308732247,"7":0.007254663370980722,"8":0.08528379650692207,"9":-0.11820469114934669,"10":-0.062385501082497755,"11":-0.008646858235782044,"12":0.04684317365213537,"13":-0.13289798470338646,"14":0.021039024905278897,"15":0.005926289978588544,"16":0.13178495080366795,"17":-0.024208709519520512,"18":0.09399868931005345,"19":-0.11124146964388647,"20":0.057029615617052366,"21":-0.033839103824872416,"22":-0.061118185845480386,"23":0.39008981673219734,"24":0.14645495919028426,"25":0.14227954203282145,"26":0.016368703916912673,"27":0.0895447759701642,"28":-0.23766549273676213,"29":0.1037942545885585,"30":0.14904826481512412,"31":0.07753987905501751,"32":-0.09228247475714217,"33":0.08314508780119573,"34":0.18723777439020886,"35":-0.12679505583171646,"36":-0.04595028864502988,"37":0.020094249835353607,"38":-0.0468715734630218,"39":0.14540418637739716,"40":-0.18651129822792673,"41":0.046539573986582115,"42":0.006864484298619139,"43":-0.16736801390881928,"44":0.09721275474950321,"45":-0.025969177851512187,"46":0.020522204509142043,"47":-0.049483930389499164,"48":0.07747560554073346,"49":-0.13863703282243037,"50":0.153499517897856,"51":0.18803054936119423,"52":0.11827017858478146,"53":0.12051019867259521,"54":0.02937066220035198,"55":-0.024092360982404644,"56":-0.03794126381870563,"57":0.06199104279200304,"58":0.043164584327384584,"59":-0.04097390730707189,"60":0.061739615807242534,"61":0.09520956073104095,"62":0.0033583844604711754,"63":0.06094889359557803,"64":0.15127157676528621,"65":0.09030703658951394,"66":-0.11128607070642069,"67":0.21428964033940667,"68":0.2065373225524735,"69":0.29006276818591564,"70":-0.06092603344167236,"71":-0.04309634702475463,"72":0.01867764652695752,"73":-0.11810511859837546,"74":0.08905684389969792}},{"sx":5,"sy":5,"depth":3,"w":{"0":0.09768638537763152,"1":-0.12337435664572118,"2":-0.2518882193870676,"3":0.004146082124017557,"4":0.2169058410706031,"5":-0.07985492884932628,"6":-0.035433442028113424,"7":0.15011314325379144,"8":-0.0995464420848742,"9":-0.02756275088088701,"10":0.24518796903757778,"11":0.09683747284554456,"12":0.06589597435427276,"13":-0.09749100153881185,"14":-0.0020365390581454893,"15":0.13719786147945204,"16":0.10366948653729031,"17":0.055542978900223874,"18":0.2514873925037821,"19":0.055063608683903115,"20":-0.02352919694038162,"21":0.013146558695240887,"22":0.16538246724142755,"23":-0.012779108092743024,"24":-0.15162639696695895,"25":0.20211383046042897,"26":0.03580083511013627,"27":-0.043768692674927265,"28":0.024526759883198274,"29":0.03086655574301014,"30":-0.12453903056589549,"31":-0.1458276851208938,"32":0.02813915253161534,"33":-0.1863855105102068,"34":-0.12429826564285089,"35":0.03972586189272739,"36":0.022342901934265143,"37":0.02747467152471258,"38":-0.06416297256516244,"39":-0.07400484165938702,"40":-0.21339287430978376,"41":0.10342769480467637,"42":0.06773467336851181,"43":0.0675769854692618,"44":0.13292377595215388,"45":0.05522212509440209,"46":0.040575551751644165,"47":-0.12103228118186696,"48":-0.014679924383976464,"49":-0.09844609815743875,"50":-0.1414395655250509,"51":-0.15482039457489677,"52":-0.07062089008905499,"53":-0.2650982102815732,"54":0.033240229125886145,"55":-0.2420857954140734,"56":0.06839490985233261,"57":-0.011760798275862534,"58":-0.008905271320131906,"59":-0.022813558734727946,"60":-0.027780591673230996,"61":0.10556548543763326,"62":0.049825685118966845,"63":-0.09499439370852161,"64":-0.012335076772738294,"65":-0.1855069662683105,"66":-0.022362556652289797,"67":-0.18677805069686418,"68":0.1009807213708964,"69":-0.2840131941075279,"70":0.33159830253926326,"71":0.11295961186180548,"72":0.002075064910717443,"73":0.01085249875351141,"74":-0.07091879783769205}},{"sx":5,"sy":5,"depth":3,"w":{"0":0.024135875099233907,"1":-0.05434948386174061,"2":-0.001960684503060656,"3":-0.048479394999360804,"4":0.06370759403691115,"5":0.051474975467248295,"6":0.13207563158626703,"7":-0.08779650508486207,"8":0.051121446314920896,"9":-0.047841316303843584,"10":0.06311253994754609,"11":-0.18239821897049968,"12":0.06413183806891293,"13":-0.07772255186590286,"14":-0.044258515121459514,"15":0.25232170291951306,"16":0.009911233660684459,"17":-0.12683115567044959,"18":-0.08364272358777736,"19":-0.06125198347362571,"20":-0.05029933570823982,"21":0.05097885834812619,"22":-0.019260244644558378,"23":0.1757158519228108,"24":-0.11428323004886685,"25":-0.16813178056128517,"26":0.08550388849405112,"27":-0.11001335918175785,"28":-0.0934197508971938,"29":-0.2892627019652439,"30":-0.1329634798746487,"31":-0.021412763785663015,"32":0.14243324004769997,"33":0.1888333855476003,"34":0.2600525578779479,"35":-0.22984242823483605,"36":0.06854444723754821,"37":-0.022431490021359683,"38":-0.0578722192827417,"39":-0.025119904577884298,"40":-0.01707956264443334,"41":0.08882150204773813,"42":0.043946570646811435,"43":0.006253508691142484,"44":0.16346887479416308,"45":0.051388921712893804,"46":0.165782118552071,"47":-0.12363916785836537,"48":0.09129071021696857,"49":0.1847270866798833,"50":-0.03888378917229549,"51":0.12969837301218234,"52":-0.10003387960471827,"53":-0.014108745839671257,"54":0.004649132218355584,"55":0.00901166675856154,"56":0.13297072819429268,"57":0.09995074997225908,"58":0.11026364598433319,"59":0.041564852931964234,"60":-0.07259246889006696,"61":0.026708020111453918,"62":-0.09070601925037022,"63":-0.021595124056626096,"64":-0.034993615987667905,"65":-0.12393882757529888,"66":0.06202744360159025,"67":0.17624777699271782,"68":0.021072063688512617,"69":0.25232067515639145,"70":-0.21225717693954516,"71":-0.14323819345337194,"72":-0.054355630292349626,"73":-0.2981388900047199,"74":0.15311539838060081}},{"sx":5,"sy":5,"depth":3,"w":{"0":0.10647824743894672,"1":-0.08060313065586021,"2":-0.01597390378896659,"3":0.003834012312831699,"4":-0.1753291794750667,"5":-0.18655310076664813,"6":-0.04780936245283963,"7":-0.03200715984603884,"8":-0.017754711115207957,"9":-0.015375160129647694,"10":0.10514898639947959,"11":-0.10200467749399034,"12":-0.0817864356458415,"13":0.037786170480990824,"14":-0.2806938475625327,"15":0.14108955177865357,"16":-0.09733031378567486,"17":-0.2383523824517123,"18":0.028075657262257726,"19":0.1035351830662596,"20":-0.015601296651499246,"21":-0.14502070339350823,"22":0.000956040444552861,"23":-0.30043317284120635,"24":-0.005982856586717433,"25":-0.1301828378421284,"26":0.06241812746533772,"27":-0.10802118361314225,"28":0.037885579561420295,"29":0.04714515217804345,"30":-0.025318777658270276,"31":-0.17313892531358197,"32":-0.12611652072168647,"33":0.06012195045586788,"34":-0.29766645029427524,"35":-0.2206012995011991,"36":-0.2093339430966065,"37":0.001957762809872218,"38":-0.20208383456476434,"39":0.05929396734243197,"40":-0.02279166026617506,"41":0.08832823212992229,"42":-0.08178928014169586,"43":-0.08746153487444282,"44":0.08142531923724253,"45":-0.15943443987363726,"46":-0.0908331679957814,"47":-0.12360652761878962,"48":-0.05828612260640289,"49":-0.1286839390526504,"50":0.12928779715208064,"51":-0.15802931551917132,"52":-0.12156533162417577,"53":-0.0719568421598241,"54":-0.26351869490714,"55":-0.10605621901662633,"56":0.11283251869200271,"57":0.01338633525863526,"58":-0.009980976093450323,"59":-0.10768178575568844,"60":0.10631396750996952,"61":0.10140342427356376,"62":-0.109902297185105,"63":-0.22566382221402287,"64":0.06288186332367149,"65":-0.1691745136414397,"66":-0.12035305091072512,"67":-0.021104630403211932,"68":0.03217068684540972,"69":0.02560068257452605,"70":0.061242952463912384,"71":0.04158252124655238,"72":0.059676105706979815,"73":-0.15000999060736644,"74":-0.025124602548944164}},{"sx":5,"sy":5,"depth":3,"w":{"0":0.02735325090550177,"1":0.33047817645108796,"2":-0.0632968250046824,"3":-0.11803409358949334,"4":0.10896337451046341,"5":0.22272859928940356,"6":-0.09555741500992322,"7":0.2881575857243698,"8":0.08575814294153129,"9":0.11832812910044933,"10":0.14536629104462653,"11":-0.0933043972907033,"12":0.07847969286448446,"13":0.07245474655448107,"14":-0.00017985103594660496,"15":-0.01765316496394935,"16":-0.035974492851943714,"17":0.04229724774855013,"18":-0.09291045851538529,"19":-0.09044680576717623,"20":0.030441951678399262,"21":-0.0959728883255871,"22":-0.12845069148817312,"23":-0.10285111946115401,"24":0.026146113720174783,"25":-0.06614563435553601,"26":0.23355426556113967,"27":0.18156137965165253,"28":0.1274318611035346,"29":0.10017313339683803,"30":0.04324124763360067,"31":0.24983123900924445,"32":0.08753504473095904,"33":0.2291782410375505,"34":-0.03042454816582817,"35":-0.14710219724517093,"36":0.04109437207164916,"37":-0.18141728514185537,"38":-0.0722314197426945,"39":0.1739210384572333,"40":-0.0983099886061493,"41":0.011496151727382033,"42":-0.010678809536416931,"43":-0.07489780991736117,"44":0.3299926568352299,"45":0.10034186790832617,"46":-0.024111587167712015,"47":0.004928573729802901,"48":-0.2888137565551942,"49":0.016475805645636867,"50":-0.348490945365219,"51":-0.16869061552123985,"52":-0.11354815359252739,"53":0.045057384752206484,"54":-0.005978495193713876,"55":0.16197760812803216,"56":-0.11119403211396374,"57":-0.05191659837688712,"58":-0.04476641961304489,"59":-0.09164322441987004,"60":0.13001904978575088,"61":-0.005750301495267393,"62":0.18363737326212437,"63":-0.16245164821716018,"64":-0.1586709487448855,"65":-0.1891862440026994,"66":0.27261892452073566,"67":-0.026603608705298643,"68":0.035419315485426955,"69":-0.0880991559921019,"70":-0.19614623568286885,"71":-0.22459460483002253,"72":0.19704008083092933,"73":0.0074448876057528444,"74":-0.21314976503128602}},{"sx":5,"sy":5,"depth":3,"w":{"0":-0.09925498224815009,"1":0.17958628233244786,"2":0.1323425917820414,"3":0.16271874235722547,"4":0.17390609649586664,"5":0.12440135359553657,"6":0.11257205079496632,"7":0.05874102074821311,"8":0.08944432173423564,"9":-0.09228272338353928,"10":-0.07902808476121338,"11":-0.2059557786949549,"12":-0.02622329411579339,"13":0.037185640234319424,"14":-0.22916224672057786,"15":0.04143484668891406,"16":-0.05833594966254925,"17":-0.08156531556255447,"18":-0.0367063415191851,"19":0.15216612249240152,"20":-0.03262635149350149,"21":-0.10962647403871284,"22":-0.04014580820443522,"23":-0.2552263498437919,"24":0.2994979191965707,"25":-0.01874144430584676,"26":0.07032278192668022,"27":-0.0749645628187233,"28":0.008338158958549806,"29":0.09543986655030647,"30":0.15099642492818274,"31":-0.3096899948911397,"32":-0.27484789301789214,"33":-0.15146274833004056,"34":-0.10014691427350038,"35":0.025670615427503533,"36":-0.11082865331563667,"37":0.060437285020201605,"38":-0.1718420153157132,"39":-0.005384702527398233,"40":-0.05895710370106712,"41":-0.09669326894943082,"42":0.14881452400394726,"43":0.11350254190519561,"44":0.07459761265340586,"45":0.09020597154583343,"46":-0.054093245396933144,"47":0.10357870500052274,"48":-0.11047210345811201,"49":0.03472874135142415,"50":-0.05869413180302616,"51":0.021791860640034574,"52":-0.024574608485012896,"53":-0.11609874912296926,"54":0.018384242753323024,"55":-0.04429526381349262,"56":0.043358541301066776,"57":0.19582191406841581,"58":0.27502792065984355,"59":0.2882064473685905,"60":-0.07513462375248432,"61":-0.28050460905576885,"62":-0.07375792662439917,"63":-0.15447341455260835,"64":0.19772374183471048,"65":-0.024647182313432707,"66":-0.019573463615290065,"67":0.05249259611613115,"68":-0.187348649984576,"69":0.07540053030373163,"70":0.0766723552952407,"71":0.04792189293274609,"72":-0.0344568861311658,"73":0.043518709964000084,"74":0.04188699801532908}},{"sx":5,"sy":5,"depth":3,"w":{"0":0.05767434643292773,"1":-0.03947319242842757,"2":-0.09210420647647938,"3":0.14401353492132227,"4":-0.10971023053281291,"5":0.029652903741143325,"6":0.037961299264848425,"7":-0.13624867530854537,"8":0.08727033615838627,"9":-0.09218793415650135,"10":-0.02091486412858295,"11":0.057823710274895294,"12":0.16676178243966863,"13":-0.18933055792587222,"14":0.021227932877770538,"15":-0.14262145168534712,"16":0.020419233681102607,"17":0.14173656088476017,"18":-0.06585316031093057,"19":-0.10073800492359136,"20":0.11074397729086792,"21":-0.12288443476397588,"22":0.025792240593606654,"23":-0.07669786123948298,"24":-0.182919906615392,"25":-0.14586631809303152,"26":-0.1430506893464042,"27":0.030302045822015296,"28":-0.1841143892800986,"29":-0.06585030956839072,"30":-0.00437486787477258,"31":-0.06159346541140301,"32":-0.12688546355238015,"33":-0.037937216520332655,"34":0.00010192779417730385,"35":0.04153596072871407,"36":-0.22373697019350783,"37":-0.12593912032586269,"38":-0.08982162307971822,"39":0.007724460113631899,"40":0.017625845276725317,"41":0.05094261143164662,"42":0.09991444954178062,"43":0.08892475257079258,"44":-0.19618242521412008,"45":0.12087024436222349,"46":-0.04741849441767659,"47":-0.16565820662211536,"48":-0.1138995097577586,"49":-0.1772867263779433,"50":-0.026277614689849783,"51":-0.19647272007888408,"52":-0.014267874981332064,"53":0.06423554227074585,"54":-0.03189385849937764,"55":-0.1432775581325177,"56":-0.015543259869519472,"57":-0.15391627544244416,"58":0.04540951607704429,"59":0.1225471089219475,"60":0.08903041972460009,"61":-0.40021054761921365,"62":0.06300316165701181,"63":-0.004328288229469052,"64":-0.1178178826282708,"65":0.10304203986054891,"66":-0.02832156868412504,"67":0.011571147952767227,"68":0.04953665008671634,"69":-0.2219084994897868,"70":0.08512750196841024,"71":-0.09984364191304289,"72":0.12711897434407024,"73":-0.050886765319757145,"74":0.13032673293408228}},{"sx":5,"sy":5,"depth":3,"w":{"0":0.04056756710894396,"1":-0.06695970954690098,"2":-0.10889355930498955,"3":-0.10967074760967906,"4":-0.004307234642319974,"5":0.07119193064713238,"6":0.21061002796944314,"7":-0.01608075668092989,"8":-0.11557375702470236,"9":0.2466968950972828,"10":-0.06556028711609452,"11":0.00687501668313621,"12":-0.02020685621892133,"13":-0.13134239944157564,"14":-0.04466189944654587,"15":0.14293997211516432,"16":-0.23139955811284596,"17":-0.16526279591822185,"18":-0.14713845164236491,"19":-0.047016170378564384,"20":0.10718612255840691,"21":-0.03360925253129178,"22":0.01553284483013839,"23":0.19246049919006322,"24":0.006326881326231183,"25":0.1260227951855093,"26":0.12906628023488717,"27":-0.13483708401762956,"28":0.1350797833031726,"29":0.061586347657064645,"30":-0.13380965451584456,"31":0.029866682867922156,"32":-0.1865648348689836,"33":0.09168425938767481,"34":0.04539945807002099,"35":-0.18619297451275565,"36":-0.0810137086228989,"37":0.14638575231656906,"38":0.055114976808108146,"39":-0.045001417389290095,"40":-0.0671703630398993,"41":-0.25431667405911235,"42":-0.04121797996393772,"43":0.06510224977653786,"44":0.07873342522641442,"45":0.10870779204948021,"46":0.01202272037851046,"47":-0.10045564377619629,"48":0.06735815394480243,"49":0.04603520331450179,"50":0.15112456415365444,"51":0.15768920168165174,"52":-0.18071029222480975,"53":-0.013816301832630377,"54":-0.05520626178933369,"55":-0.06534402494007815,"56":-0.12736616858391986,"57":-0.030451695121246104,"58":0.08359347877229141,"59":-0.01822689943920458,"60":0.05826124776896366,"61":0.14871287423337431,"62":-0.09612938591562611,"63":0.09529027704821466,"64":0.16818303713077892,"65":0.16340767674664267,"66":0.016771450115114037,"67":-0.05910102104781614,"68":0.1429666180267506,"69":0.042968808058717285,"70":0.07772371278496372,"71":0.013334137108859289,"72":-0.0760602346496323,"73":-0.09278148470579127,"74":0.0750579398613725}}],"biases":{"sx":1,"sy":1,"depth":32,"w":{"0":0.16284822691697456,"1":0.09647380734646452,"2":0.09939370649787833,"3":0.08334099497023288,"4":0.07248736840171294,"5":0.13105445354638215,"6":0.08866502192803559,"7":0.08399176619159458,"8":0.09928377552165342,"9":0.09581704149914863,"10":0.1051676544180451,"11":0.07402534978212141,"12":0.09044074729172889,"13":0.1195255555025564,"14":0.08042698144503645,"15":0.11264659771674969,"16":0.12146181676502565,"17":0.11954603861255356,"18":0.09380012241375495,"19":0.08166384231761045,"20":0.10214027716584442,"21":0.11960859233394304,"22":0.11518165984975265,"23":0.11574466359550196,"24":0.12067286049285157,"25":0.08691240356711902,"26":0.11187876263532018,"27":0.07432643933941846,"28":0.0827647928456818,"29":0.0834467621339839,"30":0.09963155451114211,"31":0.09533273393591235}}},{"out_depth":32,"out_sx":64,"out_sy":64,"layer_type":"relu"},{"sx":2,"sy":2,"stride":2,"in_depth":32,"out_depth":32,"out_sx":32,"out_sy":32,"layer_type":"pool","pad":0},{"sx":5,"sy":5,"stride":1,"in_depth":32,"out_depth":40,"out_sx":32,"out_sy":32,"layer_type":"conv","l1_decay_mul":0,"l2_decay_mul":1,"pad":2,"filters":[{"sx":5,"sy":5,"depth":32,"w":{"0":0.006001032886816437,"1":0.04984649281047477,"2":-0.024665258656543274,"3":0.04375495513300601,"4":-0.011818232125761526,"5":0.05089027085001598,"6":0.022248097824656473,"7":0.00687428063250289,"8":0.04344970897252279,"9":0.08256008303249328,"10":-0.02852818851118181,"11":0.017419234936719832,"12":-0.012782062530768587,"13":-0.02756818556296825,"14":0.006034759211895325,"15":-0.017225102720729663,"16":-0.05317286989506043,"17":-0.032726629679086953,"18":0.02343639456475931,"19":0.0021015782031936145,"20":-0.05854761664415791,"21":0.004378486692327878,"22":-0.0035681950166542276,"23":0.04028689859564617,"24":0.045472005455887296,"25":0.013385787738427586,"26":-0.015797049871662767,"27":0.013628868598063863,"28":-0.020690395668817557,"29":-0.0026690356446880375,"30":0.05702792631839077,"31":-0.013551374045949357,"32":0.08791190376455033,"33":-0.012303413465631133,"34":-0.08310962222079094,"35":0.00643774498940854,"36":0.0008448020238662916,"37":-0.027858442333425874,"38":-0.03166930582351222,"39":0.0009098032569373811,"40":0.0115494558187974,"41":-0.028608873280676097,"42":0.0031096114143911303,"43":0.021538479097665767,"44":-0.029169353026841153,"45":0.013963650075727356,"46":-0.033892923418775714,"47":-0.06254523856463727,"48":-0.017979847960119116,"49":0.061337452113795835,"50":0.0027738575417428114,"51":0.024104744837695268,"52":-0.040054823747802226,"53":-0.013314981640989921,"54":-0.09591689899179198,"55":-0.01189231627548929,"56":0.06984174583623064,"57":0.02808144137627262,"58":-0.05591786651750836,"59":0.03692835892847391,"60":-0.0006232283793761598,"61":0.0007040561533368915,"62":0.004223314255237559,"63":0.0355579063021875,"64":0.024209952692309574,"65":-0.02836685837253307,"66":-0.03384118454770521,"67":0.007358146356370102,"68":0.002614983320591282,"69":0.0915739357762018,"70":0.02014073053063172,"71":0.008971755409461372,"72":0.01884264550497222,"73":-0.07058242479240574,"74":0.0079369826775658,"75":0.036214416036312695,"76":0.03002214940941504,"77":0.010516908105722568,"78":-0.044255866421269156,"79":-0.018348441706604834,"80":0.056917892953502525,"81":0.022385264403549758,"82":0.04937071339100465,"83":-0.0046148901719208464,"84":-0.018037641190410146,"85":0.040914938815740945,"86":-0.07341972344136005,"87":-0.0005745306510388645,"88":0.004526773001070868,"89":0.014780647046135409,"90":-0.0635387801158854,"91":-0.03763274319130991,"92":-0.07575382613523388,"93":-0.011503064754220324,"94":0.04529619241639091,"95":-0.03829646619422102,"96":0.0004541877636995649,"97":0.01343869606001042,"98":0.022259945796009418,"99":0.04540798860860049,"100":-0.05180726683651276,"101":0.05859761160162588,"102":0.0623219599588361,"103":0.0013315924546533477,"104":0.07245878927603738,"105":0.005215502367695936,"106":-0.040584087405714744,"107":0.032719169438432484,"108":0.015234522039164176,"109":-0.03663745333529779,"110":-0.05582961879116466,"111":0.01574588888752089,"112":0.0365185621681948,"113":-0.02198491357474746,"114":0.02426712328646867,"115":0.052805059546035274,"116":0.014827476444741345,"117":-0.02820611837642949,"118":0.030811223290762642,"119":0.048606814530886194,"120":0.0410334333026639,"121":0.04749167882572178,"122":0.02702149031854183,"123":0.0006052647509601043,"124":-0.024114582729943997,"125":-0.029549984362618614,"126":0.021359752010347073,"127":-0.012128366282755357,"128":-0.012653540004519213,"129":0.061054515732493354,"130":-0.01856060287254779,"131":-0.011960366278058635,"132":0.024691818934955357,"133":-0.06017274032043247,"134":0.02566507332469581,"135":-0.038677965041655535,"136":0.043460524252554734,"137":0.010825935497585018,"138":-0.013630802833520552,"139":0.02591486237428957,"140":-0.02769463341912332,"141":0.034341921012568014,"142":-0.024379504516277208,"143":0.0008234624986573414,"144":0.06743990760468148,"145":-0.05069444475725793,"146":0.056984863528948784,"147":0.01728554205791533,"148":-0.03535513252622017,"149":-0.04086274064393584,"150":0.05096119172074529,"151":0.10708129709096556,"152":0.009165531491052882,"153":0.017787010987377186,"154":-0.030375035890063653,"155":-0.0683330890642107,"156":-0.02154413140768386,"157":0.02958832503196914,"158":0.07236001983033336,"159":0.022303347559026295,"160":-0.023309279250481645,"161":0.0165184527646171,"162":0.02894127777781688,"163":0.003008283756806093,"164":-0.02257534138249197,"165":0.039494000615373295,"166":0.026944130106463023,"167":-0.011262904754192548,"168":0.026059607896122397,"169":-0.038495556204567974,"170":0.013793733579244837,"171":-0.008795731180074248,"172":0.006744536625333447,"173":-0.012929838579036082,"174":-0.013178945907931169,"175":0.008529383630543655,"176":-0.0243610209666091,"177":0.014594979378097887,"178":0.03638997419087883,"179":-0.026761303888870793,"180":-0.04659827851140982,"181":-0.04323636665963648,"182":0.0389732883596234,"183":0.011725990500333294,"184":0.055989494513473945,"185":-0.08006611732004887,"186":-0.013316379942390114,"187":0.028283866954946876,"188":0.0278927991975335,"189":-0.038543775746324574,"190":0.02427113475386164,"191":-0.007220206393645226,"192":-0.020991879512110987,"193":-0.03776285353020924,"194":-0.005298330486976503,"195":0.0017587047180228107,"196":0.06558721193565334,"197":-0.08052698873062347,"198":0.015991402211200337,"199":0.034227735446818223,"200":-0.03231446432431996,"201":-0.02564239430194724,"202":-0.011665305146948642,"203":-0.003319919348802142,"204":0.03974622136462437,"205":0.00858999209385645,"206":0.02201000590750054,"207":-0.0043422840862496525,"208":0.019106138479247553,"209":-0.009787586982282735,"210":0.03873418093068882,"211":0.07251832361367136,"212":0.029017394336661707,"213":-0.05505583176628273,"214":-0.09917295238296589,"215":0.03072745604382197,"216":0.04053821645049039,"217":0.0036452872860096848,"218":0.026462305560441428,"219":0.008560445152107313,"220":-0.002151352987980417,"221":0.023432479581094824,"222":0.024139293078633644,"223":-0.05054557456860076,"224":0.05616680037020792,"225":-0.02856273815049722,"226":0.05862854771767189,"227":-0.025846986847210564,"228":0.06592784523239699,"229":-0.03343726390622172,"230":-0.022432843101983457,"231":0.010652147391454926,"232":-0.04529232580309154,"233":0.05574282668375257,"234":-0.03888946539190978,"235":0.028234702640382036,"236":0.03935913397651597,"237":-0.03263238590636518,"238":-0.024367624810742203,"239":-0.01856487125838176,"240":0.01631672571000942,"241":-0.009254896716558124,"242":0.03619857471365936,"243":0.005246473360989434,"244":-0.03304388919497695,"245":-0.06126680238220767,"246":-0.045739507812644804,"247":-0.05052861119285733,"248":0.03611503099106253,"249":-0.03887891478528102,"250":-0.00041318971789455636,"251":0.0037064996997211476,"252":-0.03375612127399286,"253":-0.026654614126920828,"254":0.02187808204485844,"255":-0.00024172359864953904,"256":0.019391702285516378,"257":0.06731003247204355,"258":-0.00690824639406934,"259":-0.019952090610684446,"260":0.0029597318273936915,"261":-0.028697742848100515,"262":0.009569740947105984,"263":-0.030277193208928445,"264":0.04485234222353623,"265":-0.024075194619342988,"266":-0.02700838650638207,"267":0.030289085338771556,"268":-0.05268717666407213,"269":-0.009377752627243377,"270":0.008108477918114197,"271":-0.04984203072725116,"272":0.017754770010732925,"273":-0.008235382099233678,"274":0.020036827097433697,"275":-0.06391114443641722,"276":-0.046202515984887026,"277":0.0023806937052378505,"278":0.02413206288775144,"279":-0.03698586555939099,"280":0.014587077763301363,"281":0.06993015669355128,"282":-0.024194047305394772,"283":-0.02476593964874034,"284":-0.04232011230008832,"285":0.04201999782723621,"286":0.007062591882977754,"287":0.03057729562076926,"288":-0.040100896984782676,"289":0.05150322615043364,"290":0.059192818630496136,"291":0.016853090917647712,"292":0.04875593121436266,"293":0.009042095009639957,"294":0.03971265664119971,"295":0.0011657106121357181,"296":0.030171675352116355,"297":0.05155029294015174,"298":-0.0442027663711503,"299":-0.0026773593068054233,"300":0.03182082621098406,"301":0.03629215367733404,"302":-0.02743435289670482,"303":-0.03281943976936624,"304":0.007735909706347119,"305":0.023457541904649628,"306":0.022030783869791168,"307":-0.025557355604523307,"308":-0.0563985629715868,"309":0.0031162210680617873,"310":0.007164384833231143,"311":0.0067053672580473615,"312":0.01626904308897835,"313":0.041538199955066586,"314":-0.04519528678191407,"315":0.13135020729143335,"316":0.02180432660409182,"317":-0.03389419543645757,"318":-0.03759467341118975,"319":-0.07427591549449437,"320":-0.04449248690737484,"321":0.02908043664050256,"322":0.0200219018014077,"323":0.042971151644945714,"324":0.004412650319716542,"325":-0.01606785516990455,"326":0.021494031717427996,"327":0.02244481178924925,"328":0.014369041039613579,"329":0.010689379518200932,"330":-0.01580603214115406,"331":0.017820919528966837,"332":-0.01760710174974736,"333":0.04163067874083043,"334":-0.041264514973891143,"335":0.016347813520896363,"336":0.07096653721145957,"337":-0.0182006667754427,"338":0.050668111589011924,"339":0.021837077356293203,"340":-0.022806400788926432,"341":-0.03681750249438935,"342":0.00934450228936468,"343":0.059531453763692614,"344":-0.041506644316209824,"345":0.008202017789510765,"346":-0.06405794986927832,"347":0.045589413755443085,"348":0.014513874869025454,"349":0.06915105415246273,"350":-0.028604153975215683,"351":-0.004144852724759598,"352":-0.026054845715951947,"353":0.055093123774409766,"354":-0.0719706900965629,"355":0.046078973728448144,"356":0.025186214694271715,"357":-0.0023207903529178474,"358":0.0007977135698130687,"359":-0.010729235045398706,"360":-0.05779786598865067,"361":-0.06286964761387202,"362":-0.011760542629096022,"363":-0.04108628899382444,"364":0.007634312691211463,"365":-0.011862535335530456,"366":-0.023084851305132176,"367":-0.0769902029425094,"368":0.004802689998835145,"369":0.023730838728083046,"370":0.03794491021707879,"371":0.056658599836130766,"372":-0.03235060034886069,"373":-0.00947220722782044,"374":0.031151271170061553,"375":-0.012611514943191687,"376":0.049361143729682956,"377":-0.026318476525057713,"378":-0.08231710502170897,"379":0.03199649830406688,"380":0.018462831938091024,"381":0.016976427806039387,"382":0.02991249860666447,"383":0.05083325305362084,"384":-0.02522532232387753,"385":-0.00011933848729890654,"386":0.0350019639641797,"387":0.04168120837255563,"388":0.07504798141263622,"389":-0.05218253921178092,"390":0.03391103455661952,"391":-0.0175617938731271,"392":-0.006270828795772137,"393":-0.02170760404724763,"394":-0.04698163832111133,"395":-0.0010289332253148704,"396":0.02442856939227084,"397":-0.03976320270349339,"398":-0.05568347093029907,"399":-0.05264611097700609,"400":-0.03347355651454538,"401":0.04242907785949006,"402":0.055696206444091734,"403":0.015720609426650985,"404":-0.03953142950120338,"405":-0.03166459556437647,"406":-0.02720484596280664,"407":-0.059813088373613196,"408":0.040017006734701155,"409":0.03907376936101106,"410":0.014561713296162907,"411":-0.002606093251719804,"412":-0.0371236255229688,"413":0.04258511281883392,"414":0.08893758516148403,"415":0.018711805375889522,"416":-0.05265796633630206,"417":-0.08114389920365102,"418":0.030829782305403865,"419":0.02287050078386822,"420":0.0050869881727086275,"421":0.03000036978215993,"422":0.028230820071018195,"423":0.004837265957438269,"424":0.05057771668811536,"425":-0.01884535567198516,"426":-0.002457951257488863,"427":0.0011216119464149683,"428":0.020972407296052605,"429":0.004418911608046266,"430":-0.03990629518886456,"431":0.05926112460823983,"432":0.015934986082847335,"433":-0.03082535190388717,"434":0.04785402075475788,"435":0.039224608986058104,"436":-0.03888041363851812,"437":-0.05285417354081919,"438":-0.10305683459807163,"439":0.00661656463558344,"440":0.005398699799618038,"441":-0.00994103850103498,"442":0.02952501357477598,"443":-0.0030554933545428836,"444":-0.04740067678939967,"445":-0.031882211431106505,"446":-0.00616245298238839,"447":0.032422065018156504,"448":0.0104378128791642,"449":-0.004376204865874494,"450":0.012224177696949782,"451":0.07122069531337755,"452":0.0025411674462490165,"453":0.004969660858570064,"454":-0.05225878897549392,"455":0.04133368845455417,"456":0.016835565366303647,"457":0.026364479766260697,"458":-0.06987677042174174,"459":-0.057897699834614694,"460":-0.0422192419759485,"461":0.11336299561095856,"462":-0.041303359463444315,"463":0.07553240615613818,"464":0.010164874991554619,"465":0.006068693923883333,"466":0.024452521325053055,"467":0.03481820069005401,"468":0.030876223469284113,"469":-0.02546771183215265,"470":0.01362590302515992,"471":0.0033489574006323832,"472":0.005001771651988439,"473":0.04920169377479421,"474":0.017766189427968215,"475":0.058336012521244145,"476":-0.05266348909459356,"477":-0.020258709614540116,"478":-0.011144390180788314,"479":-0.054112512188305956,"480":-0.033019991406171435,"481":-0.006457992720978785,"482":0.030339274639693076,"483":0.028821807020019647,"484":-0.007482665475851409,"485":0.03888989448533313,"486":0.03540830169435436,"487":0.014526243205830723,"488":0.018651742566051097,"489":-0.001990725065603783,"490":-0.08479283419361851,"491":0.004525875940533069,"492":0.035150730665564046,"493":-0.03861887448538364,"494":-0.05685295474099998,"495":0.02879726690213772,"496":0.014234117378615418,"497":0.09081366421607175,"498":0.010723756090289787,"499":0.0397835825727916,"500":-0.020334249480635953,"501":-0.014723584449776164,"502":0.0035715025077247744,"503":-0.01979766635490368,"504":0.014741928640454583,"505":-0.020700150110787026,"506":-0.04748920714657304,"507":0.031082330347559417,"508":-0.024180338186146268,"509":0.03187634397170611,"510":0.05540695510572613,"511":-0.05256374831896084,"512":-0.03842744436451279,"513":-0.006838483961872656,"514":0.018884121142222047,"515":-0.03379739918335473,"516":0.0010265439101931053,"517":-0.008191617928286894,"518":-0.00587462182624832,"519":0.05667926567091611,"520":0.02260119158310282,"521":0.062033810457395026,"522":-0.04103199129363838,"523":0.011216677699879623,"524":0.010652309260979665,"525":0.008080416313990207,"526":-0.03993750041565079,"527":-0.06364976977023568,"528":0.0029670429018396156,"529":-0.06283344433761864,"530":0.0605413704249826,"531":0.05702206888556339,"532":0.07651903379071272,"533":-0.01848020722055316,"534":-0.08831865267986416,"535":0.00016342569554903623,"536":-0.036635504036339646,"537":-0.03123809376917419,"538":-0.028096337184528808,"539":-0.0015239971540892906,"540":0.0093639537958933,"541":0.043803734891511764,"542":-0.019532817210390605,"543":-0.04958649706559637,"544":0.0013686055887465953,"545":0.005514980661248227,"546":-0.007808917495641716,"547":0.05498127323613274,"548":0.00982095953089717,"549":0.005733896614907846,"550":0.09361691267501611,"551":-0.03879461821172478,"552":0.03789802728841585,"553":0.00020341672151829603,"554":-0.12395429173688571,"555":-0.0015037588527611132,"556":-0.06488277631838292,"557":-0.011332823439612281,"558":-0.04482154854997243,"559":-0.011447155653045963,"560":0.003716973242908321,"561":0.004387165604540823,"562":0.023902788984667165,"563":0.05658019332486378,"564":-0.07108273478765756,"565":-0.03999050851356727,"566":-0.0778587615199656,"567":-0.028449178687964472,"568":-0.007861550507445745,"569":-0.022485484646564004,"570":-0.035115652843699316,"571":0.009785173690491972,"572":-0.003335557038829295,"573":-0.04573758099127962,"574":-0.0045653627672278185,"575":-0.07273239683007987,"576":-0.04879578454795877,"577":0.015590829477235292,"578":-0.09323572937169765,"579":0.02335507724463152,"580":0.015824302175175022,"581":-0.0061126783687392525,"582":-0.07498382887207948,"583":0.059062731611898,"584":-0.009928842430071132,"585":-0.06405964325782329,"586":-0.08950135872655975,"587":0.024659048140462124,"588":-0.004130385066360117,"589":-0.014886167636219725,"590":-0.057864180952719536,"591":-0.027155538868476534,"592":0.029023365090724194,"593":-0.06634652854058276,"594":0.037551637509720806,"595":-0.042743016075911,"596":-0.03929489397685267,"597":-0.003643237176396902,"598":0.004919623105188101,"599":-0.06461506745297012,"600":-0.03420561178126325,"601":0.020665273878142123,"602":-0.06721904738100098,"603":0.05051625474980386,"604":0.006654664608468114,"605":0.017540298247327373,"606":-0.002093749142260093,"607":-0.03770904154263013,"608":-0.0025367677145633986,"609":-0.027600748839656918,"610":0.08498639301562325,"611":0.05201084121305846,"612":0.034750083672214556,"613":0.0006143342122539393,"614":0.036917289301718344,"615":0.025081610519767608,"616":-0.03176452009198304,"617":-0.0034398606280532044,"618":0.04282726028592657,"619":-0.048686227094016765,"620":-0.02124475443044128,"621":-0.03191303964808586,"622":-0.01556879292272447,"623":0.030556934638135597,"624":0.012850051632533251,"625":-0.03202045806626947,"626":0.043064259843606574,"627":0.06672649767470752,"628":0.02031449674677324,"629":0.05726060068724619,"630":-0.016178564588989836,"631":-0.020446513268584644,"632":-0.03957126995187827,"633":0.015725622917499838,"634":-0.022945934440406372,"635":0.021955912801090376,"636":0.027948305620062935,"637":0.012928825311428629,"638":-0.024790196248357,"639":-0.026134677052072834,"640":-0.016378510533290775,"641":0.008997443363491902,"642":-0.01724125783287679,"643":0.031088554033762532,"644":-0.04144782044071151,"645":-0.0562171013772768,"646":0.03947062083372454,"647":0.016161098435601453,"648":0.03566111312293489,"649":-0.07262881678234834,"650":-0.027485991578200225,"651":-0.019941088564343703,"652":0.07097393216644947,"653":-0.032368894171960726,"654":-0.008412584585539729,"655":-0.0658010474029548,"656":0.03830896631286989,"657":-0.03980802059149305,"658":0.04221640592096413,"659":0.05547670193954394,"660":-0.04210603878148449,"661":-0.00645233860626147,"662":-0.04922938299451659,"663":0.0011743714616168684,"664":0.0010865516922607212,"665":0.04148230988102328,"666":-0.03397231117027651,"667":0.017139607392826984,"668":-0.041319434530349364,"669":-0.08047004286866649,"670":-0.0037104148239909982,"671":-0.057681755006571064,"672":-0.016634576347047108,"673":0.018278655460915484,"674":0.11354888655314271,"675":0.06079066741626016,"676":-0.052823042547790466,"677":-0.05669660868534359,"678":0.03647027437658437,"679":0.02251898986490824,"680":0.019365639429595648,"681":-0.06718270019293503,"682":0.0036746701096690834,"683":-0.0013958470236958883,"684":-0.02783069429215427,"685":-0.04414007842132639,"686":0.022471368639765222,"687":-0.01641344470344342,"688":0.04425406688733363,"689":0.06570914348422106,"690":-0.016418643018654942,"691":0.0526098309863971,"692":0.04227914036676312,"693":-0.06694933069370533,"694":-0.017627248819906433,"695":-0.04086786509450761,"696":-0.004918791533505473,"697":-0.016334966829272345,"698":0.015856740639353897,"699":0.0023236746512464964,"700":-0.01660892535012314,"701":-0.015929404170419693,"702":0.04852262122015153,"703":-0.015918489445478207,"704":-0.04321323032867322,"705":0.010477995474651917,"706":-0.036904321959158395,"707":0.1077877257395292,"708":0.08147756980813162,"709":0.01301819881051401,"710":0.06183781992502484,"711":-0.020177033423146216,"712":-0.01959534720473181,"713":-0.01929079092642095,"714":-0.0643262253167652,"715":0.06207883281393791,"716":0.013245726564435716,"717":0.028788980801444514,"718":0.014719389204333872,"719":0.010834649246055393,"720":-0.024067886704650928,"721":0.025417444591830155,"722":0.020008623803188276,"723":0.00650926734370077,"724":-0.0310364787820614,"725":-0.027516461335912717,"726":-0.0382284791827628,"727":-0.0887450007516234,"728":0.02781325328922774,"729":-0.021271320951714853,"730":-0.005617157530617383,"731":-0.009670055852845647,"732":-0.016353290225316397,"733":-0.023066370638800057,"734":0.022468557584046662,"735":-0.013931413872742389,"736":-0.0019518216356611026,"737":0.023387772003860097,"738":-0.028000562532660957,"739":-0.029830348415380025,"740":-0.003980155046472523,"741":0.04940162242069214,"742":0.005274277183554697,"743":0.06470610128293132,"744":-0.012131021228817637,"745":-0.03154749066386088,"746":-0.02596641578219804,"747":0.051306706799265044,"748":-0.011949717319713232,"749":-0.011227440257893751,"750":-0.05504914836275723,"751":-0.058873910781108395,"752":0.04787776114245875,"753":0.041123367251568434,"754":0.013196933360453507,"755":-0.02968979331248166,"756":-0.07831116684416768,"757":0.0307027865750561,"758":0.017440138097113433,"759":0.10460617930305599,"760":-0.005035102988488675,"761":-0.009527630789560884,"762":-0.060735866846680184,"763":-0.007790054680478015,"764":0.015975282641775432,"765":0.010521761053513145,"766":0.04995428036942155,"767":-0.022865368121506004,"768":-0.020434257004219587,"769":0.0057177756462093695,"770":0.06801988300097472,"771":0.009792829708059786,"772":0.04191962212344404,"773":0.03672098067359236,"774":-0.007230754572879238,"775":-0.04294695329205803,"776":-0.025809046056299034,"777":-0.020830442451505823,"778":-0.11482457004554115,"779":-0.014910731600064906,"780":0.06783668470435465,"781":-0.004264132635671279,"782":-0.013865662700794503,"783":-0.044304169464806135,"784":0.02245781610331368,"785":-0.019932091285145385,"786":0.06233689589930909,"787":-0.023369634618104627,"788":0.0036680622684757106,"789":0.039295632857148696,"790":-0.017535305367705305,"791":-0.05183024347639657,"792":-0.044470000891465654,"793":-0.06065394474142018,"794":-0.026712496421153423,"795":0.0006071781051074914,"796":-0.019544975770905092,"797":-0.03530430780098197,"798":0.020987880623884125,"799":-0.04759974831918817}},{"sx":5,"sy":5,"depth":32,"w":{"0":0.010398610220515683,"1":-0.016601191828706674,"2":0.07233913399671549,"3":0.023054386280709296,"4":0.021235690486224482,"5":-0.011023204500082137,"6":0.03926783043844771,"7":-0.011470572270930832,"8":-0.017327888080688397,"9":-0.005826976797743838,"10":0.035250590484767294,"11":0.046871171368544705,"12":0.006473982404325602,"13":0.05149872516953328,"14":-0.0670517541948894,"15":0.06865824549683697,"16":-0.03813463484815916,"17":-0.07439722367179642,"18":-0.034939617050385736,"19":-0.09319203011990561,"20":0.0035985392958471575,"21":0.04752040780544074,"22":0.052542434997000245,"23":0.0066109286844726264,"24":0.06310359624727711,"25":-0.02751198215372664,"26":-0.038000650663971965,"27":-0.10144275117016767,"28":-0.02513441039312079,"29":0.025584305018400498,"30":0.0065437431855246446,"31":-0.028597633992337296,"32":-0.03643815567341219,"33":-0.01560611806928106,"34":-0.025669848509546775,"35":-0.06445863037325772,"36":0.015187251422296731,"37":0.061382948206301836,"38":-0.010636104131183243,"39":-0.0038520861807125324,"40":-0.04699303156242876,"41":-0.0195226439797851,"42":0.008702370238697243,"43":0.012130657385934157,"44":0.010797475799385723,"45":0.015894040871678245,"46":0.04502464263444914,"47":-0.04268414125780367,"48":-0.032164480399509594,"49":-0.03670610665471986,"50":-0.01604271699194239,"51":0.0270792623792506,"52":-0.0036400265805438268,"53":-0.016905046966586384,"54":-0.01462257336784348,"55":-0.016468473903676745,"56":-0.009131973441811507,"57":-0.05158808628808306,"58":-0.016758647923076006,"59":-0.04836105671438861,"60":0.0037233397068851693,"61":-0.041861114367560404,"62":-0.024306504457797445,"63":0.03472217873557136,"64":-0.01427716018649314,"65":-0.009853641674498268,"66":-0.06170432938764294,"67":-0.00541650641181228,"68":-0.0593223615389358,"69":0.008245474292259997,"70":0.007934155079496881,"71":0.021493878257620686,"72":-0.005376808845704474,"73":-0.009450429475660703,"74":0.029554678404694317,"75":0.00980613641903908,"76":-0.033570671672162045,"77":-0.1141781031729779,"78":-0.02055213918191889,"79":-0.05594068022088141,"80":-0.02981955101922213,"81":-0.0028243395286840444,"82":0.03740825023568367,"83":-0.12305674650065053,"84":0.012627062225510995,"85":0.02829436005969543,"86":0.02552333630065705,"87":-0.06389008609571373,"88":-0.0323681557694026,"89":0.003361212294919667,"90":-0.020945472528911283,"91":-0.019772508702693453,"92":0.01622704855701882,"93":-0.002341969748778942,"94":-0.026610245182131304,"95":-0.005059247186135056,"96":0.04785900207282485,"97":0.033927999177898724,"98":0.05411853508686388,"99":0.06188400557762975,"100":0.004596615654524074,"101":0.031113007069571798,"102":-0.041195548168144684,"103":-0.025714288153182278,"104":0.02493205754704121,"105":0.042612162383811575,"106":0.027084188080751786,"107":0.02511297603836376,"108":0.01774668903820359,"109":-0.0055877459830525255,"110":0.04892800982922741,"111":0.004631566482198639,"112":-0.015977752496621093,"113":0.04615314652471363,"114":0.031089590466351773,"115":0.0014419040087413372,"116":-0.004971556235771519,"117":0.029301260580953285,"118":0.029394459010531625,"119":0.02383774830458714,"120":0.0030859501162533495,"121":0.055035395409174945,"122":0.0003530093493282763,"123":-0.009596085747902878,"124":0.024434546080571017,"125":-0.03267246365618085,"126":-0.025228735878236676,"127":0.00632030617157014,"128":0.013944767276863602,"129":0.019861161663248313,"130":-0.04089988989418562,"131":-0.030057021332727144,"132":-0.017770805827206096,"133":-0.02758313190105789,"134":-0.04913699099257815,"135":-0.012515137530317867,"136":0.05679188168880731,"137":-0.005072021927612045,"138":-0.00371544344102185,"139":0.019529949876345452,"140":-0.012246944119919546,"141":-0.03702200033924468,"142":-0.05333052055522063,"143":0.040401814299978925,"144":-0.014289916171558035,"145":-0.0455220573736251,"146":0.051782600198662314,"147":0.022970458414065746,"148":-0.016378942712413653,"149":-0.07060342697518396,"150":-0.0192693116514147,"151":0.0479226389234323,"152":-0.023226644206250244,"153":0.02777713949559105,"154":0.023631978012870543,"155":-0.010772586814515085,"156":-0.048705321291153666,"157":-0.040407346722667145,"158":0.06082408480063871,"159":0.035047626343156245,"160":0.02697470564429751,"161":-0.02205911854086901,"162":0.010655551903766403,"163":0.050999042272100246,"164":0.0298968121179853,"165":0.007515247050295941,"166":-0.007893121707858537,"167":0.014193023075244759,"168":-0.011227623181359059,"169":0.000043128007116870384,"170":0.02198141325230124,"171":-0.012284723967264818,"172":0.007786847761386416,"173":-0.03594905807385506,"174":-0.027276081479531283,"175":-0.07206957187476888,"176":0.03357536083932181,"177":0.07018219185646349,"178":0.0067807008490289485,"179":0.04651215544278636,"180":0.01755942858030295,"181":-0.046337740247885,"182":-0.03585368825061553,"183":-0.032644639153575496,"184":0.0008422251498131381,"185":-0.00781394455272696,"186":0.029363170568827493,"187":0.025348233848747043,"188":-0.05433121340778799,"189":0.012453421683651171,"190":-0.0017263784868467118,"191":-0.011608336820363703,"192":-0.004188067572767236,"193":0.02933147986048632,"194":-0.007643407392096649,"195":-0.041296031398341676,"196":-0.04544619155660063,"197":0.0016884850291671255,"198":-0.011325713208808695,"199":-0.06940668068956211,"200":-0.018739984542772283,"201":0.01086708598577015,"202":-0.014924759468226696,"203":0.04702971590479336,"204":0.03300675043159787,"205":0.00950094644894706,"206":0.029558247350898507,"207":-0.008597321085777892,"208":-0.0371211734243678,"209":-0.04489760666495787,"210":0.015790118517648617,"211":-0.05078566012345555,"212":0.003580953672197608,"213":0.013519935662152174,"214":0.044634758561260056,"215":-0.020150437061694323,"216":0.04137248947568184,"217":-0.01766084901238896,"218":-0.03705467199556722,"219":-0.06678039134115417,"220":-0.05203915435138953,"221":0.004532196517346946,"222":0.05025280616644214,"223":-0.013272344722789478,"224":-0.05448782354678174,"225":-0.027259962620232718,"226":0.024012015526446346,"227":-0.03409541364601607,"228":0.0008283355771781329,"229":-0.004463881887943079,"230":-0.0611104520358418,"231":0.025513801867598194,"232":0.04249151265467144,"233":0.036966159612182185,"234":0.03299923784850568,"235":0.050088732474387804,"236":0.02996148020808805,"237":-0.046955528866460275,"238":0.0413620567586094,"239":0.03243405010335459,"240":-0.004331122653422269,"241":0.03543335245693284,"242":-0.01588552508084073,"243":0.02685357572178482,"244":-0.0154461253672678,"245":-0.06171890710824627,"246":-0.04057809964566954,"247":-0.010862138620131537,"248":0.0063765703507429475,"249":0.062430230597059155,"250":-0.05590701030544788,"251":-0.09343082083755845,"252":0.004898214165733007,"253":-0.014014969578319141,"254":0.029842205197826335,"255":0.026445929998871014,"256":-0.047625578174684755,"257":-0.03384793474292251,"258":0.07850592169649771,"259":0.001681474666208584,"260":0.00366504613337478,"261":0.01764422160439264,"262":-0.034126625136841955,"263":0.01899143057578682,"264":0.00891689826423827,"265":0.01685842685376702,"266":0.06370304992075934,"267":-0.01992243326075865,"268":-0.003682883369133513,"269":0.01645084242594597,"270":-0.009092248656602308,"271":0.014095403475423459,"272":0.003368562017251225,"273":-0.0632040766383137,"274":-0.021721968074350145,"275":0.06280820476662198,"276":-0.033152702774863915,"277":0.026846705580196892,"278":0.0389853773072033,"279":-0.0241308580575975,"280":0.004800481994680624,"281":0.04700825097925267,"282":-0.0015277935441665512,"283":-0.03238970054254886,"284":-0.00019149260668532728,"285":-0.0019122907165148102,"286":-0.01701274814372187,"287":-0.021446568437734483,"288":0.0117356805108653,"289":0.01451352650648724,"290":-0.0019426489771373324,"291":-0.01793541046344907,"292":0.03608497357429957,"293":0.04005684184967941,"294":-0.012669093171782003,"295":-0.007218207317862471,"296":0.0019060280787268579,"297":0.04754252298346512,"298":-0.004718710596996411,"299":0.02493962575688028,"300":-0.016162804472449197,"301":0.08105942763237999,"302":0.010260115058310895,"303":-0.020629949518651367,"304":-0.011249515439279531,"305":0.025825343127612446,"306":0.04034447624526809,"307":0.05146059038547434,"308":-0.06487664381927934,"309":0.06229318823079636,"310":0.019943731124624536,"311":-0.0001159397324978035,"312":-0.041987954079113314,"313":-0.004909514430005097,"314":0.040211082588480475,"315":0.07640173159784636,"316":-0.010230200012619617,"317":0.05412154265900507,"318":-0.032057924190161034,"319":-0.04487876278312516,"320":0.026397557103814008,"321":0.013826415810194578,"322":-0.025666693390322678,"323":0.019222711983667977,"324":0.07458808425208946,"325":-0.0069324588814085025,"326":0.03802243096781127,"327":0.011597238827160499,"328":0.03702137162382972,"329":-0.01308293648112501,"330":-0.011668532919121545,"331":-0.014804566087681449,"332":0.05014130737632158,"333":-0.04982558139119501,"334":-0.04426897715686669,"335":-0.0010006417062296685,"336":-0.037601620743368175,"337":-0.02770642100115913,"338":0.011999913776381693,"339":-0.005949204629949698,"340":-0.05227332214170514,"341":0.004925834078377703,"342":-0.019761046480337545,"343":-0.04061215602890775,"344":0.07049556458456803,"345":0.025530092635601253,"346":0.02882861411027484,"347":-0.03205776932914615,"348":0.02686172169943854,"349":-0.04135500988547575,"350":-0.0786920026409283,"351":0.04060725301087375,"352":0.10141701590871972,"353":-0.053873041137477026,"354":-0.01285126195096546,"355":0.0359560318231397,"356":-0.02322308077202096,"357":-0.002890865612783121,"358":-0.06800724246587646,"359":0.02053342910671532,"360":-0.020909745609778835,"361":0.005261504568635069,"362":-0.01062137897716817,"363":-0.011201522549705521,"364":-0.04198612398437167,"365":0.05102705341507425,"366":-0.0373217082979653,"367":-0.02713115503546641,"368":-0.016738621144087924,"369":-0.024807792527780804,"370":0.031548262505092274,"371":-0.026968565703607388,"372":0.014322940938228373,"373":-0.04476444692870406,"374":-0.021305394597975896,"375":0.026838926056816648,"376":-0.039609879171577995,"377":0.04484363715404499,"378":-0.009271106229427494,"379":-0.03288320664287207,"380":0.040496346276413145,"381":0.021565069298249036,"382":-0.042015437888984146,"383":-0.05371598984967623,"384":-0.038126191997136585,"385":-0.020346430658801887,"386":0.0028807618582215437,"387":-0.04508611554784483,"388":0.054300602982471705,"389":0.01123674511506318,"390":-0.002105675425281554,"391":-0.03813664005061212,"392":-0.03571116073641347,"393":0.0060784214355491676,"394":-0.003966484002923031,"395":-0.06545028093415212,"396":-0.01239527300433078,"397":-0.033549148304239385,"398":-0.009722239411519179,"399":-0.042728556007641895,"400":0.03570001726190475,"401":0.0063180323646696195,"402":0.046394047253663764,"403":0.028350089927570436,"404":0.03321727504255004,"405":-0.00464842613496308,"406":0.03601237333854558,"407":-0.012724205785806868,"408":-0.005737062186911312,"409":-0.0229690640137588,"410":-0.005993121405403981,"411":0.010074259883178022,"412":0.012610738422173378,"413":-0.0063487101017655825,"414":-0.027178016651760954,"415":0.001582668235043969,"416":0.0024405978431020817,"417":-0.00599981103100717,"418":-0.013270459337657138,"419":0.014845914846797693,"420":-0.06038257752408068,"421":0.026992380165599513,"422":-0.017882943561317782,"423":-0.05123791946536692,"424":-0.0012998158396411831,"425":-0.010934958421088489,"426":-0.00030905546259022944,"427":0.07748093517060232,"428":-0.00034967597906374997,"429":-0.010976393516308653,"430":-0.01465101592601143,"431":-0.030558279136903222,"432":0.039926609076666605,"433":-0.02895564711759003,"434":0.013808222745224932,"435":-0.0011153486876335327,"436":0.06594357110483767,"437":0.044252218983641935,"438":-0.0671150273326652,"439":-0.016047985988942796,"440":-0.04693130625251623,"441":0.03720890933379776,"442":-0.05691158449019158,"443":0.07502518774532489,"444":0.05757023604287303,"445":-0.0002751862556854535,"446":-0.010389630221285922,"447":-0.012403509528833777,"448":0.037922786798449105,"449":-0.05413318258366882,"450":0.03649042532876273,"451":-0.03248412869069189,"452":0.012850630798632249,"453":-0.03490451658336542,"454":-0.0020690127974217183,"455":-0.03366695822175768,"456":-0.029615354937007576,"457":-0.0433175711121135,"458":-0.020387126069097507,"459":-0.040948048381119366,"460":0.0074785700188690265,"461":0.02320458319614434,"462":0.0427309824329766,"463":0.02313016950494951,"464":-0.01740651678777902,"465":0.02022982289667689,"466":0.03468353442699175,"467":-0.00708107691509473,"468":0.0016930159203185355,"469":-0.04975494772549999,"470":-0.08581635918763707,"471":0.04220265081537439,"472":-0.03954530213619428,"473":0.030023032246274645,"474":-0.019315788859635242,"475":0.034398769710319854,"476":0.026784019018000173,"477":0.009953864788397604,"478":0.04656023942739604,"479":0.0027118551795537707,"480":0.006343127800935865,"481":-0.042926142214469616,"482":-0.005281461384490476,"483":-0.018846759247046225,"484":-0.0023609603414134444,"485":0.02472344637227744,"486":0.0943123385147237,"487":0.00435964530394288,"488":0.00251823112330646,"489":0.02338235446143917,"490":-0.0023028119494975454,"491":0.009725182621949963,"492":-0.009995497663898076,"493":0.03787175092837804,"494":-0.024712157847337317,"495":0.04044384094381256,"496":0.0204775571572414,"497":0.029229311931553446,"498":0.05490158824128135,"499":0.004880429249111605,"500":0.018016576903334504,"501":0.0343657528936145,"502":-0.027542450796812428,"503":-0.02425954041298233,"504":0.053415375625602675,"505":0.022030503730405514,"506":-0.0002366741287878669,"507":-0.028100195295942404,"508":0.0010562503532318955,"509":-0.05331310313308775,"510":-0.004153995266620875,"511":-0.02291805052296457,"512":-0.002665800025245161,"513":0.034268364284239315,"514":0.01245129256367351,"515":-0.028853894081481184,"516":-0.023257408828889527,"517":-0.008990030080336641,"518":-0.003672045400669639,"519":-0.014806639245840667,"520":-0.03768318264512821,"521":0.010427216423197716,"522":0.014706735864088362,"523":0.07311223109645486,"524":0.05600420656232659,"525":-0.015209328185942,"526":0.007484827310481571,"527":-0.02592702057118835,"528":-0.004153681375056707,"529":-0.028746943767825456,"530":0.029902007475666605,"531":0.045552474566678505,"532":-0.02187244017600403,"533":0.023175130017497637,"534":0.006961669113286824,"535":-0.04518106875758153,"536":-0.04583395509620347,"537":-0.04724437150263958,"538":-0.050687934279764965,"539":0.034991490977398024,"540":-0.08312421158457958,"541":0.05009009949993283,"542":0.023790048520304446,"543":0.015808052311490618,"544":-0.00754946860306467,"545":-0.053251412138440854,"546":-0.04252651121342893,"547":-0.005005007561807863,"548":-0.020092898713668685,"549":0.008753026772892355,"550":-0.006534563449424306,"551":0.0013400005696972566,"552":-0.0072421872666194875,"553":0.073710061813603,