{"layers":[{"out_depth":3,"out_sx":32,"out_sy":32,"layer_type":"input"},{"sx":5,"sy":5,"stride":1,"in_depth":3,"out_depth":16,"out_sx":32,"out_sy":32,"layer_type":"conv","l1_decay_mul":0,"l2_decay_mul":1,"pad":2,"filters":[{"sx":5,"sy":5,"depth":3,"w":{"0":0.10173807646984157,"1":-0.03581003032067923,"2":-0.321968811374899,"3":0.46960130929652166,"4":0.5349416316079377,"5":0.4460135671544755,"6":-0.4437345723437993,"7":-0.3413046360678867,"8":-0.6512682063983642,"9":0.1410688297260463,"10":0.1575775484051824,"11":-0.1339841578638109,"12":0.03305735076871028,"13":-0.20293193807042906,"14":-0.30473279725359365,"15":0.1593606129060637,"16":0.23957412002104966,"17":-0.107730600453399,"18":0.36830815625265545,"19":0.35488395517644533,"20":-0.03835671107077731,"21":-0.12870606357287748,"22":-0.10599736265779575,"23":-0.5722088826377393,"24":-0.29015927380527246,"25":-0.40261129359457376,"26":-0.5021329113647198,"27":0.3168644631990138,"28":0.35275605275015837,"29":-0.049155071354708264,"30":0.446064311882663,"31":0.56276200074558,"32":0.20102624862959248,"33":-0.06655807472585577,"34":-0.22623200864441645,"35":-0.7015396526243526,"36":0.38778863538723124,"37":0.48297914139249165,"38":0.24403547426416777,"39":0.16644119797514442,"40":0.14153186164161682,"41":-0.13698702500603277,"42":0.39067478740954176,"43":0.275991832702697,"44":0.08176819328141127,"45":0.4280729291287127,"46":0.39382144629234006,"47":0.17827981079417188,"48":-0.13146186443939484,"49":-0.2591680679275583,"50":-0.5919275656224626,"51":0.21518616078354846,"52":0.05580925586936743,"53":-0.13987770475927475,"54":0.05083444123166699,"55":0.21431693726775433,"56":-0.12484656444910838,"57":-0.02534819205499899,"58":-0.0066272959495086055,"59":-0.07037101212899241,"60":-0.08602998451175091,"61":-0.15045212139592426,"62":-0.7488274425968666,"63":0.19872747654704578,"64":0.22196274662332469,"65":-0.1692426141772828,"66":0.06343631270963494,"67":0.2044969786276298,"68":-0.24171423435129347,"69":0.3241195067704617,"70":0.16928428281592597,"71":0.07517938191689197,"72":0.10390381541533357,"73":0.18935087674108497,"74":-0.22625908494136737}},{"sx":5,"sy":5,"depth":3,"w":{"0":0.1195284211695972,"1":-0.20728791393995427,"2":-0.2968693583327816,"3":0.062964649192228,"4":-0.1827275151911472,"5":-0.5782876716907608,"6":0.3897667902620294,"7":0.34129369811939736,"8":0.32676962509115887,"9":0.6145209434686579,"10":0.47548840582863583,"11":0.2546335978629487,"12":-0.40791252490646357,"13":-0.6798387838296569,"14":-0.8521840821350646,"15":0.1469499824369753,"16":0.22541484893225855,"17":0.08146297732756105,"18":0.35012583186520824,"19":0.1201374998862612,"20":0.1217059803314733,"21":0.3778567962311498,"22":0.07510223547347536,"23":0.26435436519998523,"24":-0.09138357013334826,"25":0.28374451935241746,"26":0.012605704276857092,"27":0.26854901440283946,"28":0.34100435315757943,"29":0.309447474371705,"30":-0.26118124313051755,"31":-0.3871579931104091,"32":-0.36381931752108715,"33":0.1983224212877786,"34":0.10940575172773911,"35":-0.10142859533295186,"36":0.00501134799138192,"37":-0.16625932797407733,"38":0.16035155412700045,"39":0.0849857944686175,"40":0.1094536579513822,"41":-0.09127141101428615,"42":0.06818217528280701,"43":-0.017029670542027874,"44":0.11624815345028448,"45":-0.043219667352056734,"46":-0.2566415298045709,"47":-0.4892328642880933,"48":0.03370968543339681,"49":0.035263997095065704,"50":-0.19486243983430096,"51":0.021951213806117205,"52":0.23970093297891187,"53":-0.04838916852757081,"54":0.2352135213150411,"55":0.07512139628570726,"56":-0.2414203288196953,"57":0.18740586387544,"58":-0.04072463790446152,"59":0.11930779566977548,"60":-0.04944867942245531,"61":-0.30778505345177254,"62":-0.4149116959631001,"63":-0.20702965912381197,"64":-0.044833125802760714,"65":-0.24928272248315847,"66":0.18885718562073786,"67":-0.07206276585595271,"68":0.04769622047829072,"69":0.06922860385431705,"70":-0.2552804328694905,"71":-0.18429964851534383,"72":0.14919463601932673,"73":0.29955437258835566,"74":0.11093670126240329}},{"sx":5,"sy":5,"depth":3,"w":{"0":0.304241014024606,"1":0.20841384555781314,"2":-0.05357840946913419,"3":0.3294383101621331,"4":0.09316761451349322,"5":0.22087598241145742,"6":0.16248918624357264,"7":0.07351263766936411,"8":-0.06122502386064991,"9":0.517402394079613,"10":0.6853915684666051,"11":0.832445594148482,"12":-0.04788409084333796,"13":0.14037129367736648,"14":0.14659376970443794,"15":0.16936632217317846,"16":0.09479805450461562,"17":-0.3658027439502756,"18":-0.028519372132479882,"19":-0.4545878038836952,"20":-0.5427510559672927,"21":0.06232443463736764,"22":-0.06824866828147852,"23":-0.17844709527192698,"24":0.6261024375713874,"25":0.5003717227966851,"26":0.7630327143885492,"27":-0.720120154754378,"28":-0.5717925927847171,"29":-0.9150077624590991,"30":-0.09167627691925995,"31":-0.2775618446015702,"32":-0.5938169050123627,"33":0.17221581028486763,"34":-0.21163591395338205,"35":-0.2739471530364801,"36":-0.24860494468807984,"37":-0.4508184171988103,"38":-0.7111434204966819,"39":0.1617413886303686,"40":0.14500500750224285,"41":-0.2690042444662197,"42":-0.6796879201230954,"43":-0.6706519246749294,"44":-1.0713853929971346,"45":-0.3342021538966153,"46":-0.5328328914056486,"47":-0.42811943074417347,"48":0.03320967539418821,"49":-0.28678023592099106,"50":-0.43415837679751845,"51":0.17477319137054856,"52":0.10698665705481814,"53":-0.06644078743675551,"54":0.34831948853857925,"55":0.20143027883868564,"56":0.2086446672140192,"57":-0.041641334732181304,"58":0.0866720796505488,"59":-0.08949790175346796,"60":0.4953821248929568,"61":0.47779747685986823,"62":0.24195434932028217,"63":0.05872054720010513,"64":-0.13022440928128523,"65":-0.20900547439596015,"66":0.4383566093310104,"67":0.40507460684178237,"68":0.6763968800839849,"69":0.13980251382158396,"70":-0.10772391339042306,"71":0.19746223518968262,"72":0.43056311313908446,"73":0.4504462933529289,"74":0.7098642192444412}},{"sx":5,"sy":5,"depth":3,"w":{"0":-0.473370468098817,"1":-0.2140112021485145,"2":-0.24339165957101117,"3":-0.4248103390015558,"4":0.15024852512030007,"5":0.04678279618943176,"6":-0.314440629429978,"7":0.2331306311150783,"8":0.061499035984497644,"9":0.4191634456358166,"10":0.8819492556437281,"11":0.877717914816133,"12":-0.8989231412392051,"13":-0.812878421522801,"14":-1.2469108503916748,"15":-0.47322814063926477,"16":-0.39967456314416994,"17":-0.40582571906007725,"18":-0.17119097849423717,"19":0.2334688339909697,"20":0.24487145207277136,"21":-0.5613317480105062,"22":0.07418879663719732,"23":-0.09802858122991923,"24":-0.6038224609840829,"25":-0.33900782682426905,"26":-0.054708303104621554,"27":-0.5414671465142885,"28":-0.4801918936491089,"29":-0.450567569869015,"30":-0.4713391669079587,"31":-0.1556298770421494,"32":-0.24597153140478487,"33":-0.3516904529605778,"34":0.05640596281957114,"35":-0.08004467463657736,"36":-0.3527347467177578,"37":0.0045563331375548756,"38":-0.14386021515598937,"39":-0.35399144240899777,"40":-0.026987842925760962,"41":-0.3627478074840881,"42":-0.7238726035620596,"43":-0.15273053457438812,"44":-0.3899000805529403,"45":-0.33099373076090444,"46":-0.2875785914595941,"47":-0.8972277372124855,"48":-0.1750132272983879,"49":-0.20704568527783715,"50":-0.43696400920444656,"51":-0.27316879009543216,"52":0.11227608296877749,"53":-0.05069676844317094,"54":-0.5957749899464638,"55":-0.0827850577907399,"56":-0.45986646573287304,"57":-0.5695324500108926,"58":-0.3283897252886446,"59":-0.6415986462433454,"60":0.3024955670878697,"61":0.5171352855904948,"62":-0.3317310461987563,"63":-0.10623078092349304,"64":0.3150783632115152,"65":-0.16892356119933877,"66":-0.39506162782185783,"67":-0.04461286935874644,"68":-0.3682843408729652,"69":-0.22634952165658595,"70":0.1256456404665646,"71":0.038214349143282575,"72":-0.18109169943934528,"73":0.11211417725729249,"74":-0.3926398583365737}},{"sx":5,"sy":5,"depth":3,"w":{"0":0.2790625338591005,"1":0.28795748871052657,"2":-0.088379452815217,"3":0.48419442723060746,"4":0.5614235225806478,"5":0.019959197465654603,"6":-0.06834949215292142,"7":-0.20715013362671866,"8":-0.6289978575283338,"9":-0.6186979157900726,"10":-0.819999752979165,"11":-1.0460665482117462,"12":0.23662441967650946,"13":0.18080853947102224,"14":-0.24398868165990933,"15":-0.43127146785328896,"16":-0.455123205339698,"17":-0.5214366681681747,"18":-0.4998383080158985,"19":-0.0366439198575635,"20":0.30017323639318066,"21":-0.304846663765382,"22":-0.43033414636348677,"23":0.6070051797923953,"24":-0.6689056827384985,"25":-0.4433131993590669,"26":0.6327951136980914,"27":0.36433279533118396,"28":0.11313105371428735,"29":1.2816475554363167,"30":-0.6419530032377285,"31":-0.6505508565707,"32":-0.7878649404260706,"33":-0.7188962096625714,"34":-0.3808809935990525,"35":0.143291356107204,"36":-0.5323291592878099,"37":-0.4133583724788865,"38":0.18215071899118257,"39":-0.6702697264281008,"40":-0.6571554488816996,"41":0.32143041978582537,"42":0.4706748086355647,"43":0.37427687764218726,"44":1.2456611189991784,"45":-0.316302343002661,"46":-0.14682104291696105,"47":-0.0002533584774754037,"48":-0.16895982410811766,"49":-0.21047766511948407,"50":0.4656023104889448,"51":-0.09639749066788636,"52":-0.1837023013439542,"53":0.787927555391204,"54":-0.2440751026949557,"55":-0.2550643111234899,"56":0.6489327601502592,"57":0.4731031365029131,"58":0.03426519131445909,"59":0.3426174713666772,"60":0.1326695692437883,"61":-0.013783050382018665,"62":-0.32593968803458123,"63":-0.30910885505067787,"64":-0.07883969494253866,"65":-0.02679439083827731,"66":-0.07067228460593017,"67":-0.3015819135062105,"68":0.37594096709056934,"69":0.13510335878454055,"70":-0.14824448854306704,"71":0.27305795709913616,"72":1.0171918348413953,"73":0.6261049679236009,"74":0.5581869551100596}},{"sx":5,"sy":5,"depth":3,"w":{"0":-0.30338847497006177,"1":-0.49092674365665606,"2":-1.1240644195405687,"3":0.13115160081201432,"4":-0.05211777825285562,"5":-0.3937817230767169,"6":0.10762826602761608,"7":0.19379077770840641,"8":0.25943943927890556,"9":-0.3731702430692494,"10":-0.5461450092465612,"11":-0.8018946992202927,"12":-0.15058907847996497,"13":-0.35839789483872464,"14":-0.5389879764999873,"15":0.29180347915183447,"16":0.3297981490432534,"17":-0.011977707904168583,"18":0.5453286535488837,"19":0.47796186549778796,"20":0.44417716696237086,"21":0.1700342636844425,"22":0.25341667371795623,"23":0.7608864966751699,"24":0.1473064868572718,"25":0.22561853107096233,"26":0.43778908675105926,"27":-0.26673812644377914,"28":-0.22108718274709932,"29":-0.23699039464881388,"30":0.49701155357739074,"31":0.22359195291839873,"32":0.0967540363854787,"33":0.23944760407135982,"34":0.2201033294886503,"35":0.08542259423218615,"36":0.03564461699307125,"37":0.25734956962125827,"38":0.22345263812335014,"39":-0.41283140603063884,"40":-0.5167514643804283,"41":-0.6116491677775496,"42":-0.10790673405053916,"43":-0.4099706831277603,"44":-0.8246856306183734,"45":0.1162289325470868,"46":0.21966093305948828,"47":0.0008953990745964674,"48":0.2482239997590254,"49":0.19871362800185627,"50":0.020858959332784335,"51":0.3510098330196691,"52":0.48319548129438966,"53":0.4508634800364759,"54":0.41714098418661094,"55":0.5198802119799522,"56":0.36876140402405694,"57":-0.4537427184125865,"58":-0.6875369386815393,"59":-1.0256573478831092,"60":0.12939650604454458,"61":0.15941993226404716,"62":-0.48567154163601417,"63":0.19382143892214107,"64":0.2949205616109527,"65":-0.14301100735663372,"66":-0.09747934267631689,"67":-0.0021120608636442666,"68":-0.46281214838719825,"69":0.03905579464103164,"70":0.172752791530796,"71":0.02556369567680589,"72":0.3316016048548111,"73":0.09863703500978208,"74":0.22693013820620092}},{"sx":5,"sy":5,"depth":3,"w":{"0":-0.1637483848491473,"1":-0.2276030120688561,"2":-0.7450818025730547,"3":-0.37874426761465,"4":-0.6577406633504549,"5":-1.1775761378390148,"6":-0.07355441066930907,"7":-0.1241873946496636,"8":-0.9151904020112728,"9":0.19471093473744377,"10":0.15648208724543688,"11":-0.11228746346057966,"12":0.5891269475142488,"13":0.6646695646929457,"14":-0.018671480090486862,"15":-0.07742999583744863,"16":-0.041222332059311015,"17":-0.023562396969484468,"18":0.1674073269754853,"19":-0.26428108027444724,"20":-0.6203232160452785,"21":0.4739378230479009,"22":0.2900605157487843,"23":-0.016634170363579025,"24":0.1817762288636214,"25":-0.013889751746570847,"26":-0.7200356322584213,"27":0.08161758400439678,"28":-0.023990576256887747,"29":-0.6080356444791343,"30":0.0030058889848344297,"31":0.026739950845533125,"32":0.46707571382663027,"33":0.697434613490738,"34":0.6155980414766816,"35":0.9285700192678409,"36":0.5406221875574198,"37":0.2111301336139861,"38":0.11289982214250002,"39":0.5079274699451378,"40":0.36037752656939914,"41":0.14897834357090411,"42":0.6535102152257739,"43":0.730788618482005,"44":0.5575946461402106,"45":0.04904381333403028,"46":-0.07139999484679226,"47":-0.49315859269627005,"48":0.22006467938379093,"49":0.12385788034289134,"50":-0.364617642186839,"51":-0.0719637106373204,"52":-0.7094010726261396,"53":-0.9735290057182932,"54":0.20350258767538323,"55":0.4326311368887535,"56":0.3876107904742675,"57":0.23149136056535907,"58":-0.03525464669828727,"59":-0.09875167392214838,"60":0.055176248956154986,"61":-0.30654162639170646,"62":-0.9483313622153746,"63":-0.2900583052606638,"64":-0.2871717478921213,"65":-1.296313275393478,"66":0.19736733467692472,"67":0.006508621334142058,"68":-0.397961315102407,"69":-0.1368894690425173,"70":-0.14514592035080487,"71":-0.42785675091275216,"72":-0.3981072769715199,"73":-0.2377057765540098,"74":-0.5072311873508923}},{"sx":5,"sy":5,"depth":3,"w":{"0":0.024344381639237862,"1":-0.1526601822869303,"2":-0.07564169144489252,"3":-0.38471630060936735,"4":-0.4179673127140726,"5":0.3865957385884666,"6":0.09639079045400956,"7":0.13185987375996897,"8":0.5862763555728767,"9":-0.3879908051418975,"10":-0.027593442304959345,"11":0.33527337425325177,"12":-0.3321190122338655,"13":-0.3707666815019007,"14":0.5152629187342794,"15":-0.6439275119236156,"16":-0.32620123296096365,"17":0.015112402935566554,"18":0.08918782131819476,"19":0.31071660604593015,"20":0.804682747433709,"21":-0.40924798262041734,"22":-0.17892581680564296,"23":0.25411135672813445,"24":-0.45760242026544384,"25":-0.364813109791443,"26":0.6807843908765006,"27":-0.30037757435995294,"28":-0.15129491608631213,"29":0.9434431828683846,"30":-0.7597331482675619,"31":-0.5363546943584209,"32":-0.06056068829047872,"33":-0.1401700585736594,"34":-0.03613217246230964,"35":0.4305168282868316,"36":-0.19942766390045644,"37":0.20126523489868894,"38":0.858008058574403,"39":-0.1652725382418221,"40":-0.24311589966230723,"41":-0.23492734153160275,"42":0.004675595562729176,"43":0.20134665304372948,"44":0.7530707332714953,"45":-0.5019742149934749,"46":-0.23068123701949342,"47":0.23604326031098818,"48":-0.16129874666117192,"49":0.26817233297830334,"50":0.702637655358257,"51":-0.030383562321414422,"52":0.2325471404215952,"53":0.35603716477434866,"54":-1.1439970038386966,"55":-1.8915315092891816,"56":-4.064534308595576,"57":-0.1480471192822821,"58":-0.09021592365049744,"59":-0.5706382289387596,"60":-0.4303978149715255,"61":-0.4913772836973518,"62":-0.05481974535186649,"63":-0.17805279000684984,"64":0.1309725321270576,"65":0.9770690438798733,"66":-0.3370791399563493,"67":-0.24618014659554432,"68":0.24311140104020254,"69":-0.05031869242140823,"70":0.2575747759722662,"71":0.4707154637322257,"72":-0.2269852951049731,"73":0.13965855595948123,"74":0.8794150990761987}},{"sx":5,"sy":5,"depth":3,"w":{"0":0.31107931986688103,"1":0.07662771283527635,"2":-0.564234787947354,"3":-0.2852195114557383,"4":-0.17123399465662772,"5":-0.21376487734942062,"6":-0.22863565814560616,"7":0.1828046235534411,"8":-0.10269216697041073,"9":-0.19253760899130862,"10":-0.41417013142346165,"11":-0.5628257830143014,"12":-0.41759456912547877,"13":-0.3945712259471872,"14":-0.5049867400687306,"15":-0.012078922337002345,"16":0.07225476374981699,"17":-0.2284969511249929,"18":0.45307456691701214,"19":0.35560253589883223,"20":0.013722471051902009,"21":0.21795237805927004,"22":0.023719091765445264,"23":0.15498491410658602,"24":-0.15601953652513004,"25":-0.13570261908486736,"26":-0.3134603680136852,"27":-0.4528586349817243,"28":-0.4645750546462404,"29":-0.5582158637080447,"30":0.15875657756792816,"31":0.06312717895469211,"32":-0.16796698984404274,"33":0.07366057344141852,"34":0.056560468585548675,"35":-0.0771809884156528,"36":0.24681170203898234,"37":0.48354667422143344,"38":0.22899552459177172,"39":0.20399203263592827,"40":0.5362928474444176,"41":0.6196537569378352,"42":-0.3230996575805097,"43":-0.2158478644350082,"44":0.04587132714482722,"45":-0.14044748890094913,"46":-0.29142184110698427,"47":-0.502623541207144,"48":-0.176850613666479,"49":-0.2836487267173491,"50":-0.40596790157872253,"51":0.06997824497290667,"52":0.3909614831645676,"53":-0.1530011937629937,"54":0.17613394213653477,"55":0.290603222538839,"56":0.2991897931449468,"57":0.1400662950375594,"58":0.21900804216656258,"59":0.2915597068118683,"60":0.15429302346151985,"61":0.41753256544495304,"62":0.2724144271880136,"63":0.312228763483106,"64":0.1681230948527898,"65":0.20351074513884465,"66":0.3628373474510651,"67":0.3542098595366075,"68":-0.0016853470137870906,"69":0.3187043874516108,"70":0.3012701020938286,"71":0.2381755212832988,"72":0.06349505173215844,"73":0.06764611552910033,"74":0.0038713243051982653}},{"sx":5,"sy":5,"depth":3,"w":{"0":0.16652196988670703,"1":0.24506584375862925,"2":-0.3689786204620435,"3":0.2828473209922465,"4":0.205884838849183,"5":-0.18794511372799386,"6":0.2059732252879332,"7":0.20595325819893479,"8":-0.20959355578194927,"9":0.4099539917335741,"10":0.22657349686182887,"11":-0.2707827718164848,"12":0.4285854387944495,"13":0.46760253415965897,"14":0.24755937596173772,"15":0.0390523616880158,"16":0.36273395775957135,"17":0.19142443105800758,"18":0.11085267969396902,"19":0.01970038542390991,"20":-0.04510217065716387,"21":-0.1169217693519794,"22":-0.2695287793373563,"23":-0.4463417763191397,"24":0.6949440188876811,"25":0.25231755675393214,"26":0.497295696769303,"27":-0.15680407378773573,"28":-0.00732482989037176,"29":-0.5581609015984816,"30":-0.18729809835776093,"31":-0.032093454130702644,"32":-0.3289614079091632,"33":0.5010156749276506,"34":0.47162218705558684,"35":0.3893653195502831,"36":0.5840971087792105,"37":0.48893283104175445,"38":0.4355634495344754,"39":0.5223074333834096,"40":0.24487534935064278,"41":-0.32452335467086957,"42":-0.7784107218133401,"43":-1.3409816084276094,"44":-2.1993881611928146,"45":0.2469027747225433,"46":0.03657720779692596,"47":0.3738136245257945,"48":0.170536641846252,"49":-0.013870234706227539,"50":-0.12451149370775405,"51":-0.5569136046434374,"52":-0.46544854613063197,"53":-0.4745994956729918,"54":0.3044752782423315,"55":0.049991270884408974,"56":0.165702712948214,"57":0.11279673689933192,"58":-0.04768656570893987,"59":0.052766582307651834,"60":-0.12823156205841896,"61":-0.2557866076269711,"62":-0.5481356827270443,"63":-0.45418199619182165,"64":-0.4974980256338439,"65":-0.7581084050453216,"66":-0.17201016999057406,"67":-0.6369342453037447,"68":-0.22284282284350962,"69":0.08286308527019122,"70":0.21946987862642942,"71":0.6436275682744084,"72":0.48838227425324365,"73":0.4151581954989551,"74":0.8431679989216232}},{"sx":5,"sy":5,"depth":3,"w":{"0":0.32518096793688417,"1":0.3810912870184038,"2":-0.5123031025318745,"3":0.2635395975860756,"4":0.46382180224877717,"5":0.025961122296641232,"6":-0.15809839093794759,"7":-0.2085536082442426,"8":-0.7724547004106308,"9":0.2278300047882431,"10":0.3488814829123619,"11":-0.2988780695828355,"12":0.36690516474468793,"13":0.2453962134502255,"14":-0.7050683193992416,"15":-0.06288121726544045,"16":-0.06274611318523776,"17":0.6697729014288166,"18":-0.07377581339295484,"19":-0.2530890111858927,"20":0.6600854279223324,"21":-0.5116146478196847,"22":-0.2918424830965659,"23":0.4373979929503276,"24":-0.24449253521549857,"25":0.14817688239956656,"26":0.6694433789525144,"27":-0.8214263565120602,"28":-0.6058044542354464,"29":-0.5198673099386156,"30":0.20044852628412382,"31":0.07524327552673858,"32":0.4598635578685968,"33":-0.42474525978380423,"34":-0.17261769956705697,"35":0.8507892876558816,"36":-0.44086458922265054,"37":-0.2734446811576248,"38":-0.10816107694069166,"39":-0.2547549321601189,"40":-0.2749419677388882,"41":0.6288965349019406,"42":-0.8716428873037981,"43":-0.6522907217085891,"44":-0.45289789318456863,"45":0.1910121077022481,"46":0.10038636683253058,"47":-0.1265504583957263,"48":-0.21206744824520868,"49":-0.1267849288020683,"50":0.25032288563449906,"51":-0.44296628698699514,"52":-0.17757578544501776,"53":0.30125374319346415,"54":-0.7018329738189697,"55":-0.561019015329455,"56":-0.27629877304396866,"57":-0.7830755320205233,"58":-0.724155004421116,"59":-0.34958409220661324,"60":0.3227701262681593,"61":0.3096939995005977,"62":-0.17334417561143145,"63":0.2295878834195658,"64":0.15466464910063515,"65":0.3597523804420888,"66":0.0924014208713529,"67":0.040650469603903935,"68":0.23061211099216056,"69":-0.4004828511232576,"70":-0.35021636697910646,"71":0.17764189895537386,"72":-0.6270540419046506,"73":-0.6972968810902906,"74":-0.5115093708597804}},{"sx":5,"sy":5,"depth":3,"w":{"0":-0.37893388799750144,"1":-0.3741964151433157,"2":-0.3790968892897112,"3":-0.5624010931449757,"4":-0.6355418989416354,"5":-0.5773193741042176,"6":-0.37582207407782264,"7":-0.6274726516205363,"8":-0.2897122824905547,"9":-0.6160563637948975,"10":-0.40124678771339023,"11":-0.556944285769928,"12":0.24559266109222294,"13":0.1471638431538781,"14":0.24021769752489033,"15":-0.1175766998691057,"16":-0.3017093332988337,"17":-0.23696241003444002,"18":-0.1357684117431586,"19":-0.11397931123107422,"20":0.0041330132917423166,"21":-0.07782378080052381,"22":0.016938043829134636,"23":0.1873217388063321,"24":0.424642817765033,"25":0.15775178087147443,"26":0.1374105167860326,"27":0.41767363055125384,"28":0.40030996888490805,"29":0.20274570590894084,"30":0.01281051841285479,"31":0.018886806087725583,"32":0.22765792500777332,"33":-0.3287449853021348,"34":-0.4234400478375277,"35":-0.5770115646190296,"36":0.2281483904861886,"37":0.211226310112229,"38":0.46087368546923785,"39":0.1488123465182119,"40":-0.01715379002186111,"41":-0.42670990582571294,"42":0.3567445494166932,"43":0.1325220850593003,"44":-0.3744338046583196,"45":0.3953037147580997,"46":0.4302168663404471,"47":0.7460451384752347,"48":-0.055569855146485825,"49":0.08933329335658337,"50":-0.07275097419537874,"51":0.24814935713203126,"52":0.34221663377117506,"53":-0.07451621786249314,"54":0.28308765059924446,"55":0.21272537173366246,"56":-0.35927966405404177,"57":0.2702633095297957,"58":0.16390926354669888,"59":-0.4541366724541128,"60":0.5525981485924126,"61":0.34429307893309885,"62":0.20310929881713968,"63":0.08290731307090703,"64":0.20327048360380898,"65":-0.1013221443928697,"66":0.13302431278398472,"67":0.19975296151874286,"68":-0.35338247398475936,"69":0.7034646915242936,"70":0.833025433016624,"71":-0.0580022637244174,"72":0.7610171031562846,"73":0.7319383534856716,"74":-0.15169729813029934}},{"sx":5,"sy":5,"depth":3,"w":{"0":-0.09455348911023757,"1":0.02705609226744191,"2":-0.05339553627501026,"3":-0.3779952793248555,"4":-0.05660099718637325,"5":-0.03717012271295184,"6":-0.42118182193315296,"7":-0.43020223111145955,"8":-0.15150531452193586,"9":-0.505551677686236,"10":-0.261196936031417,"11":-0.42336788093926325,"12":-0.4014231735121312,"13":-0.09667110799681333,"14":-0.2755428221176853,"15":0.08773818189192116,"16":0.05555798913386029,"17":0.23517860464390222,"18":-0.12036189383303884,"19":0.1277569169828333,"20":0.05383320118570476,"21":-0.07576357464856107,"22":-0.10872950779932875,"23":-0.05466663144881018,"24":-0.30191001789558025,"25":0.023386927660143015,"26":-0.3354401856004936,"27":-0.33365565647039935,"28":-0.06608201221848897,"29":-0.3115035186008682,"30":0.05666990788185129,"31":0.08088757530899339,"32":-0.15976342231738658,"33":0.018801715981681087,"34":0.11380850259152352,"35":-0.22344517412021422,"36":-0.21855777244579921,"37":0.16446151005661364,"38":0.059988952407288666,"39":-0.2455067902931197,"40":-0.22404016017066528,"41":-0.41520279248186875,"42":-0.09843535914012119,"43":-0.1564570987713173,"44":-0.4970749587299354,"45":-0.05255621743575166,"46":-0.13870601402793348,"47":-0.26655731127158505,"48":-0.0233304700656232,"49":0.16113829279733397,"50":-0.15059477236842977,"51":-0.045887079412454686,"52":0.18540867590003635,"53":-0.10150090797977074,"54":-0.295644611062962,"55":-0.20599542984782804,"56":-0.5414060596696748,"57":0.040144970757941156,"58":-0.15687919850072207,"59":-0.4041839797194438,"60":-0.18157402785946283,"61":-0.14790141634651346,"62":-0.22762713949796298,"63":-0.0610084309091822,"64":0.017604170503552192,"65":-0.23138453774911374,"66":0.08805903218446713,"67":0.08727329432666514,"68":0.1200801652803866,"69":0.21526520904570956,"70":0.545242976563027,"71":0.4323465911828579,"72":0.5330304679964198,"73":0.5592274949546193,"74":0.3810420918728433}},{"sx":5,"sy":5,"depth":3,"w":{"0":0.2608583368241544,"1":-0.0012399006800797978,"2":-0.07929706600978205,"3":-0.27367717755232107,"4":0.11264074295000594,"5":0.04542699178747451,"6":-0.363838941823108,"7":-0.28905671920373477,"8":-0.2831502067662251,"9":-0.26004465372589286,"10":-0.20273925776756174,"11":-0.18180577274522883,"12":-0.24964390022782076,"13":-0.4332798781972138,"14":-0.03662685611365744,"15":0.4764674551468522,"16":0.29906214837237516,"17":0.08509863992158219,"18":0.2866382662148957,"19":0.25238017260031453,"20":0.2814405500078218,"21":-0.11115374740561851,"22":-0.5138589240577813,"23":-0.13354440670193765,"24":-0.2827723984679678,"25":-0.303822483327581,"26":-0.28982973095559594,"27":-0.2600009646135674,"28":-0.33475106879354927,"29":-0.0686617655022337,"30":0.34691714919833866,"31":0.14259543473549297,"32":-0.2265529412726183,"33":0.2247185588778889,"34":-0.1584559363017354,"35":-0.10268556954377385,"36":0.1377348810260043,"37":0.030141645481006393,"38":0.20140230147445928,"39":0.1289739494190514,"40":0.062409847812656474,"41":0.09081815066010294,"42":-0.4901930184080114,"43":-0.3519433316239583,"44":-0.1895874480676079,"45":0.20473380587149936,"46":0.21499199464466698,"47":-0.1068583416896127,"48":0.3925373484302641,"49":0.6004812348450191,"50":-0.0886194342128159,"51":0.32805029416538245,"52":0.5236857877801503,"53":0.1284415168291808,"54":0.11752111717802152,"55":0.23394253970113446,"56":0.17159797211381964,"57":-0.20753823183253706,"58":-0.02438760030162323,"59":-0.006751206980160101,"60":0.39279757089702194,"61":0.24508750317738218,"62":0.0015103195159066841,"63":0.2843303302492503,"64":0.30500455464258,"65":-0.21885388881958298,"66":0.44065645697715233,"67":0.5357298230973014,"68":0.05340174382832329,"69":-0.004115422884358979,"70":-0.23391988999627322,"71":-0.26814877287190886,"72":-0.10863761483346178,"73":-0.3628283887944446,"74":-0.5121514554893564}},{"sx":5,"sy":5,"depth":3,"w":{"0":-0.2721658974852329,"1":0.04083253255204663,"2":-0.3228102864813823,"3":-0.5964802264320643,"4":-0.7035603247795835,"5":-1.0047164560874113,"6":-0.27728177666813236,"7":-0.3331257597760007,"8":-0.6161573056001759,"9":0.03375354940285149,"10":-0.29919615229497154,"11":-0.3104389226648965,"12":0.46358580361510526,"13":0.3638709368243257,"14":0.017374129971612595,"15":0.9224692191082796,"16":0.8340489427970103,"17":0.4187669426993077,"18":0.73210190993854,"19":0.562690281505183,"20":0.26115048207564656,"21":0.5864982871754978,"22":0.25469981022347743,"23":-0.24084951793952522,"24":0.5410723439212317,"25":0.2967234411575183,"26":0.17492178285793772,"27":0.46608644588630477,"28":0.33853292034415833,"29":-0.06575512608575793,"30":0.41860087824399855,"31":0.40055653333251395,"32":0.012291295472703969,"33":0.024279350652577594,"34":-0.0516523919134187,"35":-0.5437149409716,"36":0.318676827861818,"37":0.3197801465772302,"38":-0.19067126892408112,"39":0.8126121968522921,"40":0.5005062210548238,"41":0.20480465915811066,"42":0.22827970213524248,"43":0.3245319286671295,"44":-0.09894806988261294,"45":0.20148229255729294,"46":0.08136133894990688,"47":0.020444649429559147,"48":0.0037673008818620967,"49":-0.13617330343463077,"50":-0.5224720456033884,"51":0.01061879475472989,"52":0.1040150297577628,"53":-0.35837748425228605,"54":0.31642683439430647,"55":0.17172086725842783,"56":-0.16693986933008367,"57":0.15243236452540077,"58":0.13253141760971957,"59":-0.31546354898353596,"60":0.38912575596330146,"61":0.2193623489988261,"62":-0.2843485022429037,"63":-0.32820257806684827,"64":-0.4217547112847768,"65":-0.8220436654221706,"66":-0.24668933846590904,"67":-0.5920838068765897,"68":-0.7546165499617999,"69":0.25031751905843763,"70":0.04853578699485036,"71":-0.20888142588103165,"72":0.9920166593745993,"73":0.6530857192755172,"74":0.4894927820028957}},{"sx":5,"sy":5,"depth":3,"w":{"0":0.1167771477018159,"1":0.07890449994447744,"2":-0.43294461955590935,"3":0.32802763328407014,"4":0.03521456719240735,"5":-0.2713625270181786,"6":0.2676260341801468,"7":0.21759673816945854,"8":-0.07646257334700599,"9":0.2783831088581496,"10":0.1128856984614809,"11":-0.15813027124336534,"12":0.28465729138465545,"13":0.09076169772807123,"14":-0.3776757705718387,"15":0.33522836202561684,"16":0.1219099986050751,"17":-0.08903784536001051,"18":0.2701461663545129,"19":-0.03215600486688108,"20":-0.12902075828025017,"21":0.05065183263892376,"22":-0.011347140903726795,"23":-0.36092247097585206,"24":0.6851044689221301,"25":0.5037825956744303,"26":0.258727491061522,"27":0.5453221664485586,"28":0.5731887120885882,"29":0.13405266218624737,"30":0.21491117087177858,"31":0.04917290476279371,"32":0.0939580492741302,"33":-0.04570662310770581,"34":-0.18492539346649206,"35":-0.5917091159573884,"36":-0.24477491772196242,"37":-0.4194617125352207,"38":-1.0275482822500894,"39":0.475243962584525,"40":0.5079692587896065,"41":0.2879934738737861,"42":0.7516001324730774,"43":0.5409859212558135,"44":0.3208261572894638,"45":-0.12617481787954973,"46":-0.06768507683285721,"47":-0.2756266300076044,"48":-0.09820630530586955,"49":-0.43555057171129635,"50":-0.680802308510795,"51":-0.06410381687071644,"52":-0.17027604388433515,"53":-0.5528399458921053,"54":0.29615838169070713,"55":0.24537521427044612,"56":-0.08725645362512387,"57":0.13280663964516398,"58":0.03452808637156698,"59":-0.1511371850296524,"60":0.23765072649726796,"61":0.35438807766403063,"62":0.06330707208579278,"63":-0.031462571143509886,"64":-0.3308683903890029,"65":-0.18932786027592366,"66":0.012653890481320536,"67":-0.021383611303457006,"68":-0.03355310946318326,"69":0.10187430698448587,"70":-0.06998731277239148,"71":-0.08638720137441233,"72":0.22538004651136434,"73":-0.24365041253603362,"74":-0.19591401980264173}}],"biases":{"sx":1,"sy":1,"depth":16,"w":{"0":-1.1571345690929118,"1":-1.211559271756519,"2":-1.8982554398926124,"3":-3.5348102394494822,"4":-2.876045975156476,"5":-1.814375573040754,"6":-1.587180007620901,"7":-2.5864853424196697,"8":-2.3149652054256658,"9":-1.8993557062638993,"10":-2.6757897300721605,"11":-2.303854799474502,"12":-1.103313979141303,"13":-1.8641705550977175,"14":-1.602639960078695,"15":-1.4211214024664933}}},{"out_depth":16,"out_sx":32,"out_sy":32,"layer_type":"relu"},{"sx":2,"sy":2,"stride":2,"in_depth":16,"out_depth":16,"out_sx":16,"out_sy":16,"layer_type":"pool","pad":0},{"sx":5,"sy":5,"stride":1,"in_depth":16,"out_depth":20,"out_sx":16,"out_sy":16,"layer_type":"conv","l1_decay_mul":0,"l2_decay_mul":1,"pad":2,"filters":[{"sx":5,"sy":5,"depth":16,"w":{"0":-0.04890291614362482,"1":-0.14345477600340462,"2":-0.2005832883363928,"3":-0.005821945159007068,"4":-0.02163963900971409,"5":0.23798436904156656,"6":-0.33102015114125527,"7":-0.5322081492856874,"8":-0.2559858208632945,"9":-0.2787316650033216,"10":0.20833656809287057,"11":-0.39590076537001756,"12":-0.08661301512449068,"13":-0.13934831099212336,"14":-0.4934368837399461,"15":0.24739813147305162,"16":-0.05535251845921391,"17":-0.11974912296075273,"18":-0.15651761836177927,"19":-0.15887812564915374,"20":0.23489109843208217,"21":0.07889656348760693,"22":-0.32213260828582185,"23":-0.47464154867419656,"24":-0.31756942579132663,"25":-0.07364999801883529,"26":0.01484848732507921,"27":-0.2624486444207581,"28":-0.11973907215532999,"29":-0.16499448403485273,"30":-0.21238821466078756,"31":-0.05727239686668739,"32":-0.18583548767266705,"33":-0.09813398500261691,"34":-0.05604810849871856,"35":-0.34148936977627076,"36":-0.3841545223616925,"37":0.003166246015860793,"38":0.16386557629824938,"39":0.4633996065153363,"40":-0.08059423941100288,"41":-0.23125444223457084,"42":-0.17033620865691293,"43":0.030403315243887747,"44":-0.367269284123386,"45":-0.12556187092580132,"46":0.1818618795483329,"47":0.26605537999013545,"48":-0.1264932903232348,"49":-0.007311785450869174,"50":-0.02947824554051244,"51":-0.47341689691338373,"52":-0.36507345057478285,"53":0.04253128998676425,"54":0.24496184971605572,"55":0.34491684428982655,"56":-0.26206750018422087,"57":0.4004049508154187,"58":-0.10278429281824789,"59":-0.22488403169632995,"60":-0.1611004099788037,"61":-0.25977488059664877,"62":-0.02695624618687301,"63":0.0747545520032901,"64":0.032928877505806205,"65":-0.16033071877352495,"66":0.34366983023645425,"67":-0.5191294235536661,"68":-0.13859020771241704,"69":0.4650943918198401,"70":0.23678606430500496,"71":0.31444910988658037,"72":-0.14985220625421936,"73":-0.21722482596761927,"74":0.13220556509840256,"75":-0.32957357877012156,"76":0.12303825292876538,"77":-0.3472124180805642,"78":0.24770895167705695,"79":-0.3582439612705315,"80":-0.04694536394395782,"81":-0.07589612708839263,"82":-0.32011120780541463,"83":-0.5935197977640982,"84":0.3638844877085838,"85":0.18687305448618333,"86":-0.389018705050556,"87":-0.37246098344354106,"88":-0.26219175775698794,"89":-0.4561288834503425,"90":0.4572334308710447,"91":0.028282481503964594,"92":-0.15673123480182183,"93":0.00015845563015270172,"94":-0.2901635052747787,"95":0.04992133607000922,"96":0.0786328959976648,"97":0.009594425225940013,"98":-0.6342056399136367,"99":-0.39754787623525045,"100":-0.38816451424017934,"101":-0.31693155602819245,"102":-0.28203486375970804,"103":-0.3371951458972937,"104":-0.15646612466025817,"105":-0.420267076604726,"106":0.1689333878501966,"107":-0.21686806267885125,"108":-0.06187201954935931,"109":-0.2508611311140365,"110":-0.4993814645052176,"111":0.04705467036986955,"112":-0.11677280238871447,"113":-0.2775109837046507,"114":-0.3627653407560534,"115":0.3640310130658883,"116":-0.3418603330698449,"117":-0.3075447545681595,"118":-0.42122086191115654,"119":-0.17289158126217202,"120":-0.2433920586072195,"121":0.36775564453756365,"122":-0.3783222551339113,"123":0.10525964917683779,"124":-0.09748912571816838,"125":-0.25345435381172615,"126":-0.3448504631787635,"127":-0.010896132844764178,"128":-0.1634837054925675,"129":-0.01926865954637373,"130":0.2703745718751698,"131":0.2985165626411225,"132":0.4949021991182737,"133":-0.26407950510462597,"134":-0.3805471155215747,"135":0.5005624209185916,"136":-0.10492811615291232,"137":0.040253234365284905,"138":-0.2123138818983173,"139":-0.07109815145169804,"140":-0.14846890997853837,"141":-0.14419014979223707,"142":-0.27173397001741706,"143":0.01281674522187895,"144":0.2511910543703113,"145":-0.1027080924579349,"146":0.9385699382168085,"147":-0.3418621862110688,"148":0.2394534058185109,"149":-0.02295819987169507,"150":-0.11592233354670373,"151":-0.010299672241120083,"152":-0.08109991264586783,"153":-0.05347213480714081,"154":-0.1646803246244785,"155":0.04372825030257769,"156":-0.10293507520401599,"157":0.10292995782515343,"158":-0.34307770202808047,"159":-0.3011162313144133,"160":-0.07995489513721045,"161":-0.05500934709800391,"162":-0.47115612432926535,"163":-0.3938460887870821,"164":-0.12405173885188249,"165":-0.005790198540585376,"166":-0.4267393519504332,"167":0.2950832095228413,"168":-0.21123888150471398,"169":-0.4912788796601764,"170":0.05177937499856588,"171":-0.3765225515995676,"172":-0.04685693307948845,"173":0.2777602898281256,"174":-0.5264217518169498,"175":-0.15943310184452278,"176":-0.1728041112238953,"177":-0.03129343646938402,"178":-0.4847997677856858,"179":-0.2873675763296491,"180":-0.03624807923051839,"181":-0.24690865256971858,"182":-0.3700215699365319,"183":-0.144340552436611,"184":-0.06341725510169602,"185":-0.4048877642291477,"186":-0.08396333945752338,"187":-0.529329476213738,"188":-0.045467297265888995,"189":-0.09138349526584237,"190":-0.3651749073286293,"191":-0.1416456306540887,"192":-0.35720885411638287,"193":-0.014315830731721367,"194":-0.08409377861784592,"195":0.03927683883248604,"196":0.12777797792168563,"197":-0.4540294307833374,"198":-0.6101893649359655,"199":-0.1536490160799524,"200":0.1670452379069332,"201":-0.5258347386394892,"202":-0.5210869607283991,"203":-0.015460064147037848,"204":-0.19736697590668692,"205":-0.16914987463781506,"206":-0.12321989894115916,"207":-0.3824818001857264,"208":-0.45286935255045285,"209":0.3343043583499523,"210":0.19227266731450782,"211":-0.06416434565966798,"212":0.6737575509920674,"213":-0.3313200284837689,"214":-0.5974949759393082,"215":-0.5814308219180563,"216":0.08879679610008917,"217":0.07498957130546634,"218":-0.4197053751254425,"219":0.7767502062713493,"220":-0.04071435815456034,"221":0.2464416840236319,"222":0.27886919647960445,"223":-0.3000892413274892,"224":0.49436039677287674,"225":-0.021289915871950834,"226":0.37528020147107954,"227":-0.45150575666598175,"228":-0.08461668977247153,"229":0.39666514919323037,"230":-0.08539507416076575,"231":0.037209881296495134,"232":0.23066405028024817,"233":-0.29257326312224236,"234":0.15597496958073997,"235":0.175566275838002,"236":-0.06759862371349895,"237":0.5185431408058574,"238":0.10551375925348469,"239":-0.10007792460074624,"240":-0.031337601087419224,"241":-0.08695745889276443,"242":-0.25686742612450425,"243":-0.33790504266647947,"244":-0.2918651363024882,"245":-0.07581190006111672,"246":-0.14859430927018497,"247":-0.30307211806036166,"248":-0.17113027487038765,"249":-0.19935015270872017,"250":-0.24119330952628765,"251":-0.4346911487178087,"252":-0.17640129358639928,"253":-0.03902464026887229,"254":-0.4388917931801753,"255":-0.1554038469802414,"256":-0.21464635631428786,"257":-0.230003943881774,"258":-0.012677750818422229,"259":-0.36982302540979906,"260":0.17240703881191155,"261":-0.192910252776555,"262":-0.2554701568032927,"263":-0.4108058195599183,"264":-0.15218179195313605,"265":-0.3914857275863396,"266":-0.19744778801314924,"267":0.10597636749410887,"268":-0.17908507699962545,"269":-0.015597330762496612,"270":-0.43155488040922474,"271":-0.3160448108603848,"272":-0.21159521107611876,"273":-0.08121542513551468,"274":-0.3124848461562706,"275":-0.398263692895419,"276":-0.20721987138586026,"277":-0.07378293655029913,"278":-0.3295431951921964,"279":-0.24921760265946005,"280":-0.02030978804954734,"281":0.17349048038888118,"282":-0.4650176103061828,"283":0.4276625182809693,"284":-0.24391963950963022,"285":0.015904749058906244,"286":0.0194979244073087,"287":-0.25591932068545065,"288":0.22008522584997395,"289":0.24734135392034512,"290":-0.36880321682423123,"291":-0.5831432920496207,"292":0.11058044397519834,"293":0.10800511384606859,"294":-0.3417058201734629,"295":0.5269268425185946,"296":-0.07057192121521728,"297":-0.16594492789819765,"298":-0.1521895305110522,"299":0.10018396796333165,"300":-0.37168700950738026,"301":0.1162200880767713,"302":-0.37673489738365856,"303":0.009382044270625622,"304":0.09423381092131743,"305":0.14123056677731238,"306":-0.2730946947797327,"307":-0.3349903998142707,"308":-0.3558535695743903,"309":0.07856351118818528,"310":-0.16529057952933673,"311":-0.24762563639948684,"312":-0.04329469189186188,"313":-0.021269639792094085,"314":-0.41957268859318,"315":-0.3418999224126325,"316":-0.1419065702880235,"317":0.17513955792804203,"318":0.17564909134359216,"319":0.4551698972015092,"320":-0.1468217369966045,"321":-0.0631374785524048,"322":-0.1485942648838999,"323":-0.5561797781363038,"324":0.18020586224260574,"325":-0.2120046558750775,"326":-0.30766517979011926,"327":-0.8110118353932251,"328":-0.10036921468825195,"329":-0.21049014593892748,"330":-0.18104534246477105,"331":-0.33144341860147053,"332":-0.07009367948963491,"333":-0.18115042232598164,"334":0.022457188760178777,"335":-0.3763683218205189,"336":-0.2523705484435765,"337":0.0593231611597111,"338":-0.08255180239831225,"339":0.06737779026383416,"340":-0.08578778137214589,"341":-0.2080114016882404,"342":0.03744870070392277,"343":-0.33784508028576327,"344":-0.10611921813286429,"345":0.1604380101747365,"346":-0.04948297961965256,"347":0.14316040980112754,"348":0.0015860144620989955,"349":-0.026568719593198606,"350":-0.04973430066223771,"351":-0.2086956762552635,"352":-0.06922134688571227,"353":0.2010422091216203,"354":-0.36343052428624767,"355":-0.3114331261234423,"356":-0.49282232667176473,"357":-0.3944930861973271,"358":-0.1268541977589563,"359":-0.243426386984803,"360":-0.1919422686008504,"361":-0.09943832610219479,"362":-0.3531364562530473,"363":0.02958197926329017,"364":-0.07086347671554827,"365":0.016237062579436305,"366":0.07438801670080168,"367":-0.29208046226648854,"368":-0.05693373024043889,"369":-0.024172801120982086,"370":-0.40757788619189433,"371":-0.057486194979320254,"372":-0.2330435076077161,"373":-0.040768625714263367,"374":-0.3085214545583326,"375":-0.7020434520060062,"376":-0.17692785433390895,"377":-0.1348453324355857,"378":-0.32052747390617287,"379":0.009217520437994802,"380":-0.07008712279527587,"381":0.03215837081159312,"382":-0.15091061979141676,"383":-0.3376626767290055,"384":-0.10087754381649819,"385":-0.18738342762721422,"386":0.32992956579276417,"387":-0.40487606810128157,"388":-0.4239180270932048,"389":-0.1057977737748951,"390":-0.4459918256730853,"391":-0.1722148794334551,"392":-0.38227592859480747,"393":-0.09223454201715546,"394":-0.1376545527771523,"395":-0.2039492880831038,"396":-0.17310375296889752,"397":-0.19708679821082342,"398":-0.29876142865632216,"399":-0.01781117604156999}},{"sx":5,"sy":5,"depth":16,"w":{"0":-0.10492881764376581,"1":-0.042365567643176796,"2":-0.11361118571157756,"3":-0.2119592044413223,"4":-0.2007518784898003,"5":-0.1692177350592216,"6":-0.3717010766369503,"7":-0.47143121919406467,"8":-0.017730465637335862,"9":-0.2665099382094229,"10":-0.08228337840944394,"11":-0.09395394448613173,"12":-0.2222953991999904,"13":-0.0006012638105733635,"14":-0.13713606987154758,"15":-0.07217888356254536,"16":-0.13056496687598582,"17":-0.01715906968174867,"18":0.24101782505202105,"19":-0.20767269352960505,"20":-0.29278821526228554,"21":-0.19151767004516415,"22":-0.2975532403306871,"23":-0.2820720313002202,"24":0.17310857912880767,"25":-0.1427484307549342,"26":-0.08257612634817596,"27":-0.26533473738522545,"28":-0.1309412179165341,"29":-0.11954959922357243,"30":-0.20949523031611614,"31":-0.325869517145218,"32":-0.09235093584297711,"33":0.046782436884309705,"34":-0.05137532769234452,"35":-0.013810128072326922,"36":-0.3270769495190713,"37":0.09412173723043347,"38":-0.09843237224215581,"39":-0.3673253732567691,"40":0.31953678803402186,"41":-0.2092735333237251,"42":0.353185345419843,"43":-0.289821859860851,"44":-0.1386860251599114,"45":0.08262549197342262,"46":-0.07883527856011253,"47":-0.06932390272576319,"48":-0.059600128793931166,"49":0.08611776598447644,"50":0.16632097674801555,"51":-0.125356999686774,"52":0.6089150881851829,"53":0.02357269586384247,"54":-0.18525724541172722,"55":-0.005123801120466136,"56":-0.0438838247885367,"57":-0.09141542099408707,"58":-0.07395505636766894,"59":0.06491781541204492,"60":-0.10334571270786104,"61":-0.11658339014063833,"62":-0.04561410414010651,"63":0.14505508905490802,"64":-0.11689774893277152,"65":-0.138407953280789,"66":0.30158416830453616,"67":-0.2763637972532642,"68":0.2575913850070606,"69":-0.017065576792475987,"70":-0.07559394432120549,"71":0.4338656236298084,"72":-0.0768246804534789,"73":0.08439993461125717,"74":-0.34371938373192545,"75":-0.01390091203976643,"76":-0.057744621996640315,"77":-0.18694868739416926,"78":-0.08242195308499907,"79":0.08219888065144199,"80":-0.11446173559604798,"81":-0.22667469495657594,"82":-0.18910404425136254,"83":-0.6891040380572473,"84":0.014918238254051457,"85":-0.19593109605156767,"86":0.04328067747410229,"87":0.4439701740263189,"88":-0.10539883958630705,"89":0.07847880852719043,"90":-0.43422240199618023,"91":-0.20798345886942943,"92":-0.32678060619018773,"93":-0.18324314206382986,"94":-0.21136981680134295,"95":-0.2857528371521918,"96":-0.23163266882353545,"97":0.029179730978886435,"98":-0.06061563770784551,"99":-0.6887076227051079,"100":-0.05735208593130788,"101":-0.07284080161138541,"102":-0.21578795507846926,"103":0.006842697839457096,"104":-0.05913180241726384,"105":-0.12061974699888814,"106":0.1381540564148388,"107":-0.03886150894155273,"108":-0.21668813910573667,"109":-0.11407733660640447,"110":-0.18630696811086186,"111":-0.22293705325648908,"112":-0.16076412932637918,"113":0.27698949754395935,"114":-0.032040318217565956,"115":-0.39829813635525124,"116":-0.2271187305543309,"117":0.15079764719446015,"118":-0.37187585126733735,"119":0.3196513549402446,"120":0.13330409308289212,"121":-0.21901331967283388,"122":-0.1565001549106578,"123":-0.10318213345549603,"124":0.05990031967513169,"125":-0.0012208376654590208,"126":-0.29974166645301054,"127":-0.060982221676497,"128":-0.06337967101269656,"129":0.19763731077702448,"130":0.20989445818316826,"131":-0.2801856927858212,"132":0.16138141321952135,"133":-0.021742397056096558,"134":0.22382994167649353,"135":0.40009074434122277,"136":0.03330072013026054,"137":0.35536242835055876,"138":-0.16889355187400193,"139":0.025945216322123446,"140":-0.025484256176854417,"141":-0.0020393811199933827,"142":-0.18465025887488026,"143":-0.0662433120810057,"144":0.051324762139250524,"145":0.016659380974929486,"146":0.3659341273299225,"147":-0.33029444376179173,"148":-0.1257949670533033,"149":-0.16559279272535993,"150":-0.022942956103259016,"151":-0.238217072335417,"152":0.1588809754357745,"153":0.11669350949630138,"154":-0.22443058317658238,"155":-0.048342918796148056,"156":-0.0894616689487776,"157":0.01673681310035298,"158":0.01882891649056335,"159":-0.009987072794445355,"160":-0.03310292919512305,"161":-0.01747626348531671,"162":-0.25516796524873925,"163":0.3415295038409675,"164":-0.18550106714788694,"165":-0.30265695631532474,"166":-0.46381019748891905,"167":0.012926204071675013,"168":-0.10658820302732859,"169":0.20495670282692155,"170":-0.20573256282025695,"171":-0.011012905152007242,"172":-0.3169052523107796,"173":-0.09862174696034486,"174":-0.09086916522906681,"175":-0.24568951345041212,"176":-0.03927901686704473,"177":-0.27271583770208524,"178":0.04400030006520741,"179":0.41565536261558744,"180":0.3490173340754748,"181":-0.246311839224241,"182":-0.04662931617956244,"183":-0.12229718989021894,"184":0.033400552607363666,"185":-0.2620675349995281,"186":0.14915255149579826,"187":-0.09454420595341069,"188":-0.40993397557638844,"189":0.0025854460839918798,"190":-0.12623314955531878,"191":-0.19477993437077284,"192":-0.11890714636351289,"193":-0.009769455988941054,"194":-0.09980879487934984,"195":-0.19098093855014517,"196":-0.2112355638235052,"197":-0.10102555349265556,"198":-0.20801136042547172,"199":0.12388838453731242,"200":0.05632168121866504,"201":0.061690905935076513,"202":0.0939315660689042,"203":-0.24770856747601724,"204":-0.20874222864054195,"205":-0.0648698436796648,"206":-0.2856979394601732,"207":0.007821810955157606,"208":-0.0320863148389576,"209":0.1496523190597445,"210":-0.30099456414128883,"211":-0.3348981812821422,"212":-0.184864011541301,"213":-0.06903228101841918,"214":0.4169316108166733,"215":-0.005385523456323346,"216":-0.25204827804177626,"217":-0.04859082143097315,"218":-0.03255912808868427,"219":-0.007507768464089728,"220":-0.2754135881690214,"221":-0.028757986548514358,"222":-0.1871329999646983,"223":0.10899942052150266,"224":-0.11155500801434273,"225":0.28410107051494676,"226":-0.1278323390954134,"227":-0.4179252476181823,"228":-0.1647581708264572,"229":-0.1538590559965303,"230":0.05484940536296611,"231":-0.679426245969806,"232":-0.036580544450867225,"233":-0.1826394826696705,"234":-0.12975431680468097,"235":-0.07639446779860501,"236":-0.1996353200685788,"237":-0.037587287662830315,"238":0.02240507133937915,"239":-0.0766843689811611,"240":-0.09590087347039658,"241":0.07632994573905184,"242":-0.3170250363950005,"243":0.15619321654134827,"244":-0.25547743571847836,"245":-0.37104101791645333,"246":-0.34050084426220856,"247":-0.10580368490617384,"248":0.06945915916710593,"249":-0.3093104845510303,"250":0.08647818682053922,"251":-0.1331359827281217,"252":0.08765451634956706,"253":-0.12321967948025901,"254":-0.252883687299666,"255":-0.11264062825378357,"256":-0.10544008828029773,"257":-0.1833226608894233,"258":-0.19148028387910773,"259":-0.07778203575030397,"260":0.5272089075107381,"261":-0.015362950863952724,"262":0.49246172417633927,"263":-0.5223223549226125,"264":-0.009385862910176037,"265":-0.11680740582697828,"266":-0.29193785499007435,"267":-0.030317652850230293,"268":0.21177495439996608,"269":-0.1003270202023832,"270":-0.37771739749138106,"271":-0.2523082417115645,"272":-0.0038577364932901935,"273":0.04796406161406134,"274":-0.3187591679882732,"275":-0.38342963385242773,"276":-0.12061883554538533,"277":0.08416778537360012,"278":0.06350213766094459,"279":0.3324685140870921,"280":-0.017013263183690692,"281":-0.12181382591817598,"282":-0.06570095501248761,"283":-0.15100124916057314,"284":0.34324956494490977,"285":-0.08051619301179684,"286":-0.3348745355440642,"287":0.07147265176474762,"288":0.04322598061391322,"289":0.1862837375805469,"290":-0.08538195851268815,"291":-0.2562690737741841,"292":0.05711974323196086,"293":-0.13895111386126416,"294":-0.31538048582677314,"295":-0.49281264402684666,"296":-0.09939391473636854,"297":-0.17811003384285592,"298":-0.28090442220331874,"299":0.16715379334632122,"300":0.1907371747994251,"301":0.05065664973374124,"302":-0.34098515839865623,"303":0.12149732955933844,"304":0.02923203974430996,"305":-0.02914005741854061,"306":-0.06562707887711546,"307":-0.30419766590791314,"308":0.14452432302070106,"309":-0.1407250586443654,"310":-0.21174956986627544,"311":-0.3356740223683815,"312":-0.23138962775373748,"313":-0.338997843790383,"314":0.01587772649492871,"315":-0.08231716285783675,"316":0.07978846812526241,"317":0.2436111019576382,"318":-0.19943382038948274,"319":0.15968755720916317,"320":-0.028155688316124677,"321":-0.017310053790709524,"322":-0.3875351440420713,"323":0.5154931638255004,"324":-0.08382877330056324,"325":-0.05802760349798997,"326":-0.024791298206317248,"327":0.6517573662642971,"328":0.10036009988737654,"329":0.12026958864509286,"330":0.14473572837739918,"331":0.11708683051837226,"332":0.05786467155925389,"333":0.03845803185477718,"334":-0.33103638196375396,"335":-0.009101417028725436,"336":0.03497722488706087,"337":0.012088918226316268,"338":-0.028935721699674476,"339":-0.5680525610848357,"340":0.08008134692853924,"341":-0.0189229105815981,"342":-0.07921650522453981,"343":0.33883604861325617,"344":-0.30543698791160234,"345":-0.05650727424563448,"346":-0.3153494608846201,"347":0.4882311154211415,"348":-0.05568482620689745,"349":-0.03172126473416758,"350":-0.2876888748447768,"351":-0.054750884885084936,"352":-0.12302947112013435,"353":0.0768073993074528,"354":-0.3392882807586587,"355":-0.7214828239675221,"356":-0.22593791928342874,"357":-0.11195615713950689,"358":-0.31641627462809924,"359":-0.3506237413812121,"360":-0.016591276475452558,"361":0.11914708178538716,"362":0.03193448569591132,"363":-0.007848321745098488,"364":-0.16545844362601597,"365":-0.26382089425977334,"366":-0.44750328050586974,"367":-0.07579958551499295,"368":0.01121023207733854,"369":-0.17174123716676432,"370":-0.22391665184788437,"371":-0.3530184621084865,"372":-0.20704494306483964,"373":-0.3931158097662768,"374":-0.11563591789148703,"375":-0.5537845908534019,"376":-0.27396062210320543,"377":-0.4933875857925213,"378":-0.21811223303597815,"379":0.1850133223164031,"380":-0.05762849700470835,"381":-0.10599004961963177,"382":-0.3445879321894857,"383":0.08771490469978008,"384":-0.22702064460477886,"385":-0.017466408970393532,"386":0.27906263477661536,"387":-0.26286022511870233,"388":-0.30620610393284214,"389":0.0332311357971245,"390":0.06258950841433944,"391":-0.06386491258598641,"392":-0.2508826054864843,"393":-0.4130009918390796,"394":0.22701430569211734,"395":0.05628103905742065,"396":-0.07473966718003484,"397":-0.07031230075591062,"398":0.028306725345433045,"399":0.056500091938576795}},{"sx":5,"sy":5,"depth":16,"w":{"0":-0.18125452723109745,"1":-0.03596418965341034,"2":0.0860414240959172,"3":-0.4643505376488774,"4":-0.07305473855119683,"5":-0.017647009990249082,"6":0.009222007947138277,"7":0.12772240932858603,"8":-0.019431261060612687,"9":-0.06547921973357376,"10":-0.16441878973881682,"11":0.2915198043612555,"12":-0.14289851169994422,"13":-0.01600278559132841,"14":-0.05801974442136148,"15":-0.05206197489853604,"16":-0.16958627141090313,"17":-0.09061232602263819,"18":-0.39734879037305915,"19":-0.17888308813932247,"20":-0.11959580447829767,"21":-0.10959646768419223,"22":0.03289982852088385,"23":0.9504407702546558,"24":0.06042291173677894,"25":-0.13073327321305148,"26":-0.10494311341603116,"27":-0.15174776682160965,"28":-0.06404881423973373,"29":-0.06549349378008325,"30":-0.13472478831320026,"31":-0.24768479188946235,"32":-0.18600584398429468,"33":-0.041520328595443114,"34":0.05169432960855164,"35":-0.07835885955266764,"36":-0.12569701364398392,"37":-0.11046694982330969,"38":-0.07186375809871479,"39":-0.8299823867906069,"40":-0.08530049924587338,"41":-0.4079362325842861,"42":-0.24905484936493857,"43":-0.07050996174048685,"44":-0.15557240635817232,"45":0.06540679948643031,"46":-0.10549139615409009,"47":-0.1437904849921573,"48":-0.08798959267244556,"49":-0.06850255630108411,"50":-0.1558044162989322,"51":-0.1154607556295721,"52":0.07802303396799884,"53":-0.08922809013320424,"54":-0.15828456252736803,"55":-0.6417990742622975,"56":-0.02932751956847456,"57":0.2642155050307112,"58":-0.304219555805132,"59":-0.18844489583576665,"60":-0.14822496292115084,"61":-0.13142325212715147,"62":-0.2487728307052691,"63":-0.3895889621461514,"64":0.0038266590429979143,"65":-0.0993969843343133,"66":0.2623778402675349,"67":-0.13670371791793307,"68":0.02277333810481348,"69":-0.09325976820402074,"70":-0.20856501813973105,"71":-0.4528740083882961,"72":0.18207242920666067,"73":-0.06689014534094688,"74":-0.20967513527641438,"75":-0.3340561322457676,"76":-0.11468504771791617,"77":0.01153266811408448,"78":-0.24219677672003023,"79":-0.16176474552894743,"80":-0.12806330480126252,"81":-0.08484887488695735,"82":0.043808564232183135,"83":-0.059679795903376,"84":-0.1904847258068774,"85":-0.1897492310186789,"86":-0.22986152787253053,"87":-0.3083997980354406,"88":-0.12450866196891801,"89":0.26102775443787263,"90":-0.24970146864946163,"91":-0.30962230871762375,"92":0.170749087794961,"93":0.008014636666873848,"94":-0.20599933075107627,"95":-0.15041505698448496,"96":-0.17891774517557574,"97":-0.2358441483648582,"98":0.3142237715168937,"99":-0.1171359409488786,"100":-0.3123659205592479,"101":-0.0844828385327874,"102":-0.07910535934847793,"103":-0.1695498105127902,"104":-0.18367412338310668,"105":-0.058980598648352776,"106":-0.2107606533075594,"107":-0.5093338971453576,"108":-0.029972989717774557,"109":-0.01211059866616639,"110":-0.03837814181412593,"111":0.027273012529765286,"112":-0.2993253032899943,"113":-0.24925123466958055,"114":0.038087748783945406,"115":-0.18844318803854723,"116":-0.33544570778350685,"117":0.03861656589748497,"118":-0.19442439553267823,"119":-0.05857952767474683,"120":-0.1779581052611703,"121":-0.3135191523003555,"122":-0.2540023222138352,"123":-0.1658915381543135,"124":-0.04984546383665095,"125":0.04852736404360695,"126":0.056036792464262186,"127":-0.2193114876372021,"128":-0.08277075849580944,"129":0.02098889888913125,"130":0.1738226825275616,"131":-0.059327825612103986,"132":-0.06755179419120223,"133":-0.017223612363246987,"134":-0.14840620721174116,"135":-0.5146329467583433,"136":0.07782776478176232,"137":-0.0671550861902439,"138":-0.13025570139783624,"139":-0.06581942096865649,"140":0.027610392556782427,"141":-0.08328286692185534,"142":-0.17814287829389944,"143":-0.08017015024653262,"144":-0.13089359969367956,"145":0.07327136464820234,"146":-0.12412198443527729,"147":0.022604913136021997,"148":-0.06878605061732158,"149":-0.14168942243119026,"150":-0.016299099370445633,"151":-0.04960145591043627,"152":-0.06210985340809563,"153":-0.2257360350537638,"154":-0.2849769647893553,"155":-0.1365813436624545,"156":0.043162052820320866,"157":-0.13971566740267383,"158":-0.11384645924263807,"159":-0.03744360478183006,"160":0.1595913768564338,"161":0.047824507132908395,"162":-0.1640031196383393,"163":-0.23432356349157288,"164":0.018107902847523588,"165":-0.252706734329837,"166":0.36200641496139485,"167":-0.6610597454505022,"168":-0.06802144661663813,"169":-0.17447141285782558,"170":0.17806506468888086,"171":0.08679004653027479,"172":0.009009106350203756,"173":-0.018493547922421895,"174":0.1719302930537893,"175":-0.14544175257242556,"176":-0.27494231977059086,"177":-0.04721923577149318,"178":-0.07627383655966141,"179":-0.07192344785990806,"180":-0.14521339538109368,"181":-0.3143015312051343,"182":-0.1592951853507446,"183":-0.638882450367332,"184":-0.08255931476107738,"185":-0.18142665426088886,"186":-0.23644388955954967,"187":0.13705866563008928,"188":-0.05502103918455415,"189":-0.22907367511275079,"190":-0.10738469068415331,"191":0.09364092836320916,"192":-0.10656634067101386,"193":-0.05832684012678129,"194":-0.08426273727302441,"195":-0.19664938332044646,"196":-0.3004340466802042,"197":-0.17903966721780762,"198":-0.1493917266268329,"199":-0.5992736365550109,"200":-0.1501985911057838,"201":0.041648499630364724,"202":-0.2798794408525911,"203":-0.18694768540556125,"204":-0.11872268754124969,"205":-0.18070504162336326,"206":-0.09119566957652828,"207":0.0687937819646849,"208":-0.009329327926620263,"209":-0.1490613983386114,"210":-0.06119400162140108,"211":-0.1079662950676755,"212":-0.11953005191157912,"213":-0.29372455683380877,"214":-0.22632236865848815,"215":-0.7220580421958692,"216":0.05517173654559923,"217":-0.19861229570978547,"218":-0.36049689244629046,"219":-0.15471173309733036,"220":-0.1278538302035949,"221":-0.14043632474663284,"222":0.08751713553928536,"223":-0.1865720873508253,"224":-0.11877646085562538,"225":-0.09662582909813269,"226":-0.0267205499599075,"227":0.007221595568020789,"228":-0.13823885841893724,"229":-0.062386757018640285,"230":-0.13681974133177716,"231":-0.5763991330204428,"232":-0.14637577716444286,"233":0.24512650004104689,"234":-0.07188168819065524,"235":-0.13263811013009008,"236":-0.08313306961181455,"237":-0.017532831298526518,"238":-0.1450547704698061,"239":-0.1368877004623197,"240":-0.1388007935769569,"241":-0.005238233198208831,"242":-0.2587044197478402,"243":-0.20428900977229625,"244":-0.028380831686264218,"245":-0.2772777643171779,"246":-0.23769423079395186,"247":-0.15448075666086228,"248":-0.06957472259415624,"249":-0.18792773022993403,"250":-0.04265560094087096,"251":0.0460735186462364,"252":-0.06668025932541664,"253":-0.025468582384260943,"254":-0.17827486812086618,"255":-0.056552732699721636,"256":-0.10202967949420784,"257":-0.0901424141542549,"258":-0.16836918986274815,"259":-0.12221808912346144,"260":-0.04682810542598395,"261":-0.2554061503824394,"262":-0.13530623328230654,"263":-0.1763647922012446,"264":-0.13863430766718599,"265":-0.03506897926652985,"266":-0.0322461808011035,"267":-0.01937440969329891,"268":0.04640895979960292,"269":-0.08299855570935423,"270":-0.3031094961940936,"271":0.1416821114993845,"272":-0.13984716172321493,"273":-0.03632574646411181,"274":-0.0863412509567758,"275":-0.4207396317795307,"276":-0.2965751798176669,"277":-0.19985928131861586,"278":-0.3484927488340778,"279":0.9994209816160773,"280":-0.12896208775926485,"281":-0.2919079795793394,"282":-0.14827176994276506,"283":-0.2858833147538474,"284":-0.1618413784087594,"285":0.02652866286546328,"286":-0.4905944855561227,"287":0.1066991737150971,"288":-0.10181846246638114,"289":-0.10079646543772793,"290":-0.17232120616880983,"291":-0.21191480029704554,"292":-0.179440779480841,"293":-0.19733283509066155,"294":0.19245292698786276,"295":-0.08515785325472036,"296":-0.14630285474623114,"297":-0.3028212039573941,"298":-0.3457142753486928,"299":-0.08197605388910412,"300":-0.16661405300983753,"301":-0.08013045233061752,"302":-0.14162930166251678,"303":0.12171201106468066,"304":-0.11889704500269094,"305":0.11566966851758198,"306":-0.16405481197395358,"307":-0.12646884370299308,"308":-0.08361908977088052,"309":-0.17003791191356207,"310":0.09210561641429943,"311":0.05829037190938695,"312":-0.14170543586009426,"313":-0.10678414541763359,"314":-0.34608903594984886,"315":-0.1098856078889864,"316":-0.08076027103557783,"317":-0.02215642355850902,"318":0.06482601362745607,"319":-0.15317473218107883,"320":0.0914936416444732,"321":-0.02472078879970881,"322":-0.34117313787353937,"323":-0.10568832923555402,"324":0.5132929226515909,"325":-0.14153424138570547,"326":-0.3281767226477764,"327":0.39894669540554895,"328":-0.06400463391803764,"329":-0.2873528140323103,"330":-0.1607558028851525,"331":-0.09813995061391347,"332":-0.10820074452350827,"333":-0.18625068643425507,"334":-0.09336680554276167,"335":-0.31668081786403274,"336":0.009717080848502618,"337":-0.10474101919175532,"338":0.1297360290723456,"339":-0.11293855423581867,"340":-0.26155271750911663,"341":-0.12924118510239302,"342":-0.37725747529983494,"343":-0.5232744329796624,"344":-0.10313969200156167,"345":0.003292435467182772,"346":0.019719250538326464,"347":-0.25107880974883506,"348":-0.00870349314332103,"349":-0.04685379459150792,"350":-0.4069422466407612,"351":-0.22754893540812804,"352":0.13050395957200897,"353":0.057491045741689256,"354":-0.22592658561608345,"355":-0.19506973815791542,"356":-0.31106132125101127,"357":-0.1458769127531067,"358":-0.2678888569898233,"359":-0.15976266302181896,"360":-0.15014098144061583,"361":0.13792627425637632,"362":-0.1685933006030051,"363":-0.2611741921405266,"364":-0.10761376387324756,"365":-0.10914329632025854,"366":-0.22792506878419602,"367":-0.3066095502755692,"368":-0.19611293579715125,"369":-0.000988493641595009,"370":0.09030791973011605,"371":-0.22543084610329575,"372":-0.20265766276926653,"373":-0.26660907617890184,"374":-0.2629538147387854,"375":-0.07887295156220009,"376":-0.1723921067478804,"377":-0.029505328749666743,"378":-0.17143797183000503,"379":-0.19465308778977122,"380":-0.08965888657999967,"381":-0.21531127697038843,"382":-0.18566150057240002,"383":-0.2256473876919305,"384":-0.17405177846728398,"385":-0.06592069434023602,"386":0.11034074541340283,"387":-0.31937720872379743,"388":-0.00888191317456487,"389":-0.11993923120783663,"390":-0.10313147167976272,"391":0.006470508716593638,"392":-0.10087551917375946,"393":-0.022040473612938396,"394":0.12317408065380721,"395":-0.06814487074244227,"396":0.008349377434404143,"397":-0.05691230792033972,"398":-0.2282141038519001,"399":-0.23613748192647915}},{"sx":5,"sy":5,"depth":16,"w":{"0":0.22144200096988215,"1":-0.11251009430425764,"2":0.19422843320661773,"3":-0.39737478841483315,"4":-0.16789117276124757,"5":0.1415169700617589,"6":0.05709474464418653,"7":0.11578843887741781,"8":0.10804946461628866,"9":-0.01620752530689101,"10":-0.38328906006641605,"11":-0.001536778774514696,"12":-0.158922937681107,"13":-0.21059686907968717,"14":-0.2685283126576143,"15":0.03195950311694831,"16":0.027419975564130974,"17":-0.14866022593687958,"18":-0.12217320126437148,"19":-0.13987293282819252,"20":-0.2755411323494933,"21":-0.07677792174703177,"22":-0.06216611525254034,"23":0.639842145162619,"24":0.1479910794267118,"25":0.13359766858290156,"26":0.01708062335589747,"27":-0.16576904302854786,"28":0.03896434866532625,"29":-0.0006518179798062665,"30":0.0154270460126035,"31":-0.15407463960406906,"32":-0.00770551800561478,"33":-0.14959795109384466,"34":-0.06617967014106728,"35":-0.19221561486882438,"36":-0.2592367875923728,"37":-0.17501397645506012,"38":0.07402143793147518,"39":0.047825424283052795,"40":0.009799015738935548,"41":-0.22348605629530383,"42":0.09289059257444784,"43":-0.2787470099130499,"44":-0.17072667792218735,"45":-0.07037873243682602,"46":-0.40000190257485785,"47":-0.22786893611854414,"48":-0.021809570859029397,"49":-0.08233740394655958,"50":-0.17280772814686232,"51":-0.3676099578260476,"52":0.013881803932168337,"53":-0.21861746748956534,"54":-0.2613055665190416,"55":-0.3155239185006282,"56":0.011535773042790796,"57":-0.07990187399823753,"58":-0.2112896514925835,"59":-0.2674813670229643,"60":-0.17025549293111103,"61":-0.02713784782137727,"62":-0.2372780905035505,"63":-0.17085855637046238,"64":-0.05713776361534539,"65":-0.10781304164094359,"66":-0.02514398015594986,"67":-0.1612372044719547,"68":-0.09728048247439744,"69":-0.21785796165638305,"70":-0.13589841379350262,"71":-0.43861522853021784,"72":-0.05285254491720938,"73":0.022814834787203423,"74":-0.15867971688266838,"75":-0.11635009081959181,"76":-0.07268368632663993,"77":-0.0703453424812901,"78":-0.16397730312256031,"79":-0.21757136200177407,"80":0.06710944982062293,"81":0.2219635082099393,"82":-0.07383612669972957,"83":-0.21209186104463112,"84":-0.5584959759205299,"85":0.5007512420502298,"86":-0.10930256917256004,"87":-0.0800132568827389,"88":-0.04604975807864348,"89":-0.18940830792628113,"90":-0.18499715478161846,"91":0.23603030119681676,"92":-0.0955541925110762,"93":0.0839912099546572,"94":0.47005596804629124,"95":0.3353583257895004,"96":0.2095571437144417,"97":-0.06630290746103217,"98":-0.220381749367237,"99":-0.13342394511443775,"100":-0.4641064543838956,"101":0.4295463487215005,"102":0.09851619542335673,"103":0.7126325888029739,"104":0.292369601124311,"105":-0.07453122919622429,"106":-0.15440945490152688,"107":0.006991709334333944,"108":-0.06340433220663762,"109":0.10695803218825113,"110":0.33056083686060583,"111":-0.09904667647900105,"112":0.03500724227059503,"113":-0.0716119709957271,"114":-0.22686200666907833,"115":-0.17157448279417903,"116":0.029644665151635004,"117":0.225412172597088,"118":-0.1631011130377374,"119":-0.12105272666672538,"120":0.3531410454712832,"121":-0.3712288402099582,"122":-0.031283411510848444,"123":0.03841193558419971,"124":-0.002104057137787051,"125":0.011695901257238888,"126":-0.3284617028870856,"127":-0.04336722730675417,"128":-0.18745527482414437,"129":-0.21267302666426965,"130":-0.08336702755520403,"131":-0.22118780801058646,"132":-0.029851836692969216,"133":-0.16905578407393712,"134":-0.17904962580592065,"135":0.06443580838264593,"136":-0.11991510101572256,"137":-0.04578621639573638,"138":-0.2936457733737139,"139":0.0057902852742380845,"140":-0.14921621184630413,"141":0.048435798351511766,"142":-0.3263400961412355,"143":-0.024892113249683146,"144":-0.1758666353356222,"145":-0.19158191435535943,"146":-0.09099518092326798,"147":-0.3302140010082184,"148":-0.19732012824746967,"149":0.16856281597273653,"150":0.16293813232200866,"151":-0.5467760586831995,"152":-0.17577116297674775,"153":-0.09011282630500812,"154":0.10053931309216067,"155":-0.03077558491588657,"156":0.1547817109468495,"157":0.13566958911450863,"158":-0.07985405227056112,"159":-0.14922407333346172,"160":-0.000980608121316183,"161":0.17424825553587472,"162":-0.4715591884417529,"163":0.11496603853424744,"164":-0.37128198376551913,"165":-0.07172842301896781,"166":0.0038299317867631216,"167":-0.5920615548227376,"168":-0.17644380974856436,"169":-0.10978005379129463,"170":0.3019875414688301,"171":-0.0711343272982136,"172":-0.07072829468424979,"173":0.1695351787973696,"174":-0.1304557179209304,"175":-0.023123186376489326,"176":0.12961372188794118,"177":0.06413676812837062,"178":0.1916620017440954,"179":-0.049997124981996016,"180":-0.3171726260587047,"181":-0.11877385706387505,"182":-0.04422328640992134,"183":-0.19996449644120726,"184":-0.1683463881847004,"185":-0.011036634524439816,"186":-0.24667953199823336,"187":-0.09269477341728098,"188":-0.10507382183371639,"189":-0.004895727685750891,"190":0.11720734492175622,"191":0.05800906022358452,"192":-0.1346920213471344,"193":-0.006444048477816937,"194":-0.1273806359486179,"195":-0.08414758583263829,"196":-0.24936962364035414,"197":-0.31514461758271023,"198":-0.13154951524924033,"199":-0.22826485046755252,"200":0.010529094890103806,"201":-0.1548098511446408,"202":0.03882825127604151,"203":-0.13741595339420504,"204":-0.18241992349515543,"205":-0.10915362129297698,"206":0.1969297956907006,"207":0.040705055762491435,"208":0.005922772671710621,"209":-0.054304015693986823,"210":-0.1917510866795502,"211":-0.09429972485336986,"212":-0.17624067969287285,"213":-0.4156501029957161,"214":-0.1377597504246608,"215":0.12484031321100492,"216":-0.1480323811226206,"217":-0.04952858019595068,"218":-0.21712793079886164,"219":-0.11829602662784496,"220":-0.2142739778104774,"221":-0.07738388465984546,"222":-0.06081246045316998,"223":-0.0606161061064433,"224":0.07110749611630182,"225":-0.09476554803486191,"226":-0.09888231932018061,"227":-0.3512118627330439,"228":-0.2980746111695739,"229":-0.1877888131258266,"230":-0.08862448837713313,"231":0.34922496932988595,"232":-0.280005894753333,"233":-0.008411456569792178,"234":-0.13450905393566628,"235":-0.13299956612249253,"236":-0.2598652818546262,"237":-0.0013901389721307437,"238":0.13794718581786852,"239":-0.115069311272557,"240":0.03507558938093062,"241":0.13916519989055123,"242":-0.27860060309588713,"243":-0.03421112544569185,"244":-0.10967936628991086,"245":0.11014440425640183,"246":-0.4140847237279208,"247":-0.3879670262763817,"248":-0.0914538458996364,"249":0.23620517532238766,"250":0.1818468226904504,"251":-0.2607462206439067,"252":-0.1077058895954116,"253":0.036929746274764516,"254":-0.22890355901818496,"255":0.010975956154890458,"256":-0.1065714064353582,"257":-0.005127035796754004,"258":0.18879516745775474,"259":-0.052904633312151096,"260":-0.10685175876321978,"261":0.13776736577866602,"262":-0.31308259078607664,"263":-0.0006860403763284064,"264":0.11647341756493303,"265":0.12666434740657598,"266":-0.28618500948342007,"267":-0.18755332729437524,"268":-0.08464845036633202,"269":-0.13117431455345813,"270":-0.248464467294658,"271":-0.09454836486499738,"272":0.11312418526876572,"273":0.03455950674506958,"274":-0.03160828080903749,"275":-0.08935111633413277,"276":-0.39066380049801724,"277":-0.1930479589342418,"278":-0.13403118591022556,"279":-0.6046504310660278,"280":-0.22041221487528403,"281":-0.3421689776846576,"282":-0.10674711693001622,"283":-0.20028134603426492,"284":-0.07612153327337665,"285":-0.19413821928068387,"286":-0.13573209525246027,"287":-0.07999263020052202,"288":-0.031708153782917727,"289":-0.1524768420234909,"290":-0.016227683126528624,"291":-0.0855127944099906,"292":-0.3967092802233223,"293":0.03312844268198387,"294":-0.3346351556394924,"295":-0.3880426366938908,"296":-0.06717170738422922,"297":-0.2647929973093339,"298":0.2303778950223326,"299":-0.29516890276712593,"300":-0.07868790684227026,"301":-0.09391814609304805,"302":-0.3120647227448084,"303":-0.022395253223212404,"304":-0.16264793460745677,"305":-0.11649083703905043,"306":-0.2170818720833866,"307":-0.16958059170444217,"308":-0.1315048781974012,"309":0.005389051960002573,"310":-0.09513403234763541,"311":-0.3898266161402347,"312":-0.18571589315697398,"313":-0.12598684486406045,"314":0.09693437241346717,"315":-0.15180205620662937,"316":0.036026015094764316,"317":0.016520514148319655,"318":-0.2332602674994419,"319":0.019016672870528176,"320":-0.06638634392023918,"321":0.08200558788187153,"322":0.22724120837360012,"323":-0.19067218077322692,"324":-0.14846295924955,"325":0.18713014910457956,"326":-0.13544382496583252,"327":0.3130073857756029,"328":-0.22055342496051708,"329":0.22164766827232135,"330":0.13494009690304318,"331":0.004057529462703125,"332":-0.08726678107479507,"333":0.05805614609991016,"334":0.10477070686968079,"335":0.02466573001965743,"336":0.03598977124713261,"337":-0.07304601990642459,"338":-0.07343333331222492,"339":-0.3905184205698766,"340":0.07228399950433731,"341":-0.16794407049802368,"342":-0.21422930907252452,"343":0.3700855028577094,"344":0.01290569755047088,"345":-0.33859854574159226,"346":-0.22991736039002988,"347":-0.18163500225228696,"348":-0.1489696545890186,"349":-0.03226809548533966,"350":-0.09172571681299224,"351":-0.25352313923113917,"352":-0.08927161687403973,"353":-0.29457801153902985,"354":-0.22686278006376162,"355":-0.3880018798786286,"356":-0.2261786381783,"357":-0.1466746710065795,"358":-0.4278997562112961,"359":-0.5609660297479868,"360":-0.036174615083873256,"361":-0.5158247609334247,"362":-0.13126247118223108,"363":-0.13974252696298528,"364":-0.10551920182562037,"365":-0.017853525018310126,"366":-0.11008881379929304,"367":0.16727722792490676,"368":-0.04544680333722665,"369":-0.06745384928083693,"370":-0.29778943044666284,"371":-0.28949012030544863,"372":-0.37560745238483834,"373":-0.03378984231142852,"374":-0.03224843897293371,"375":-0.271211026226113,"376":-0.004440373887391992,"377":-0.5325686291311061,"378":0.20265400799609146,"379":-0.1129262149899908,"380":-0.15337283999431686,"381":-0.013490559060655044,"382":-0.04241245632194422,"383":-0.18756326603566403,"384":-0.014814576361833209,"385":-0.08099034659871984,"386":-0.06324892573976584,"387":-0.230297007566845,"388":-0.14886551000571235,"389":-0.2276249183563388,"390":0.1274430822411293,"391":-0.5180377380122032,"392":-0.2287889829231941,"393":-0.1553146925089995,"394":-0.14609581639225258,"395":-0.08027916179774695,"396":-0.14128576168024257,"397":-0.05085039947039139,"398":0.018152713551542535,"399":-0.19560238589805287}},{"sx":5,"sy":5,"depth":16,"w":{"0":-0.17494971015604127,"1":-0.1020360899474974,"2":0.09465593864887224,"3":-0.030072265562069354,"4":-0.02371082872643467,"5":-0.24143846934505933,"6":0.11096859378121816,"7":-0.09631544081902782,"8":0.11715084898083268,"9":-0.093241466850521,"10":-0.03896157855703359,"11":0.1200271065396091,"12":0.12831665797686911,"13":-0.14574667767513416,"14":-0.06045039959684686,"15":-0.12003615420427836,"16":-0.19598307193430628,"17":0.018287471588521214,"18":0.1210274841521208,"19":0.12982985401526118,"20":0.1938562297069361,"21":-0.3523665430386366,"22":0.05051338687429019,"23":-0.11136672268992553,"24":0.021185782038272885,"25":-0.011403780093932416,"26":-0.08869020856415816,"27":-0.11511358328322951,"28":0.15057362796615076,"29":-0.11156573951677894,"30":-0.06033527871924687,"31":-0.006665050684058494,"32":0.06325388337110618,"33":0.013425190100641207,"34":0.1989150899539713,"35":-0.1280470169828599,"36":0.24675514815005742,"37":-0.21834992993639069,"38":-0.2030562521130044,"39":-0.12278810676186576,"40":-0.014384069998116172,"41":0.06580537999978919,"42":-0.08598502965526736,"43":0.22264035017879016,"44":-0.006606547856508872,"45":-0.05265226292611107,"46":-0.17982715623732665,"47":-0.12076432340435564,"48":-0.10427320962992684,"49":-0.05115355616637449,"50":-0.21086991473874062,"51":-0.1414374458266518,"52":0.31109656528302376,"53":-0.04300126005044316,"54":-0.13105398949852182,"55":0.02335373821312808,"56":-0.05971858692757413,"57":-0.054776137085556224,"58":0.14695755739353503,"59":0.023357424059147952,"60":-0.05963191971157873,"61":-0.022849510624565552,"62":-0.1420960112156672,"63":0.20332289727935302,"64":-0.0512667143972001,"65":-0.08528916318459531,"66":-0.15732234760159083,"67":-0.11777391120938606,"68":-0.06020923443585642,"69":-0.02761102853385808,"70":-0.10169996872396823,"71":0.10363606792490393,"72":-0.08408187869771644,"73":-0.042419883338850016,"74":-0.3324190550522909,"75":-0.23899036867100643,"76":-0.15220916352936817,"77":-0.07745355203123858,"78":0.045694487633066765,"79":0.0006368963193561219,"80":-0.13193828689854054,"81":-0.010626342813267797,"82":-0.006780827472039383,"83":-0.14136391445230048,"84":0.05275939454868948,"85":-0.10984250287601137,"86":0.0968078768880456,"87":-0.020832294827990705,"88":0.006512503466071808,"89":-0.35576406262898086,"90":-0.18773972948775014,"91":0.21955741452870176,"92":0.008231996725448899,"93":-0.165572823604963,"94":0.014499905498582146,"95":-0.21423596507086884,"96":-0.004402930674349203,"97":-0.05918899950607948,"98":-0.06514716336607594,"99":-0.21466413724094377,"100":0.28906471171740944,"101":-0.14002373171541635,"102":0.06150398766159446,"103":-0.1835900125158619,"104":-0.042923571983298894,"105":-0.2053013009982729,"106":-0.26941766347475654,"107":-0.08580110948273949,"108":0.09226423915107804,"109":-0.08127288479151806,"110":0.004789664752971205,"111":-0.10976522308156723,"112":-0.21300803441084035,"113":-0.06311000247342669,"114":-0.1267728883636869,"115":-0.21282439260214123,"116":0.1384925216481824,"117":-0.05168393109266596,"118":0.016141890623456646,"119":-0.314136001705096,"120":-0.23950743863664514,"121":-0.06425147560461683,"122":0.08552648741002333,"123":0.07400433240547866,"124":0.08388705236571237,"125":-0.009533699708619696,"126":0.04384379416402902,"127":-0.1007826809377134,"128":-0.047562926483474266,"129":0.04886582126066518,"130":-0.21187576550367676,"131":-0.3946573388276719,"132":-0.0615811285323171,"133":0.05055613303480899,"134":-0.18496121240423422,"135":-0.23319929920985252,"136":0.023927661758780028,"137":-0.17085830820185666,"138":0.026506881074214582,"139":-0.011352709957046023,"140":-0.09634330029927975,"141":-0.016447512530072112,"142":-0.15707303013875498,"143":-0.1101289198825609,"144":-0.1333484624464977,"145":0.05625576516015509,"146":-0.2041669806617125,"147":0.14328143857807613,"148":-0.06922559581196086,"149":-0.006719560050135905,"150":-0.3461691395728783,"151":-0.09002616796693697,"152":-0.1488988578065872,"153":-0.18742865195559077,"154":-0.038233461414327055,"155":-0.11286308144004915,"156":-0.15192416163920697,"157":0.06050482615273017,"158":-0.27599784117699555,"159":-0.05949021534700395,"160":-0.06898905350460305,"161":-0.04816047493929331,"162":-0.09480175821674959,"163":-0.17407567061884915,"164":-0.14211781224224582,"165":-0.07685643967160875,"166":-0.07634646632258875,"167":-0.3596306319149853,"168":-0.005923848810837651,"169":-0.19912178369501746,"170":0.06622765037650591,"171":0.1205769059999379,"172":-0.10320851656263792,"173":0.021136137526352534,"174":0.19551514143074955,"175":-0.1313561520546936,"176":-0.07482827496480278,"177":-0.038022439247452806,"178":0.02875999029639568,"179":-0.17743227234894016,"180":-0.08468431762043516,"181":0.1015295988022737,"182":-0.14485757419259973,"183":-0.20398598944730525,"184":0.005100972677620279,"185":-0.34665080666634657,"186":-0.19166945393103843,"187":0.03600380715963028,"188":-0.0450730794476169,"189":0.021409497716237003,"190":0.04190747196984853,"191":-0.07129225939317577,"192":-0.15762199643622868,"193":-0.056585080049882754,"194":0.06087824739921457,"195":-0.2983197262953518,"196":0.22108864099509032,"197":-0.1930454735352381,"198":0.1154864359047686,"199":-0.36509701659207033,"200":-0.21917156050551037,"201":-0.1322607556827251,"202":-0.044760161442510785,"203":-0.09481421969534892,"204":0.08767314213469997,"205":0.21705451536670672,"206":0.39422143104281404,"207":-0.05887643449639438,"208":-0.051935826031162174,"209":0.006056170658371502,"210":-0.15719079477542158,"211":-0.2569133919534518,"212":-0.15829616529464624,"213":0.13476217930967402,"214":0.01866690383311883,"215":-0.27657291414687574,"216":0.0077990023592045725,"217":-0.00012927586790909102,"218":0.14994876047873784,"219":-0.15223044868042948,"220":0.06033770518568931,"221":0.14296399680341615,"222":-0.1835663372935319,"223":-0.07508862418551016,"224":0.0729611860384189,"225":-0.12321097414199085,"226":0.027590754906587946,"227":0.29237711535414157,"228":-0.17433678065330324,"229":0.10186684167673574,"230":-0.20108099339311059,"231":-0.0776261368024387,"232":-0.06361789495133786,"233":0.1664955412209914,"234":0.3026912639826651,"235":0.0335453019291323,"236":-0.03178782194746791,"237":0.08112037818288234,"238":-0.26308465124312436,"239":0.05099691723279314,"240":-0.04882375358885155,"241":0.011611007646706268,"242":-0.11660373686649611,"243":-0.056899455691845846,"244":-0.09826345608709781,"245":-0.05674577678520143,"246":-0.18889797694579818,"247":-0.1671236547651456,"248":-0.08067884280853346,"249":-0.20676256879178134,"250":0.17383334716387203,"251":-0.01749338926458854,"252":-0.11705316231641211,"253":-0.057730713124019756,"254":0.22149579156608404,"255":-0.13428551978525055,"256":-0.08898338349518604,"257":-0.07534642994192403,"258":0.2597837465443834,"259":-0.09788701587921968,"260":0.11095533085682568,"261":-0.08166934078150553,"262":-0.29084816341129677,"263":-0.15193743892950246,"264":-0.2307736442984237,"265":-0.28374714931062484,"266":-0.005941981930001917,"267":-0.04172367565914472,"268":0.010567509895098266,"269":-0.15884361013122442,"270":-0.17241720319042217,"271":-0.21154688251056322,"272":-0.04152831471050315,"273":-0.00896974467842727,"274":-0.0706005628457185,"275":-0.1512685308491673,"276":0.3704421450989792,"277":-0.061807420881697384,"278":-0.2761012189964898,"279":-0.07593192165970208,"280":-0.2606329841042402,"281":-0.16454566186952166,"282":-0.09610323282722631,"283":0.1328028653487389,"284":-0.04906855483708357,"285":0.052385769285914006,"286":-0.14939101073534475,"287":0.06734381989998763,"288":-0.049679025683992906,"289":-0.05939408731684344,"290":-0.031056878527471535,"291":-0.38019610287372935,"292":0.15158180637580343,"293":-0.34204556321757296,"294":-0.19766859839249173,"295":-0.04986693611205328,"296":0.045573452258371984,"297":-0.059044760721421,"298":-0.0011088777607445907,"299":0.01112728029236776,"300":-0.06767307853725614,"301":0.19439393457730877,"302":-0.0864645418237241,"303":-0.06902221716183213,"304":-0.0699166298917202,"305":-0.04496878015374844,"306":-0.14824806922298997,"307":-0.014305835109842025,"308":-0.019736529019528413,"309":-0.24122327679027095,"310":-0.10284903134503487,"311":-0.213235285140647,"312":0.024114668413252383,"313":-0.2731341231085379,"314":0.4578441055072496,"315":-0.03168169822325564,"316":0.1035012259085019,"317":0.12898557490430404,"318":-0.2416226813383179,"319":-0.03171431752878298,"320":-0.0984923043824506,"321":-0.1997188221808383,"322":0.08632566466603458,"323":-0.23340753563825775,"324":-0.04714956259616273,"325":0.10195315072638807,"326":-0.31030713756982414,"327":-0.37241174496497126,"328":-0.12849207631201837,"329":0.07195064738496136,"330":-0.07360789795213495,"331":-0.11403055277842596,"332":-0.04392648367133508,"333":0.10486457131081822,"334":-0.2830446717364135,"335":0.13805917632326353,"336":-0.05617742337255879,"337":-0.1077740796226119,"338":-0.10862431908316349,"339":-0.14781860436165864,"340":0.10924022823721595,"341":-0.2511966318293422,"342":-0.004213989196745432,"343":-0.09811990957244252,"344":-0.04693689564286275,"345":-0.40215058886870003,"346":-0.024261463743706645,"347":0.12066864573636951,"348":-0.021501987141117795,"349":0.003155872583955565,"350":-0.12007580997104313,"351":0.015737309191972058,"352":0.07309516460027136,"353":0.17109492202177534,"354":-0.3242148528421075,"355":-0.1366127107772798,"356":0.4710599215693967,"357":-0.11230333136132571,"358":0.0012381674457572483,"359":-0.4600585599139848,"360":0.02088628692997626,"361":-0.3381392836878185,"362":-0.21266177887746818,"363":0.0711060414745464,"364":-0.056111790574557084,"365":0.13017367814652206,"366":0.28378253582079965,"367":-0.05822199027424319,"368":0.1084335801991619,"369":0.03781364315869669,"370":-0.07072821987217921,"371":-0.35251004960846727,"372":0.20722017567870032,"373":0.44668250791702074,"374":0.02077552790180282,"375":-0.27204751847770625,"376":0.26026962930032727,"377":-0.19988588336669655,"378":-0.06738216134290623,"379":-0.21085542335190233,"380":0.09564805962246901,"381":0.3293902031849009,"382":-0.03217551029260452,"383":-0.10196188020080062,"384":0.055734499104758584,"385":0.022627965666389218,"386":0.0643103569901697,"387":-0.3938403943438503,"388":-0.04494126153614407,"389":0.2696357651161528,"390":-0.13256211155285705,"391":0.24552134892678953,"392":0.033162590642152476,"393":-0.2127448702652109,"394":0.7367172030914289,"395":-0.06234063755783323,"396":0.20070877363942963,"397":0.4421097058701592,"398":0.14599298679266204,"399":-0.06661980988337077}},{"sx":5,"sy":5,"depth":16,"w":{"0":-0.10982841831160055,"1":0.04486103290407041,"2":-0.24806199046734562,"3":-0.31704938658807236,"4":-0.12412414092249646,"5":-0.2104751144908892,"6":-0.14000485311749192,"7":-0.4352305862541442,"8":-0.036294256432218834,"9":-0.16376278655824694,"10":-0.07279970310210804,"11":-0.22685899411761054,"12":-0.10433495069620863,"13":0.07900061394060084,"14":-0.2275230135660123,"15":-0.07404016482564302,"16":-0.08306822219215983,"17":-0.09023584661703726,"18":-0.09365218173865952,"19":-0.36623420345492474,"20":-0.24742629590201964,"21":-0.11830362200150439,"22":-0.2011716047977708,"23":0.009867829948241274,"24":0.01352525071534971,"25":-0.23876306376888645,"26":-0.03530226393103128,"27":-0.08701504118294538,"28":-0.17219181707182746,"29":0.1543390954516302,"30":-0.1883152533698186,"31":-0.15027188766610358,"32":-0.15604210521101933,"33":-0.00015636057193323645,"34":-0.11553626963753356,"35":-0.23268892740396194,"36":-0.13403631538411873,"37":-0.09544441440159866,"38":-0.05928152258850563,"39":-0.18568686440057275,"40":0.04166161694448481,"41":-0.11719349936981374,"42":-0.36033083864767274,"43":-0.1243391577090358,"44":-0.053004297599465997,"45":-0.0018764067947453589,"46":-0.17915360846371553,"47":-0.25018676070990487,"48":-0.08620272592981794,"49":-0.04696171954351594,"50":-0.1104074042510643,"51":-0.28834695552818684,"52":0.0025545526057604603,"53":-0.1201009299777338,"54":-0.12843988495464745,"55":-0.1307885096986777,"56":-0.06782249199422853,"57":-0.11027841696237727,"58":-0.3540416559602967,"59":0.1737190631664296,"60":0.0847179000034191,"61":-0.06168472985416554,"62":0.010505104545166923,"63":-0.07739377380309763,"64":0.025975789976990175,"65":0.010665853757465728,"66":-0.22455835580129102,"67":-0.20650208721356347,"68":-0.2743284855826213,"69":0.06271139044309812,"70":-0.22959951180315502,"71":-0.2144996633888634,"72":-0.1453174022164293,"73":-0.19029837909292405,"74":-0.4264588078159467,"75":-0.06749582859817424,"76":0.03950555693766714,"77":-0.07737846961107112,"78":0.12619854813193387,"79":-0.014672464465704587,"80":-0.026309554768282586,"81":-0.06237464194630009,"82":-0.23720497450678035,"83":-0.5398865790542718,"84":-0.29665036157013874,"85":0.1011132554364179,"86":0.007475526726388629,"87":-0.3596638529245533,"88":-0.20749710178841496,"89":-0.1220457569072176,"90":-0.3944996236759626,"91":-0.11401781197063497,"92":-0.032250313544634604,"93":0.06529971040564991,"94":-0.2418877879763017,"95":-0.008780382662495746,"96":-0.14547884365942348,"97":-0.07225552260752054,"98":-0.17544782917695698,"99":-0.3703012137132831,"100":-0.2431768358461833,"101":0.07657550303153524,"102":0.04861268325424462,"103":-0.47526144361988043,"104":-0.2011179914570221,"105":-0.08715185901081972,"106":-0.28786629653773577,"107":-0.1269251143791613,"108":-0.16076656335129935,"109":0.08437164534757158,"110":-0.018323713107310804,"111":-0.1139309705901702,"112":-0.12214016478588938,"113":0.00832327478629688,"114":-0.4490747115784433,"115":-0.364140684911955,"116":-0.33022934052018227,"117":-0.14385252582735233,"118":0.0072675740849805015,"119":-0.6238518982619411,"120":-0.23404701194932578,"121":-0.5295047590819415,"122":-0.32180264391806007,"123":-0.08493001563026074,"124":-0.16238657521760033,"125":0.09076721174933396,"126":-0.020796988043058545,"127":-0.1494023986748134,"128":-0.1025470601948681,"129":0.03639672240387329,"130":-0.3968433961979587,"131":-0.27002793683470727,"132":-0.07822994220630251,"133":-0.23767293900216618,"134":-0.0009441180659455888,"135":-0.6192258873607902,"136":-0.14105837571813923,"137":-0.35947783069268385,"138":-0.4723893406154556,"139":-0.08220740731301708,"140":-0.056861041863382734,"141":-0.036921718167653196,"142":-0.1536841733426563,"143":-0.13322643259627173,"144":0.18321384980650837,"145":-0.1451997278266888,"146":-0.3738806167899147,"147":-0.3668303707004427,"148":-0.34202620705124037,"149":-0.09578747075450009,"150":0.049259269174268656,"151":-0.2819217421431343,"152":-0.07423263949175432,"153":-0.2998398623652929,"154":-0.5470213640443702,"155":-0.04804407478400862,"156":-0.05282699499873685,"157":0.030621833427268815,"158":-0.08403366707737214,"159":-0.09450988418436884,"160":-0.01976469117763293,"161":-0.09838268999338307,"162":-0.12670702373070977,"163":0.5228467038298292,"164":0.17010755022126597,"165":-0.3195627336669457,"166":0.09115535978224473,"167":-0.5902536958332049,"168":-0.26680887971858624,"169":-0.23150066977582193,"170":-0.18414027409352926,"171":0.09855456176379454,"172":0.07293973929925643,"173":-0.07313118925179805,"174":-0.06911365819728636,"175":-0.09331822559745831,"176":-0.18473134735197697,"177":-0.2885628592009603,"178":-0.39304840800377644,"179":-0.44495127807610707,"180":0.7462785670623717,"181":0.012996344904262696,"182":-0.3502010236969939,"183":-0.7203512462500962,"184":-0.15456436860233985,"185":-0.42711157152102863,"186":-0.31223677607928846,"187":0.005662072094205181,"188":-0.06998698819093127,"189":0.12062023655330445,"190":-0.08353123155818468,"191":-0.23199766204386327,"192":-0.20500609327691086,"193":-0.12353654040668802,"194":-0.6177100047118252,"195":-0.23652527525369027,"196":1.2508029322049357,"197":0.036360483342808676,"198":-0.3434694943908384,"199":-0.6722082451543085,"200":-0.11296278105030165,"201":-0.37164396989409454,"202":0.23048201753141717,"203":-0.041144399312539624,"204":-0.13552894449560066,"205":0.027622267887532796,"206":-0.025930565910980585,"207":-0.10112811071212738,"208":-0.010057867722343577,"209":0.19765383211991017,"210":-0.4415728214576081,"211":-0.12479184284152016,"212":0.64603927857731,"213":0.1663516937925734,"214":-0.220903171603451,"215":-0.7867180164773858,"216":-0.13993020547760593,"217":-0.34727113825900113,"218":0.5861951627428108,"219":0.19675095565816525,"220":-0.09372128783755766,"221":-0.0818626799078047,"222":0.12902374482380924,"223":-0.0641704801507806,"224":0.29908796122841075,"225":0.20423550827582043,"226":-0.4053448565970303,"227":-0.11702374456863082,"228":-0.24155604769697528,"229":0.21104891266893677,"230":-0.24854776740557116,"231":-0.7669337345677522,"232":0.10920139677440757,"233":-0.06934997577494494,"234":0.7818325106405611,"235":0.07309349220786733,"236":0.05068945247692187,"237":-0.28097843974011993,"238":0.24111092401989093,"239":-0.09825262752505516,"240":-0.025253758588862064,"241":-0.15921030556531876,"242":-0.0022434238112424908,"243":0.056484853341427235,"244":-0.5737051306428894,"245":0.28326062357002235,"246":0.7605412201317923,"247":-0.40485525624616703,"248":-0.13471645886918154,"249":-0.316154306225797,"250":0.13674736664436188,"251":0.6216415546799051,"252":0.40008149135946386,"253":0.02077447950798745,"254":0.4413479862415633,"255":-0.26923424557664893,"256":-0.12936918763706248,"257":-0.242906230851707,"258":-0.4195312676831839,"259":-0.48851314268154183,"260":-0.4977921395443244,"261":-0.35051894795612276,"262":-0.2192654980613651,"263":-0.6418008893951671,"264":-0.11178322152133234,"265":-0.2151144404088002,"266":-0.21287635632977323,"267":-0.1260777781229535,"268":-0.18653797826876597,"269":-0.1260439845955639,"270":-0.48318554903141897,"271":-0.39102749887342136,"272":-0.17506983051202202,"273":-0.10390624876275817,"274":-0.4427886511767054,"275":-0.22734192874547668,"276":0.06227351402619757,"277":-0.2611528610047132,"278":-0.4444921317600473,"279":-0.6190920243914414,"280":-0.21501442954161287,"281":-0.4990763544542381,"282":-0.011377079177492562,"283":-0.036186673732524044,"284":-0.21417686286891427,"285":-0.06888223710461125,"286":-0.38020884511821784,"287":-0.06494374933105776,"288":-0.05887676778734581,"289":0.04632882665723967,"290":-0.41540015338822545,"291":-0.12876064474509463,"292":-0.034108878498298474,"293":-0.5694278375039123,"294":-0.30651945698047717,"295":-0.6331131210443797,"296":-0.30970477562284576,"297":-0.38235931961233965,"298":0.18882740413038812,"299":-0.23387911309864795,"300":-0.1256050466223587,"301":-0.26312159907521504,"302":-0.3432430665726106,"303":-0.0734034528461834,"304":-0.09642222627777956,"305":0.09740161585015003,"306":-0.47241039788073635,"307":0.0015038620895594956,"308":-0.0016251128432606162,"309":-0.7426445427628406,"310":-0.3011840689491499,"311":-0.16499034889943628,"312":-0.28866069308548137,"313":-0.3074728228235595,"314":0.013386251073081293,"315":-0.19805418417554863,"316":0.5216050512541568,"317":-0.5338282300122789,"318":-0.3301493907486614,"319":-0.036573993875269425,"320":0.5400751678415799,"321":0.04269918349157894,"322":0.03289098294119572,"323":-0.05852083457537922,"324":-0.5505326770663492,"325":0.21182240004821817,"326":-0.16074254954736325,"327":-0.0691089992835781,"328":0.42637376961974127,"329":-0.1745905515744191,"330":-0.5169795025812741,"331":0.013784684528845603,"332":-0.13882314580019595,"333":0.25429659759561,"334":0.3359841318321285,"335":0.36780644742044427,"336":-0.14166717127729592,"337":0.1731241191660637,"338":0.04638953318428488,"339":-0.4939504927922055,"340":-0.4175032378156173,"341":-0.030568249281629732,"342":-0.12313714266886776,"343":-0.32501949657683465,"344":0.05289476488696434,"345":-0.14192342756458598,"346":-0.24538257885988604,"347":0.11983214481738019,"348":-0.054221872895715555,"349":-0.005715038824690365,"350":-0.5030369812553861,"351":-0.10825048674520413,"352":-0.23590133690862436,"353":0.019470841917173944,"354":-0.3310276881933967,"355":-0.4175259480597024,"356":-0.07704761645934062,"357":-0.1465305546813904,"358":-0.3098912855107667,"359":-0.5852224013942253,"360":-0.16441854650153417,"361":-0.3240279719833273,"362":-0.08512759652759726,"363":-0.10325285563538016,"364":-0.18757520376272757,"365":-0.09526920066284987,"366":-0.46693178740587915,"367":-0.11920766564299572,"368":-0.1783972793067466,"369":0.0009429625045443099,"370":-0.0442310679693187,"371":-0.09825994292215895,"372":-0.030535591436257416,"373":-0.3515215551491314,"374":-0.26181071054691446,"375":-0.6196485509146856,"376":-0.3219031616382538,"377":-0.13004222399938423,"378":0.05349067101577493,"379":-0.05934498585602028,"380":-0.07644970363481926,"381":-0.16762856756020128,"382":-0.24231417662022103,"383":-0.14321989925082151,"384":-0.0938582251944841,"385":0.05933061880546492,"386":0.2720840233266162,"387":-0.38090039796742653,"388":0.16629753004338205,"389":-0.32665265332880933,"390":-0.33088579886954944,"391":-0.14429809464883261,"392":-0.3314948050319556,"393":0.16022925035203098,"394":-0.2939327135232967,"395":-0.22030696365077432,"396":0.37815031822470846,"397":-0.13565460549730643,"398":-0.18229426015603648,"399":0.009696338046106028}},{"sx":5,"sy":5,"depth":16,"w":{"0":0.1662194237081168,"1":0.09913044822813971,"2":-0.2500215965376646,"3":0.03137376382741836,"4":-0.16609478897874458,"5":0.007424777509354165,"6":0.24794293540579085,"7":-0.2567993930738591,"8":0.08920986777558197,"9":-0.05491048357080126,"10":-0.44951497666251633,"11":0.09798863957332254,"12":-0.19024367662748123,"13":0.07163832630799344,"14":-0.0457558999521475,"15":0.19513813143305775,"16":0.01990566262955559,"17":-0.04057196411321376,"18":-0.24684250629238047,"19":-0.2338348781012696,"20":0.21653438144324627,"21":-0.2848331359158181,"22":-0.24354296934890377,"23":0.566739565375578,"24":0.3023310934106939,"25":0.44600044106949066,"26":-0.6559050911701446,"27":0.050459529820430865,"28":-0.18362808090807076,"29":0.04124121133589205,"30":-0.19528775919772223,"31":0.013203366068845616,"32":-0.15518044231415418,"33":0.04500860960533319,"34":0.1588205425471712,"35":-0.6022924545968092,"36":-0.2593448191241329,"37":-0.4492792716319954,"38":-0.0004851334304429947,"39":0.1653036446570646,"40":-0.1948544646722699,"41":0.7315677449813928,"42":-0.006775444778306232,"43":0.16958460532849476,"44":-0.19599935992032172,"45":-0.030563312109332396,"46":-0.25105054213776035,"47":-0.06557001153899249,"48":-0.2094362443738399,"49":-0.24839706209514406,"50":0.11429478448113795,"51":-0.4093567066013361,"52":-0.456617606829851,"53":-0.1802939961426763,"54":-0.6047027389301046,"55":0.11830774968724685,"56":-0.22224429954237407,"57":-0.2625262605359654,"58":-0.17769261754855004,"59":-0.18834265196550984,"60":-0.12031486577976701,"61":0.12669731044167873,"62":-0.28220329461549126,"63":-0.14989334575194505,"64":-0.08457443650527458,"65":0.17105587707242526,"66":0.3207998478787142,"67":-0.08537358257541819,"68":0.4806030461486873,"69":0.004289164864586504,"70":0.03256556182405746,"71":-0.04627911181665365,"72":-0.15867217095224645,"73":0.08721335772044712,"74":0.2450617143340233,"75":0.004667116015584943,"76":-0.17380099679344158,"77":-0.16599850324722998,"78":-0.05825563000453908,"79":0.06689371340673562,"80":0.21241423669021708,"81":0.04434063670370403,"82":0.12713118352852507,"83":-0.049655168318430115,"84":-0.1662992987299149,"85":-0.1486555189901038,"86":0.05887961246281418,"87":0.03240951247543126,"88":-0.29448675459224033,"89":0.32964540004696696,"90":-0.2089404979808948,"91":-0.37383381437191626,"92":-0.174843618660588,"93":0.05623639719822626,"94":0.14512877647167796,"95":-0.20750505591148513,"96":0.12010342126889119,"97":-0.012447055970017886,"98":-0.058606261722706436,"99":-0.07186446064478844,"100":-0.06085331830467603,"101":-0.467605014399172,"102":-0.3063343823502906,"103":-0.28612335971930597,"104":-0.16397042414114088,"105":0.08917073292123678,"106":-0.2821223162380537,"107":-0.08857929886403465,"108":-0.2498893645734907,"109":0.08844487076757196,"110":-0.04869856703914613,"111":0.23331603303658,"112":-0.12521827591652954,"113":0.025317337805668017,"114":0.13411423244670068,"115":-0.24922104936989742,"116":-0.04826121276324574,"117":-0.3855965408405471,"118":0.133432910828269,"119":-0.08310883419246863,"120":-0.05965925126197975,"121":0.10028976536898773,"122":-0.018475160360731376,"123":-0.03625699543772288,"124":-0.14165648968690997,"125":0.11826720359384628,"126":-0.26441606457738437,"127":-0.14058698674993717,"128":-0.0004621333888175426,"129":-0.0531687100204016,"130":0.11302850886934165,"131":-0.3010389209582974,"132":-0.04487721980071179,"133":-0.42673100275666226,"134":-0.1132112749673728,"135":0.20349576475119538,"136":-0.0677908350655697,"137":0.2513889023677634,"138":0.20009361337452142,"139":0.0046956156472263725,"140":0.09026183177253384,"141":0.08426486865149621,"142":-0.38938359602625555,"143":-0.20210751263468246,"144":-0.24726470906807915,"145":-0.1509705096061592,"146":0.051572882990163216,"147":-0.45539360788460775,"148":0.6200449496617255,"149":-0.1996192628619691,"150":0.2442659550747228,"151":-0.588786135733969,"152":-0.1917428523176901,"153":-0.12951037654009853,"154":0.044115627213426746,"155":0.02901426489885433,"156":-0.1620406047818952,"157":0.03025333909861561,"158":0.10873154079179205,"159":-0.0807880576020874,"160":0.2524779599157741,"161":0.21570106133002018,"162":0.22549814484619993,"163":-0.2650702273995218,"164":-0.20915558435825182,"165":0.19461298291503717,"166":-0.3484643967275559,"167":0.12236994876592171,"168":-0.024822775552820347,"169":-0.6115328170309452,"170":-0.1315748982874714,"171":-0.13446319014307376,"172":-0.015174570762708998,"173":-0.0015887821261043706,"174":-0.06281030501906013,"175":-0.10093159603946236,"176":0.08457980152234512,"177":-0.005509779676982539,"178":-0.20023663293129942,"179":-0.3708357917019639,"180":-0.4080709259694356,"181":-0.018515173841795095,"182":-0.3385010031426259,"183":0.009750825437364006,"184":-0.37671208283571694,"185":-0.26663543845230064,"186":0.36613858561365425,"187":0.2202330809870879,"188":0.08885954437249784,"189":0.04318761565565544,"190":-0.1447500445547334,"191":-0.051415136630410675,"192":-0.1373505385155993,"193":-0.12067605254888654,"194":-0.1986935050959712,"195":-0.4188915339291108,"196":-0.21592613476314781,"197":0.5756106130668354,"198":-0.22469779730369643,"199":-0.32922927280636693,"200":0.25010475138665916,"201":0.03752776419935216,"202":0.7926462651909734,